%YAML:1.0
---
opencv_ml_knn:
   format: 3
   is_classifier: 1
   default_k: 1
   samples: !!opencv-matrix
      rows: 30
      cols: 100
      dt: f
      data: [ 4.65690950e-03, 2.68009882e-02, 6.65272772e-03,
          6.93784468e-03, 4.65690950e-03, 3.23132472e-03, 1.28302602e-02,
          1.43508837e-02, 0., 2.85116909e-03, 0., 3.12678181e-02,
          5.98745467e-03, 1.14046759e-03, 1.90077932e-03, 2.00532209e-02,
          1.31153772e-02, 8.07831250e-03, 2.17639226e-02, 0.,
          1.55863902e-02, 8.07831250e-03, 1.55863902e-02, 2.81315334e-02,
          6.84280554e-03, 3.51644168e-03, 2.52803657e-02, 2.74662618e-02,
          3.43090668e-02, 7.98327290e-03, 1.22600263e-02, 1.39707280e-02,
          9.50389658e-05, 8.55350692e-04, 1.32104158e-02, 6.93784468e-03,
          6.65272761e-04, 1.33054552e-03, 6.93784468e-03, 2.84166504e-02,
          4.27675340e-03, 2.18589627e-03, 1.50161562e-02, 1.52062345e-03,
          1.52062345e-03, 4.34328057e-02, 5.33168614e-02, 5.60729904e-03,
          2.37597413e-02, 7.88823422e-03, 1.04542859e-02, 2.56605214e-03,
          1.14997150e-02, 0., 9.21877939e-03, 4.37179254e-03,
          1.29252989e-02, 2.28093527e-02, 1.61566236e-03, 1.28302602e-02,
          9.59893595e-03, 8.64854548e-03, 2.53754035e-02, 8.74358509e-03,
          5.41722123e-03, 9.69397463e-03, 2.85116909e-03, 9.59893595e-03,
          1.23550659e-02, 1.71070138e-03, 4.65690950e-03, 2.66109104e-03,
          0., 1.42558455e-03, 8.45846813e-03, 2.09085736e-03,
          3.80155863e-04, 2.37597409e-03, 1.44459233e-02, 9.78901330e-03,
          8.55350692e-04, 1.14046764e-02, 2.47101299e-03, 1.07394028e-02,
          5.51225990e-03, 9.12374072e-03, 4.75194817e-03, 1.45409619e-02,
          7.79319508e-03, 3.18380520e-02, 1.05493255e-02, 4.65690950e-03,
          5.22714294e-03, 9.50389635e-03, 5.22714294e-03, 1.91028323e-02,
          9.31381900e-03, 5.98745467e-03, 3.80155863e-04, 1.90077932e-04,
          2.42340309e-03, 2.66574342e-02, 3.07252910e-02, 6.05850772e-04,
          6.92400907e-04, 1.10784145e-02, 2.07720269e-02, 2.59650336e-03,
          5.71230752e-03, 1.41942184e-02, 0., 1.76562238e-02,
          3.33217941e-02, 4.32750559e-04, 1.54924700e-02, 3.02059893e-02,
          8.65501119e-04, 6.75090868e-03, 1.23766661e-02, 0.,
          8.22226051e-03, 5.19300671e-03, 1.55790208e-03, 3.15042399e-02,
          2.16375291e-03, 1.73100224e-03, 3.95534001e-02, 3.80820502e-03,
          5.10645658e-03, 5.62575739e-03, 4.32750583e-03, 2.42340309e-03,
          1.23766661e-02, 1.07322140e-02, 8.30881111e-03, 9.78016295e-03,
          1.73100227e-04, 9.08776186e-03, 1.03860134e-02, 4.03323546e-02,
          2.07720278e-03, 5.79885766e-03, 2.22433787e-02, 6.23160833e-03,
          3.46200453e-04, 2.76960363e-03, 2.04258263e-02, 1.22901164e-02,
          1.04725640e-02, 8.65501119e-04, 5.71230752e-03, 1.73100227e-04,
          2.44071316e-02, 1.73100224e-03, 7.18365936e-03, 5.36610698e-03,
          6.57780841e-03, 4.58715623e-03, 6.05850772e-04, 2.59650347e-04,
          5.62575739e-03, 1.38480179e-02, 1.18573653e-02, 6.40470861e-03,
          5.53920725e-03, 9.60706268e-03, 6.05850772e-04, 0.,
          3.38410959e-02, 9.60706268e-03, 4.32750559e-04, 3.02925389e-02,
          0., 1.47135195e-03, 7.78951042e-04, 1.03860139e-03,
          5.19300695e-04, 1.55790208e-03, 1.03860139e-03, 4.32750583e-02,
          0., 4.50060610e-03, 2.14644279e-02, 3.98130529e-03,
          6.31815847e-03, 3.15042399e-02, 4.32750583e-03, 1.12515152e-03,
          3.89475515e-03, 1.94737762e-02, 2.78691370e-02, 8.91466159e-03,
          3.28890420e-03, 1.29825168e-03, 3.72165488e-03, 2.68305354e-02,
          4.06785542e-03, 2.07720269e-02, 4.32750559e-04, 4.37943563e-02,
          1.33928573e-02, 1.03794644e-02, 6.36160700e-03, 2.55580358e-02,
          1.00446434e-03, 1.11607148e-03, 7.70089310e-03, 9.70982108e-03,
          2.28794646e-02, 1.33928575e-03, 4.41964306e-02, 1.33928573e-02,
          1.13839284e-02, 3.01339291e-03, 3.34821438e-04, 8.37053545e-03,
          2.08705366e-02, 1.38392858e-02, 8.37053545e-03, 2.67857150e-03,
          1.43973213e-02, 5.35714300e-03, 1.01562496e-02, 1.30580356e-02,
          6.36160700e-03, 1.93080362e-02, 2.05357149e-02, 7.36607146e-03,
          1.01562496e-02, 6.91964291e-03, 9.26339254e-03, 2.02008933e-02,
          6.69642875e-04, 1.45089289e-03, 1.00446427e-02, 7.70089310e-03,
          2.13169642e-02, 4.46428574e-04, 1.22767861e-03, 2.31026784e-02,
          1.71875004e-02, 6.25000009e-03, 4.46428591e-03, 2.00892868e-03,
          4.46428574e-04, 7.47767882e-03, 8.70535709e-03, 8.48214328e-03,
          1.39508927e-02, 1.31696425e-02, 1.30580356e-02, 2.79017864e-03,
          2.28794646e-02, 0., 7.25446455e-03, 1.25000002e-02,
          1.54017862e-02, 1.03794644e-02, 5.02232136e-03, 6.69642864e-03,
          5.58035728e-03, 3.50446440e-02, 7.36607146e-03, 1.51785715e-02,
          3.34821432e-03, 4.57589282e-03, 1.32812504e-02, 2.84598209e-02,
          4.12946427e-03, 4.57589282e-03, 3.01339291e-03, 8.92857183e-03,
          2.23214287e-04, 2.79017864e-03, 1.78571430e-03, 1.93080362e-02,
          5.58035739e-04, 3.01339291e-03, 1.27232140e-02, 1.22767854e-02,
          1.00446434e-03, 7.36607146e-03, 1.11607146e-02, 2.65625007e-02,
          7.03124981e-03, 3.34821432e-03, 7.58928573e-03, 6.25000009e-03,
          6.25000009e-03, 2.70089284e-02, 1.30580356e-02, 1.58482138e-02,
          7.92410690e-03, 7.81250012e-04, 8.70535709e-03, 1.52901784e-02,
          1.09374998e-02, 2.44419649e-02, 2.23214287e-04, 0.,
          1.25313282e-03, 3.04607674e-02, 8.96471925e-03, 1.47484094e-02,
          3.85579333e-04, 8.38635024e-03, 2.94968188e-02, 6.74763811e-04,
          5.11856563e-02, 9.44669358e-03, 4.53055725e-02, 2.33275499e-02,
          1.06998263e-02, 1.92789666e-04, 1.08926166e-02, 3.27742435e-02,
          8.28995556e-03, 2.02429155e-03, 2.39059180e-02, 0.,
          4.33776760e-03, 6.65124366e-03, 4.81974159e-04, 3.05571631e-02,
          2.31347606e-03, 7.71158666e-04, 5.07036820e-02, 3.47021408e-03,
          2.21708114e-03, 6.07287465e-03, 4.91613662e-03, 2.79545016e-03,
          1.54231733e-03, 3.85579333e-04, 3.08463466e-03, 5.30171581e-03,
          9.63948332e-05, 3.75939859e-03, 4.91613662e-03, 5.76441102e-02,
          4.72334679e-03, 4.81974159e-04, 1.36880660e-02, 2.40987074e-03,
          9.63948318e-04, 2.89184507e-03, 1.59051474e-02, 4.62695211e-03,
          1.72546748e-02, 2.60266056e-03, 2.69905524e-03, 6.74763811e-04,
          2.02429146e-02, 0., 7.32600736e-03, 4.33776760e-03,
          2.79545016e-03, 1.34952762e-03, 2.21708114e-03, 9.63948332e-05,
          4.43416229e-03, 3.55696939e-02, 1.08926166e-02, 6.55484851e-03,
          5.30171581e-03, 3.85579327e-03, 3.95218795e-03, 7.32600736e-03,
          2.86292657e-02, 1.06034311e-03, 9.63948318e-04, 1.20493546e-02,
          0., 4.04858310e-03, 1.34952762e-03, 1.39772510e-02,
          1.06034311e-03, 8.67553521e-04, 2.21708114e-03, 3.09427418e-02,
          9.63948332e-05, 5.01253130e-03, 1.26277227e-02, 1.83150184e-03,
          7.03682285e-03, 1.61943324e-02, 4.04858310e-03, 6.74763811e-04,
          8.67553521e-04, 3.45093496e-02, 8.67553521e-03, 1.49411988e-02,
          1.44592253e-03, 1.92789666e-04, 6.55484851e-03, 2.95932144e-02,
          3.66300368e-03, 2.54482366e-02, 4.81974159e-04, 3.93290929e-02,
          5.51673409e-04, 2.98823100e-02, 3.77896279e-02, 2.11474812e-03,
          5.51673409e-04, 0., 3.13534401e-02, 4.22949623e-03, 0., 0.,
          9.19455706e-05, 2.96984185e-02, 4.14674506e-02, 1.83891141e-04,
          0., 3.82493585e-02, 3.49393161e-03, 5.24089765e-03,
          3.32842954e-02, 0., 3.58587736e-03, 4.04560519e-03,
          4.78116982e-03, 3.06178741e-02, 2.48253043e-03, 1.37918361e-03,
          3.36520784e-02, 6.43618987e-04, 4.04560519e-03, 3.40198609e-03,
          8.09121039e-03, 6.06840756e-03, 4.96506086e-03, 6.25229860e-03,
          5.14895190e-03, 4.13755048e-03, 0., 0., 1.38837816e-02,
          6.28907681e-02, 3.76976840e-03, 3.67782288e-03, 1.41596179e-02,
          7.35564565e-04, 8.27510143e-04, 1.39757264e-02, 3.08017656e-02,
          9.56233963e-03, 2.73997802e-02, 1.83891144e-03, 6.25229860e-03,
          2.39058491e-03, 1.89407878e-02, 9.19455706e-05, 6.34424435e-03,
          1.47112913e-03, 5.14895190e-03, 2.48253043e-03, 3.21809505e-03,
          3.58587736e-03, 1.74696581e-03, 1.89407878e-02, 1.25965429e-02,
          3.95365944e-03, 7.17175473e-03, 1.05737410e-02, 1.01140130e-03,
          1.01140130e-03, 3.11695486e-02, 4.32144199e-03, 8.27510143e-04,
          2.62964331e-02, 9.19455706e-05, 2.11474812e-03, 5.51673409e-04,
          2.48253043e-03, 2.75836705e-04, 2.11474812e-03, 4.50533303e-03,
          2.05958076e-02, 0., 6.43619010e-03, 2.93306373e-02,
          6.89591793e-03, 1.01140132e-02, 1.82971694e-02, 2.20669364e-03,
          3.40198609e-03, 1.65502029e-03, 3.88929769e-02, 2.36300118e-02,
          1.34240529e-02, 2.94225826e-03, 1.74696581e-03, 5.05700661e-03,
          3.86171378e-02, 6.98786322e-03, 2.23427732e-02, 7.35564565e-04,
          0., 1.76339280e-02, 7.25446455e-03, 1.23883933e-02,
          4.35267854e-03, 3.68303573e-03, 1.64062493e-02, 7.81250000e-03,
          8.92857183e-03, 4.05133925e-02, 2.07589287e-02, 1.11607143e-04,
          5.58035728e-03, 1.60714295e-02, 7.03124981e-03, 1.64062493e-02,
          1.23883933e-02, 9.70982108e-03, 2.68973224e-02, 9.59821418e-03,
          4.46428574e-04, 1.80803575e-02, 1.06026782e-02, 6.69642864e-03,
          7.92410690e-03, 9.37500037e-03, 1.21651785e-02, 7.81250000e-03,
          9.93303582e-03, 4.35267854e-03, 1.01562496e-02, 3.01339291e-03,
          7.03124981e-03, 1.84151791e-02, 8.48214328e-03, 1.21651785e-02,
          5.80357155e-03, 9.94419679e-02, 1.08258929e-02, 1.22767854e-02,
          8.70535709e-03, 2.56696437e-02, 4.46428591e-03, 2.34375009e-03,
          1.67410716e-03, 5.24553563e-03, 5.58035728e-03, 7.81250000e-03,
          1.33928573e-02, 1.68526787e-02, 8.92857183e-03, 1.07142860e-02,
          2.56696437e-03, 2.10937504e-02, 6.80803554e-03, 8.25892854e-03,
          1.71875004e-02, 4.24107164e-03, 2.34375000e-02, 2.00892868e-03,
          4.35267854e-03, 6.13839272e-03, 9.82142892e-03, 1.08258929e-02,
          7.03124981e-03, 1.19419647e-02, 8.14732164e-03, 3.34821432e-03,
          3.34821438e-04, 6.58482127e-03, 1.14955362e-02, 1.45089289e-03,
          7.14285718e-03, 3.34821438e-04, 3.79464286e-03, 4.46428574e-04,
          8.92857148e-04, 7.81250012e-04, 8.92857148e-04, 2.23214296e-03,
          2.79017864e-03, 2.23214296e-03, 1.07142860e-02, 3.45982146e-03,
          8.70535709e-03, 1.84151791e-02, 3.34821438e-04, 1.01562496e-02,
          4.12946427e-03, 1.11607146e-02, 3.68303573e-03, 1.36160711e-02,
          7.03124981e-03, 9.48660728e-03, 3.79464286e-03, 2.45535723e-03,
          8.25892854e-03, 5.13392873e-03, 9.59821418e-03, 1.43973213e-02,
          3.69419642e-02, 2.63062399e-03, 1.54208997e-03, 1.72351226e-02,
          1.15203196e-02, 2.44920165e-03, 1.04317851e-02, 3.90058057e-03,
          1.66001450e-02, 1.02685049e-01, 2.90275761e-03, 4.26342525e-02,
          5.35195926e-03, 2.19521038e-02, 1.28809866e-02, 1.53301889e-02,
          8.61756131e-03, 5.80551522e-03, 7.71044986e-03, 1.24274306e-02,
          4.79862131e-02, 7.16618262e-03, 5.53338183e-03, 2.17706827e-03,
          1.45137880e-03, 4.80769249e-03, 8.25471710e-03, 7.16618262e-03,
          6.34978246e-03, 6.07764861e-03, 5.17053716e-03, 5.62409265e-03,
          4.80769249e-03, 2.58526858e-02, 1.61465891e-02, 8.43613967e-03,
          2.26777932e-03, 1.81422351e-04, 2.99346889e-03, 4.80769249e-03,
          1.01596517e-02, 1.99564593e-03, 1.54208997e-03, 7.98258372e-03,
          2.81204632e-03, 1.37880985e-02, 4.17271396e-03, 1.54208997e-02,
          1.07039185e-02, 1.24274306e-02, 3.80986929e-03, 3.08417995e-03,
          2.53991294e-03, 1.69629902e-02, 4.27249633e-02, 3.17489123e-03,
          3.62844695e-03, 1.72351231e-03, 1.28809866e-02, 1.10667637e-02,
          1.17924530e-03, 8.88969563e-03, 1.45137878e-02, 1.36066764e-03,
          3.80986929e-03, 6.80333795e-03, 3.99129186e-03, 1.36066764e-03,
          1.81422348e-03, 9.79680661e-03, 6.89404923e-03, 1.17924530e-03,
          7.61973858e-03, 3.62844695e-03, 3.17489123e-03, 8.61756131e-03,
          3.18396240e-02, 7.98258372e-03, 6.62191585e-03, 1.17924530e-02,
          5.62409265e-03, 6.53120456e-03, 3.80986929e-03, 1.72351231e-03,
          9.07111738e-04, 4.80769249e-03, 6.44049328e-03, 4.26342525e-03,
          1.50580555e-02, 2.08635698e-03, 1.81422348e-03, 2.00471692e-02,
          2.64876634e-02, 1.72351231e-03, 1.84143689e-02, 2.53991294e-03,
          9.79680661e-03, 3.26560228e-03, 1.59651674e-02, 8.61756131e-03,
          3.67380269e-02, 2.99265347e-02, 4.53759730e-03, 6.91443402e-03,
          0., 0., 1.84745025e-02, 2.70095072e-03, 5.61797759e-03,
          5.72601566e-03, 1.55574763e-02, 1.08038032e-04, 6.80639595e-03,
          1.29645634e-02, 4.64563537e-03, 1.38288680e-02, 6.48228172e-03,
          5.07778767e-03, 2.97104586e-02, 3.88936908e-03, 2.16076063e-04,
          8.96715652e-03, 1.10198790e-02, 2.50648241e-02, 5.29386336e-03,
          1.40449442e-02, 8.31892807e-03, 5.94209181e-03, 9.50734690e-03,
          1.72860851e-03, 3.25194485e-02, 3.99740739e-03, 3.34917894e-03,
          2.29040626e-02, 7.99481478e-03, 9.07519460e-03, 9.72342305e-03,
          6.15816796e-03, 1.80423521e-02, 3.68409678e-02, 3.67329316e-03,
          1.98789984e-02, 1.68539323e-02, 8.64304253e-04, 1.51253240e-02,
          7.13051017e-03, 9.72342270e-04, 5.40190144e-04, 2.52809003e-02,
          5.61797759e-03, 1.35047538e-02, 6.37424365e-03, 2.80898879e-03,
          1.58815905e-02, 5.94209181e-03, 1.03716515e-02, 3.32757123e-02,
          2.37683672e-03, 1.94468454e-03, 1.62057043e-03, 5.83405374e-03,
          8.31892807e-03, 5.40190144e-04, 1.35047538e-02, 1.95548832e-02,
          3.15471068e-02, 1.11279171e-02, 8.64304253e-04, 0.,
          5.40190144e-04, 1.54494382e-02, 8.53500422e-03, 5.94209181e-03,
          4.32152126e-04, 5.94209181e-03, 1.94468454e-03, 3.24114109e-04,
          5.40190144e-04, 1.72860851e-03, 2.80898879e-03, 5.29386336e-03,
          1.83664658e-03, 4.48357835e-02, 4.21348307e-03, 1.26404501e-02,
          7.50864297e-02, 2.16076063e-04, 2.48487480e-02, 1.09118409e-02,
          1.72860851e-03, 5.72601566e-03, 7.34658632e-03, 4.64563537e-03,
          1.15600694e-02, 2.59291288e-03, 1.72860851e-03, 5.07778767e-03,
          4.42955922e-03, 2.59291288e-03, 8.42696615e-03, 2.50648241e-02,
          3.99817247e-03, 2.25039981e-02, 1.62211563e-02, 1.46218874e-02,
          1.14233495e-04, 1.67923234e-02, 1.29083851e-02, 8.56751204e-03,
          5.71167469e-03, 9.25291330e-03, 3.58693190e-02, 1.83915924e-02,
          3.34704146e-02, 3.42700491e-03, 1.46218874e-02, 2.36463342e-02,
          1.42791867e-02, 1.09664155e-02, 1.46218874e-02, 2.28466990e-04,
          8.79597943e-03, 3.88393877e-03, 2.85583735e-03, 1.66780911e-02,
          3.19853798e-03, 1.59926899e-03, 3.09572779e-02, 1.94196939e-03,
          6.85400981e-03, 3.76970530e-03, 6.73977612e-03, 9.13867913e-03,
          6.28284225e-03, 1.39364861e-02, 1.00525478e-02, 9.70984716e-03,
          0., 8.22481140e-03, 5.36897406e-03, 3.71258855e-02,
          9.59561393e-03, 2.39890348e-03, 1.70207899e-02, 1.37080194e-03,
          2.28466990e-04, 6.28284225e-03, 1.74777247e-02, 1.46218874e-02,
          1.94196943e-02, 2.74160388e-03, 6.96824305e-03, 4.56933980e-04,
          2.33036336e-02, 3.08430428e-03, 6.62554288e-03, 1.82773592e-03,
          9.25291330e-03, 5.25474083e-03, 2.28466978e-03, 1.02810143e-03,
          4.22663940e-03, 2.51313690e-02, 1.26799177e-02, 5.71167469e-03,
          6.39707595e-03, 1.18802832e-02, 3.88393877e-03, 1.29083851e-02,
          1.64496228e-02, 5.82590839e-03, 1.02810143e-03, 1.31368516e-02,
          0., 3.42700485e-04, 1.14233489e-03, 1.45076541e-02,
          1.14233489e-03, 6.85400970e-04, 5.14050713e-03, 2.22755317e-02,
          3.42700485e-04, 6.73977612e-03, 9.25291330e-03, 2.39890348e-03,
          7.76787754e-03, 2.18185969e-02, 9.13867960e-04, 2.17043632e-03,
          1.59926899e-03, 2.83299070e-02, 2.29609329e-02, 1.46218874e-02,
          2.97007081e-03, 1.14233495e-04, 5.71167469e-03, 2.06762627e-02,
          5.48320776e-03, 1.98766273e-02, 0., 4.31802608e-02,
          5.82590839e-03, 1.40507203e-02, 4.34087263e-03, 0.,
          1.74777247e-02, 8.91021267e-03, 9.48137976e-03, 1.50788212e-02,
          6.62554288e-03, 1.51930545e-02, 1.14233495e-04, 5.48320776e-03,
          1.00525478e-02, 7.31094368e-03, 1.70207899e-02, 1.02810143e-02,
          2.28466990e-04, 8.68174527e-03, 1.45076541e-02, 0.,
          2.94722412e-02, 1.16518168e-02, 1.14233489e-03, 5.82590839e-03,
          4.11240570e-03, 1.82773592e-03, 1.27941519e-02, 1.82773583e-02,
          1.18802832e-02, 4.79780696e-03, 2.05620285e-03, 1.40507203e-02,
          1.73634905e-02, 6.73977612e-03, 1.48503548e-02, 3.31277144e-03,
          5.71167446e-04, 1.53072886e-02, 6.16860855e-03, 1.02810143e-02,
          1.18802832e-02, 6.85400970e-04, 4.45510633e-03, 4.56933980e-04,
          5.71167469e-03, 1.51359379e-01, 1.74663007e-01, 6.16860855e-03,
          3.12999785e-02, 1.02810143e-03, 2.97007081e-03, 7.99634494e-04,
          1.49645880e-02, 9.59561393e-03, 3.31277144e-03, 1.94196939e-03,
          4.22663940e-03, 3.54123837e-03, 1.48503541e-03, 2.39890348e-03,
          2.39890348e-03, 6.39707595e-03, 9.82408039e-03, 3.65547184e-03,
          3.31277144e-03, 6.05437532e-03, 1.14233495e-04, 0.,
          7.19670998e-03, 3.65547184e-03, 4.56933980e-04, 2.85583735e-03,
          9.13867960e-04, 4.22663940e-03, 1.02810143e-03, 6.85400970e-04,
          6.85400970e-04, 4.22663940e-03, 1.48503548e-02, 2.74160388e-03,
          4.56933980e-04, 3.76970530e-03, 0., 1.02810143e-03,
          5.48320776e-03, 6.85400970e-04, 2.05620285e-03, 5.71167446e-04,
          1.82773583e-02, 5.82590839e-03, 6.62554288e-03, 2.05620285e-03,
          3.42700491e-03, 3.42700485e-04, 1.09664155e-02, 1.15375826e-02,
          5.48320776e-03, 5.71167469e-03, 9.82408039e-03, 3.44985165e-02,
          5.04533527e-03, 7.09271757e-03, 7.23895896e-03, 1.33811058e-02,
          5.99590549e-03, 1.01637905e-02, 9.79818683e-03, 1.24305356e-02,
          6.82217032e-02, 7.60456314e-03, 3.07838563e-02, 1.51360054e-02,
          1.64521802e-02, 5.84966410e-03, 1.16262073e-02, 1.60865765e-02,
          1.88651662e-02, 1.35273477e-02, 4.24100645e-03, 3.43667762e-03,
          1.22842938e-02, 7.97016732e-03, 4.67973109e-03, 7.16583803e-03,
          8.18952918e-03, 8.11640825e-03, 8.33577104e-03, 5.77654317e-03,
          8.70137475e-03, 8.11640825e-03, 1.28692603e-02, 2.23749634e-02,
          7.67768361e-03, 6.14214689e-03, 1.14068445e-02, 7.67768361e-03,
          2.63234880e-03, 4.82597249e-03, 9.50570405e-03, 1.06756361e-02,
          1.16993282e-02, 3.94852320e-03, 1.44047970e-02, 2.99795275e-03,
          1.53553672e-03, 1.55747300e-02, 1.87920444e-02, 1.09681198e-02,
          8.92073754e-03, 1.00906705e-02, 1.09681198e-02, 5.63030131e-03,
          1.82070788e-02, 9.50570393e-04, 9.87130776e-03, 4.31412691e-03,
          8.84761661e-03, 1.26498984e-02, 1.55747300e-02, 2.26674485e-03,
          9.79818683e-03, 2.01813411e-02, 7.60456314e-03, 9.14009940e-03,
          8.48201290e-03, 1.06756361e-02, 4.09476459e-03, 1.21380528e-02,
          8.99385847e-03, 5.19157667e-03, 4.16788552e-03, 5.70342224e-03,
          1.53553672e-03, 7.01959664e-03, 8.70137475e-03, 1.72565077e-02,
          6.06902642e-03, 7.97016732e-03, 1.85726825e-02, 7.09271757e-03,
          3.65603995e-03, 9.43258312e-03, 2.70546949e-03, 3.72916064e-03,
          3.29043600e-03, 9.57882497e-03, 2.12050322e-03, 3.43667762e-03,
          7.09271757e-03, 1.08218780e-02, 1.52822472e-02, 1.13337236e-02,
          8.62825383e-03, 1.75489916e-03, 9.35946219e-03, 1.16262073e-02,
          7.38520082e-03, 1.21380528e-02, 3.14419437e-03, 3.67797613e-02,
          8.23147967e-03, 2.79371422e-02, 1.34696942e-02, 5.23821404e-03,
          6.85956609e-03, 1.27213774e-02, 7.85732176e-03, 4.73933667e-03,
          0., 1.65876783e-02, 2.12022965e-03, 2.09528562e-02,
          7.85732176e-03, 1.12247444e-03, 1.93315055e-02, 1.12247448e-02,
          2.61910702e-03, 1.75854340e-02, 8.48091859e-03, 0.,
          6.23596925e-03, 8.35619867e-03, 3.11798463e-03, 1.79595910e-02,
          1.53404847e-02, 6.16113767e-02, 3.91618870e-02, 2.61910702e-03,
          3.99102038e-03, 6.23596925e-03, 2.36966833e-03, 5.23821404e-03,
          7.48316292e-04, 0., 7.10900500e-03, 5.36293350e-03,
          3.69169377e-02, 6.48540817e-03, 1.09753059e-02, 4.04090807e-02,
          1.25966584e-02, 7.85732176e-03, 9.35395434e-03, 2.99326517e-03,
          6.23596949e-04, 2.74382648e-03, 3.61686223e-03, 1.37191322e-02,
          5.23821404e-03, 1.37191322e-02, 1.12247448e-02, 2.99326517e-03,
          2.74382643e-02, 0., 9.97755118e-03, 3.70416567e-02,
          5.23821404e-03, 3.49214277e-03, 1.24719387e-04, 1.87079085e-03,
          6.36068871e-03, 2.07034182e-02, 6.23596925e-03, 5.23821404e-03,
          1.24719385e-02, 9.10451543e-03, 0., 0., 1.20977806e-02,
          2.59416327e-02, 7.48316292e-04, 1.64629593e-02, 0.,
          3.11798463e-03, 8.73035693e-04, 1.08505869e-02, 2.49438774e-04,
          6.73484709e-03, 3.36742355e-03, 8.23147967e-03, 2.12022965e-03,
          2.04539802e-02, 2.03292593e-02, 3.36742355e-03, 9.85283125e-03,
          7.48316338e-03, 1.09753059e-02, 4.73933667e-03, 2.24494888e-03,
          3.56697440e-02, 8.97979550e-03, 4.98877547e-04, 4.24045930e-03,
          1.42180100e-02, 4.73933667e-03, 2.34472454e-02, 3.86630092e-03,
          1.99551019e-03, 1.24719387e-04, 2.48191580e-02, 2.18340615e-03,
          1.46120256e-02, 4.64393683e-02, 1.16728256e-02, 4.19885805e-03,
          1.36882775e-02, 1.23446425e-02, 8.39771610e-03, 2.92240512e-02,
          1.60396378e-02, 3.02317776e-02, 9.99328215e-03, 1.82230435e-02,
          1.34363456e-03, 1.74672492e-02, 1.88108832e-02, 9.23748780e-03,
          7.13805854e-03, 1.27645284e-02, 7.55794463e-04, 7.89385289e-03,
          4.45078965e-03, 5.45851560e-03, 1.30164595e-02, 1.19247567e-02,
          6.80215005e-03, 1.27645284e-02, 4.78669815e-03, 1.06650991e-02,
          5.37453825e-03, 9.65737365e-03, 6.63419580e-03, 2.93920049e-03,
          4.11488069e-03, 6.38226420e-03, 9.15351044e-03, 1.00772595e-03,
          9.40544158e-03, 1.56197520e-02, 2.56130341e-02, 6.80215005e-03,
          2.85522337e-03, 1.59556605e-02, 2.43533775e-03, 5.03862975e-04,
          7.97783025e-03, 1.26805510e-02, 9.65737365e-03, 1.03291906e-02,
          6.71817269e-03, 1.00772595e-02, 4.28283494e-03, 1.83909982e-02,
          0., 1.50319114e-02, 1.42761169e-03, 1.25965737e-02,
          3.44306347e-03, 4.53476654e-03, 3.35908635e-03, 3.44306347e-03,
          9.40544158e-03, 1.93147466e-03, 5.96237835e-03, 1.12529397e-02,
          1.53678199e-02, 1.09170307e-03, 7.38999015e-03, 1.89788379e-02,
          2.18340615e-03, 3.69499507e-03, 2.47732624e-02, 3.35908640e-04,
          5.96237835e-03, 4.28283494e-03, 1.35203227e-02, 3.02317785e-03,
          3.44306347e-03, 8.31373874e-03, 1.59556605e-02, 6.71817281e-04,
          8.14578496e-03, 3.26671153e-02, 5.79442410e-03, 7.30601279e-03,
          1.53678199e-02, 2.01545190e-03, 7.13805854e-03, 4.70272079e-03,
          2.41854228e-02, 2.67887134e-02, 7.47396704e-03, 3.86294932e-03,
          5.62646985e-03, 6.38226420e-03, 1.04971454e-02, 8.98555573e-03,
          3.27510922e-03, 5.45851560e-03, 4.58515286e-02, 1.63498882e-03,
          1.70651954e-02, 2.05395464e-02, 1.67586356e-02, 6.13120804e-03,
          1.44083388e-02, 1.62477009e-02, 2.08461080e-02, 0.,
          1.38974050e-02, 2.28898432e-02, 1.75761301e-02, 2.08461080e-02,
          1.03208665e-02, 1.30799105e-02, 3.37216444e-02, 8.68587848e-03,
          7.56182335e-03, 1.35908443e-02, 4.18965891e-03, 1.72695685e-02,
          6.94870250e-03, 9.19681217e-04, 1.32842837e-02, 1.53280201e-03,
          4.29184549e-03, 1.39995916e-02, 2.20723487e-02, 2.96341721e-03,
          2.70795021e-02, 3.26997763e-03, 6.53995527e-03, 4.49621910e-03,
          1.19558554e-02, 1.57367680e-02, 3.37216444e-03, 3.16779083e-03,
          7.76619697e-03, 1.09339878e-02, 2.32985914e-02, 1.43061520e-03,
          3.06560396e-04, 2.11526677e-02, 1.53280201e-03, 4.80277976e-03,
          1.23646026e-02, 3.26997763e-03, 1.11383609e-02, 1.15471082e-02,
          3.37216444e-03, 2.44226456e-02, 5.10933984e-04, 9.50337294e-03,
          5.10933995e-03, 3.03494800e-02, 7.97057059e-03, 8.48150440e-03,
          8.58369097e-03, 1.43061520e-03, 1.22624158e-03, 6.94870250e-03,
          1.60433277e-02, 1.53280199e-02, 1.45105254e-02, 4.49621910e-03,
          1.29777240e-02, 2.65685678e-03, 1.37952184e-02, 2.20723487e-02,
          7.35744974e-03, 1.02186797e-03, 1.77805033e-02, 5.10933984e-04,
          2.65685678e-03, 6.53995527e-03, 1.35908443e-02, 2.04373602e-04,
          1.02186797e-03, 1.46127129e-02, 1.17514823e-02, 1.02186801e-04,
          4.90496634e-03, 1.49192726e-02, 2.35029636e-03, 3.57653806e-03,
          1.43061522e-02, 6.02902146e-03, 1.32842839e-03, 1.44083388e-02,
          1.04230540e-02, 1.19558554e-02, 2.10504811e-02, 3.88309848e-03,
          2.04373602e-04, 7.56182335e-03, 1.32842837e-02, 6.43776869e-03,
          1.51236467e-02, 1.43061520e-03, 1.14449216e-02, 7.34658632e-03,
          1.68539323e-02, 2.26879865e-02, 1.70700084e-02, 1.40449440e-03,
          6.80639595e-03, 2.17156447e-02, 9.18323267e-03, 3.43560949e-02,
          1.02636134e-02, 2.49567851e-02, 1.54494382e-02, 2.46326718e-02,
          8.64304253e-04, 9.83146112e-03, 1.52333621e-02, 7.99481478e-03,
          1.32886777e-02, 1.59896296e-02, 5.29386336e-03, 9.18323267e-03,
          4.75367345e-03, 2.80898879e-03, 1.17761455e-02, 3.02506494e-03,
          4.32152126e-04, 2.37683672e-02, 7.56266236e-04, 5.50993951e-03,
          9.50734690e-03, 5.18582575e-03, 1.35047538e-02, 7.13051017e-03,
          6.37424365e-03, 8.10285192e-03, 8.96715652e-03, 3.24114109e-04,
          3.56525509e-03, 3.56525509e-03, 2.86300778e-02, 4.53759730e-03,
          2.59291288e-03, 1.19922217e-02, 2.37683672e-03, 1.51253247e-03,
          1.18841836e-02, 2.21477970e-02, 1.30726015e-02, 2.92783063e-02,
          3.78133100e-03, 4.86171152e-03, 3.02506494e-03, 2.47407090e-02,
          0., 8.21089000e-03, 6.15816796e-03, 5.61797759e-03,
          3.67329316e-03, 7.56266236e-04, 1.08038029e-03, 2.26879865e-03,
          2.78738122e-02, 4.75367345e-03, 9.72342305e-03, 7.34658632e-03,
          8.21089000e-03, 2.26879865e-03, 1.59896296e-02, 2.39844434e-02,
          5.40190144e-03, 3.56525509e-03, 1.28565254e-02, 0.,
          3.67329316e-03, 4.32152126e-04, 1.43690584e-02, 1.94468454e-03,
          1.40449440e-03, 9.29127075e-03, 1.24243740e-02, 0.,
          8.64304230e-03, 5.61797759e-03, 4.21348307e-03, 1.17761455e-02,
          1.05877267e-02, 4.86171152e-03, 1.72860851e-03, 3.78133100e-03,
          2.44165957e-02, 2.45246328e-02, 4.13785651e-02, 3.99740739e-03,
          9.72342270e-04, 9.07519460e-03, 1.55574763e-02, 5.94209181e-03,
          1.80423521e-02, 0., 3.77052724e-02, 4.88802977e-03,
          4.03546682e-03, 6.47948170e-03, 1.01170857e-02, 9.83289722e-03,
          1.44935772e-02, 4.66067996e-03, 4.60384227e-03, 1.87279761e-01,
          9.09400918e-03, 2.97828801e-02, 3.63760372e-03, 2.81914286e-02,
          6.70683198e-03, 1.69375930e-02, 1.42093899e-03, 6.82050688e-03,
          8.29828344e-03, 6.82050711e-04, 4.21734676e-02, 9.66238510e-03,
          1.07991360e-02, 7.21836975e-03, 2.50085257e-03, 5.68375597e-03,
          2.50085257e-03, 2.50085257e-03, 3.29657830e-03, 4.83119255e-03,
          2.61452771e-03, 4.09230404e-03, 1.10264858e-02, 8.46879650e-03,
          8.01409595e-03, 1.06286230e-02, 1.42093897e-02, 5.79743087e-03,
          5.79743087e-03, 5.11538005e-03, 1.59145158e-03, 8.75298399e-03,
          6.93418225e-03, 3.06922803e-03, 5.22905542e-03, 5.28589310e-03,
          5.85426856e-03, 4.03546682e-03, 9.20768455e-03, 9.20768455e-03,
          6.53631939e-03, 6.87734457e-03, 1.05149485e-02, 1.71649419e-02,
          4.08662036e-02, 7.04785716e-03, 4.43332968e-03, 1.14243496e-02,
          2.44401488e-03, 4.49016690e-03, 2.10298970e-03, 7.10469484e-03,
          1.32431509e-02, 5.11538005e-04, 6.93418225e-03, 4.88802977e-03,
          5.74059319e-03, 7.95725826e-03, 1.52893029e-02, 2.10298970e-03,
          4.03546682e-03, 1.39820389e-02, 1.14811864e-02, 3.97862913e-03,
          2.27350229e-03, 2.72820285e-03, 2.67136525e-02, 4.77435486e-03,
          1.93247700e-03, 5.57008060e-03, 2.78504030e-03, 5.00170514e-03,
          7.10469484e-03, 5.51324291e-03, 1.29589634e-02, 4.71751718e-03,
          1.13675116e-04, 3.12606571e-03, 4.20597941e-03, 3.35341599e-03,
          1.53461401e-03, 1.48346024e-02, 2.40422878e-02, 4.20597941e-03,
          2.44401488e-03, 3.06922803e-03, 1.25042628e-03, 3.52392858e-03,
          1.47777647e-02, 7.95725826e-03, 3.42730470e-02, 2.33516493e-03,
          8.92857206e-04, 1.53159350e-02, 1.21565936e-02, 6.52472535e-03,
          8.99725314e-03, 3.36538488e-03, 1.14697805e-02, 1.20879129e-01,
          6.79945108e-03, 3.09065953e-02, 1.57967035e-03, 2.85714306e-02,
          1.74450558e-02, 1.21565936e-02, 6.11263746e-03, 1.04395607e-02,
          5.49450563e-03, 1.78571441e-03, 4.27197814e-02, 6.79945108e-03,
          9.61538497e-03, 7.21153896e-03, 2.67857150e-03, 5.97527483e-03,
          1.05769234e-02, 3.09065939e-03, 4.12087934e-03, 5.90659352e-03,
          7.00549502e-03, 9.06593446e-03, 9.75274760e-03, 1.28434068e-02,
          2.12912094e-02, 1.06456047e-02, 1.12637365e-02, 2.60989019e-03,
          1.92307704e-03, 1.33241769e-02, 5.76923089e-03, 1.30494509e-03,
          6.38736272e-03, 2.33516493e-03, 5.21978037e-03, 1.05082421e-02,
          6.93681370e-03, 2.06043967e-03, 1.14010992e-02, 1.09890113e-02,
          1.00961542e-02, 7.62362685e-03, 8.51648394e-03, 4.87637380e-03,
          1.75824184e-02, 8.24175868e-03, 8.65384657e-03, 7.82967079e-03,
          8.79120920e-03, 1.38736274e-02, 4.46428591e-03, 5.42582432e-03,
          1.72390118e-02, 5.97527483e-03, 7.14285765e-03, 1.12637365e-02,
          5.49450563e-03, 6.79945108e-03, 1.05769234e-02, 5.76923089e-03,
          7.62362685e-03, 7.07417633e-03, 5.97527483e-03, 4.25824197e-03,
          7.89835211e-03, 7.96703342e-03, 1.72390118e-02, 4.87637380e-03,
          6.04395615e-03, 1.20879123e-02, 4.25824197e-03, 7.55494554e-03,
          7.69230817e-03, 1.51098904e-03, 1.20879123e-02, 8.37912131e-03,
          3.70879145e-03, 7.62362685e-03, 3.70879145e-03, 4.32692328e-03,
          2.47252756e-03, 4.87637380e-03, 2.71291230e-02, 4.94505512e-03,
          4.53296723e-03, 6.18131878e-03, 1.23626378e-03, 9.82142892e-03,
          1.36675835e-02, 1.42857153e-02, 2.81593427e-02, 1.26226489e-02,
          1.63532293e-03, 9.09648370e-03, 1.02207679e-02, 4.95707244e-03,
          7.25674536e-03, 3.73058044e-03, 1.53311528e-03, 2.10803345e-01,
          1.29803754e-02, 3.36263292e-02, 5.11038408e-04, 1.22138178e-02,
          4.75265738e-03, 1.21116107e-02, 1.53311528e-03, 8.68765265e-03,
          1.99816022e-02, 2.81071127e-03, 3.77146341e-02, 7.61447242e-03,
          6.49018772e-03, 8.12551100e-03, 5.11038408e-04, 1.39513491e-02,
          6.18356466e-03, 3.21954209e-03, 4.90596890e-03, 4.80376091e-03,
          4.08830727e-03, 5.46811102e-03, 6.18356466e-03, 4.59934585e-03,
          6.95012230e-03, 9.04538017e-03, 1.28270639e-02, 1.27759599e-03,
          1.39002446e-02, 3.42395739e-03, 2.19746516e-03, 6.08135713e-03,
          8.02330300e-03, 1.27759599e-03, 3.83278821e-03, 3.01512657e-03,
          4.75265738e-03, 7.66557641e-04, 8.94317217e-03, 7.56336842e-03,
          1.03229759e-02, 6.43908419e-03, 8.17661453e-03, 4.65044938e-03,
          4.76287790e-02, 5.87694161e-03, 5.21259196e-03, 6.18356466e-03,
          3.78168421e-03, 3.42395739e-03, 5.97914960e-03, 5.77473408e-03,
          1.48201138e-02, 5.21259196e-03, 7.41005689e-03, 5.92804560e-03,
          3.88389197e-03, 2.48875711e-02, 2.08503678e-02, 6.13246113e-03,
          4.70155338e-03, 1.00163529e-02, 1.52289448e-02, 6.95012230e-03,
          1.12428446e-03, 5.62142232e-04, 1.17538832e-02, 4.13941126e-03,
          1.17538834e-03, 2.70850351e-03, 1.17538834e-03, 6.64349925e-03,
          7.35895336e-03, 2.06459519e-02, 1.43090757e-02, 4.29272279e-03,
          2.81071127e-03, 3.16843810e-03, 4.49713785e-03, 6.03025313e-03,
          1.32869987e-03, 1.03229759e-02, 1.00674564e-02, 4.29272279e-03,
          3.73058044e-03, 4.19051480e-03, 2.50408822e-03, 4.19051480e-03,
          1.26737524e-02, 4.95707244e-03, 3.10711358e-02, 3.82701890e-03,
          3.95458611e-03, 2.57048104e-02, 1.28842974e-02, 7.59025430e-03,
          1.32032158e-02, 6.37836475e-03, 1.46064553e-02, 1.99642815e-02,
          1.17999753e-02, 3.11902054e-02, 7.39890337e-03, 3.01058833e-02,
          7.46268686e-03, 2.18140073e-02, 1.58821288e-02, 7.78160524e-03,
          2.10486050e-03, 2.61512958e-03, 1.40324025e-03, 1.12897055e-02,
          9.50376410e-03, 6.50593219e-03, 2.35999492e-03, 6.88863406e-03,
          1.46064553e-02, 3.63566796e-03, 8.22809059e-03, 7.07998499e-03,
          6.18701382e-03, 7.84538873e-03, 3.31674982e-03, 6.31458126e-03,
          1.88799594e-02, 1.63923986e-02, 8.48322548e-03, 1.14810572e-03,
          5.93187939e-03, 3.90355922e-02, 5.80431195e-03, 1.65837491e-03,
          5.67674497e-03, 9.56754759e-03, 9.05727781e-03, 1.14172734e-02,
          2.80648051e-03, 2.93404795e-03, 6.82485057e-03, 8.92971060e-04,
          1.19275423e-02, 9.05727781e-03, 1.05880862e-02, 1.13534899e-02,
          7.01620150e-03, 6.95241755e-03, 1.64561812e-02, 8.80214386e-03,
          6.69728313e-03, 9.56754759e-03, 5.61296102e-03, 5.23025915e-03,
          1.11621385e-02, 5.48539404e-03, 6.95241755e-03, 1.14172734e-02,
          6.69728313e-03, 7.65403791e-04, 1.37772681e-02, 6.31458126e-03,
          3.59101929e-02, 6.88863406e-03, 7.78160524e-03, 1.97729305e-03,
          9.12106223e-03, 6.82485057e-03, 1.49253737e-02, 5.99566288e-03,
          9.43997968e-03, 8.03674012e-03, 5.16647566e-03, 4.27350448e-03,
          8.67457595e-03, 4.86669242e-02, 1.45426719e-02, 1.02691678e-02,
          9.24862921e-03, 1.11621385e-02, 4.71998984e-03, 5.54917753e-03,
          2.16864399e-03, 1.43513214e-02, 1.05880862e-02, 5.93187939e-03,
          4.71998984e-03, 5.54917753e-03, 4.20972100e-03, 9.18484572e-03,
          1.73491519e-02, 8.48322548e-03, 2.85112914e-02, 2.26569409e-03,
          4.03404096e-03, 8.78647249e-03, 9.72590689e-03, 3.53669329e-03,
          8.28912482e-03, 4.69717057e-03, 8.56542867e-03, 1.17595054e-01,
          1.35941645e-02, 3.54221947e-02, 5.52608306e-03, 1.47546427e-02,
          6.41025649e-03, 1.09969061e-02, 3.64721497e-03, 1.27099911e-02,
          2.70778080e-03, 3.42617161e-03, 3.98430601e-02, 6.74182177e-03,
          7.07338657e-03, 1.05548194e-02, 1.65782496e-03, 5.30503970e-03,
          7.73651665e-03, 3.53669329e-03, 6.85234321e-03, 1.32625997e-02,
          1.06100794e-02, 1.59151200e-02, 7.95756001e-03, 5.80238737e-03,
          1.78492498e-02, 9.00751539e-03, 7.57073425e-03, 2.98408489e-03,
          6.79708226e-03, 8.23386386e-03, 4.58664913e-03, 1.38152076e-03,
          7.73651665e-03, 2.98408489e-03, 8.51016864e-03, 4.53138817e-03,
          4.31034481e-03, 5.08399680e-03, 5.24977921e-03, 7.46021233e-03,
          8.67595058e-03, 1.67992935e-02, 6.41025649e-03, 6.85234321e-03,
          3.21065448e-02, 1.30968178e-02, 8.01282097e-03, 1.96175948e-02,
          9.11803730e-03, 4.31034481e-03, 1.02232536e-02, 6.35499554e-03,
          1.47546427e-02, 1.27099920e-03, 1.18258186e-02, 9.11803730e-03,
          1.22679053e-02, 1.60256412e-03, 9.94694978e-03, 4.75243153e-03,
          1.65782496e-03, 7.84703810e-03, 7.90229905e-03, 2.15517241e-03,
          4.97347489e-03, 1.71308580e-03, 1.18810786e-02, 2.92882416e-03,
          2.09991168e-03, 9.39434115e-03, 1.60256412e-03, 3.64721497e-03,
          1.17705576e-02, 1.18810786e-02, 3.21618058e-02, 9.22855921e-03,
          2.32095504e-03, 1.11074271e-02, 8.73121154e-03, 1.10521661e-02,
          5.74712642e-03, 1.05548194e-02, 1.73519012e-02, 9.17329825e-03,
          4.75243153e-03, 9.22855921e-03, 3.48143256e-03, 9.83642787e-03,
          1.03890365e-02, 4.91821393e-03, 2.75751557e-02, 2.03955499e-03,
          4.14091488e-03, 1.04449941e-02, 7.35475915e-03, 7.66378269e-03,
          5.93325123e-03, 6.92212628e-03, 1.03213843e-02, 1.45055622e-01,
          3.02843028e-03, 2.80593336e-02, 6.92212628e-03, 1.49567369e-02,
          1.26081584e-02, 8.65265727e-03, 5.99505566e-03, 4.69715707e-03,
          6.48949342e-03, 4.94437572e-03, 3.45488265e-02, 5.19159483e-03,
          9.20889992e-03, 4.26452421e-03, 3.77008668e-03, 1.00741656e-02,
          9.76514257e-03, 4.01730556e-03, 1.18665025e-02, 3.83189134e-03,
          6.61310274e-03, 6.24227431e-03, 7.66378269e-03, 1.32262055e-02,
          1.01359701e-02, 7.47836847e-03, 1.00123612e-02, 3.27564892e-03,
          1.11248461e-03, 1.50803467e-02, 2.59579741e-03, 4.26452421e-03,
          5.00618061e-03, 2.16316432e-03, 1.10630412e-02, 1.06922127e-02,
          4.82076639e-03, 1.23609393e-03, 1.50185414e-02, 1.56365894e-02,
          8.40543862e-03, 4.14091488e-03, 9.02348571e-03, 1.00741656e-02,
          3.22002470e-02, 5.19159483e-03, 6.11866498e-03, 6.61310274e-03,
          9.20889992e-03, 1.32262055e-02, 3.83189134e-03, 8.77626706e-03,
          1.37206428e-02, 3.83189134e-03, 7.04573561e-03, 9.39431414e-03,
          5.93325123e-03, 3.70828179e-03, 5.68603212e-03, 3.27564892e-03,
          1.22373300e-02, 5.43881347e-03, 2.71940674e-03, 5.87144634e-03,
          7.41656357e-03, 1.29789868e-02, 1.27317682e-02, 8.34363420e-03,
          9.27070435e-03, 1.29171815e-02, 5.12978993e-03, 8.28182977e-03,
          1.05067985e-02, 3.64647713e-03, 1.05067985e-02, 1.08776269e-02,
          2.90482072e-03, 9.27070435e-03, 5.93325123e-03, 3.95550067e-03,
          2.47218786e-03, 1.20519157e-02, 2.66996287e-02, 5.56242280e-03,
          4.69715707e-03, 6.11866498e-03, 1.97775033e-03, 7.47836847e-03,
          1.52657600e-02, 1.45241041e-02, 2.66996287e-02, 1.50919228e-03,
          2.19518878e-03, 1.41772609e-02, 1.00612817e-02, 4.25317837e-03,
          1.17534073e-02, 3.42998258e-03, 1.07472790e-02, 2.23634869e-01,
          6.85996492e-04, 2.90405191e-02, 4.80197556e-03, 2.18146890e-02,
          1.31254001e-02, 1.75615102e-02, 1.77901760e-02, 2.78971903e-03,
          1.96652324e-03, 2.60678679e-03, 3.62206176e-02, 2.37812125e-03,
          6.63129939e-03, 4.84770862e-03, 1.87505712e-03, 3.01838457e-03,
          6.58556633e-03, 1.00612827e-03, 4.34464449e-03, 4.57331026e-03,
          3.38424952e-03, 6.08250219e-03, 3.15558398e-03, 1.71499122e-02,
          1.19820721e-02, 6.21970184e-03, 5.71663771e-03, 1.05186133e-03,
          1.46345922e-03, 1.68297812e-02, 4.80197556e-03, 1.37199298e-04,
          2.92691845e-03, 2.26836186e-02, 5.62517159e-03, 9.28381924e-03,
          2.10372265e-03, 1.00612827e-03, 6.40263408e-03, 8.64355639e-03,
          3.88731365e-03, 4.16171225e-03, 5.16784051e-03, 1.00612827e-03,
          4.41781767e-02, 6.44836714e-03, 3.70438118e-03, 6.63129939e-03,
          5.21357358e-03, 1.17534073e-02, 3.75011424e-03, 2.88118538e-03,
          1.64639158e-03, 1.08844778e-02, 3.38424952e-03, 5.21357358e-03,
          5.25930664e-03, 3.65864806e-04, 2.28665507e-04, 1.26680685e-02,
          4.93917475e-03, 2.51532043e-03, 5.48797194e-04, 8.27769097e-03,
          6.85996516e-03, 9.92408302e-03, 2.14488246e-02, 8.23195837e-03,
          1.00612817e-02, 8.23195837e-03, 3.33851646e-03, 8.64355639e-03,
          3.79584730e-03, 1.50919228e-03, 8.82648863e-03, 5.94530301e-03,
          8.73502251e-03, 5.94530301e-03, 9.32955276e-03, 2.05798959e-03,
          1.69212476e-03, 7.27156317e-03, 2.24549528e-02, 3.38424952e-03,
          1.92536358e-02, 3.84158036e-03, 6.26543490e-03, 6.40263408e-03,
          2.74398597e-03, 1.28967343e-02, 3.41168940e-02, 1.42579721e-02,
          3.37285362e-03, 8.94317217e-03, 1.01185609e-02, 3.52616515e-03,
          7.97219947e-03, 4.54824185e-03, 1.83973834e-03, 1.97771862e-01,
          1.41046606e-02, 3.28597687e-02, 9.19869170e-04, 1.02718724e-02,
          2.81071127e-03, 1.12939486e-02, 1.07318070e-03, 1.61999185e-02,
          1.55866714e-02, 3.62837268e-03, 3.71013880e-02, 1.23671293e-02,
          4.65044938e-03, 8.22771806e-03, 7.66557641e-04, 1.74775142e-02,
          2.14636140e-03, 5.26369549e-03, 3.57726892e-03, 5.82583807e-03,
          3.32174962e-03, 4.24161879e-03, 9.14758723e-03, 4.49713785e-03,
          9.91414487e-03, 9.04538017e-03, 7.30784936e-03, 7.66557641e-04,
          1.60466060e-02, 4.19051480e-03, 6.13246113e-03, 1.18560912e-02,
          9.65862628e-03, 1.12428446e-03, 4.70155338e-03, 3.42395739e-03,
          5.11038397e-03, 1.89084210e-03, 7.51226489e-03, 7.61447242e-03,
          8.22771806e-03, 5.92804560e-03, 6.43908419e-03, 1.40535561e-02,
          4.52268980e-02, 3.62837268e-03, 6.74570724e-03, 4.85486491e-03,
          4.13941126e-03, 4.39493032e-03, 6.38798019e-03, 5.51921502e-03,
          1.76308248e-02, 4.75265738e-03, 6.84791477e-03, 4.95707244e-03,
          3.42395739e-03, 2.21790671e-02, 2.13103015e-02, 4.85486491e-03,
          3.52616515e-03, 6.28577266e-03, 1.74775142e-02, 3.67947668e-03,
          2.81071127e-03, 3.57726880e-04, 1.23671293e-02, 4.08830727e-03,
          3.16843810e-03, 2.81071127e-03, 1.07318070e-03, 6.18356466e-03,
          8.43213405e-03, 1.62510220e-02, 4.70155338e-03, 3.78168421e-03,
          1.99304987e-03, 2.86181504e-03, 3.42395739e-03, 7.05233030e-03,
          3.47506115e-03, 1.20605063e-02, 9.91414487e-03, 6.59239572e-03,
          1.53311528e-03, 6.38798019e-03, 5.11038397e-03, 5.00817643e-03,
          1.41046606e-02, 7.71667995e-03, 2.82604247e-02, 2.48430949e-03,
          2.87656905e-03, 3.39958142e-03, 7.84518849e-03, 1.00026149e-02,
          5.49163157e-03, 2.81119230e-03, 1.37290787e-02, 1.61218613e-01,
          1.11140159e-03, 3.18383873e-02, 3.72646423e-03, 1.46443509e-02,
          1.79131795e-02, 1.01333680e-02, 7.51830544e-03, 6.86453935e-03,
          1.14408992e-02, 2.02667364e-03, 4.07949798e-02, 1.11793932e-02,
          6.86453935e-03, 6.47228025e-03, 1.30753138e-03, 1.01987449e-02,
          1.24215474e-02, 1.76516734e-03, 8.82583670e-03, 4.51098336e-03,
          2.28817994e-03, 4.83786594e-03, 1.34021966e-02, 2.06589960e-02,
          1.17024053e-02, 6.79916283e-03, 6.86453935e-03, 9.15271929e-04,
          3.26882844e-04, 1.15716523e-02, 1.83054386e-03, 1.50366104e-03,
          6.92991633e-03, 8.30282364e-03, 9.67573188e-03, 1.50366109e-02,
          8.04131757e-03, 3.00732208e-03, 9.93723795e-03, 1.03948740e-02,
          1.32060666e-02, 4.24947683e-03, 1.24215474e-02, 3.39958142e-03,
          4.09911089e-02, 3.85721750e-03, 5.62238460e-03, 4.18410031e-03,
          6.60303328e-03, 1.19639123e-02, 6.47228025e-03, 7.12604588e-03,
          5.09937247e-03, 2.22280319e-03, 5.81851462e-03, 1.00679910e-02,
          4.05334728e-03, 2.02667364e-03, 7.19142263e-04, 6.79916283e-03,
          7.32217543e-03, 7.06066936e-03, 1.76516734e-03, 6.47228025e-03,
          7.06066936e-03, 1.12447692e-02, 1.51673639e-02, 1.07217571e-02,
          1.02641210e-02, 1.72594134e-02, 2.02667364e-03, 1.25523005e-02,
          8.76045972e-03, 1.96129695e-04, 8.95658974e-03, 4.83786594e-03,
          7.12604588e-03, 6.66840980e-03, 7.25679891e-03, 5.29550202e-03,
          2.94194557e-03, 3.26882838e-03, 1.16370292e-02, 6.21077372e-03,
          1.21600414e-02, 5.36087854e-03, 2.61506275e-03, 6.27615023e-03,
          2.87656905e-03, 2.34701876e-02, 3.28190364e-02, 2.01221206e-03,
          5.27338358e-03, 1.01998337e-02, 9.15903412e-03, 8.46516807e-03,
          7.84068834e-03, 3.60810454e-03, 9.02026147e-03, 1.19622543e-01,
          6.17540954e-03, 3.50402445e-02, 3.46933119e-03, 2.65056901e-02,
          9.08964779e-03, 1.08243134e-02, 7.77130201e-03, 5.13460999e-03,
          5.06522367e-03, 4.57951706e-03, 5.29419929e-02, 1.00610601e-02,
          8.32639448e-03, 5.96724963e-03, 5.62031660e-03, 5.20399678e-03,
          3.78850959e-02, 7.07743550e-03, 4.78767697e-03, 7.21620908e-03,
          3.39994463e-03, 6.52234256e-03, 7.56314211e-03, 7.63252843e-03,
          1.74854286e-02, 9.22842138e-03, 7.84068834e-03, 1.81099083e-02,
          2.15098541e-03, 9.85290017e-03, 4.57951706e-03, 1.66527904e-03,
          6.24479633e-03, 5.68970339e-03, 5.62031660e-03, 7.21620908e-03,
          8.25700816e-03, 8.95087421e-03, 7.42436899e-03, 1.04079936e-02,
          1.04079936e-02, 5.68970339e-03, 8.74271430e-03, 5.68970339e-03,
          2.26894263e-02, 4.71829064e-03, 5.96724963e-03, 5.62031660e-03,
          1.24202054e-02, 7.77130201e-03, 5.96724963e-03, 5.89786284e-03,
          2.11629197e-02, 2.08159862e-03, 5.82847651e-03, 8.81210156e-03,
          4.57951706e-03, 8.46516807e-03, 9.71412752e-03, 9.85290017e-03,
          7.00804917e-03, 7.35498220e-03, 4.16319724e-03, 2.49791844e-03,
          3.60810454e-03, 3.60810454e-03, 1.15181794e-02, 3.05301137e-03,
          6.45295624e-03, 8.32639448e-03, 5.13460999e-03, 6.79988926e-03,
          7.70191522e-03, 5.55092993e-04, 7.28559541e-03, 7.49375531e-03,
          6.03663642e-03, 5.75908972e-03, 7.97946192e-03, 6.45295624e-03,
          5.20399678e-03, 7.70191522e-03, 2.60199849e-02, 4.02442412e-03,
          5.75908972e-03, 8.95087421e-03, 4.51013073e-03, 7.00804917e-03,
          1.58201512e-02, 6.93866238e-03, 2.74077170e-02, 1.60865753e-03,
          2.12050322e-03, 3.29043600e-03, 6.28838874e-03, 7.89704639e-03,
          3.87540227e-03, 2.26674485e-03, 1.21380528e-02, 1.62108809e-01,
          2.41298624e-03, 2.55191587e-02, 4.53348970e-03, 1.24305356e-02,
          1.46241598e-02, 4.89909342e-03, 1.50628844e-02, 7.53144221e-03,
          2.99795275e-03, 4.31412691e-03, 4.37262356e-02, 4.16788552e-03,
          6.58087200e-03, 1.08949989e-02, 5.11845574e-04, 2.99795275e-03,
          1.16262073e-02, 5.84966387e-04, 4.89909342e-03, 7.89704639e-03,
          6.21526781e-03, 1.16262073e-02, 4.89909342e-03, 2.80052666e-02,
          1.55016091e-02, 7.16583803e-03, 2.92483205e-03, 1.53553672e-03,
          7.31207983e-05, 1.11143617e-02, 1.97426160e-03, 7.31207983e-05,
          5.48405992e-03, 1.03831533e-02, 1.09681198e-02, 1.38929514e-02,
          4.09476459e-03, 4.97221434e-03, 6.87335525e-03, 7.67768361e-03,
          8.77449568e-03, 6.58087200e-03, 1.04562743e-02, 8.77449580e-04,
          3.54635864e-02, 9.06697940e-03, 5.33781806e-03, 7.75080454e-03,
          1.07487570e-02, 2.36911383e-02, 9.14009940e-03, 4.09476459e-03,
          9.50570393e-04, 4.16788552e-03, 6.21526781e-03, 8.77449568e-03,
          7.09271757e-03, 0., 8.04328767e-04, 4.09476459e-03,
          8.99385847e-03, 3.80228157e-03, 1.46241602e-03, 6.36150967e-03,
          7.01959664e-03, 1.03831533e-02, 1.23574147e-02, 1.23574147e-02,
          1.32348649e-02, 2.12781522e-02, 1.24305359e-03, 1.46241598e-02,
          7.31207989e-03, 0., 1.49897635e-02, 5.99590549e-03,
          8.92073754e-03, 7.53144221e-03, 1.36004686e-02, 5.11845574e-03,
          1.02369115e-03, 3.87540227e-03, 1.65984221e-02, 6.80023432e-03,
          1.21380528e-02, 7.67768361e-03, 5.26469760e-03, 9.28634126e-03,
          1.75489916e-03, 2.69815754e-02, 2.26674471e-02, 3.95458611e-03,
          6.56971568e-03, 1.77318547e-02, 1.00778164e-02, 9.18484572e-03,
          7.59025430e-03, 2.55134609e-03, 6.44214870e-03, 6.63349926e-02,
          1.05880862e-02, 3.80788371e-02, 1.56269949e-02, 1.71578024e-02,
          3.50810075e-03, 1.70302335e-02, 1.64561812e-02, 7.65403779e-03,
          3.89080262e-03, 3.18918237e-03, 4.24161255e-02, 5.42161008e-03,
          5.93187939e-03, 4.20972100e-03, 3.89080262e-03, 3.69945168e-03,
          8.03674012e-03, 6.76106662e-03, 7.46268686e-03, 7.39890337e-03,
          1.09707881e-02, 8.54700897e-03, 7.65403779e-03, 6.12323033e-03,
          2.07296852e-02, 7.78160524e-03, 5.67674497e-03, 4.59242286e-03,
          3.82701890e-03, 1.41599700e-02, 6.63349964e-03, 4.97512473e-03,
          4.46485542e-03, 1.94540136e-02, 7.20755244e-03, 5.48539404e-03,
          1.08432202e-02, 1.10983551e-02, 7.78160524e-03, 1.28205139e-02,
          8.48322548e-03, 4.71998984e-03, 8.61079246e-03, 1.62010472e-02,
          9.50376410e-03, 9.18484572e-03, 7.20755244e-03, 7.52647081e-03,
          7.78160524e-03, 4.33728797e-03, 7.20755244e-03, 6.82485057e-03,
          2.02831998e-02, 8.67457595e-03, 4.65620635e-03, 8.10052361e-03,
          6.88863406e-03, 1.13534899e-02, 1.31394314e-02, 6.37836475e-03,
          7.59025430e-03, 6.63349964e-03, 5.10269217e-03, 2.29621143e-03,
          5.23025915e-03, 5.29404311e-03, 1.70302335e-02, 7.01620150e-03,
          6.05944684e-03, 1.47340233e-02, 3.95458611e-03, 2.87026423e-03,
          5.61296102e-03, 1.69664510e-02, 8.86592735e-03, 5.16647566e-03,
          1.02053843e-02, 5.74052846e-03, 7.65403779e-03, 8.99349432e-03,
          7.07998499e-03, 1.67750996e-02, 2.32810322e-02, 4.01837006e-03,
          5.80431195e-03, 6.95241755e-03, 5.54917753e-03, 6.50593219e-03,
          1.60734802e-02, 3.31674982e-03, 3.48896571e-02, 1.05067983e-03,
          2.34857854e-03, 1.00123612e-02, 9.33250971e-03, 1.19901113e-02,
          5.62422769e-03, 5.37700858e-03, 1.30407913e-02, 1.45673677e-01,
          4.44993842e-03, 3.26328799e-02, 3.52286780e-03, 2.15698387e-02,
          1.62546355e-02, 1.04449941e-02, 5.37700858e-03, 5.50061790e-03,
          1.97775033e-03, 3.95550067e-03, 3.25092711e-02, 8.28182977e-03,
          9.51792393e-03, 5.68603212e-03, 1.05067983e-03, 4.14091488e-03,
          1.10630412e-02, 3.39925848e-03, 9.02348571e-03, 4.75896196e-03,
          3.21384426e-03, 8.77626706e-03, 4.38813353e-03, 6.24227431e-03,
          8.65265727e-03, 1.19901113e-02, 9.08529013e-03, 3.15203960e-03,
          1.79233623e-03, 1.35352286e-02, 5.50061790e-03, 3.46106314e-03,
          6.18046988e-03, 2.10135966e-03, 1.00123612e-02, 6.73671206e-03,
          8.03461112e-03, 4.07910999e-03, 7.84919690e-03, 1.21137211e-02,
          6.48949342e-03, 5.25339926e-03, 9.57972836e-03, 9.88875143e-03,
          3.46724354e-02, 8.52904841e-03, 6.92212628e-03, 8.65265727e-03,
          9.88875143e-03, 9.95055679e-03, 5.80964144e-03, 4.51174285e-03,
          1.89122371e-02, 1.60692213e-03, 5.19159483e-03, 1.20519157e-02,
          7.54017336e-03, 4.94437572e-03, 9.82694700e-03, 5.37700858e-03,
          7.10754003e-03, 5.87144634e-03, 9.51792393e-03, 4.75896196e-03,
          6.24227431e-03, 9.27070435e-03, 1.27317682e-02, 4.88257129e-03,
          1.35352286e-02, 1.32262055e-02, 1.79233623e-03, 1.09394314e-02,
          5.00618061e-03, 6.61310274e-03, 1.32262055e-02, 1.05067985e-02,
          2.65760208e-03, 8.34363420e-03, 7.60197779e-03, 5.43881347e-03,
          6.18046988e-03, 9.95055679e-03, 2.36711986e-02, 2.71940674e-03,
          7.91100133e-03, 6.24227431e-03, 2.03955499e-03, 9.57972836e-03,
          1.13720642e-02, 1.24845486e-02, 2.65142154e-02, 6.87836763e-03,
          3.95506108e-03, 1.35274557e-02, 9.05651692e-03, 4.01238119e-03,
          7.73816323e-03, 2.69402727e-03, 4.87217680e-03, 1.24555767e-01,
          1.19798230e-02, 3.46784368e-02, 1.94887072e-03, 2.04058234e-02,
          5.10145584e-03, 1.04895104e-02, 4.47093882e-03, 1.58775654e-02,
          8.42600036e-03, 1.49031298e-03, 4.18434031e-02, 9.51507501e-03,
          7.27960560e-03, 1.39286937e-02, 3.55382310e-03, 1.15212658e-02,
          4.98681655e-03, 6.01857156e-03, 5.56001347e-03, 7.16496585e-03,
          6.36248989e-03, 6.82104751e-03, 1.06041497e-02, 5.38805453e-03,
          1.76544767e-02, 7.27960560e-03, 7.68084358e-03, 3.43918364e-04,
          5.90393227e-03, 6.59176894e-03, 5.44537418e-03, 6.19053049e-03,
          8.94187763e-03, 1.14639453e-03, 6.93568727e-03, 3.84042179e-03,
          5.21609513e-03, 2.86598643e-03, 7.10764620e-03, 1.89155107e-03,
          1.34701366e-02, 1.19225038e-02, 1.34128164e-02, 1.48458099e-02,
          3.02074961e-02, 1.22091025e-02, 7.10764620e-03, 1.20371431e-02,
          8.76991823e-03, 3.61114298e-03, 1.24957012e-02, 1.16359051e-02,
          1.32408570e-02, 2.23546941e-03, 1.15785850e-02, 1.02602318e-02,
          8.42600036e-03, 7.27960560e-03, 9.28579643e-03, 3.26722441e-03,
          2.17814976e-03, 1.15785850e-02, 5.04413620e-03, 2.00619060e-03,
          1.60495238e-03, 3.15258512e-03, 1.07187890e-02, 2.98062596e-03,
          1.20371429e-03, 4.41361917e-03, 4.35629953e-03, 2.75134691e-03,
          1.42152924e-02, 2.98062596e-03, 3.16978097e-02, 6.47712918e-03,
          6.87836728e-04, 3.61114298e-03, 6.99300691e-03, 1.18078645e-02,
          6.07589120e-03, 1.11200269e-02, 2.37303674e-02, 1.46165304e-02,
          4.92949644e-03, 9.57239512e-03, 2.17814976e-03, 4.18434013e-03,
          1.60495248e-02, 4.58557811e-03, 2.74561495e-02, 1.32442564e-02,
          9.55227390e-03, 2.16830755e-03, 2.11556498e-02, 1.46507267e-02,
          1.61157995e-02, 1.58227840e-03, 1.46507262e-03, 0.,
          1.85185187e-02, 5.68448193e-03, 1.75808719e-03, 5.86029026e-04,
          5.27426135e-04, 1.23066106e-03, 7.03234866e-04, 2.75433660e-02,
          1.40060941e-02, 6.44631975e-04, 0., 1.87529288e-02,
          8.02859850e-03, 2.25621182e-02, 2.57852790e-03, 1.95147675e-02,
          3.63338031e-02, 1.82255041e-02, 1.69362389e-02, 6.85653975e-03,
          9.72808246e-03, 1.16619784e-02, 1.95733700e-02, 3.86779173e-03,
          2.34411622e-04, 9.02484730e-03, 9.78668500e-03, 3.85607108e-02,
          1.76394749e-02, 1.64088141e-02, 1.07243313e-02, 1.86357237e-02,
          1.60571970e-02, 5.27426135e-04, 8.43881816e-03, 8.79043597e-04,
          1.98663846e-02, 4.68823244e-04, 1.49437413e-02, 3.51617433e-04,
          2.12142523e-02, 1.57641824e-02, 1.09001407e-02, 1.31270513e-02,
          0., 5.21565881e-03, 1.96905769e-02, 1.17791845e-02,
          2.09212378e-02, 3.34036560e-03, 1.49437413e-02, 1.38888890e-02,
          1.14861699e-02, 5.91889350e-03, 1.16033750e-02, 1.06071262e-02,
          5.15705580e-03, 1.35372709e-02, 2.83638071e-02, 8.20440706e-04,
          1.54125644e-02, 1.45335207e-02, 2.10970454e-03, 0.,
          3.86779173e-03, 1.58227840e-03, 1.81082971e-02, 4.10220353e-04,
          1.81669008e-03, 6.44631975e-04, 2.16830755e-03, 0.,
          2.72503514e-02, 5.45007037e-03, 2.15658695e-02, 8.84903874e-03,
          5.27426135e-04, 1.46507267e-02, 1.68190338e-02, 1.32442564e-02,
          1.95733700e-02, 2.16830755e-03, 1.75808716e-04, 1.30684478e-02,
          1.16619784e-02, 7.67698046e-03, 1.34786684e-03, 5.74308494e-03,
          1.52367551e-03, 1.40646973e-03, 5.86029055e-05 ]
   responses: !!opencv-matrix
      rows: 30
      cols: 1
      dt: f
      data: [ 0., 0., 0., 0., 0., 0., 0., 0., 0., 0., 0., 0., 0., 0., 0.,
          1., 1., 1., 1., 1., 1., 1., 1., 1., 1., 1., 1., 1., 1., 1. ]
