%YAML:1.0
---
opencv_ml_knn:
   format: 3
   is_classifier: 1
   default_k: 2
   samples: !!opencv-matrix
      rows: 30
      cols: 100
      dt: f
      data: [ 6.21118024e-03, 1.24223605e-02, 1.24223605e-02,
          6.21118024e-03, 0., 6.21118024e-03, 0., 1.24223605e-02,
          1.24223605e-02, 1.24223605e-02, 6.21118024e-03, 1.24223605e-02,
          1.86335407e-02, 1.86335407e-02, 1.86335407e-02, 0., 0.,
          6.21118024e-03, 6.21118024e-03, 4.34782617e-02, 6.21118024e-03,
          0., 0., 3.10559012e-02, 1.24223605e-02, 1.86335407e-02,
          1.24223605e-02, 2.48447210e-02, 1.24223605e-02, 0., 0., 0.,
          1.24223605e-02, 6.21118024e-03, 0., 6.21118024e-03, 0., 0.,
          6.21118024e-03, 6.21118024e-03, 0., 0., 0., 6.21118024e-03,
          6.21118024e-03, 1.86335407e-02, 1.24223605e-02, 2.48447210e-02,
          1.24223605e-02, 0., 0., 1.86335407e-02, 2.48447210e-02,
          2.48447210e-02, 1.86335407e-02, 1.86335407e-02, 0.,
          1.24223605e-02, 1.24223605e-02, 0., 1.24223605e-02,
          1.24223605e-02, 1.86335407e-02, 0., 0., 0., 6.21118024e-03,
          6.21118024e-03, 2.48447210e-02, 1.86335407e-02, 1.86335407e-02,
          1.24223605e-02, 0., 6.21118024e-03, 6.21118024e-03,
          6.21118024e-03, 6.21118024e-03, 2.48447210e-02, 0.,
          1.86335407e-02, 6.21118024e-03, 6.21118024e-03, 6.21118024e-03,
          1.86335407e-02, 2.48447210e-02, 1.24223605e-02, 0., 0.,
          1.24223605e-02, 6.21118024e-03, 6.21118024e-03, 0.,
          1.86335407e-02, 1.24223605e-02, 0., 6.21118024e-03, 0.,
          7.45341629e-02, 1.24223605e-02, 0., 8.13008100e-03,
          1.62601620e-02, 0., 9.75609720e-02, 0., 0., 0., 3.25203240e-02,
          4.87804860e-02, 0., 0., 8.13008100e-03, 0., 0., 1.62601620e-02,
          0., 8.13008100e-03, 8.13008100e-03, 0., 6.50406480e-02, 0., 0.,
          8.13008100e-03, 0., 8.13008100e-03, 8.13008100e-03,
          8.13008100e-03, 0., 4.06504050e-02, 2.43902430e-02,
          8.13008100e-03, 8.13008100e-03, 8.13008100e-03, 8.13008100e-03,
          8.13008100e-03, 0., 8.13008100e-03, 0., 0., 0., 0.,
          8.13008100e-03, 8.13008100e-03, 3.25203240e-02, 4.87804860e-02,
          8.13008100e-03, 1.62601620e-02, 1.62601620e-02, 0., 0.,
          8.13008100e-03, 2.43902430e-02, 8.13008100e-03, 8.13008100e-03,
          8.13008100e-03, 8.13008100e-03, 1.62601620e-02, 0., 0.,
          8.13008100e-03, 3.25203240e-02, 8.13008100e-03, 0., 0.,
          8.13008100e-03, 8.13008100e-03, 1.62601620e-02, 8.13008100e-03,
          0., 8.13008100e-03, 3.25203240e-02, 0., 8.13008100e-03, 0.,
          8.13008100e-03, 8.13008100e-03, 0., 8.13008100e-03, 0.,
          2.43902430e-02, 0., 1.62601620e-02, 0., 8.13008100e-03, 0.,
          8.13008100e-03, 8.13008100e-03, 0., 1.62601620e-02,
          8.13008100e-03, 8.13008100e-03, 0., 2.43902430e-02, 0., 0.,
          1.62601620e-02, 0., 8.13008100e-03, 8.13008100e-03,
          8.13008100e-03, 0., 0., 0., 1.20481923e-02, 2.40963846e-02,
          1.20481923e-02, 0., 0., 3.61445770e-02, 0., 0., 0.,
          1.20481923e-02, 0., 0., 0., 0., 0., 1.20481923e-02,
          2.40963846e-02, 2.40963846e-02, 0., 0., 4.81927693e-02,
          1.20481923e-02, 0., 2.40963846e-02, 3.61445770e-02, 0., 0.,
          2.40963846e-02, 2.40963846e-02, 0., 0., 1.20481923e-02,
          1.20481923e-02, 0., 0., 0., 0., 1.20481923e-02, 1.20481923e-02,
          0., 0., 0., 2.40963846e-02, 6.02409616e-02, 3.61445770e-02,
          2.40963846e-02, 0., 0., 0., 2.40963846e-02, 0., 0.,
          2.40963846e-02, 0., 1.20481923e-02, 1.20481923e-02, 0.,
          3.61445770e-02, 0., 3.61445770e-02, 0., 0., 0., 2.40963846e-02,
          0., 0., 0., 0., 4.81927693e-02, 0., 1.20481923e-02, 0.,
          6.02409616e-02, 0., 0., 0., 2.40963846e-02, 1.20481923e-02,
          1.20481923e-02, 0., 0., 2.40963846e-02, 1.20481923e-02, 0.,
          1.20481923e-02, 0., 0., 0., 0., 0., 1.20481923e-02,
          1.20481923e-02, 1.20481923e-02, 0., 6.02409616e-02, 0., 0.,
          1.76991150e-02, 8.84955749e-03, 4.42477874e-03, 1.32743362e-02,
          8.84955749e-03, 4.42477874e-03, 1.32743362e-02, 8.84955749e-03,
          1.32743362e-02, 0., 4.42477874e-03, 8.84955749e-03,
          1.32743362e-02, 8.84955749e-03, 4.42477874e-03, 1.32743362e-02,
          8.84955749e-03, 4.42477874e-03, 8.84955749e-03, 2.21238937e-02,
          4.42477874e-03, 1.76991150e-02, 1.32743362e-02, 6.19469024e-02,
          8.84955749e-03, 4.42477874e-03, 4.42477874e-03, 1.32743362e-02,
          4.42477874e-03, 1.32743362e-02, 0., 0., 1.32743362e-02, 0.,
          1.32743362e-02, 8.84955749e-03, 8.84955749e-03, 0., 0.,
          1.32743362e-02, 4.42477874e-03, 4.42477874e-03, 4.42477874e-03,
          1.32743362e-02, 1.32743362e-02, 5.75221255e-02, 0., 0., 0.,
          1.32743362e-02, 8.84955749e-03, 1.76991150e-02, 8.84955749e-03,
          0., 1.76991150e-02, 4.42477874e-03, 1.32743362e-02,
          8.84955749e-03, 0., 4.42477874e-03, 1.32743362e-02,
          1.32743362e-02, 0., 4.42477874e-03, 2.21238937e-02,
          4.42477874e-03, 1.76991150e-02, 8.84955749e-03, 3.09734512e-02,
          4.42477874e-03, 0., 1.76991150e-02, 1.32743362e-02, 0., 0.,
          2.21238937e-02, 4.42477874e-03, 4.42477874e-03, 2.65486725e-02,
          4.42477874e-03, 0., 4.42477874e-03, 4.42477874e-03,
          4.42477874e-03, 4.42477874e-03, 4.42477874e-03, 4.42477874e-03,
          4.42477874e-03, 8.84955749e-03, 0., 0., 1.32743362e-02,
          1.32743362e-02, 0., 2.21238937e-02, 0., 0., 6.19469024e-02,
          1.32743362e-02, 3.53982300e-02, 3.24675324e-03, 2.92207785e-02,
          6.49350649e-03, 3.24675329e-02, 1.29870130e-02, 3.24675324e-03,
          3.24675324e-03, 6.49350649e-03, 1.62337665e-02, 6.49350649e-03,
          1.94805190e-02, 0., 6.49350649e-03, 6.49350649e-03, 0.,
          3.24675324e-03, 2.27272734e-02, 0., 6.49350649e-03,
          1.29870130e-02, 3.24675324e-03, 1.29870130e-02, 3.24675324e-03,
          2.92207785e-02, 3.24675324e-03, 6.49350649e-03, 6.49350649e-03,
          6.49350649e-03, 3.24675324e-03, 9.74025950e-03, 0.,
          3.24675324e-03, 6.49350649e-03, 6.49350649e-03, 1.29870130e-02,
          6.49350649e-03, 0., 1.62337665e-02, 3.24675324e-03,
          3.24675324e-03, 3.24675324e-03, 3.24675324e-03, 1.62337665e-02,
          1.62337665e-02, 1.29870130e-02, 2.59740259e-02, 1.29870130e-02,
          6.49350649e-03, 3.24675324e-03, 7.14285746e-02, 1.62337665e-02,
          1.62337665e-02, 0., 6.49350649e-03, 3.24675324e-03,
          9.74025950e-03, 0., 3.24675324e-03, 1.62337665e-02,
          3.24675324e-03, 6.49350649e-03, 1.62337665e-02, 6.49350649e-03,
          6.49350649e-03, 3.24675324e-03, 0., 1.94805190e-02,
          9.74025950e-03, 9.74025950e-03, 6.49350649e-03, 2.27272734e-02,
          0., 1.29870130e-02, 3.24675324e-03, 1.29870130e-02,
          6.49350649e-03, 9.74025950e-03, 9.74025950e-03, 1.94805190e-02,
          2.92207785e-02, 3.24675324e-03, 0., 1.94805190e-02,
          9.74025950e-03, 0., 3.24675324e-03, 3.24675324e-03,
          2.27272734e-02, 3.24675324e-03, 1.29870130e-02, 1.29870130e-02,
          6.49350649e-03, 3.24675324e-03, 9.74025950e-03, 9.74025950e-03,
          2.27272734e-02, 6.49350649e-03, 3.57142873e-02, 6.49350649e-03,
          9.74025950e-03, 1.08108111e-02, 1.08108111e-02, 0.,
          3.78378406e-02, 1.08108111e-02, 0., 5.40540554e-03,
          1.08108111e-02, 5.40540554e-03, 1.62162166e-02, 3.24324332e-02,
          1.08108111e-02, 1.62162166e-02, 0., 0., 0., 1.08108111e-02,
          1.08108111e-02, 0., 1.08108111e-02, 2.16216221e-02,
          5.40540554e-03, 1.62162166e-02, 3.24324332e-02, 0.,
          2.16216221e-02, 1.08108111e-02, 2.70270277e-02, 5.40540554e-03,
          0., 5.40540554e-03, 2.16216221e-02, 2.16216221e-02,
          1.62162166e-02, 0., 0., 0., 0., 0., 5.40540554e-03,
          5.40540554e-03, 1.08108111e-02, 2.70270277e-02, 0., 0.,
          4.32432443e-02, 1.08108111e-02, 5.40540554e-03, 0.,
          2.16216221e-02, 1.62162166e-02, 5.40540554e-03, 5.40540554e-03,
          0., 0., 0., 0., 0., 2.16216221e-02, 5.40540554e-03,
          1.08108111e-02, 0., 1.08108111e-02, 0., 0., 0., 3.78378406e-02,
          2.16216221e-02, 5.40540554e-03, 5.40540554e-03, 1.08108111e-02,
          0., 1.08108111e-02, 1.08108111e-02, 0., 0., 1.08108111e-02,
          1.62162166e-02, 5.40540554e-03, 5.40540554e-03, 5.40540554e-03,
          5.40540554e-03, 3.24324332e-02, 1.08108111e-02, 1.62162166e-02,
          5.40540554e-03, 0., 1.62162166e-02, 3.24324332e-02,
          1.08108111e-02, 5.40540554e-03, 5.40540554e-03, 5.40540554e-03,
          2.70270277e-02, 5.40540554e-03, 1.08108111e-02, 1.08108111e-02,
          2.70270277e-02, 5.40540554e-03, 1.08108111e-02, 0.,
          1.29870130e-02, 0., 2.59740259e-02, 0., 0., 0., 0.,
          3.89610380e-02, 0., 1.29870130e-02, 0., 2.59740259e-02, 0.,
          1.29870130e-02, 1.29870130e-02, 1.29870130e-02, 0., 0.,
          1.29870130e-02, 0., 1.29870130e-02, 1.29870130e-02,
          1.29870130e-02, 1.29870130e-02, 1.29870130e-02, 0.,
          1.29870130e-02, 0., 2.59740259e-02, 0., 0., 0., 2.59740259e-02,
          0., 1.29870130e-02, 0., 1.29870130e-02, 0., 1.29870130e-02, 0.,
          1.29870130e-02, 1.29870130e-02, 0., 0., 1.29870130e-02,
          6.49350658e-02, 1.29870130e-02, 0., 0., 0., 0., 3.89610380e-02,
          2.59740259e-02, 1.29870130e-02, 0., 1.29870130e-02, 0.,
          1.29870130e-02, 2.59740259e-02, 1.29870130e-02, 3.89610380e-02,
          2.59740259e-02, 2.59740259e-02, 0., 0., 0., 1.29870130e-02, 0.,
          0., 2.59740259e-02, 0., 0., 0., 0., 1.29870130e-02,
          1.29870130e-02, 0., 1.29870130e-02, 2.59740259e-02, 0., 0.,
          1.29870130e-02, 1.29870130e-02, 0., 1.29870130e-02, 0., 0., 0.,
          0., 0., 1.29870130e-02, 5.19480519e-02, 0., 0., 2.59740259e-02,
          0., 0., 1.29870130e-02, 6.49350658e-02, 0., 3.27868834e-02, 0.,
          9.83606502e-02, 1.63934417e-02, 0., 0., 0., 0., 0., 0., 0., 0.,
          1.63934417e-02, 1.63934417e-02, 0., 1.63934417e-02, 0., 0., 0.,
          0., 0., 1.63934417e-02, 8.19672048e-02, 0., 1.63934417e-02, 0.,
          0., 3.27868834e-02, 3.27868834e-02, 0., 1.63934417e-02,
          1.63934417e-02, 1.63934417e-02, 0., 4.91803251e-02, 0., 0., 0.,
          0., 0., 0., 0., 0., 0., 1.63934417e-02, 0., 0., 1.63934417e-02,
          0., 0., 1.63934417e-02, 0., 1.63934417e-02, 3.27868834e-02,
          1.63934417e-02, 0., 0., 0., 0., 0., 0., 4.91803251e-02,
          1.63934417e-02, 1.63934417e-02, 0., 0., 3.27868834e-02, 0., 0.,
          1.63934417e-02, 1.63934417e-02, 0., 1.63934417e-02, 0.,
          1.63934417e-02, 0., 0., 1.63934417e-02, 1.63934417e-02, 0., 0.,
          1.63934417e-02, 6.55737668e-02, 1.63934417e-02, 0., 0., 0., 0.,
          0., 1.63934417e-02, 1.63934417e-02, 0., 0., 0., 0., 0.,
          3.27868834e-02, 0., 3.27868834e-02, 3.58422939e-03,
          1.79211460e-02, 0., 3.22580636e-02, 1.43369175e-02,
          7.16845877e-03, 0., 3.58422939e-03, 3.22580636e-02, 0., 0., 0.,
          1.79211460e-02, 5.73476702e-02, 2.86738351e-02, 1.07526882e-02,
          3.58422920e-02, 1.07526882e-02, 0., 1.43369175e-02,
          1.07526882e-02, 3.58422939e-03, 1.43369175e-02, 3.94265242e-02,
          2.15053763e-02, 1.79211460e-02, 1.07526882e-02, 7.16845877e-03,
          0., 7.16845877e-03, 3.58422939e-03, 1.07526882e-02, 0., 0.,
          7.16845877e-03, 7.16845877e-03, 7.16845877e-03, 3.58422939e-03,
          0., 0., 0., 3.58422939e-03, 3.58422939e-03, 2.15053763e-02,
          1.79211460e-02, 7.16845877e-03, 3.58422939e-03, 7.16845877e-03,
          7.16845877e-03, 1.43369175e-02, 3.58422939e-03, 1.43369175e-02,
          1.07526882e-02, 3.58422939e-03, 3.58422939e-03, 0.,
          1.79211460e-02, 3.58422939e-03, 0., 7.16845877e-03,
          1.43369175e-02, 2.15053763e-02, 3.58422939e-03, 7.16845877e-03,
          1.07526882e-02, 0., 1.07526882e-02, 5.73476702e-02,
          7.16845877e-03, 3.58422939e-03, 7.16845877e-03, 7.16845877e-03,
          3.58422939e-03, 1.79211460e-02, 7.16845877e-03, 1.79211460e-02,
          3.58422939e-03, 0., 2.50896066e-02, 7.16845877e-03, 0.,
          7.16845877e-03, 1.07526882e-02, 7.16845877e-03, 7.16845877e-03,
          7.16845877e-03, 7.16845877e-03, 3.58422939e-03, 7.16845877e-03,
          3.58422939e-03, 3.58422939e-03, 3.58422939e-03, 7.16845877e-03,
          1.07526882e-02, 0., 1.43369175e-02, 3.58422939e-03,
          1.79211460e-02, 3.58422939e-03, 3.22580636e-02, 9.34579410e-03,
          4.67289705e-03, 2.80373823e-02, 9.34579410e-03, 3.27102803e-02,
          0., 4.67289705e-03, 4.67289705e-03, 4.20560725e-02,
          4.67289705e-03, 0., 9.34579410e-03, 9.34579410e-03,
          4.20560725e-02, 0., 0., 1.86915882e-02, 4.67289705e-03, 0.,
          1.86915882e-02, 0., 0., 4.67289705e-03, 3.27102803e-02, 0.,
          9.34579410e-03, 3.27102803e-02, 4.67289705e-03, 1.40186911e-02,
          1.40186911e-02, 0., 4.67289705e-03, 0., 0., 9.34579410e-03,
          4.67289705e-03, 9.34579410e-03, 0., 4.67289705e-03,
          4.67289705e-03, 1.86915882e-02, 0., 0., 0., 0., 4.20560725e-02,
          9.34579410e-03, 0., 0., 1.86915882e-02, 0., 2.33644843e-02, 0.,
          9.34579410e-03, 1.40186911e-02, 3.27102803e-02, 1.86915882e-02,
          0., 0., 4.67289705e-03, 4.67289705e-03, 4.67289705e-03, 0.,
          4.67289705e-03, 9.34579410e-03, 4.67289705e-03, 4.20560725e-02,
          7.47663528e-02, 1.86915882e-02, 4.67289705e-03, 0., 0.,
          1.40186911e-02, 3.73831764e-02, 0., 4.67289705e-03,
          4.67289705e-03, 4.67289705e-03, 0., 0., 0., 0., 1.86915882e-02,
          4.67289705e-03, 1.40186911e-02, 9.34579410e-03, 0., 0.,
          3.73831764e-02, 9.34579410e-03, 0., 0., 9.34579410e-03,
          9.34579410e-03, 9.34579410e-03, 4.67289705e-03, 9.34579410e-03,
          4.67289705e-03, 9.34579410e-03, 3.27102803e-02, 6.88073365e-03,
          1.83486231e-02, 1.14678890e-02, 6.88073365e-03, 1.83486231e-02,
          9.17431153e-03, 1.14678890e-02, 2.29357788e-03, 1.14678890e-02,
          4.58715577e-03, 4.58715577e-03, 1.14678890e-02, 4.58715577e-03,
          6.88073365e-03, 1.14678890e-02, 6.88073365e-03, 6.88073365e-03,
          2.29357788e-03, 6.88073365e-03, 1.37614673e-02, 1.37614673e-02,
          1.14678890e-02, 1.37614673e-02, 2.98165120e-02, 4.58715577e-03,
          0., 2.75229346e-02, 1.83486231e-02, 9.17431153e-03,
          1.14678890e-02, 4.58715577e-03, 1.14678890e-02, 0.,
          4.58715577e-03, 2.29357788e-03, 0., 4.58715577e-03,
          6.88073365e-03, 2.29357788e-03, 4.58715577e-03, 2.52293572e-02,
          1.14678890e-02, 2.29357788e-03, 4.58715577e-03, 2.75229346e-02,
          1.60550456e-02, 4.58715577e-03, 1.37614673e-02, 1.83486231e-02,
          4.58715577e-03, 4.58715577e-03, 3.89908254e-02, 2.29357779e-02,
          1.14678890e-02, 1.14678890e-02, 9.17431153e-03, 0.,
          9.17431153e-03, 1.37614673e-02, 2.29357788e-03, 4.58715577e-03,
          2.75229346e-02, 4.58715577e-03, 2.29357788e-03, 2.29357788e-03,
          6.88073365e-03, 1.60550456e-02, 2.06422005e-02, 1.37614673e-02,
          4.58715577e-03, 6.88073365e-03, 6.88073365e-03, 4.58715577e-03,
          2.29357788e-03, 6.88073365e-03, 2.52293572e-02, 9.17431153e-03,
          9.17431153e-03, 2.98165120e-02, 6.88073365e-03, 4.58715577e-03,
          2.29357788e-03, 2.29357788e-03, 2.06422005e-02, 6.88073365e-03,
          4.58715577e-03, 0., 4.58715577e-03, 2.06422005e-02,
          1.60550456e-02, 2.29357788e-03, 6.88073365e-03, 1.37614673e-02,
          6.88073365e-03, 4.58715577e-03, 2.29357788e-03, 4.58715577e-03,
          1.60550456e-02, 1.60550456e-02, 2.29357779e-02, 0., 0., 0., 0.,
          3.03030312e-02, 0., 0., 0., 3.03030312e-02, 1.51515156e-02, 0.,
          0., 0., 0., 0., 0., 1.51515156e-02, 0., 1.51515156e-02,
          1.51515156e-02, 1.51515156e-02, 0., 0., 3.03030312e-02, 0., 0.,
          0., 0., 3.03030312e-02, 1.51515156e-02, 0., 3.03030312e-02, 0.,
          0., 1.51515156e-02, 0., 0., 0., 0., 0., 0., 1.51515156e-02, 0.,
          0., 0., 0., 0., 0., 3.03030312e-02, 0., 0., 0., 0.,
          6.06060624e-02, 4.54545468e-02, 7.57575780e-02, 3.03030312e-02,
          6.06060624e-02, 0., 0., 1.51515156e-02, 0., 0., 1.51515156e-02,
          0., 0., 1.51515156e-02, 0., 1.51515156e-02, 0., 0., 0.,
          3.03030312e-02, 0., 0., 1.96969703e-01, 0., 0., 0., 0.,
          4.54545468e-02, 0., 1.51515156e-02, 0., 0., 0., 0., 0., 0., 0.,
          0., 0., 0., 0., 0., 1.51515156e-02, 0., 6.06060624e-02, 0., 0.,
          5.37634408e-03, 8.06451589e-03, 8.06451589e-03, 5.37634408e-03,
          2.68817204e-03, 0., 1.07526882e-02, 1.88172050e-02,
          3.76344100e-02, 8.06451589e-03, 5.37634408e-03, 1.07526882e-02,
          5.37634408e-03, 2.68817204e-03, 5.37634408e-03, 1.07526882e-02,
          0., 1.07526882e-02, 1.61290318e-02, 1.07526882e-02,
          2.68817204e-03, 5.37634408e-03, 2.68817204e-03, 1.88172050e-02,
          1.34408604e-02, 8.06451589e-03, 1.61290318e-02, 1.34408604e-02,
          8.06451589e-03, 1.07526882e-02, 2.68817204e-03, 2.68817204e-03,
          1.34408604e-02, 2.68817204e-03, 1.07526882e-02, 8.06451589e-03,
          1.34408604e-02, 5.37634408e-03, 2.15053763e-02, 5.37634408e-03,
          0., 5.37634408e-03, 5.37634408e-03, 1.34408604e-02,
          4.56989259e-02, 2.68817204e-03, 1.07526882e-02, 2.15053763e-02,
          5.37634408e-03, 1.88172050e-02, 1.07526882e-02, 1.34408604e-02,
          0., 1.07526882e-02, 2.15053763e-02, 1.61290318e-02,
          1.88172050e-02, 0., 5.37634408e-03, 1.34408604e-02,
          8.06451589e-03, 1.61290318e-02, 1.34408604e-02, 8.06451589e-03,
          5.37634408e-03, 2.68817204e-03, 8.06451589e-03, 0.,
          2.15053763e-02, 1.34408604e-02, 1.34408604e-02, 8.06451589e-03,
          2.68817204e-03, 5.37634408e-03, 1.07526882e-02, 4.03225794e-02,
          8.06451589e-03, 5.37634408e-03, 1.61290318e-02, 8.06451589e-03,
          0., 1.88172050e-02, 0., 1.61290318e-02, 0., 2.68817204e-03,
          5.37634408e-03, 1.07526882e-02, 8.06451589e-03, 1.34408604e-02,
          2.68817204e-03, 8.06451589e-03, 8.06451589e-03, 2.68817204e-03,
          1.07526882e-02, 5.37634408e-03, 1.34408604e-02, 1.88172050e-02,
          2.15053763e-02, 1.07526882e-02, 1.40186911e-02, 9.34579410e-03,
          0., 1.40186911e-02, 1.40186911e-02, 9.34579410e-03,
          9.34579410e-03, 4.67289705e-03, 7.94392526e-02, 0., 0.,
          4.67289705e-03, 1.40186911e-02, 4.67289705e-03, 6.54205605e-02,
          0., 1.40186911e-02, 0., 4.67289705e-03, 4.67289705e-03,
          1.86915882e-02, 1.40186911e-02, 9.34579410e-03, 1.40186911e-02,
          4.67289705e-03, 0., 4.67289705e-03, 1.86915882e-02,
          1.40186911e-02, 4.67289705e-03, 0., 0., 4.67289705e-03,
          2.80373823e-02, 0., 4.67289705e-03, 9.34579410e-03, 0., 0., 0.,
          0., 0., 4.67289705e-03, 4.67289705e-03, 1.40186911e-02,
          4.67289705e-03, 0., 1.86915882e-02, 0., 4.67289705e-03, 0.,
          2.80373823e-02, 4.67289705e-03, 9.34579410e-03, 9.34579410e-03,
          2.33644843e-02, 1.86915882e-02, 0., 2.80373823e-02,
          1.86915882e-02, 9.34579410e-03, 2.80373823e-02, 0.,
          4.67289705e-03, 0., 0., 2.33644843e-02, 1.86915882e-02, 0.,
          4.67289705e-03, 9.34579410e-03, 0., 4.67289705e-03,
          4.67289705e-03, 4.67289705e-03, 4.67289686e-02, 0.,
          4.67289705e-03, 4.20560725e-02, 0., 0., 0., 0., 1.86915882e-02,
          4.67289705e-03, 4.67289705e-03, 3.27102803e-02, 4.67289705e-03,
          0., 2.80373823e-02, 0., 2.33644843e-02, 4.67289705e-03,
          9.34579410e-03, 0., 1.86915882e-02, 4.67289705e-03,
          9.34579410e-03, 1.86915882e-02, 4.67289705e-03, 0., 0., 0., 0.,
          2.63157897e-02, 2.63157897e-02, 0., 0., 3.94736826e-02, 0.,
          1.31578948e-02, 2.63157897e-02, 1.31578948e-02, 1.31578948e-02,
          0., 0., 0., 0., 2.63157897e-02, 2.63157897e-02, 1.31578948e-02,
          0., 1.31578948e-02, 2.63157897e-02, 0., 1.31578948e-02, 0.,
          1.31578948e-02, 0., 5.26315793e-02, 1.31578948e-02,
          3.94736826e-02, 0., 0., 0., 0., 0., 0., 0., 2.63157897e-02,
          1.31578948e-02, 0., 0., 0., 2.63157897e-02, 0., 1.31578948e-02,
          1.31578948e-02, 0., 1.31578948e-02, 0., 0., 1.31578948e-02,
          3.94736826e-02, 2.63157897e-02, 0., 1.31578948e-02,
          1.31578948e-02, 0., 0., 3.94736826e-02, 5.26315793e-02, 0., 0.,
          1.31578948e-02, 0., 0., 0., 3.94736826e-02, 0., 0., 0.,
          1.31578948e-02, 0., 0., 0., 0., 0., 2.63157897e-02, 0., 0., 0.,
          1.31578948e-02, 2.63157897e-02, 0., 0., 0., 2.63157897e-02,
          1.31578948e-02, 0., 1.31578948e-02, 0., 1.31578948e-02, 0.,
          1.31578948e-02, 1.31578948e-02, 0., 6.57894760e-02, 0.,
          1.31578948e-02, 5.83090400e-03, 1.16618080e-02, 8.74635577e-03,
          0., 1.45772602e-02, 5.83090400e-03, 0., 1.45772602e-02,
          5.83090400e-03, 8.74635577e-03, 2.91545200e-03, 8.74635577e-03,
          2.04081647e-02, 2.91545200e-03, 1.74927115e-02, 0.,
          1.74927115e-02, 1.16618080e-02, 1.16618080e-02, 2.91545200e-03,
          5.83090400e-03, 2.91545200e-03, 5.83090400e-03, 1.16618080e-02,
          1.16618080e-02, 2.91545200e-03, 5.83090400e-03, 2.91545200e-03,
          1.45772602e-02, 5.83090400e-03, 5.83090400e-03, 8.74635577e-03,
          5.83090400e-03, 5.83090400e-03, 1.16618080e-02, 8.74635577e-03,
          1.16618080e-02, 2.33236160e-02, 1.16618080e-02, 1.45772602e-02,
          8.74635577e-03, 1.74927115e-02, 8.74635577e-03, 1.45772602e-02,
          1.16618080e-02, 0., 1.16618080e-02, 1.16618080e-02,
          1.74927115e-02, 5.83090400e-03, 1.74927115e-02, 8.74635577e-03,
          8.74635577e-03, 8.74635577e-03, 2.91545200e-03, 2.91545200e-03,
          5.83090400e-03, 8.74635577e-03, 2.91545200e-03, 1.74927115e-02,
          5.83090400e-03, 8.74635577e-03, 2.04081647e-02, 2.91545200e-03,
          8.74635577e-03, 1.45772602e-02, 1.74927115e-02, 1.74927115e-02,
          2.91545200e-03, 5.83090400e-03, 8.74635577e-03, 5.83090400e-03,
          0., 1.74927115e-02, 1.16618080e-02, 2.91545200e-03,
          1.74927115e-02, 2.33236160e-02, 1.16618080e-02, 8.74635577e-03,
          1.74927115e-02, 1.45772602e-02, 5.83090400e-03, 5.83090400e-03,
          1.45772602e-02, 1.45772602e-02, 1.16618080e-02, 2.33236160e-02,
          2.04081647e-02, 1.16618080e-02, 1.45772602e-02, 2.91545200e-03,
          5.83090400e-03, 1.74927115e-02, 2.91545200e-03, 1.45772602e-02,
          0., 2.91545200e-03, 5.83090400e-03, 3.79008763e-02,
          1.07526882e-02, 8.06451589e-03, 1.61290318e-02, 1.74731184e-02,
          8.06451589e-03, 9.40860249e-03, 8.06451589e-03, 8.06451589e-03,
          1.47849461e-02, 1.20967738e-02, 5.37634408e-03, 1.07526882e-02,
          4.03225794e-03, 2.68817204e-03, 1.74731184e-02, 1.20967738e-02,
          8.06451589e-03, 1.20967738e-02, 1.20967738e-02, 1.34408604e-02,
          5.37634408e-03, 1.20967738e-02, 9.40860249e-03, 5.37634408e-03,
          9.40860249e-03, 1.34408604e-02, 1.74731184e-02, 1.61290318e-02,
          1.07526882e-02, 1.61290318e-02, 1.20967738e-02, 1.47849461e-02,
          2.68817204e-03, 4.03225794e-03, 1.20967738e-02, 8.06451589e-03,
          8.06451589e-03, 1.88172050e-02, 1.61290318e-02, 9.40860249e-03,
          9.40860249e-03, 1.61290318e-02, 1.07526882e-02, 1.20967738e-02,
          4.03225794e-03, 1.74731184e-02, 9.40860249e-03, 6.72043022e-03,
          1.61290318e-02, 5.37634408e-03, 5.37634408e-03, 1.07526882e-02,
          1.34408602e-03, 1.47849461e-02, 4.03225794e-03, 1.74731184e-02,
          1.20967738e-02, 8.06451589e-03, 6.72043022e-03, 6.72043022e-03,
          8.06451589e-03, 8.06451589e-03, 1.20967738e-02, 5.37634408e-03,
          1.47849461e-02, 6.72043022e-03, 1.61290318e-02, 5.37634408e-03,
          2.28494629e-02, 1.34408604e-02, 8.06451589e-03, 6.72043022e-03,
          5.37634408e-03, 1.47849461e-02, 4.03225794e-03, 9.40860249e-03,
          5.37634408e-03, 1.20967738e-02, 1.34408602e-03, 1.88172050e-02,
          5.37634408e-03, 1.07526882e-02, 6.72043022e-03, 4.03225794e-03,
          8.06451589e-03, 2.68817204e-03, 5.37634408e-03, 9.40860249e-03,
          8.06451589e-03, 4.03225794e-03, 1.34408604e-02, 1.61290318e-02,
          1.07526882e-02, 9.40860249e-03, 1.47849461e-02, 6.72043022e-03,
          1.34408604e-02, 9.40860249e-03, 1.07526882e-02, 4.03225794e-03,
          1.02564106e-02, 5.12820529e-03, 2.56410264e-03, 5.12820529e-03,
          5.12820529e-03, 7.69230817e-03, 1.02564106e-02, 1.53846163e-02,
          2.82051284e-02, 1.02564106e-02, 1.53846163e-02, 7.69230817e-03,
          2.30769236e-02, 2.56410264e-03, 2.56410264e-03, 5.12820529e-03,
          5.12820529e-03, 7.69230817e-03, 1.02564106e-02, 2.05128212e-02,
          1.53846163e-02, 2.56410264e-03, 0., 2.82051284e-02,
          1.53846163e-02, 7.69230817e-03, 1.53846163e-02, 1.79487187e-02,
          7.69230817e-03, 5.12820529e-03, 1.28205130e-02, 2.56410264e-03,
          2.30769236e-02, 7.69230817e-03, 2.56410260e-02, 7.69230817e-03,
          1.02564106e-02, 7.69230817e-03, 2.05128212e-02, 5.12820529e-03,
          2.56410264e-03, 2.56410264e-03, 5.12820529e-03, 1.53846163e-02,
          5.12820529e-03, 2.56410264e-03, 5.12820529e-03, 1.02564106e-02,
          1.28205130e-02, 2.82051284e-02, 1.28205130e-02, 5.12820529e-03,
          1.02564106e-02, 1.79487187e-02, 5.12820529e-03, 1.02564106e-02,
          7.69230817e-03, 0., 5.12820529e-03, 5.12820529e-03,
          7.69230817e-03, 1.02564106e-02, 1.28205130e-02, 2.56410264e-03,
          0., 7.69230817e-03, 7.69230817e-03, 1.53846163e-02,
          5.12820529e-03, 1.79487187e-02, 1.53846163e-02, 2.56410264e-03,
          7.69230817e-03, 1.02564106e-02, 1.02564106e-02, 1.02564106e-02,
          7.69230817e-03, 1.79487187e-02, 1.02564106e-02, 7.69230817e-03,
          7.69230817e-03, 1.53846163e-02, 5.12820529e-03, 2.56410264e-03,
          1.53846163e-02, 2.05128212e-02, 1.79487187e-02, 2.56410264e-03,
          5.12820529e-03, 5.12820529e-03, 1.02564106e-02, 7.69230817e-03,
          1.53846163e-02, 7.69230817e-03, 5.12820529e-03, 2.05128212e-02,
          2.05128212e-02, 1.02564106e-02, 7.69230817e-03, 2.56410264e-03,
          2.46153846e-02, 3.07692308e-03, 3.07692308e-03, 3.07692308e-03,
          3.07692308e-03, 1.23076923e-02, 2.46153846e-02, 1.53846154e-02,
          0., 1.53846154e-02, 1.23076923e-02, 3.07692308e-03,
          1.53846154e-02, 3.07692308e-03, 1.53846154e-02, 6.15384616e-03,
          1.23076923e-02, 1.23076923e-02, 6.15384616e-03, 6.15384616e-03,
          1.53846154e-02, 9.23076924e-03, 9.23076924e-03, 1.23076923e-02,
          9.23076924e-03, 6.15384616e-03, 2.15384625e-02, 1.53846154e-02,
          1.23076923e-02, 0., 9.23076924e-03, 6.15384616e-03,
          3.07692308e-03, 9.23076924e-03, 3.07692308e-03, 6.15384616e-03,
          1.23076923e-02, 9.23076924e-03, 1.84615385e-02, 1.84615385e-02,
          1.53846154e-02, 1.53846154e-02, 3.07692308e-03, 3.07692308e-03,
          3.07692308e-03, 3.07692308e-03, 6.15384616e-03, 1.53846154e-02,
          6.15384616e-03, 6.15384616e-03, 6.15384616e-03, 3.07692308e-03,
          2.46153846e-02, 1.23076923e-02, 6.15384616e-03, 3.07692308e-03,
          1.53846154e-02, 3.07692308e-03, 6.15384616e-03, 9.23076924e-03,
          6.15384616e-03, 1.23076923e-02, 2.76923068e-02, 3.07692308e-03,
          3.07692308e-03, 6.15384616e-03, 6.15384616e-03, 6.15384616e-03,
          3.07692308e-03, 9.23076924e-03, 1.23076923e-02, 9.23076924e-03,
          0., 6.15384616e-03, 1.23076923e-02, 1.23076923e-02,
          2.15384625e-02, 1.53846154e-02, 2.76923068e-02, 1.23076923e-02,
          6.15384616e-03, 3.07692308e-03, 1.53846154e-02, 1.53846154e-02,
          6.15384616e-03, 3.07692308e-03, 9.23076924e-03, 1.23076923e-02,
          6.15384616e-03, 6.15384616e-03, 9.23076924e-03, 2.15384625e-02,
          6.15384616e-03, 1.53846154e-02, 6.15384616e-03, 1.84615385e-02,
          2.76923068e-02, 6.15384616e-03, 6.15384616e-03, 1.84615385e-02,
          1.38121555e-02, 2.76243105e-03, 1.65745858e-02, 2.76243105e-03,
          8.28729291e-03, 1.65745858e-02, 2.48618796e-02, 5.52486209e-03,
          4.14364673e-02, 5.52486209e-03, 0., 1.10497242e-02, 0.,
          2.76243105e-03, 1.65745858e-02, 5.52486209e-03, 5.52486209e-03,
          1.10497242e-02, 1.65745858e-02, 8.28729291e-03, 1.65745858e-02,
          1.38121555e-02, 5.52486209e-03, 2.76243105e-03, 1.10497242e-02,
          1.38121555e-02, 2.76243105e-03, 2.76243105e-03, 1.10497242e-02,
          3.31491716e-02, 5.52486209e-03, 1.10497242e-02, 5.52486209e-03,
          5.52486209e-03, 1.65745858e-02, 1.93370171e-02, 1.38121555e-02,
          1.10497242e-02, 2.20994484e-02, 2.76243105e-03, 1.10497242e-02,
          8.28729291e-03, 2.76243105e-03, 5.52486209e-03, 1.38121555e-02,
          5.52486209e-03, 2.76243105e-03, 2.76243105e-03, 0., 0.,
          1.10497242e-02, 2.76243105e-03, 1.10497242e-02, 2.20994484e-02,
          2.20994484e-02, 2.20994484e-02, 1.93370171e-02, 1.10497242e-02,
          2.76243105e-03, 5.52486209e-03, 1.65745858e-02, 1.65745858e-02,
          5.52486209e-03, 1.38121555e-02, 8.28729291e-03, 2.76243105e-03,
          1.10497242e-02, 0., 1.10497242e-02, 3.86740342e-02,
          5.52486209e-03, 1.10497242e-02, 3.03867422e-02, 2.76243105e-03,
          5.52486209e-03, 2.76243105e-03, 2.76243105e-03, 2.76243105e-03,
          2.76243105e-03, 8.28729291e-03, 8.28729291e-03, 1.10497242e-02,
          2.76243105e-03, 5.52486209e-03, 0., 5.52486209e-03,
          5.52486209e-03, 2.76243105e-03, 1.10497242e-02, 1.38121555e-02,
          8.28729291e-03, 1.10497242e-02, 3.03867422e-02, 0.,
          1.38121555e-02, 5.52486209e-03, 2.48618796e-02, 0.,
          1.10497242e-02, 5.52486209e-03, 1.74672492e-02, 4.36681230e-03,
          4.36681230e-03, 4.36681230e-03, 1.74672492e-02, 0.,
          1.31004369e-02, 0., 0., 1.31004369e-02, 0., 8.73362459e-03,
          3.93013097e-02, 4.36681211e-02, 8.73362459e-03, 1.74672492e-02,
          1.31004369e-02, 4.36681230e-03, 4.36681230e-03, 8.73362459e-03,
          0., 8.73362459e-03, 0., 2.18340605e-02, 8.73362459e-03, 0.,
          8.73362459e-03, 4.36681230e-03, 1.74672492e-02, 8.73362459e-03,
          4.36681230e-03, 4.36681230e-03, 4.36681230e-03, 4.36681230e-03,
          8.73362459e-03, 1.31004369e-02, 2.18340605e-02, 1.74672492e-02,
          4.36681230e-03, 1.31004369e-02, 8.73362459e-03, 1.74672492e-02,
          1.74672492e-02, 4.36681230e-03, 8.73362459e-03, 4.36681230e-03,
          4.36681230e-03, 4.36681230e-03, 4.36681230e-03, 1.31004369e-02,
          4.36681230e-03, 8.73362459e-03, 8.73362459e-03, 0., 0., 0., 0.,
          4.36681230e-03, 0., 0., 4.36681230e-03, 0., 0., 1.74672492e-02,
          8.73362459e-03, 8.73362459e-03, 1.31004369e-02, 1.00436680e-01,
          0., 0., 1.74672492e-02, 1.74672492e-02, 0., 1.74672492e-02,
          8.73362459e-03, 1.31004369e-02, 4.36681230e-03, 8.73362459e-03,
          8.73362459e-03, 8.73362459e-03, 4.36681230e-03, 4.36681230e-03,
          4.36681230e-03, 0., 8.73362459e-03, 8.73362459e-03,
          2.18340605e-02, 4.36681230e-03, 4.36681230e-03, 1.74672492e-02,
          8.73362459e-03, 1.74672492e-02, 8.73362459e-03, 2.62008738e-02,
          4.36681230e-03, 8.73362459e-03, 1.74672492e-02, 0.,
          4.36681230e-03, 5.67685589e-02, 2.22222209e-02, 1.11111104e-02,
          1.48148146e-02, 1.11111104e-02, 3.70370364e-03, 7.40740728e-03,
          7.40740728e-03, 1.11111104e-02, 1.48148146e-02, 7.40740728e-03,
          1.85185187e-02, 3.70370364e-03, 1.85185187e-02, 1.48148146e-02,
          0., 7.40740728e-03, 2.59259250e-02, 3.70370364e-03,
          1.11111104e-02, 7.40740728e-03, 0., 0., 3.70370364e-03,
          1.48148146e-02, 3.70370364e-03, 7.40740728e-03, 1.11111104e-02,
          2.22222209e-02, 7.40740728e-03, 7.40740728e-03, 1.48148146e-02,
          1.85185187e-02, 1.11111104e-02, 3.70370364e-03, 7.40740728e-03,
          3.70370364e-03, 7.40740728e-03, 1.48148146e-02, 3.70370364e-03,
          1.11111104e-02, 7.40740728e-03, 1.48148146e-02, 1.11111104e-02,
          1.85185187e-02, 0., 0., 7.40740728e-03, 1.85185187e-02,
          1.48148146e-02, 7.40740728e-03, 3.70370364e-03, 3.70370364e-03,
          7.40740728e-03, 3.70370364e-03, 7.40740728e-03, 3.70370364e-03,
          0., 3.70370364e-03, 3.70370364e-03, 1.85185187e-02,
          7.40740728e-03, 7.40740728e-03, 2.22222209e-02, 7.40740728e-03,
          1.11111104e-02, 3.70370364e-03, 3.70370364e-03, 1.48148146e-02,
          1.11111104e-02, 3.70370364e-03, 7.40740728e-03, 1.48148146e-02,
          3.70370364e-03, 1.85185187e-02, 1.85185187e-02, 3.70370364e-03,
          1.11111104e-02, 2.96296291e-02, 7.40740728e-03, 0., 0.,
          1.48148146e-02, 2.22222209e-02, 7.40740728e-03, 3.33333313e-02,
          7.40740728e-03, 1.11111104e-02, 1.48148146e-02, 1.85185187e-02,
          1.11111104e-02, 1.11111104e-02, 7.40740728e-03, 1.11111104e-02,
          1.11111104e-02, 1.11111104e-02, 1.48148146e-02, 1.11111104e-02,
          0., 7.40740728e-03, 1.48148146e-02, 2.35849060e-03, 0.,
          1.41509436e-02, 1.41509436e-02, 7.07547180e-03, 0.,
          9.43396240e-03, 7.07547180e-03, 3.77358496e-02, 0.,
          4.71698120e-03, 1.65094342e-02, 4.71698120e-03, 9.43396240e-03,
          2.83018872e-02, 9.43396240e-03, 2.35849060e-03, 9.43396240e-03,
          2.35849060e-03, 9.43396240e-03, 0., 2.35849060e-03, 0.,
          7.07547180e-03, 2.35849060e-03, 9.43396240e-03, 4.71698120e-03,
          7.07547180e-03, 7.07547180e-03, 2.83018872e-02, 4.71698120e-03,
          3.06603778e-02, 2.35849060e-03, 4.71698120e-03, 9.43396240e-03,
          9.43396240e-03, 1.17924530e-02, 1.17924530e-02, 2.12264154e-02,
          0., 7.07547180e-03, 0., 4.71698120e-03, 0., 4.00943384e-02, 0.,
          2.35849060e-03, 4.71698120e-03, 2.35849060e-03, 1.17924530e-02,
          4.71698120e-03, 3.30188684e-02, 7.07547180e-03, 2.35849060e-02,
          1.41509436e-02, 2.59433966e-02, 2.83018872e-02, 1.41509436e-02,
          2.35849060e-03, 7.07547180e-03, 1.17924530e-02, 3.53773609e-02,
          4.71698120e-03, 2.35849060e-03, 1.17924530e-02, 1.41509436e-02,
          7.07547180e-03, 4.71698120e-03, 3.06603778e-02, 2.35849060e-02,
          2.35849060e-03, 1.88679248e-02, 1.65094342e-02, 0.,
          9.43396240e-03, 2.12264154e-02, 9.43396240e-03, 7.07547180e-03,
          7.07547180e-03, 2.35849060e-03, 4.71698120e-03, 2.35849060e-03,
          0., 5.89622632e-02, 4.71698120e-03, 2.35849060e-03,
          2.35849060e-03, 0., 4.71698120e-03, 4.71698120e-03, 0.,
          4.71698120e-03, 2.59433966e-02, 0., 1.17924530e-02,
          4.71698120e-03, 9.43396240e-03, 7.07547180e-03, 7.07547180e-03,
          7.07547180e-03, 6.66666683e-03, 1.55555559e-02, 1.11111114e-02,
          1.99999996e-02, 1.11111114e-02, 8.88888910e-03, 8.88888910e-03,
          4.44444455e-03, 1.55555559e-02, 1.55555559e-02, 1.11111114e-02,
          2.22222228e-03, 3.11111119e-02, 8.88888910e-03, 4.44444455e-03,
          2.22222228e-03, 4.44444455e-03, 4.44444455e-03, 6.66666683e-03,
          2.66666673e-02, 6.66666683e-03, 4.44444455e-03, 1.55555559e-02,
          2.88888887e-02, 6.66666683e-03, 0., 8.88888910e-03,
          2.22222228e-03, 4.44444455e-03, 4.44444455e-03, 1.55555559e-02,
          4.44444455e-03, 6.66666683e-03, 1.33333337e-02, 4.44444455e-03,
          1.11111114e-02, 8.88888910e-03, 1.77777782e-02, 4.44444455e-03,
          6.66666683e-03, 2.22222228e-03, 1.33333337e-02, 6.66666683e-03,
          1.11111114e-02, 1.55555559e-02, 3.55555564e-02, 6.66666683e-03,
          6.66666683e-03, 8.88888910e-03, 3.55555564e-02, 1.11111114e-02,
          1.55555559e-02, 6.66666683e-03, 4.44444455e-03, 4.44444455e-03,
          4.44444455e-03, 6.66666683e-03, 1.33333337e-02, 1.33333337e-02,
          2.22222228e-03, 1.11111114e-02, 1.99999996e-02, 1.11111114e-02,
          0., 4.44444455e-03, 8.88888910e-03, 6.66666683e-03,
          1.55555559e-02, 1.55555559e-02, 6.66666683e-03, 1.11111114e-02,
          0., 2.22222228e-03, 4.44444455e-03, 1.11111114e-02,
          2.22222228e-03, 1.55555559e-02, 6.66666683e-03, 1.99999996e-02,
          1.55555559e-02, 4.44444455e-03, 8.88888910e-03, 2.22222228e-03,
          4.44444455e-03, 1.11111114e-02, 2.22222228e-03, 1.33333337e-02,
          8.88888910e-03, 6.66666683e-03, 1.11111114e-02, 6.66666683e-03,
          2.22222228e-02, 4.44444455e-03, 4.44444455e-03, 1.77777782e-02,
          1.11111114e-02, 1.33333337e-02, 1.55555559e-02, 4.44444455e-03,
          1.77777782e-02, 8.38574395e-03, 2.09643599e-02, 8.38574395e-03,
          8.38574395e-03, 4.19287197e-03, 2.09643599e-02, 8.38574395e-03,
          1.25786159e-02, 6.28930796e-03, 8.38574395e-03, 1.04821799e-02,
          8.38574395e-03, 3.35429758e-02, 4.19287197e-03, 0.,
          1.25786159e-02, 1.04821799e-02, 6.28930796e-03, 1.67714879e-02,
          1.67714879e-02, 2.09643599e-02, 6.28930796e-03, 1.25786159e-02,
          2.09643599e-02, 6.28930796e-03, 4.19287197e-03, 6.28930796e-03,
          6.28930796e-03, 8.38574395e-03, 8.38574395e-03, 1.46750519e-02,
          2.09643599e-03, 6.28930796e-03, 1.04821799e-02, 4.19287197e-03,
          6.28930796e-03, 4.19287197e-03, 1.67714879e-02, 8.38574395e-03,
          1.46750519e-02, 1.25786159e-02, 1.25786159e-02, 2.09643599e-02,
          2.30607949e-02, 2.09643599e-03, 8.38574395e-03, 4.19287197e-03,
          1.04821799e-02, 6.28930796e-03, 1.04821799e-02, 4.19287197e-03,
          1.67714879e-02, 4.19287197e-03, 8.38574395e-03, 1.04821799e-02,
          1.04821799e-02, 1.25786159e-02, 8.38574395e-03, 1.25786159e-02,
          8.38574395e-03, 1.04821799e-02, 6.28930796e-03, 1.04821799e-02,
          2.09643599e-03, 2.09643599e-03, 2.09643599e-03, 6.28930796e-03,
          3.98322828e-02, 0., 1.67714879e-02, 8.38574395e-03,
          6.28930796e-03, 4.19287197e-03, 2.09643599e-03, 6.28930796e-03,
          8.38574395e-03, 1.25786159e-02, 6.28930796e-03, 4.19287197e-03,
          2.09643599e-02, 6.28930796e-03, 8.38574395e-03, 2.09643599e-03,
          0., 6.28930796e-03, 1.04821799e-02, 1.46750519e-02,
          1.25786159e-02, 4.19287197e-03, 8.38574395e-03, 1.04821799e-02,
          1.25786159e-02, 4.19287197e-03, 4.19287197e-03, 6.28930796e-03,
          1.88679248e-02, 8.38574395e-03, 4.19287197e-02, 1.04821799e-02,
          1.04821799e-02, 9.11854114e-03, 6.07902743e-03, 1.21580549e-02,
          6.07902743e-03, 1.51975686e-02, 0., 9.11854114e-03,
          9.11854114e-03, 3.03951371e-03, 1.82370823e-02, 1.21580549e-02,
          1.21580549e-02, 9.11854114e-03, 6.07902743e-03, 3.03951371e-03,
          6.07902743e-03, 1.82370823e-02, 3.03951371e-03, 9.11854114e-03,
          3.64741646e-02, 3.03951371e-03, 2.43161097e-02, 2.12765969e-02,
          9.11854114e-03, 6.07902743e-03, 6.07902743e-03, 1.51975686e-02,
          1.21580549e-02, 1.21580549e-02, 0., 6.07902743e-03,
          3.03951371e-03, 6.07902743e-03, 3.03951371e-03, 9.11854114e-03,
          3.03951371e-03, 6.07902743e-03, 2.73556225e-02, 3.03951371e-03,
          3.03951371e-03, 1.21580549e-02, 0., 2.12765969e-02,
          1.82370823e-02, 1.21580549e-02, 3.03951371e-03, 9.11854114e-03,
          9.11854114e-03, 1.82370823e-02, 6.07902743e-03, 1.51975686e-02,
          0., 9.11854114e-03, 3.03951371e-03, 3.03951371e-03,
          3.03951371e-03, 1.51975686e-02, 6.07902743e-03, 0.,
          3.03951371e-03, 9.11854114e-03, 3.34346518e-02, 9.11854114e-03,
          9.11854114e-03, 6.07902743e-03, 3.03951371e-03, 6.07902743e-03,
          1.51975686e-02, 3.03951371e-03, 3.03951371e-03, 1.51975686e-02,
          1.21580549e-02, 3.03951371e-03, 1.82370823e-02, 3.03951371e-03,
          3.03951371e-03, 2.43161097e-02, 1.82370823e-02, 3.03951371e-03,
          1.82370823e-02, 9.11854114e-03, 1.51975686e-02, 6.07902743e-03,
          1.82370823e-02, 2.12765969e-02, 1.51975686e-02, 1.51975686e-02,
          2.12765969e-02, 6.07902743e-03, 1.51975686e-02, 3.03951371e-03,
          3.03951371e-03, 9.11854114e-03, 2.43161097e-02, 1.21580549e-02,
          1.21580549e-02, 1.51975686e-02, 0., 6.07902743e-03,
          6.07902743e-03, 1.25000002e-02, 1.56250000e-02, 0.,
          3.12500005e-03, 2.50000004e-02, 1.87500007e-02, 1.25000002e-02,
          6.25000009e-03, 3.12500005e-03, 9.37500037e-03, 2.50000004e-02,
          3.12500005e-03, 2.18749996e-02, 5.31250015e-02, 0.,
          6.25000009e-03, 3.12500005e-03, 0., 1.25000002e-02,
          3.12500005e-03, 1.56250000e-02, 9.37500037e-03, 6.25000009e-03,
          1.87500007e-02, 1.87500007e-02, 3.12500005e-03, 3.12500005e-03,
          3.12500005e-03, 3.12500005e-03, 0., 3.12500005e-03,
          3.12500005e-03, 6.25000009e-03, 1.87500007e-02, 3.12500005e-03,
          0., 0., 1.87500007e-02, 6.25000009e-03, 6.25000009e-03, 0.,
          3.12500005e-03, 9.37500037e-03, 1.25000002e-02, 0.,
          9.37500037e-03, 9.37500037e-03, 6.25000009e-03, 1.25000002e-02,
          1.56250000e-02, 3.12500005e-03, 3.12500005e-03, 0.,
          9.37500037e-03, 0., 0., 0., 6.25000009e-03, 9.37500037e-03,
          3.12500005e-03, 3.12500005e-03, 9.37500037e-03, 1.25000002e-02,
          6.25000009e-03, 3.12500005e-03, 0., 0., 5.93749993e-02, 0.,
          6.25000009e-03, 1.87500007e-02, 3.12500005e-03, 0.,
          1.25000002e-02, 1.25000002e-02, 9.37500037e-03, 6.25000009e-03,
          9.37500037e-03, 6.25000009e-03, 1.56250000e-02, 3.12500005e-03,
          6.25000009e-03, 9.37500037e-03, 0., 2.18749996e-02,
          6.25000009e-03, 1.25000002e-02, 9.37500037e-03, 0.,
          9.37500037e-03, 1.87500007e-02, 1.56250000e-02, 6.25000009e-03,
          9.37500037e-03, 3.12500005e-03, 6.25000009e-03, 9.37500037e-03,
          1.21875003e-01, 0., 4.37499993e-02, 1.90476198e-02, 0.,
          1.19047621e-02, 0., 0., 1.19047621e-02, 1.90476198e-02,
          1.19047621e-02, 3.57142873e-02, 4.76190494e-03, 0.,
          2.61904765e-02, 0., 0., 4.76190494e-03, 7.14285765e-03, 0.,
          1.42857153e-02, 1.42857153e-02, 3.09523828e-02, 1.19047621e-02,
          0., 4.76190494e-03, 2.38095247e-03, 4.76190494e-03,
          1.19047621e-02, 1.90476198e-02, 4.76190494e-03, 1.19047621e-02,
          3.57142873e-02, 9.52380989e-03, 1.90476198e-02, 0.,
          2.38095247e-03, 2.61904765e-02, 7.14285765e-03, 9.52380989e-03,
          4.76190494e-03, 7.14285765e-03, 2.38095247e-03, 9.52380989e-03,
          4.76190494e-03, 0., 4.76190494e-03, 0., 0., 0., 4.76190494e-03,
          0., 2.38095247e-03, 4.76190494e-03, 1.19047621e-02,
          2.38095247e-03, 4.52380963e-02, 3.80952395e-02, 2.61904765e-02,
          3.33333351e-02, 1.19047621e-02, 0., 7.14285765e-03,
          2.14285720e-02, 1.19047621e-02, 4.76190494e-03, 4.76190494e-03,
          2.61904765e-02, 1.42857153e-02, 4.76190494e-03, 0.,
          2.85714306e-02, 2.85714306e-02, 2.38095247e-03, 2.14285720e-02,
          1.42857153e-02, 4.76190494e-03, 7.14285765e-03, 2.38095247e-03,
          7.14285765e-03, 0., 2.38095247e-03, 2.38095247e-03,
          4.76190494e-03, 1.66666675e-02, 0., 7.14285765e-03,
          2.38095247e-03, 7.14285765e-03, 4.76190494e-03, 9.52380989e-03,
          7.14285765e-03, 7.14285765e-03, 2.38095247e-03, 9.52380989e-03,
          1.90476198e-02, 0., 4.76190494e-03, 0., 9.52380989e-03,
          5.47619052e-02, 9.52380989e-03, 0., 3.37837846e-03,
          1.01351356e-02, 0., 1.35135138e-02, 3.37837846e-03,
          2.70270277e-02, 0., 1.01351356e-02, 6.75675692e-03,
          3.37837846e-03, 2.02702712e-02, 2.02702712e-02, 3.04054059e-02,
          3.37837846e-03, 1.68918930e-02, 6.75675692e-03, 1.01351356e-02,
          3.37837846e-03, 1.35135138e-02, 2.02702712e-02, 2.70270277e-02,
          1.01351356e-02, 3.37837846e-03, 6.75675692e-03, 1.01351356e-02,
          3.37837846e-03, 1.01351356e-02, 3.37837846e-03, 1.35135138e-02,
          0., 1.68918930e-02, 3.37837846e-03, 1.35135138e-02,
          6.75675692e-03, 0., 1.01351356e-02, 3.37837846e-03,
          2.36486495e-02, 0., 2.36486495e-02, 6.75675692e-03,
          1.01351356e-02, 3.37837846e-03, 2.02702712e-02, 1.35135138e-02,
          2.36486495e-02, 1.35135138e-02, 1.68918930e-02, 6.75675692e-03,
          4.05405425e-02, 3.37837846e-03, 2.02702712e-02, 3.37837846e-03,
          3.37837846e-03, 6.75675692e-03, 1.01351356e-02, 0.,
          6.75675692e-03, 6.75675692e-03, 6.75675692e-03, 3.37837846e-03,
          3.37837846e-03, 2.36486495e-02, 1.35135138e-02, 0.,
          3.37837846e-03, 0., 2.70270277e-02, 1.01351356e-02,
          3.37837846e-03, 6.75675692e-03, 6.75675692e-03, 3.37837846e-03,
          6.75675692e-03, 1.01351356e-02, 0., 0., 1.01351356e-02,
          6.75675692e-03, 6.75675692e-03, 3.37837846e-03, 6.75675692e-03,
          1.01351356e-02, 3.37837846e-03, 0., 1.01351356e-02,
          6.75675692e-03, 1.01351356e-02, 1.01351356e-02, 6.75675692e-03,
          6.75675692e-03, 3.37837846e-03, 1.01351356e-02, 2.02702712e-02,
          1.35135138e-02, 1.35135138e-02, 3.37837846e-03, 6.41891882e-02,
          3.37837846e-03, 1.35135138e-02, 1.50375944e-02, 5.01253130e-03,
          1.25313280e-02, 5.01253130e-03, 1.25313280e-02, 1.25313280e-02,
          7.51879718e-03, 2.00501252e-02, 1.00250626e-02, 1.00250626e-02,
          7.51879718e-03, 2.50626565e-03, 1.00250626e-02, 1.25313280e-02,
          5.01253130e-03, 5.01253130e-03, 7.51879718e-03, 7.51879718e-03,
          2.50626565e-03, 1.50375944e-02, 2.00501252e-02, 7.51879718e-03,
          1.00250626e-02, 7.51879718e-03, 7.51879718e-03, 1.25313280e-02,
          7.51879718e-03, 5.01253130e-03, 1.25313280e-02, 2.00501252e-02,
          1.00250626e-02, 1.25313280e-02, 2.50626565e-03, 2.50626565e-03,
          5.01253130e-03, 7.51879718e-03, 1.25313280e-02, 1.25313280e-02,
          5.01253130e-03, 7.51879718e-03, 1.00250626e-02, 1.75438598e-02,
          1.50375944e-02, 5.01253130e-03, 2.50626565e-03, 1.50375944e-02,
          5.01253130e-03, 1.75438598e-02, 2.50626565e-03, 1.00250626e-02,
          0., 0., 5.01253130e-03, 1.25313280e-02, 7.51879718e-03, 0.,
          1.25313280e-02, 7.51879718e-03, 5.01253130e-03, 1.00250626e-02,
          5.01253130e-03, 7.51879718e-03, 1.25313280e-02, 5.01253130e-03,
          7.51879718e-03, 2.00501252e-02, 2.00501252e-02, 2.00501252e-02,
          7.51879718e-03, 1.00250626e-02, 1.00250626e-02, 1.50375944e-02,
          2.00501252e-02, 5.01253130e-03, 7.51879718e-03, 7.51879718e-03,
          1.25313280e-02, 7.51879718e-03, 2.50626565e-03, 2.75689214e-02,
          0., 5.01253130e-03, 1.50375944e-02, 0., 1.00250626e-02,
          7.51879718e-03, 1.50375944e-02, 2.00501252e-02, 5.01253130e-03,
          1.75438598e-02, 2.50626565e-03, 1.25313280e-02, 1.75438598e-02,
          1.50375944e-02, 7.51879718e-03, 1.00250626e-02, 5.01253130e-03,
          3.75939831e-02, 2.00501252e-02, 1.25313280e-02 ]
   responses: !!opencv-matrix
      rows: 30
      cols: 1
      dt: f
      data: [ 0., 0., 0., 0., 0., 0., 0., 0., 0., 0., 0., 0., 0., 0., 0.,
          1., 1., 1., 1., 1., 1., 1., 1., 1., 1., 1., 1., 1., 1., 1. ]
