%YAML:1.0
---
opencv_ml_svm:
   format: 3
   svmType: C_SVC
   kernel:
      type: CHI2
      gamma: 1.
   C: 100.
   term_criteria: { iterations:100 }
   var_count: 100
   class_count: 2
   class_labels: !!opencv-matrix
      rows: 2
      cols: 1
      dt: i
      data: [ 0, 1 ]
   sv_total: 25
   support_vectors:
      - [ 5.43478280e-02, 0., 0., 1.08695654e-02, 0., 4.34782617e-02,
          1.08695654e-02, 0., 0., 4.34782617e-02, 0., 1.08695654e-02, 0.,
          1.08695654e-02, 1.08695654e-02, 0., 5.43478280e-02, 0.,
          1.08695654e-02, 0., 0., 1.08695654e-02, 4.34782617e-02, 0., 0.,
          0., 0., 0., 1.08695654e-02, 0., 2.17391308e-02, 1.08695654e-02,
          1.08695654e-02, 0., 3.26086953e-02, 0., 0., 2.17391308e-02,
          1.08695654e-02, 0., 0., 3.26086953e-02, 6.52173907e-02,
          1.08695654e-02, 0., 2.17391308e-02, 0., 2.17391308e-02, 0., 0.,
          0., 0., 0., 0., 2.17391308e-02, 2.17391308e-02, 0., 0., 0.,
          2.17391308e-02, 0., 0., 0., 1.08695654e-02, 0., 0.,
          1.08695654e-02, 0., 0., 0., 0., 0., 0., 4.34782617e-02,
          6.52173907e-02, 0., 3.26086953e-02, 0., 1.08695654e-02, 0., 0.,
          0., 2.17391308e-02, 0., 0., 1.08695654e-02, 2.17391308e-02, 0.,
          0., 2.17391308e-02, 3.26086953e-02, 0., 0., 0., 2.17391308e-02,
          1.08695654e-02, 2.17391308e-02, 0., 1.08695654e-02, 0. ]
      - [ 0., 9.52380989e-03, 1.90476198e-02, 0., 9.52380989e-03, 0.,
          9.52380989e-03, 0., 3.80952395e-02, 0., 9.52380989e-03,
          5.71428612e-02, 0., 0., 0., 0., 2.85714306e-02, 0.,
          2.85714306e-02, 0., 0., 0., 9.52380989e-03, 3.80952395e-02,
          2.85714306e-02, 0., 0., 9.52380989e-03, 9.52380989e-03, 0.,
          9.52380989e-03, 9.52380989e-03, 0., 2.85714306e-02,
          9.52380989e-03, 1.90476198e-02, 0., 0., 9.52380989e-03, 0.,
          1.90476198e-02, 0., 0., 9.52380989e-03, 2.85714306e-02, 0.,
          1.90476198e-02, 1.90476198e-02, 1.90476198e-02, 2.85714306e-02,
          9.52380989e-03, 0., 2.85714306e-02, 9.52380989e-03,
          4.76190485e-02, 0., 0., 9.52380989e-03, 9.52380989e-03,
          9.52380989e-03, 0., 0., 0., 9.52380989e-03, 0., 0.,
          2.85714306e-02, 0., 2.85714306e-02, 0., 0., 0., 0.,
          3.80952395e-02, 1.90476198e-02, 0., 2.85714306e-02, 0.,
          4.76190485e-02, 9.52380989e-03, 0., 0., 9.52380989e-03, 0.,
          9.52380989e-03, 0., 0., 2.85714306e-02, 0., 0., 9.52380989e-03,
          9.52380989e-03, 1.90476198e-02, 1.90476198e-02, 0.,
          2.85714306e-02, 0., 0., 0., 0. ]
      - [ 1.78571437e-02, 4.46428582e-02, 0., 0., 0., 3.57142873e-02, 0.,
          0., 0., 3.57142873e-02, 0., 1.78571437e-02, 0., 8.92857183e-03,
          0., 8.92857183e-03, 8.92857183e-03, 0., 8.03571492e-02,
          1.78571437e-02, 4.46428582e-02, 0., 0., 8.92857183e-03, 0., 0.,
          0., 0., 0., 8.92857183e-03, 0., 0., 0., 0., 5.35714328e-02, 0.,
          0., 0., 0., 8.92857183e-03, 1.78571437e-02, 1.78571437e-02, 0.,
          0., 0., 8.92857183e-03, 0., 5.35714328e-02, 0., 0., 0., 0.,
          8.92857183e-03, 0., 8.92857183e-03, 8.92857183e-03,
          3.57142873e-02, 0., 0., 8.92857183e-03, 0., 0., 8.92857183e-03,
          8.92857183e-03, 0., 8.92857183e-03, 3.57142873e-02,
          5.35714328e-02, 8.92857183e-03, 0., 0., 0., 8.92857183e-03,
          6.25000000e-02, 0., 0., 8.92857183e-03, 0., 6.25000000e-02,
          8.92857183e-03, 0., 0., 9.82142910e-02, 0., 0., 1.78571437e-02,
          0., 0., 0., 0., 1.78571437e-02, 0., 0., 0., 8.92857183e-03, 0.,
          8.92857183e-03, 0., 0., 0. ]
      - [ 1.49253728e-02, 0., 3.48258689e-02, 1.99004970e-02, 0., 0.,
          1.99004970e-02, 0., 1.49253728e-02, 0., 1.99004970e-02, 0.,
          1.49253728e-02, 4.97512426e-03, 0., 1.49253728e-02, 0., 0.,
          1.49253728e-02, 1.49253728e-02, 4.97512426e-03, 1.99004970e-02,
          4.97512426e-03, 2.48756222e-02, 4.97512445e-02, 4.97512426e-03,
          1.49253728e-02, 4.97512426e-03, 4.97512426e-03, 2.98507456e-02,
          9.95024852e-03, 4.97512426e-03, 0., 4.47761193e-02,
          4.97512426e-03, 1.49253728e-02, 0., 0., 1.99004970e-02, 0., 0.,
          9.95024852e-03, 2.48756222e-02, 0., 2.48756222e-02,
          4.97512426e-03, 0., 9.95024852e-03, 1.49253728e-02,
          3.98009941e-02, 2.48756222e-02, 0., 0., 1.99004970e-02,
          3.48258689e-02, 0., 4.97512426e-03, 4.97512426e-03,
          4.97512426e-03, 0., 0., 0., 1.49253728e-02, 4.97512426e-03,
          4.97512426e-03, 9.95024852e-03, 4.97512426e-03, 9.95024852e-03,
          2.98507456e-02, 0., 4.97512426e-03, 0., 1.49253728e-02,
          1.99004970e-02, 9.95024852e-03, 1.49253728e-02, 0.,
          4.97512426e-03, 0., 1.49253728e-02, 0., 0., 0., 9.95024852e-03,
          4.97512426e-03, 0., 1.99004970e-02, 1.99004970e-02,
          9.95024852e-03, 0., 1.49253728e-02, 1.49253728e-02,
          2.48756222e-02, 9.95024852e-03, 4.97512426e-03, 1.49253728e-02,
          0., 0., 4.97512426e-03, 4.97512426e-03 ]
      - [ 8.06451589e-03, 8.06451589e-03, 1.61290318e-02, 0., 0.,
          2.41935477e-02, 8.06451589e-03, 0., 8.06451589e-03,
          8.06451589e-03, 1.61290318e-02, 4.03225794e-02, 0., 0.,
          8.06451589e-03, 1.61290318e-02, 2.41935477e-02, 0.,
          3.22580636e-02, 0., 2.41935477e-02, 0., 0., 1.61290318e-02,
          1.61290318e-02, 8.06451589e-03, 8.06451589e-03, 0.,
          8.06451589e-03, 2.41935477e-02, 2.41935477e-02, 0.,
          8.06451589e-03, 0., 8.06451589e-03, 1.61290318e-02, 0.,
          2.41935477e-02, 8.06451589e-03, 8.06451589e-03, 0.,
          8.06451589e-03, 0., 8.06451589e-03, 1.61290318e-02,
          8.06451589e-03, 1.61290318e-02, 4.83870953e-02, 2.41935477e-02,
          0., 1.61290318e-02, 0., 0., 1.61290318e-02, 3.22580636e-02, 0.,
          2.41935477e-02, 0., 8.06451589e-03, 8.06451589e-03, 0., 0., 0.,
          0., 1.61290318e-02, 1.61290318e-02, 8.06451589e-03, 0.,
          3.22580636e-02, 0., 8.06451589e-03, 5.64516112e-02,
          8.06451589e-03, 4.03225794e-02, 2.41935477e-02, 8.06451589e-03,
          8.06451589e-03, 0., 2.41935477e-02, 0., 8.06451589e-03, 0.,
          3.22580636e-02, 0., 0., 4.03225794e-02, 0., 0., 0.,
          8.06451589e-03, 0., 0., 0., 0., 0., 0., 8.06451589e-03, 0., 0.,
          0. ]
      - [ 6.45161280e-03, 3.22580636e-02, 3.87096778e-02, 0., 0., 0.,
          1.93548389e-02, 0., 1.29032256e-02, 6.45161280e-03, 0.,
          1.93548389e-02, 1.29032256e-02, 0., 0., 1.29032256e-02,
          1.29032256e-02, 0., 5.16129024e-02, 1.29032256e-02,
          6.45161280e-03, 0., 6.45161280e-03, 6.45161280e-03,
          6.45161280e-03, 0., 0., 1.93548389e-02, 0., 0., 0.,
          6.45161280e-03, 0., 1.29032256e-02, 1.29032256e-02,
          5.80645166e-02, 0., 1.29032256e-02, 5.16129024e-02, 0., 0.,
          1.29032256e-02, 1.29032256e-02, 6.45161280e-03, 3.87096778e-02,
          0., 0., 6.45161280e-03, 1.93548389e-02, 2.58064512e-02,
          4.51612882e-02, 6.45161280e-03, 0., 0., 1.29032256e-02, 0., 0.,
          1.93548389e-02, 0., 0., 0., 0., 1.93548389e-02, 1.29032256e-02,
          0., 6.45161280e-03, 0., 6.45161280e-03, 1.93548389e-02, 0., 0.,
          6.45161280e-03, 0., 5.16129024e-02, 1.29032256e-02, 0.,
          1.93548389e-02, 0., 1.93548389e-02, 1.93548389e-02,
          1.29032256e-02, 0., 3.22580636e-02, 6.45161280e-03,
          6.45161280e-03, 1.93548389e-02, 0., 4.51612882e-02, 0., 0., 0.,
          0., 6.45161280e-03, 0., 0., 1.93548389e-02, 1.29032256e-02, 0.,
          0., 0. ]
      - [ 6.28930796e-03, 0., 6.28930796e-03, 0., 0., 5.66037707e-02,
          1.25786159e-02, 0., 1.88679248e-02, 0., 6.28930796e-03,
          3.77358496e-02, 0., 6.28930796e-03, 1.25786159e-02, 0.,
          6.28930796e-03, 0., 6.28930796e-03, 6.28930796e-03, 0.,
          6.28930796e-03, 1.88679248e-02, 6.28930796e-03, 4.40251566e-02,
          0., 6.28930796e-03, 6.28930796e-03, 1.88679248e-02,
          2.51572318e-02, 6.28930796e-03, 5.66037707e-02, 1.88679248e-02,
          0., 1.25786159e-02, 3.77358496e-02, 6.28930796e-03, 0.,
          1.25786159e-02, 1.25786159e-02, 6.28930796e-03, 1.88679248e-02,
          0., 0., 1.25786159e-02, 6.28930796e-03, 6.28930796e-03,
          6.28930796e-03, 3.14465389e-02, 1.25786159e-02, 0., 0.,
          6.28930796e-03, 0., 3.77358496e-02, 0., 2.51572318e-02,
          6.28930796e-03, 3.14465389e-02, 6.28930796e-03, 0.,
          6.28930796e-03, 1.88679248e-02, 0., 0., 0., 0., 6.28930796e-03,
          4.40251566e-02, 0., 0., 6.28930796e-03, 6.28930796e-03,
          1.25786159e-02, 1.25786159e-02, 0., 1.25786159e-02, 0., 0.,
          6.28930796e-03, 0., 0., 6.28930796e-03, 0., 6.28930796e-03,
          3.77358496e-02, 1.25786159e-02, 2.51572318e-02, 0.,
          6.28930796e-03, 0., 6.28930796e-03, 1.88679248e-02, 0.,
          6.28930796e-03, 1.88679248e-02, 6.28930796e-03, 6.28930796e-03,
          6.28930796e-03, 1.25786159e-02 ]
      - [ 2.41935477e-02, 0., 8.06451589e-03, 8.06451589e-03, 0., 0., 0.,
          0., 0., 2.41935477e-02, 2.41935477e-02, 8.06451589e-03,
          1.61290318e-02, 0., 0., 0., 0., 0., 8.06451589e-03, 0., 0.,
          2.41935477e-02, 6.45161271e-02, 0., 0., 0., 0., 1.61290318e-02,
          0., 0., 0., 5.64516112e-02, 8.06451589e-03, 0., 5.64516112e-02,
          1.61290318e-02, 0., 8.06451589e-03, 8.06451589e-03, 0.,
          8.06451589e-03, 1.61290318e-02, 8.87096748e-02, 0.,
          8.06451589e-03, 2.41935477e-02, 0., 1.61290318e-02,
          8.06451589e-03, 0., 0., 0., 8.06451589e-03, 0., 3.22580636e-02,
          0., 8.06451589e-03, 8.06451589e-03, 0., 3.22580636e-02, 0., 0.,
          8.06451589e-03, 1.61290318e-02, 8.06451589e-03, 1.61290318e-02,
          8.06451589e-03, 0., 3.22580636e-02, 0., 0., 0., 0., 0.,
          2.41935477e-02, 0., 4.03225794e-02, 0., 0., 8.06451589e-03, 0.,
          0., 4.03225794e-02, 0., 8.06451589e-03, 4.03225794e-02, 0.,
          8.06451589e-03, 0., 8.06451589e-03, 0., 3.22580636e-02, 0.,
          1.61290318e-02, 0., 0., 1.61290318e-02, 8.06451589e-03,
          2.41935477e-02, 0. ]
      - [ 1.33333337e-02, 0., 3.99999991e-02, 1.33333337e-02, 0., 0.,
          1.33333337e-02, 0., 6.66666683e-03, 0., 7.99999982e-02,
          1.33333337e-02, 1.33333337e-02, 0., 0., 6.66666683e-03,
          1.33333337e-02, 0., 0., 6.66666683e-03, 0., 2.66666673e-02, 0.,
          0., 3.33333351e-02, 0., 6.66666683e-03, 1.33333337e-02, 0.,
          1.33333337e-02, 0., 1.99999996e-02, 0., 6.66666683e-03,
          6.66666683e-03, 6.66666683e-03, 0., 0., 2.66666673e-02,
          6.66666683e-03, 0., 6.66666683e-03, 1.99999996e-02,
          1.33333337e-02, 6.66666683e-03, 0., 2.66666673e-02,
          1.33333337e-02, 6.66666683e-03, 6.00000024e-02, 6.66666683e-03,
          0., 0., 0., 4.66666669e-02, 6.66666683e-03, 0., 2.66666673e-02,
          0., 6.66666683e-03, 0., 6.66666683e-03, 2.66666673e-02, 0.,
          1.99999996e-02, 2.66666673e-02, 1.33333337e-02, 6.66666683e-03,
          3.33333351e-02, 0., 0., 0., 0., 6.66666683e-03, 1.99999996e-02,
          0., 1.99999996e-02, 2.66666673e-02, 6.66666683e-03,
          1.33333337e-02, 0., 0., 1.33333337e-02, 0., 0., 6.66666683e-03,
          1.33333337e-02, 1.33333337e-02, 0., 6.66666683e-03,
          1.33333337e-02, 1.99999996e-02, 1.33333337e-02, 1.33333337e-02,
          0., 1.33333337e-02, 6.66666683e-03, 0., 6.66666683e-03, 0. ]
      - [ 7.05882385e-02, 0., 0., 2.35294122e-02, 0., 2.35294122e-02,
          1.17647061e-02, 0., 1.17647061e-02, 1.17647061e-02, 0.,
          4.70588244e-02, 0., 0., 0., 0., 0., 0., 0., 0., 0., 0., 0.,
          1.17647061e-02, 1.17647061e-02, 0., 4.70588244e-02,
          2.35294122e-02, 0., 0., 0., 0., 2.35294122e-02, 2.35294122e-02,
          4.70588244e-02, 2.35294122e-02, 0., 0., 1.17647061e-02,
          1.17647061e-02, 0., 1.17647061e-02, 0., 0., 1.17647061e-02, 0.,
          0., 0., 3.52941193e-02, 7.05882385e-02, 1.17647061e-02,
          1.17647061e-02, 0., 0., 3.52941193e-02, 0., 1.17647061e-02, 0.,
          1.17647061e-02, 0., 0., 1.17647061e-02, 4.70588244e-02, 0., 0.,
          0., 0., 3.52941193e-02, 1.17647061e-02, 0., 0., 0., 0.,
          1.17647061e-02, 3.52941193e-02, 0., 2.35294122e-02, 0.,
          3.52941193e-02, 0., 1.17647061e-02, 0., 2.35294122e-02, 0., 0.,
          0., 0., 3.52941193e-02, 0., 2.35294122e-02, 0., 1.17647061e-02,
          1.17647061e-02, 0., 0., 1.17647061e-02, 0., 0., 1.17647061e-02,
          0. ]
      - [ 1.83486231e-02, 9.17431153e-03, 0., 0., 0., 0., 0., 0.,
          9.17431153e-03, 1.83486231e-02, 2.75229346e-02, 9.17431153e-03,
          0., 0., 0., 0., 9.17431153e-03, 0., 1.00917429e-01, 0.,
          5.50458692e-02, 0., 9.17431153e-03, 1.83486231e-02,
          9.17431153e-03, 9.17431153e-03, 0., 0., 0., 0., 0., 0., 0., 0.,
          0., 2.75229346e-02, 0., 0., 0., 3.66972461e-02, 1.83486231e-02,
          9.17431153e-03, 9.17431153e-03, 0., 8.25688019e-02,
          9.17431153e-03, 0., 0., 9.17431153e-03, 9.17431153e-03,
          1.83486231e-02, 0., 0., 0., 5.50458692e-02, 9.17431153e-03, 0.,
          2.75229346e-02, 9.17431153e-03, 4.58715558e-02, 0., 0.,
          9.17431153e-03, 9.17431153e-03, 1.83486231e-02, 9.17431153e-03,
          9.17431153e-03, 2.75229346e-02, 9.17431153e-03, 0., 0., 0., 0.,
          6.42201826e-02, 0., 0., 9.17431153e-03, 0., 4.58715558e-02, 0.,
          0., 0., 2.75229346e-02, 0., 9.17431153e-03, 4.58715558e-02, 0.,
          0., 0., 9.17431153e-03, 0., 9.17431153e-03, 0., 0., 0.,
          9.17431153e-03, 0., 0., 0., 0. ]
      - [ 7.22021656e-03, 2.88808662e-02, 0., 3.61010828e-03, 0.,
          2.52707582e-02, 7.22021656e-03, 6.49819523e-02, 0.,
          2.16606501e-02, 3.61010828e-03, 3.61010828e-03, 7.22021656e-03,
          4.33213003e-02, 7.22021656e-03, 1.08303251e-02, 3.61010828e-03,
          1.01083033e-01, 2.52707582e-02, 1.44404331e-02, 3.61010828e-03,
          3.61010828e-03, 7.22021656e-03, 3.61010828e-03, 3.61010828e-03,
          0., 3.61010828e-03, 3.61010828e-03, 1.08303251e-02, 0., 0.,
          3.61010828e-03, 1.44404331e-02, 0., 1.80505421e-02, 0.,
          1.08303251e-02, 2.52707582e-02, 3.61010828e-03, 1.44404331e-02,
          1.80505421e-02, 1.44404331e-02, 3.61010828e-03, 0., 0.,
          1.08303251e-02, 1.08303251e-02, 3.61010828e-03, 3.61010828e-03,
          3.61010828e-03, 0., 2.16606501e-02, 7.22021656e-03,
          3.61010828e-03, 3.61010828e-03, 3.61010828e-03, 7.22021656e-03,
          3.61010828e-03, 7.22021656e-03, 1.80505421e-02, 5.41516244e-02,
          3.61010828e-03, 7.22021656e-03, 1.44404331e-02, 1.08303251e-02,
          3.61010828e-03, 1.08303251e-02, 0., 0., 3.61010828e-03, 0.,
          7.22021656e-03, 3.61010828e-03, 1.44404331e-02, 3.61010828e-03,
          0., 3.61010828e-03, 1.44404331e-02, 7.22021656e-03,
          1.08303251e-02, 1.08303251e-02, 7.22021656e-03, 0.,
          2.52707582e-02, 2.88808662e-02, 3.61010828e-03, 0.,
          3.61010828e-03, 3.24909762e-02, 3.61010828e-03, 1.80505421e-02,
          0., 1.08303251e-02, 0., 0., 0., 7.22021656e-03, 1.08303251e-02,
          0., 1.08303251e-02 ]
      - [ 1.81159414e-02, 7.24637695e-03, 3.26086953e-02, 1.44927539e-02,
          1.81159414e-02, 0., 1.08695654e-02, 3.62318847e-03,
          7.24637695e-03, 7.24637695e-03, 3.62318847e-03, 0.,
          1.08695654e-02, 0., 1.08695654e-02, 0., 3.62318847e-03, 0.,
          1.08695654e-02, 1.44927539e-02, 0., 3.62318847e-03,
          1.44927539e-02, 1.81159414e-02, 1.44927539e-02, 2.89855078e-02,
          1.08695654e-02, 1.08695654e-02, 1.81159414e-02, 1.44927539e-02,
          7.24637695e-03, 0., 1.44927539e-02, 1.08695654e-02,
          3.62318847e-03, 0., 3.62318847e-03, 3.62318847e-03,
          7.24637695e-03, 7.24637695e-03, 1.81159414e-02, 3.26086953e-02,
          0., 1.81159414e-02, 1.44927539e-02, 1.08695654e-02,
          7.24637695e-03, 0., 2.17391308e-02, 0., 1.08695654e-02,
          7.24637695e-03, 7.24637695e-03, 2.53623202e-02, 2.89855078e-02,
          0., 7.24637695e-03, 3.62318847e-03, 1.08695654e-02,
          1.81159414e-02, 0., 3.62318847e-03, 1.44927539e-02,
          1.81159414e-02, 3.62318847e-03, 7.24637695e-03, 2.53623202e-02,
          1.44927539e-02, 1.44927539e-02, 1.08695654e-02, 0., 0.,
          1.08695654e-02, 1.81159414e-02, 1.08695654e-02, 0.,
          2.89855078e-02, 1.44927539e-02, 1.81159414e-02, 3.62318847e-03,
          7.24637695e-03, 1.08695654e-02, 7.24637695e-03, 2.17391308e-02,
          3.62318847e-03, 3.62318847e-03, 1.44927539e-02, 3.62318847e-03,
          0., 1.44927539e-02, 1.44927539e-02, 0., 1.44927539e-02,
          3.62318847e-03, 1.08695654e-02, 1.08695654e-02, 2.17391308e-02,
          3.62318847e-03, 3.62318847e-03, 3.62318847e-03 ]
      - [ 8.19672085e-03, 2.73224036e-03, 1.63934417e-02, 1.09289614e-02,
          5.46448072e-03, 1.63934417e-02, 5.46448072e-03, 3.27868834e-02,
          1.91256832e-02, 1.63934417e-02, 5.46448072e-03, 2.73224036e-03,
          1.36612020e-02, 1.91256832e-02, 0., 0., 5.46448072e-03,
          1.63934417e-02, 4.09836061e-02, 1.09289614e-02, 3.55191231e-02,
          5.46448072e-03, 1.63934417e-02, 8.19672085e-03, 2.73224036e-03,
          2.73224036e-03, 2.18579229e-02, 1.36612020e-02, 1.36612020e-02,
          1.91256832e-02, 5.46448072e-03, 8.19672085e-03, 2.73224036e-03,
          5.46448072e-03, 5.46448072e-03, 2.73224036e-03, 2.73224036e-03,
          2.73224041e-02, 2.73224036e-03, 2.73224036e-03, 0.,
          5.46448072e-03, 2.73224036e-03, 0., 1.25683054e-01,
          1.91256832e-02, 2.73224036e-03, 2.73224036e-03, 8.19672085e-03,
          5.46448072e-03, 4.09836061e-02, 2.18579229e-02, 0., 0.,
          1.91256832e-02, 1.09289614e-02, 2.73224036e-03, 2.73224036e-03,
          1.63934417e-02, 1.36612020e-02, 2.45901626e-02, 0.,
          2.73224036e-03, 2.73224036e-03, 2.73224036e-03, 2.73224036e-03,
          5.46448072e-03, 0., 8.19672085e-03, 5.46448072e-03, 0.,
          8.19672085e-03, 0., 8.19672085e-03, 2.73224036e-03,
          1.09289614e-02, 5.46448072e-03, 8.19672085e-03, 2.73224036e-03,
          1.91256832e-02, 1.91256832e-02, 0., 1.09289614e-02,
          1.09289614e-02, 8.19672085e-03, 0., 0., 0., 1.36612020e-02, 0.,
          1.09289614e-02, 5.46448072e-03, 2.73224036e-03, 0., 0.,
          2.73224036e-03, 1.63934417e-02, 8.19672085e-03, 2.73224036e-03,
          1.36612020e-02 ]
      - [ 0., 0., 1.16279069e-02, 7.75193796e-03, 7.75193796e-03, 0.,
          7.75193796e-03, 3.10077518e-02, 1.16279069e-02, 1.16279069e-02,
          1.16279069e-02, 1.93798449e-02, 7.75193796e-03, 5.03875986e-02,
          7.75193796e-03, 0., 3.87596898e-03, 1.93798449e-02,
          2.32558139e-02, 7.75193796e-03, 3.87596898e-03, 1.55038759e-02,
          7.75193796e-03, 1.93798449e-02, 3.87596898e-03, 1.55038759e-02,
          1.16279069e-02, 3.87596898e-03, 1.55038759e-02, 3.87596898e-03,
          7.75193796e-03, 3.87596898e-03, 1.93798449e-02, 0.,
          7.75193796e-03, 0., 7.75193796e-03, 1.55038759e-02, 0.,
          1.93798449e-02, 3.87596898e-03, 1.93798449e-02, 0.,
          1.16279069e-02, 3.87596898e-03, 3.10077518e-02, 7.75193796e-03,
          2.32558139e-02, 3.87596898e-03, 7.75193796e-03, 3.87596898e-03,
          0., 1.16279069e-02, 1.16279069e-02, 2.71317828e-02,
          3.87596898e-03, 1.93798449e-02, 3.87596898e-03, 1.93798449e-02,
          2.32558139e-02, 2.32558139e-02, 3.87596898e-03, 0.,
          1.16279069e-02, 0., 3.87596898e-03, 3.87596898e-03,
          3.87596898e-03, 0., 0., 1.55038759e-02, 0., 2.32558139e-02,
          5.03875986e-02, 1.16279069e-02, 7.75193796e-03, 1.16279069e-02,
          1.93798449e-02, 3.87596898e-03, 3.87596898e-03, 1.16279069e-02,
          7.75193796e-03, 7.75193796e-03, 7.75193796e-03, 3.87596898e-03,
          7.75193796e-03, 1.55038759e-02, 0., 7.75193796e-03,
          1.16279069e-02, 7.75193796e-03, 0., 1.93798449e-02, 0., 0.,
          3.87596898e-03, 7.75193796e-03, 1.55038759e-02, 3.87596898e-03,
          3.87596898e-03 ]
      - [ 5.44959120e-03, 1.08991824e-02, 5.44959120e-03, 8.17438681e-03,
          5.44959120e-03, 2.72479560e-03, 8.17438681e-03, 2.72479560e-03,
          1.08991824e-02, 8.17438681e-03, 1.36239780e-02, 5.44959120e-03,
          1.63487736e-02, 4.08719331e-02, 2.72479560e-03, 5.44959120e-03,
          3.81471366e-02, 5.44959120e-03, 2.72479560e-02, 2.17983648e-02,
          8.17438681e-03, 2.72479560e-03, 1.90735683e-02, 2.72479560e-03,
          2.72479560e-03, 5.44959120e-03, 5.44959120e-03, 8.17438681e-03,
          1.08991824e-02, 2.99727507e-02, 2.17983648e-02, 1.36239780e-02,
          2.72479560e-03, 8.17438681e-03, 1.36239780e-02, 2.72479560e-03,
          0., 1.63487736e-02, 5.44959120e-03, 2.17983648e-02, 0.,
          1.08991824e-02, 5.44959120e-03, 1.08991824e-02, 5.44959120e-03,
          2.72479560e-03, 1.63487736e-02, 0., 1.90735683e-02, 0.,
          2.99727507e-02, 8.17438681e-03, 1.08991824e-02, 5.44959120e-03,
          8.17438681e-03, 1.63487736e-02, 1.08991824e-02, 1.08991824e-02,
          8.17438681e-03, 2.72479560e-03, 0., 1.08991824e-02,
          1.08991824e-02, 2.72479560e-03, 1.36239780e-02, 1.36239780e-02,
          1.36239780e-02, 1.36239780e-02, 5.44959120e-03, 2.72479560e-02,
          1.08991824e-02, 0., 8.17438681e-03, 8.17438681e-03,
          8.17438681e-03, 1.08991824e-02, 5.44959120e-03, 2.72479560e-02,
          2.72479560e-03, 1.08991824e-02, 5.44959120e-03, 1.36239780e-02,
          1.36239780e-02, 8.17438681e-03, 2.72479560e-03, 1.36239780e-02,
          2.72479560e-03, 0., 5.44959120e-03, 1.36239780e-02,
          1.36239780e-02, 2.72479560e-03, 1.08991824e-02, 5.44959120e-03,
          8.17438681e-03, 5.44959120e-03, 2.45231614e-02, 1.08991824e-02,
          2.72479560e-03, 2.72479560e-03 ]
      - [ 7.75193796e-03, 3.87596898e-02, 0., 7.75193796e-03,
          2.32558139e-02, 1.16279069e-02, 7.75193796e-03, 5.42635657e-02,
          3.87596898e-03, 3.87596898e-03, 3.87596898e-03, 0.,
          3.87596898e-03, 4.26356569e-02, 7.75193796e-03, 0.,
          3.87596898e-03, 5.03875986e-02, 1.93798449e-02, 7.75193796e-03,
          7.75193796e-03, 0., 7.75193796e-03, 0., 3.87596898e-03,
          3.87596898e-03, 1.55038759e-02, 7.75193796e-03, 7.75193796e-03,
          1.16279069e-02, 0., 3.87596898e-03, 1.55038759e-02, 0.,
          7.75193796e-03, 3.87596898e-03, 1.93798449e-02, 3.48837227e-02,
          1.16279069e-02, 7.75193796e-03, 1.93798449e-02, 0., 0.,
          1.55038759e-02, 0., 1.93798449e-02, 3.87596898e-03,
          3.87596898e-03, 1.16279069e-02, 0., 0., 3.10077518e-02,
          1.16279069e-02, 0., 7.75193796e-03, 7.75193796e-03,
          1.16279069e-02, 3.87596898e-03, 1.16279069e-02, 3.87596898e-03,
          3.48837227e-02, 3.87596898e-03, 0., 1.16279069e-02,
          1.55038759e-02, 0., 1.93798449e-02, 0., 7.75193796e-03,
          3.87596898e-03, 7.75193796e-03, 0., 3.87596898e-03,
          1.55038759e-02, 3.87596898e-03, 1.16279069e-02, 3.87596898e-03,
          3.48837227e-02, 1.16279069e-02, 7.75193796e-03, 1.55038759e-02,
          3.87596898e-03, 0., 1.16279069e-02, 2.71317828e-02,
          1.16279069e-02, 0., 0., 3.87596898e-02, 7.75193796e-03,
          1.16279069e-02, 0., 1.55038759e-02, 3.87596898e-03,
          1.16279069e-02, 0., 0., 7.75193796e-03, 0., 3.87596898e-03 ]
      - [ 1.99335553e-02, 0., 0., 9.96677764e-03, 0., 9.96677764e-03,
          1.32890362e-02, 9.96677764e-03, 6.64451811e-03, 3.32225906e-03,
          3.32225906e-03, 9.96677764e-03, 1.32890362e-02, 5.64784035e-02,
          3.32225906e-03, 0., 1.32890362e-02, 1.32890362e-02,
          1.99335553e-02, 9.96677764e-03, 3.32225906e-03, 0.,
          1.32890362e-02, 1.32890362e-02, 6.64451811e-03, 3.32225906e-03,
          3.65448482e-02, 3.32225906e-03, 1.32890362e-02, 2.32558139e-02,
          1.99335553e-02, 1.32890362e-02, 1.32890362e-02, 6.64451811e-03,
          6.64451811e-03, 0., 3.32225906e-03, 4.98338863e-02, 0.,
          1.32890362e-02, 9.96677764e-03, 9.96677764e-03, 0.,
          6.64451811e-03, 0., 1.99335553e-02, 1.66112948e-02, 0.,
          9.96677764e-03, 0., 0., 9.96677764e-03, 6.64451811e-03,
          9.96677764e-03, 0., 6.64451811e-03, 6.64451811e-03,
          3.32225906e-03, 0., 1.66112948e-02, 3.32225906e-03,
          3.32225906e-03, 3.32225906e-03, 3.32225896e-02, 1.32890362e-02,
          1.32890362e-02, 2.65780725e-02, 6.64451811e-03, 3.32225906e-03,
          1.32890362e-02, 3.32225906e-03, 3.32225906e-03, 3.32225906e-03,
          2.65780725e-02, 1.66112948e-02, 6.64451811e-03, 1.32890362e-02,
          1.66112948e-02, 9.96677764e-03, 1.99335553e-02, 0.,
          6.64451811e-03, 6.64451811e-03, 1.66112948e-02, 9.96677764e-03,
          9.96677764e-03, 1.32890362e-02, 6.64451811e-03, 1.32890362e-02,
          3.32225906e-03, 1.66112948e-02, 1.32890362e-02, 6.64451811e-03,
          3.32225906e-03, 1.32890362e-02, 0., 9.96677764e-03,
          9.96677764e-03, 3.32225906e-03, 6.64451811e-03 ]
      - [ 1.36518767e-02, 0., 1.36518767e-02, 1.02389073e-02,
          1.36518767e-02, 1.36518767e-02, 2.38907840e-02, 3.41296918e-03,
          1.02389073e-02, 3.41296918e-03, 1.02389073e-02, 2.73037534e-02,
          6.82593836e-03, 2.04778146e-02, 3.41296918e-03, 3.41296918e-03,
          1.02389073e-02, 0., 3.41296918e-03, 1.36518767e-02,
          1.02389073e-02, 6.82593836e-03, 1.36518767e-02, 2.04778146e-02,
          3.41296918e-03, 3.75426598e-02, 1.02389073e-02, 1.70648452e-02,
          0., 2.38907840e-02, 6.82593836e-03, 1.70648452e-02,
          2.38907840e-02, 1.36518767e-02, 3.41296918e-03, 6.82593836e-03,
          6.82593836e-03, 3.41296918e-03, 3.41296918e-03, 2.04778146e-02,
          6.82593836e-03, 3.41296904e-02, 1.02389073e-02, 0.,
          2.04778146e-02, 1.36518767e-02, 2.73037534e-02, 3.41296918e-03,
          3.41296918e-03, 0., 1.36518767e-02, 6.82593836e-03,
          3.41296918e-03, 3.07167228e-02, 4.43685986e-02, 0.,
          1.02389073e-02, 3.41296918e-03, 1.02389073e-02, 2.04778146e-02,
          3.41296918e-03, 0., 3.41296918e-03, 0., 0., 1.02389073e-02,
          6.82593836e-03, 1.36518767e-02, 1.36518767e-02, 3.41296918e-03,
          6.82593836e-03, 1.02389073e-02, 1.02389073e-02, 2.73037534e-02,
          3.41296918e-03, 2.04778146e-02, 1.36518767e-02, 6.82593836e-03,
          3.41296918e-03, 6.82593836e-03, 3.41296918e-03, 3.41296918e-03,
          3.41296918e-03, 6.82593836e-03, 0., 3.41296918e-03,
          2.04778146e-02, 0., 0., 3.41296918e-03, 3.07167228e-02, 0.,
          2.04778146e-02, 3.41296918e-03, 1.36518767e-02, 3.41296918e-03,
          0., 3.41296918e-03, 0., 0. ]
      - [ 3.37837846e-03, 0., 1.01351356e-02, 0., 0., 3.04054059e-02,
          1.35135138e-02, 1.01351356e-02, 2.70270277e-02, 6.75675692e-03,
          3.71621624e-02, 1.01351356e-02, 1.68918930e-02, 1.35135138e-02,
          0., 6.75675692e-03, 8.78378376e-02, 0., 6.75675692e-03,
          1.35135138e-02, 3.37837846e-03, 0., 1.01351356e-02,
          1.01351356e-02, 6.75675692e-03, 1.01351356e-02, 1.35135138e-02,
          1.35135138e-02, 1.68918930e-02, 2.36486495e-02, 1.35135138e-02,
          3.37837860e-02, 0., 2.36486495e-02, 1.01351356e-02,
          3.37837846e-03, 3.37837846e-03, 0., 3.37837846e-03,
          6.75675692e-03, 0., 1.68918930e-02, 3.37837846e-03,
          6.75675692e-03, 0., 1.35135138e-02, 1.01351356e-02,
          1.01351356e-02, 6.75675692e-03, 0., 2.70270277e-02,
          3.37837846e-03, 0., 3.37837846e-03, 1.01351356e-02,
          6.75675692e-03, 1.68918930e-02, 6.75675692e-03, 1.01351356e-02,
          2.70270277e-02, 0., 1.01351356e-02, 6.75675692e-03,
          1.35135138e-02, 3.37837846e-03, 1.01351356e-02, 1.35135138e-02,
          6.75675692e-03, 6.75675692e-03, 1.68918930e-02, 6.75675692e-03,
          3.37837846e-03, 0., 1.35135138e-02, 1.35135138e-02,
          6.75675692e-03, 3.71621624e-02, 6.75675692e-03, 6.75675692e-03,
          1.35135138e-02, 0., 1.01351356e-02, 0., 1.68918930e-02,
          3.37837846e-03, 1.01351356e-02, 1.68918930e-02, 0.,
          3.37837846e-03, 0., 0., 0., 1.68918930e-02, 6.75675692e-03,
          3.37837846e-03, 6.75675692e-03, 6.75675692e-03, 1.35135138e-02,
          6.75675692e-03, 3.37837846e-03 ]
      - [ 9.47867334e-03, 4.73933667e-03, 7.10900500e-03, 4.73933667e-03,
          7.10900500e-03, 9.47867334e-03, 0., 1.42180100e-02,
          9.47867334e-03, 1.89573467e-02, 2.13270150e-02, 0.,
          7.10900500e-03, 2.84360200e-02, 2.36966833e-03, 0.,
          9.47867334e-03, 4.73933667e-03, 1.89573467e-02, 4.73933667e-03,
          2.84360200e-02, 9.47867334e-03, 2.36966833e-02, 4.73933667e-03,
          0., 9.47867334e-03, 4.73933667e-03, 1.65876783e-02,
          2.84360200e-02, 1.42180100e-02, 2.36966833e-03, 1.42180100e-02,
          0., 9.47867334e-03, 1.18483417e-02, 0., 0., 1.18483417e-02,
          7.10900500e-03, 2.36966833e-02, 0., 2.13270150e-02,
          7.10900500e-03, 4.73933667e-03, 2.13270150e-02, 9.47867334e-03,
          2.60663517e-02, 1.65876783e-02, 0., 2.36966833e-03,
          1.89573467e-02, 1.18483417e-02, 7.10900500e-03, 1.89573467e-02,
          2.36966833e-02, 9.47867334e-03, 7.10900500e-03, 4.73933667e-03,
          1.18483417e-02, 9.47867334e-03, 4.73933667e-03, 2.36966833e-02,
          0., 4.73933667e-03, 4.73933667e-03, 0., 4.73933667e-03,
          7.10900500e-03, 2.36966833e-03, 4.73933667e-03, 1.65876783e-02,
          1.42180100e-02, 7.10900500e-03, 1.42180100e-02, 0.,
          4.73933667e-03, 2.13270150e-02, 1.65876783e-02, 1.18483417e-02,
          2.36966833e-03, 1.18483417e-02, 9.47867334e-03, 9.47867334e-03,
          9.47867334e-03, 1.18483417e-02, 9.47867334e-03, 7.10900500e-03,
          0., 2.60663517e-02, 0., 9.47867334e-03, 4.73933667e-03,
          9.47867334e-03, 0., 1.18483417e-02, 4.73933667e-03,
          1.42180100e-02, 2.13270150e-02, 1.89573467e-02, 9.47867334e-03 ]
      - [ 9.37500037e-03, 3.12500005e-03, 6.25000009e-03, 3.12500005e-03,
          3.12500005e-03, 9.37500037e-03, 3.12500005e-03, 5.93749993e-02,
          0., 3.12500005e-03, 0., 3.12500005e-03, 1.25000002e-02,
          2.18749996e-02, 2.81250011e-02, 0., 6.25000009e-03,
          8.74999985e-02, 1.56250000e-02, 1.87500007e-02, 6.25000009e-03,
          0., 1.25000002e-02, 0., 3.12500005e-03, 3.12500005e-03,
          2.50000004e-02, 3.12500005e-03, 2.18749996e-02, 0.,
          3.12500005e-03, 0., 1.25000002e-02, 0., 6.25000009e-03, 0.,
          1.25000002e-02, 4.06250022e-02, 3.12500005e-03, 2.18749996e-02,
          1.25000002e-02, 2.81250011e-02, 6.25000009e-03, 1.25000002e-02,
          3.12500005e-03, 2.50000004e-02, 1.25000002e-02, 0.,
          6.25000009e-03, 0., 0., 1.25000002e-02, 9.37500037e-03,
          9.37500037e-03, 3.12500005e-03, 1.56250000e-02, 0.,
          6.25000009e-03, 0., 1.87500007e-02, 5.00000007e-02,
          1.25000002e-02, 0., 0., 9.37500037e-03, 9.37500037e-03, 0.,
          6.25000009e-03, 3.12500005e-03, 6.25000009e-03, 1.25000002e-02,
          9.37500037e-03, 1.56250000e-02, 2.50000004e-02, 6.25000009e-03,
          0., 3.12500005e-03, 6.25000009e-03, 9.37500037e-03, 0.,
          3.43750007e-02, 9.37500037e-03, 0., 6.25000009e-03,
          3.12500005e-03, 1.25000002e-02, 0., 3.12500005e-03,
          3.12500000e-02, 0., 3.12500005e-03, 0., 1.25000002e-02,
          9.37500037e-03, 9.37500037e-03, 0., 9.37500037e-03,
          1.25000002e-02, 6.25000009e-03, 3.12500005e-03 ]
      - [ 0., 1.37931034e-02, 6.89655170e-03, 1.72413792e-02, 0.,
          1.72413792e-02, 6.89655170e-03, 3.79310325e-02, 0.,
          6.89655170e-03, 0., 1.03448275e-02, 1.37931034e-02,
          4.48275879e-02, 2.41379309e-02, 0., 6.89655170e-03,
          5.86206913e-02, 2.75862068e-02, 1.03448275e-02, 6.89655170e-03,
          0., 1.03448275e-02, 6.89655170e-03, 6.89655170e-03,
          6.89655170e-03, 1.03448275e-02, 1.03448275e-02, 2.41379309e-02,
          3.44827585e-03, 3.44827585e-03, 0., 3.79310325e-02,
          3.44827585e-03, 6.89655170e-03, 0., 3.44827585e-03,
          1.72413792e-02, 3.44827585e-03, 1.37931034e-02, 1.03448275e-02,
          6.89655170e-03, 6.89655170e-03, 6.89655170e-03, 0.,
          3.44827585e-02, 6.89655170e-03, 0., 1.03448275e-02,
          6.89655170e-03, 0., 1.03448275e-02, 1.03448275e-02,
          6.89655170e-03, 1.03448275e-02, 3.44827585e-03, 6.89655170e-03,
          6.89655170e-03, 3.44827585e-03, 1.72413792e-02, 6.55172393e-02,
          3.44827585e-03, 0., 0., 3.44827585e-03, 0., 6.89655170e-03,
          6.89655170e-03, 6.89655170e-03, 6.89655170e-03, 1.37931034e-02,
          5.51724136e-02, 1.72413792e-02, 3.44827585e-03, 3.44827585e-03,
          3.44827585e-03, 1.03448275e-02, 1.37931034e-02, 6.89655170e-03,
          1.37931034e-02, 1.37931034e-02, 0., 3.44827585e-03,
          1.03448275e-02, 1.03448275e-02, 0., 3.44827585e-03,
          6.89655170e-03, 6.89655170e-03, 0., 1.03448275e-02, 0.,
          1.03448275e-02, 3.44827585e-03, 1.37931034e-02, 6.89655170e-03,
          3.44827585e-03, 3.44827585e-03, 0., 6.89655170e-03 ]
      - [ 1.64473690e-02, 0., 9.86842066e-03, 6.57894742e-03, 0.,
          9.86842066e-03, 9.86842066e-03, 1.31578948e-02, 1.64473690e-02,
          1.97368413e-02, 0., 3.28947371e-03, 9.86842066e-03,
          1.64473690e-02, 3.28947371e-03, 6.57894742e-03, 1.64473690e-02,
          0., 2.96052638e-02, 9.86842066e-03, 2.30263155e-02,
          9.86842066e-03, 6.57894742e-03, 1.31578948e-02, 6.57894742e-03,
          3.28947371e-03, 9.86842066e-03, 9.86842066e-03, 3.28947371e-03,
          1.64473690e-02, 9.86842066e-03, 2.63157897e-02, 9.86842066e-03,
          1.31578948e-02, 6.57894742e-03, 3.28947371e-03, 0.,
          1.64473690e-02, 0., 1.97368413e-02, 6.57894742e-03,
          1.64473690e-02, 0., 1.64473690e-02, 3.94736826e-02,
          1.64473690e-02, 4.60526310e-02, 3.28947371e-03, 6.57894742e-03,
          3.28947371e-03, 3.28947380e-02, 0., 3.28947371e-03,
          2.63157897e-02, 9.86842066e-03, 6.57894742e-03, 9.86842066e-03,
          3.28947371e-03, 1.64473690e-02, 3.28947380e-02, 0.,
          3.28947371e-03, 6.57894742e-03, 1.64473690e-02, 1.31578948e-02,
          0., 9.86842066e-03, 6.57894742e-03, 3.28947371e-03, 0.,
          6.57894742e-03, 3.28947371e-03, 3.28947371e-03, 2.30263155e-02,
          3.28947371e-03, 2.30263155e-02, 9.86842066e-03, 1.31578948e-02,
          0., 9.86842066e-03, 6.57894742e-03, 3.28947371e-03,
          3.28947371e-03, 1.31578948e-02, 6.57894742e-03, 1.31578948e-02,
          1.31578948e-02, 0., 9.86842066e-03, 3.28947371e-03,
          1.31578948e-02, 0., 1.97368413e-02, 9.86842066e-03,
          9.86842066e-03, 0., 6.57894742e-03, 3.28947371e-03,
          6.57894742e-03, 3.28947371e-03 ]
      - [ 4.78468882e-03, 0., 1.43540669e-02, 9.56937764e-03,
          9.56937764e-03, 4.78468882e-03, 2.87081338e-02, 9.56937764e-03,
          2.39234436e-02, 2.87081338e-02, 1.91387553e-02, 0.,
          9.56937764e-03, 1.91387553e-02, 0., 0., 0., 0., 0.,
          2.87081338e-02, 0., 1.43540669e-02, 1.43540669e-02,
          9.56937764e-03, 9.56937764e-03, 0., 1.43540669e-02,
          1.43540669e-02, 2.39234436e-02, 4.78468882e-03, 1.43540669e-02,
          1.91387553e-02, 1.43540669e-02, 4.78468882e-03, 9.56937764e-03,
          0., 4.78468882e-03, 1.43540669e-02, 0., 0., 1.91387553e-02,
          3.82775106e-02, 4.78468882e-03, 4.78468882e-03, 1.91387553e-02,
          1.43540669e-02, 2.87081338e-02, 0., 0., 4.78468882e-03,
          4.78468882e-03, 0., 9.56937764e-03, 3.34928222e-02,
          9.56937764e-03, 3.34928222e-02, 0., 1.43540669e-02, 0.,
          3.82775106e-02, 0., 0., 9.56937764e-03, 1.43540669e-02,
          1.43540669e-02, 4.78468882e-03, 1.43540669e-02, 1.43540669e-02,
          4.78468882e-03, 9.56937764e-03, 2.87081338e-02, 0.,
          9.56937764e-03, 1.91387553e-02, 0., 0., 9.56937764e-03,
          9.56937764e-03, 0., 4.78468882e-03, 0., 0., 4.78468882e-03,
          1.91387553e-02, 9.56937764e-03, 0., 1.91387553e-02, 0.,
          4.78468882e-03, 9.56937764e-03, 0., 1.43540669e-02,
          2.39234436e-02, 4.78468882e-03, 9.56937764e-03, 0.,
          4.78468882e-03, 1.43540669e-02, 9.56937764e-03, 9.56937764e-03 ]
   decision_functions:
      -
         sv_count: 25
         rho: -4.9224553685082995e-01
         alpha: [ 4.0259261639412025e-01, 1.0912941242885474e+00,
             5.9598913840952272e-01, 1.7108976617418101e-01,
             5.1214229153366753e-01, 4.0739006939193312e-01,
             1.1282636437798517e+00, 2.9985891233973289e-01,
             9.9523060213137748e-01, 1.7597479066505430e+00,
             6.3710765125925950e-01, -6.4309773650172775e-01,
             -2.9927194952855007e-01, -1.9243457012281409e-01,
             -1.6790746628698563e-01, -6.1618030016127090e-02,
             -1.3701392057188535e+00, -1.2756754246817472e+00,
             -1.9925505694127491e-02, -2.1213380515669916e-01,
             -4.8324800887123037e-01, -4.1827194074349960e-01,
             -1.0524399207509483e+00, -1.3269257824123502e+00,
             -4.7761737586707675e-01 ]
         index: [ 1, 0, 10, 9, 8, 7, 6, 5, 4, 3, 2, 24, 23, 22, 21, 20,
             19, 18, 17, 16, 15, 14, 13, 12, 11 ]
