%YAML:1.0
---
opencv_ml_svm:
   format: 3
   svmType: C_SVC
   kernel:
      type: CHI2
      gamma: 1.
   C: 100.
   term_criteria: { iterations:100 }
   var_count: 100
   class_count: 5
   class_labels: !!opencv-matrix
      rows: 5
      cols: 1
      dt: i
      data: [ 0, 1, 2, 3, 4 ]
   sv_total: 64
   support_vectors:
      - [ 9.06111393e-03, 2.89184507e-03, 9.63948332e-05, 1.17601696e-02,
          1.57123581e-02, 1.50375944e-02, 6.55484851e-03, 0.,
          4.62695211e-03, 8.00077152e-03, 5.97647950e-03, 3.70156169e-02,
          3.27742426e-03, 2.60266056e-03, 4.24137246e-03, 5.59090031e-03,
          1.73510704e-03, 3.10391355e-02, 6.74763811e-04, 7.22961267e-03,
          4.33776760e-03, 2.89184507e-03, 6.94042817e-03, 1.76402554e-02,
          7.71158654e-03, 1.47484094e-02, 6.07287465e-03, 2.43878923e-02,
          1.06034316e-02, 1.71582811e-02, 6.55484851e-03, 7.71158666e-04,
          2.12068623e-03, 5.49450563e-03, 1.83150184e-03, 2.31347606e-03,
          5.68729499e-03, 1.92789666e-04, 1.55195678e-02, 3.75939859e-03,
          1.52303837e-02, 2.34239437e-02, 4.43416229e-03, 8.96471925e-03,
          4.14497778e-03, 1.06034311e-03, 6.45845383e-03, 1.15673803e-03,
          1.66763067e-02, 4.91613662e-03, 2.40987074e-03, 1.92789666e-04,
          5.01253130e-03, 7.71158666e-04, 2.89184507e-03, 5.97647950e-03,
          7.61519186e-03, 7.09465966e-02, 1.63871213e-03, 2.46770773e-02,
          7.51879718e-03, 2.98823975e-03, 5.30171581e-03, 7.22961267e-03,
          1.27048388e-01, 5.78369014e-03, 7.03682285e-03, 2.98823975e-02,
          8.77192989e-03, 4.62695211e-02, 1.63871213e-03, 2.89184507e-04,
          2.98823975e-03, 2.50626565e-03, 2.81472914e-02, 7.22961267e-03,
          3.27742426e-03, 3.08463466e-03, 3.56660876e-03, 1.54231733e-03,
          1.17601696e-02, 8.67553521e-03, 3.08463466e-03, 1.33988820e-02,
          7.90437590e-03, 1.52303837e-02, 4.43416229e-03, 8.38635024e-03,
          5.78369014e-03, 5.30171581e-03, 8.09716620e-03, 4.62695211e-03,
          1.34952762e-03, 1.15673803e-02, 3.66300368e-03, 1.03142476e-02,
          5.01253130e-03, 1.82186235e-02, 1.04106423e-02, 2.21708114e-03 ]
      - [ 3.35631357e-03, 2.35849060e-03, 6.34978234e-04, 5.17053716e-03,
          8.52685049e-03, 1.29716983e-02, 8.34542792e-03, 0.,
          3.62844695e-03, 1.34252543e-02, 3.90058057e-03, 9.07111727e-03,
          1.66001450e-02, 1.90493464e-03, 2.08635698e-03, 6.53120456e-03,
          2.08635698e-03, 3.87336724e-02, 0., 1.09760519e-02,
          5.17053716e-03, 1.17924530e-03, 7.61973858e-03, 5.80551522e-03,
          7.07547180e-03, 1.08853411e-02, 5.62409265e-03, 6.98476052e-03,
          4.89840331e-03, 7.34760519e-03, 7.61973858e-03, 2.40384620e-02,
          2.90275761e-03, 6.16835989e-03, 5.44267066e-04, 1.17924530e-03,
          1.36066764e-03, 2.72133533e-04, 9.25253984e-03, 4.71698120e-03,
          1.33345425e-02, 6.62191585e-03, 2.26777941e-02, 4.80769249e-03,
          3.90058057e-03, 4.53555869e-04, 8.88969563e-03, 1.08853413e-03,
          1.43323652e-02, 6.34978246e-03, 1.81422351e-04, 1.71444118e-02,
          1.16110304e-02, 2.17706827e-03, 3.53773590e-03, 2.08635698e-03,
          1.99564593e-03, 9.13461521e-02, 1.54208997e-03, 2.05914360e-02,
          1.10667637e-02, 1.08853411e-02, 1.17924530e-03, 3.83708254e-02,
          8.19121897e-02, 4.71698120e-03, 6.44049328e-03, 2.43105944e-02,
          8.70827306e-03, 6.90312013e-02, 1.69629902e-02, 2.58526858e-02,
          1.38788102e-02, 3.35631357e-03, 4.83490564e-02, 2.63062399e-03,
          5.44267066e-04, 1.99564593e-03, 1.54208997e-03, 9.97822965e-04,
          8.52685049e-03, 4.17271396e-03, 2.90275761e-03, 9.25253984e-03,
          4.53555863e-03, 9.70609579e-03, 3.08417995e-03, 9.88751836e-03,
          3.44702462e-03, 2.26777932e-03, 3.08417995e-03, 4.98911459e-03,
          2.72133533e-04, 9.16182902e-03, 5.89622650e-03, 1.01596517e-02,
          4.35413653e-03, 7.52902776e-03, 1.69629902e-02, 1.45137880e-03 ]
      - [ 7.87254050e-03, 2.14620437e-02, 2.34301784e-03, 9.37207136e-03,
          1.92127470e-02, 2.59606373e-02, 1.58388000e-02, 5.71696367e-03,
          8.24742299e-03, 2.15557637e-03, 1.74320526e-02, 1.64011251e-02,
          1.96813513e-03, 7.21649500e-03, 8.71602632e-03, 5.81068452e-03,
          4.40487359e-03, 7.49765709e-03, 2.33364590e-02, 5.43580158e-03,
          6.18556701e-03, 1.27460174e-02, 5.52952196e-03, 1.64948460e-02,
          1.52764767e-02, 1.92127470e-02, 7.96626043e-03, 1.90253053e-02,
          3.65510792e-03, 2.20243689e-02, 1.17150890e-02, 1.96813513e-03,
          4.68603568e-03, 6.74789166e-03, 7.87254050e-03, 4.40487359e-03,
          6.27928786e-03, 1.12464861e-03, 1.47141526e-02, 1.03092787e-03,
          5.43580158e-03, 2.76476108e-02, 4.96719778e-03, 1.60262417e-02,
          1.00281164e-02, 5.34208072e-03, 1.03092790e-02, 2.62417994e-03,
          7.31021585e-03, 9.09090973e-03, 6.56044995e-03, 6.56044984e-04,
          9.65323392e-03, 7.49765721e-04, 4.59231483e-03, 5.81068452e-03,
          1.63074043e-02, 4.77975653e-03, 6.56044995e-03, 1.73383318e-02,
          3.74882855e-03, 1.03092790e-02, 8.80974717e-03, 8.52858461e-03,
          7.31021585e-03, 1.36832241e-02, 2.08997186e-02, 2.59606373e-02,
          1.64011251e-02, 6.56044995e-03, 3.16776000e-02, 9.37207151e-05,
          1.49953144e-03, 1.64011251e-02, 1.68697292e-03, 4.96719778e-03,
          4.77975653e-03, 6.93533290e-03, 3.74882855e-03, 2.99906288e-03,
          1.60262417e-02, 1.47141526e-02, 1.51827559e-02, 1.86504219e-02,
          9.55951307e-03, 2.05248371e-02, 8.05998128e-03, 1.05904406e-02,
          4.68603568e-03, 1.75257735e-02, 1.32146208e-02, 7.77881918e-03,
          2.90534226e-03, 2.81162141e-03, 9.93439555e-03, 8.52858461e-03,
          4.87347739e-03, 2.12746020e-02, 8.24742299e-03, 1.10590439e-02 ]
      - [ 3.68303573e-03, 1.77455358e-02, 2.56696437e-03, 2.00892868e-03,
          3.77232134e-02, 3.45982127e-02, 2.91294642e-02, 5.69196418e-03,
          4.46428591e-03, 1.38392858e-02, 4.12946427e-03, 1.37276789e-02,
          1.33928573e-02, 4.79910709e-03, 5.91517845e-03, 2.23214296e-03,
          6.25000009e-03, 9.93303582e-03, 1.07142860e-02, 2.24330351e-02,
          3.90625000e-03, 4.91071446e-03, 5.13392873e-03, 1.48437498e-02,
          1.10491076e-02, 2.45535709e-02, 6.80803554e-03, 7.92410690e-03,
          1.67410716e-03, 5.02232136e-03, 3.68303573e-03, 2.45535723e-03,
          4.46428574e-04, 4.35267854e-03, 5.13392873e-03, 5.58035739e-04,
          1.11607143e-04, 2.56696437e-03, 2.29910724e-02, 4.91071446e-03,
          4.91071446e-03, 4.57589282e-03, 4.91071446e-03, 1.67410709e-02,
          2.47767866e-02, 3.12500005e-03, 1.50669646e-02, 3.34821432e-03,
          3.23660718e-03, 3.78348231e-02, 5.35714300e-03, 3.06919646e-02,
          1.68526787e-02, 4.79910709e-03, 6.25000009e-03, 6.47321437e-03,
          2.56696437e-03, 2.23214287e-04, 3.34821432e-03, 1.50669646e-02,
          1.00446434e-03, 1.16071431e-02, 5.58035728e-03, 5.58035739e-04,
          4.46428574e-04, 6.58482127e-03, 7.92410690e-03, 1.83035713e-02,
          2.87946425e-02, 2.45535723e-03, 2.33258922e-02, 1.35044642e-02,
          1.23883933e-02, 9.48660728e-03, 5.58035739e-04, 8.70535709e-03,
          6.80803554e-03, 6.36160700e-03, 4.79910709e-03, 4.35267854e-03,
          2.23214296e-03, 2.79017864e-03, 7.70089310e-03, 4.15178575e-02,
          7.47767882e-03, 1.45089289e-03, 7.25446455e-03, 4.15178575e-02,
          4.01785737e-03, 1.03794644e-02, 6.69642864e-03, 1.78571430e-03,
          2.79017864e-03, 9.15178563e-03, 2.08705366e-02, 1.41741075e-02,
          3.68303573e-03, 3.86160724e-02, 6.69642864e-03, 7.47767882e-03 ]
      - [ 6.70611439e-03, 5.62130148e-03, 1.08481257e-03, 3.84615362e-03,
          1.41025633e-02, 1.82445757e-02, 7.79092684e-03, 0.,
          1.37080867e-02, 5.42406291e-02, 6.31163688e-03, 7.88954645e-03,
          9.86193263e-05, 6.21301774e-03, 1.68639049e-02, 5.12820482e-03,
          3.55029572e-03, 4.24063113e-03, 7.88954645e-03, 6.31163688e-03,
          1.28205121e-03, 8.67850054e-03, 1.42998025e-02, 6.50887564e-03,
          1.25246542e-02, 2.07100585e-02, 2.14990135e-02, 1.61735695e-02,
          6.01577898e-03, 9.46745556e-03, 1.28205121e-02, 3.02761327e-02,
          2.26824451e-03, 2.13017743e-02, 6.80473354e-03, 1.77514786e-03,
          5.42406272e-03, 6.90335291e-04, 2.77120303e-02, 1.18343194e-03,
          3.44181433e-02, 1.72583815e-02, 2.61341222e-02, 9.56607424e-03,
          3.25443782e-03, 6.41025603e-03, 7.88954610e-04, 6.21301774e-03,
          2.18934901e-02, 5.91715937e-03, 5.42406272e-03, 9.86193263e-05,
          1.84418149e-02, 8.08678474e-03, 3.74753447e-03, 1.02564096e-02,
          4.93096653e-03, 3.05719906e-03, 3.94477323e-03, 9.86193307e-04,
          2.97830366e-02, 8.87573976e-03, 1.08481254e-02, 1.54832341e-02,
          1.66666657e-02, 5.12820482e-03, 6.11439813e-03, 7.88954610e-04,
          2.20907293e-02, 9.86193307e-03, 6.90335291e-04, 9.86193263e-05,
          1.97238653e-04, 1.04536489e-02, 1.21301776e-02, 7.79092684e-03,
          2.16962514e-03, 1.03550293e-02, 1.24260355e-02, 4.04339237e-03,
          1.04536489e-02, 4.14201152e-03, 5.22682443e-03, 6.01577898e-03,
          4.24063113e-03, 1.33136092e-02, 1.19329384e-02, 1.30177513e-02,
          6.50887564e-03, 1.00591714e-02, 8.67850054e-03, 1.31163700e-02,
          1.67652860e-03, 4.53648902e-03, 9.17159766e-03, 2.39644963e-02,
          1.71597619e-02, 9.36883595e-03, 2.88954619e-02, 4.43786988e-03 ]
      - [ 8.55093822e-03, 1.57226920e-02, 3.12614930e-03, 1.56307463e-02,
          3.76976840e-02, 1.50790736e-02, 4.66164052e-02, 0.,
          1.83891144e-03, 2.11474821e-02, 7.17175473e-03, 3.58587736e-03,
          1.10334689e-02, 2.29863916e-03, 4.68922406e-03, 2.29863916e-03,
          3.31004057e-03, 1.65502029e-03, 1.19529245e-02, 1.65502019e-02,
          8.91872030e-03, 4.22949623e-03, 7.44759105e-03, 4.87311510e-03,
          2.02280260e-03, 6.60169199e-02, 1.51710194e-02, 4.59727831e-03,
          1.37918361e-03, 4.59727831e-03, 2.75836722e-03, 2.25266647e-02,
          2.11474812e-03, 6.06840756e-03, 4.04560519e-03, 3.31004057e-03,
          8.27510143e-04, 1.83891144e-03, 3.14453840e-02, 3.40198609e-03,
          5.14895190e-03, 4.13755048e-03, 1.32401623e-02, 1.83891144e-03,
          1.83891132e-02, 3.86171392e-03, 5.79257077e-03, 2.02280260e-03,
          5.05700661e-03, 4.79955897e-02, 5.24089765e-03, 2.75836722e-03,
          5.97646199e-02, 2.66642147e-03, 1.56307465e-03, 1.03898495e-02,
          5.51673409e-04, 1.56307465e-03, 3.76976840e-03, 3.58587736e-03,
          3.03420378e-03, 7.53953680e-03, 5.70062548e-03, 2.39058491e-03,
          1.28723797e-03, 1.07576316e-02, 3.31004057e-03, 6.43618987e-04,
          2.94225831e-02, 5.51673409e-04, 3.03420378e-03, 1.46193458e-02,
          5.79257077e-03, 7.07980897e-03, 1.01140130e-03, 9.19455662e-03,
          8.27510096e-03, 5.88451652e-03, 6.25229860e-03, 2.48253043e-03,
          2.57447595e-03, 2.85031274e-03, 7.90731888e-03, 2.85031274e-02,
          4.50533303e-03, 3.95365944e-03, 2.20669364e-03, 5.28687015e-02,
          5.14895190e-03, 3.49393161e-03, 7.17175473e-03, 3.76976840e-03,
          1.37918361e-03, 3.76976840e-03, 6.61088675e-02, 3.58587736e-03,
          6.43618987e-04, 2.39977948e-02, 2.48253043e-03, 1.79293863e-02 ]
      - [ 1.09589044e-02, 8.42992589e-03, 3.58271855e-03, 2.06533186e-02,
          3.54056917e-02, 1.00105377e-02, 2.56059002e-02, 0.,
          1.68598525e-03, 1.16965231e-02, 7.37618562e-03, 2.52897781e-03,
          1.36986300e-02, 4.42571146e-03, 1.35932565e-02, 6.63856696e-03,
          8.53530038e-03, 2.42360379e-03, 4.84720757e-03, 1.29610114e-02,
          9.06217098e-03, 6.53319294e-03, 1.21180192e-02, 2.95047415e-03,
          3.47734452e-03, 2.58166492e-02, 1.59114860e-02, 4.21496294e-03,
          3.47734452e-03, 6.21707039e-03, 3.16122244e-03, 6.21707039e-03,
          6.63856696e-03, 2.14963127e-02, 7.16543710e-03, 8.53530038e-03,
          0., 2.84510013e-03, 2.23393049e-02, 3.37197050e-03,
          1.12750260e-02, 5.47945220e-03, 5.69020025e-03, 3.47734452e-03,
          2.80295052e-02, 3.79346684e-03, 1.51738673e-02, 1.68598525e-03,
          1.20126447e-02, 1.57007370e-02, 6.84931502e-03, 2.32876707e-02,
          1.44362487e-02, 3.16122227e-04, 6.00632234e-03, 1.13804005e-02,
          2.10748147e-03, 3.83561626e-02, 2.73972610e-03, 1.89673342e-02,
          2.10748156e-04, 2.21285573e-03, 2.31822976e-03, 1.89673342e-03,
          2.96101160e-02, 1.12750260e-02, 4.63645952e-03, 1.69652272e-02,
          5.69020025e-03, 6.00632234e-03, 0., 2.26554275e-02,
          1.62276085e-02, 6.32244488e-03, 6.63856696e-03, 5.37407817e-03,
          6.42781891e-03, 1.25395153e-02, 1.03266593e-02, 3.16122244e-03,
          5.26870368e-03, 9.48366709e-03, 7.06006307e-03, 3.32982093e-02,
          6.63856696e-03, 1.51738673e-02, 3.16122244e-03, 3.38250808e-02,
          6.74394099e-03, 3.89884086e-03, 2.38145422e-02, 2.52897781e-03,
          5.26870368e-04, 4.63645952e-03, 1.14857741e-02, 2.63435184e-03,
          1.15911488e-03, 3.83561626e-02, 8.74604844e-03, 7.69230770e-03 ]
      - [ 6.50708843e-03, 1.19683947e-02, 3.13734612e-03, 5.69370203e-03,
          1.33627700e-02, 1.65001173e-02, 1.37113640e-02, 0.,
          1.16198007e-02, 2.55635614e-03, 1.54543342e-02, 1.13874041e-02,
          8.01766198e-03, 1.44085521e-02, 2.44015804e-03, 7.90146459e-03,
          6.73948415e-03, 1.40599580e-02, 2.77713221e-02, 6.73948415e-03,
          1.27817807e-03, 9.76063218e-03, 1.51057402e-03, 1.39437607e-02,
          1.59191266e-02, 8.13386030e-03, 1.39437604e-03, 1.48733445e-02,
          5.34510799e-03, 1.80106908e-02, 1.45247504e-02, 2.32396007e-04,
          2.20776210e-03, 3.25354422e-03, 4.29932633e-03, 8.13386054e-04,
          7.43667223e-03, 9.29584028e-04, 7.66906841e-03, 1.97536615e-03,
          7.43667223e-03, 2.77713221e-02, 5.80989989e-04, 1.94050670e-02,
          4.41552419e-03, 1.02254245e-02, 9.29584028e-04, 6.97188033e-03,
          8.36625602e-03, 5.80990035e-03, 7.43667223e-03, 5.69370203e-03,
          1.34789683e-02, 9.29583982e-03, 7.66906841e-03, 1.85916806e-03,
          1.33627700e-02, 3.75319533e-02, 4.29932633e-03, 2.32396007e-04,
          3.71833611e-03, 2.17290260e-02, 8.01766198e-03, 4.13664877e-02,
          7.72716701e-02, 1.11550083e-02, 1.31303743e-02, 2.32396007e-04,
          1.77782942e-02, 6.85568200e-03, 3.48594011e-04, 3.32326293e-02,
          1.28979785e-02, 1.18521964e-02, 5.34510799e-03, 3.02114803e-03,
          2.55635614e-03, 2.67255399e-03, 2.32395995e-03, 6.97188033e-03,
          2.23100167e-02, 7.43667223e-03, 1.11550083e-02, 9.52823646e-03,
          9.64443386e-03, 1.39437607e-02, 1.04578203e-02, 1.06902160e-02,
          6.73948415e-03, 1.16198007e-02, 6.62328629e-03, 1.30141769e-02,
          1.62677211e-03, 1.22007905e-02, 4.06693015e-03, 4.29932633e-03,
          6.62328629e-03, 7.43667223e-03, 1.20845921e-02, 9.76063218e-03 ]
      - [ 3.79346684e-03, 8.00842978e-03, 0., 1.89673342e-03,
          6.78609088e-02, 5.52160181e-02, 5.28977886e-02, 0.,
          2.31822976e-03, 3.36143300e-02, 1.05374074e-03, 1.32771339e-02,
          0., 1.05374074e-03, 6.74394099e-03, 6.53319294e-03,
          1.26448891e-03, 2.52897781e-03, 3.05584818e-03, 2.11801901e-02,
          2.10748156e-04, 4.32033697e-03, 1.89673342e-03, 1.19072711e-02,
          3.05584818e-03, 3.93045321e-02, 1.10642780e-02, 2.03371979e-02,
          1.15911488e-03, 3.26659647e-03, 2.00210745e-03, 4.10958892e-03,
          2.10748156e-04, 5.69020025e-03, 1.47523708e-03, 1.36986305e-03,
          5.26870368e-04, 4.21496312e-04, 6.19599596e-02, 1.26448891e-03,
          1.70706008e-02, 9.27291904e-03, 7.27081159e-03, 3.58271855e-03,
          4.03582714e-02, 9.48366709e-04, 0., 9.48366709e-04,
          1.05374074e-02, 5.13171777e-02, 3.68809281e-03, 0.,
          3.43519486e-02, 1.68598525e-03, 5.69020025e-03, 5.69020025e-03,
          4.21496312e-04, 0., 3.16122227e-04, 0., 2.10748156e-04,
          4.63645952e-03, 3.37197050e-03, 3.16122227e-04, 1.05374078e-04,
          1.14857741e-02, 3.05584818e-03, 0., 4.88935709e-02,
          4.21496312e-04, 0., 0., 0., 8.21917783e-03, 9.48366709e-04,
          8.95679649e-03, 2.63435184e-03, 3.16122244e-03, 5.69020025e-03,
          8.42992624e-04, 1.05374074e-03, 1.36986305e-03, 6.63856696e-03,
          4.53108549e-02, 4.10958892e-03, 5.47945220e-03, 2.73972610e-03,
          6.11169636e-02, 1.30663859e-02, 4.21496294e-03, 6.21707039e-03,
          2.10748156e-04, 1.26448891e-03, 1.36986305e-03, 2.38145422e-02,
          6.84931502e-03, 1.47523708e-03, 5.33192828e-02, 2.00210745e-03,
          4.42571146e-03 ]
      - [ 6.64038165e-03, 8.81925691e-03, 1.86760735e-03, 2.59389915e-03,
          1.37995435e-02, 1.55633949e-02, 1.50446147e-02, 0.,
          1.41108111e-02, 1.55633949e-02, 1.44220786e-02, 3.35131772e-02,
          1.14131561e-02, 2.31375806e-02, 2.90516694e-03, 9.64930467e-03,
          5.81033388e-03, 1.41108111e-02, 2.32413355e-02, 7.67794112e-03,
          1.55633944e-03, 4.35775053e-03, 1.03755959e-03, 3.17493230e-02,
          5.43681234e-02, 8.19672085e-03, 3.52770276e-03, 3.07117645e-02,
          0., 1.72234904e-02, 2.41751391e-02, 8.30047706e-04,
          4.46150638e-03, 6.22535765e-04, 2.17887526e-03, 1.55633944e-03,
          4.77277441e-03, 8.30047706e-04, 8.40423256e-03, 1.66009541e-03,
          1.11018885e-02, 3.00892293e-02, 2.69765500e-03, 6.43287003e-02,
          7.67794112e-03, 1.94023643e-02, 7.26291735e-04, 6.01784606e-03,
          9.13052447e-03, 7.67794112e-03, 5.70657803e-03, 0.,
          1.06868641e-02, 3.73521470e-03, 1.24507155e-02, 4.87653026e-03,
          1.05831083e-02, 0., 2.07511918e-03, 1.03755963e-04,
          1.20356921e-02, 1.83648057e-02, 9.54554882e-03, 4.87653026e-03,
          4.46150638e-03, 1.43183228e-02, 1.27619831e-02, 0.,
          1.53558822e-02, 5.18779794e-04, 6.22535765e-04, 2.57314797e-02,
          0., 5.08404197e-03, 0., 5.39531000e-03, 3.83897056e-03,
          1.55633944e-03, 4.98028612e-03, 6.43286994e-03, 1.74310021e-02,
          4.46150638e-03, 7.26291724e-03, 1.03755966e-02, 8.50798935e-03,
          1.09981317e-02, 1.95061211e-02, 1.17244236e-02, 5.49906585e-03,
          2.93629374e-02, 7.15916138e-03, 3.94272665e-03, 1.03755963e-04,
          2.07511918e-03, 5.49906585e-03, 1.56671498e-02, 1.19319353e-02,
          9.85681638e-03, 1.51483705e-02, 6.43286994e-03 ]
      - [ 2.95047415e-03, 3.26659647e-03, 7.37618539e-04, 3.02423611e-02,
          2.84510013e-02, 4.80505787e-02, 1.32771339e-02, 3.98313999e-02,
          2.73972610e-03, 2.93993670e-02, 3.68809281e-03, 5.47945220e-03,
          1.51738673e-02, 1.05374074e-03, 1.01159113e-02, 7.27081159e-03,
          1.58061122e-03, 1.79135927e-03, 0., 1.59114860e-02,
          5.05795563e-03, 8.11380427e-03, 1.43308742e-02, 4.21496294e-03,
          2.31822976e-03, 2.32876707e-02, 1.82297155e-02, 1.05374074e-02,
          5.69020025e-03, 3.05584818e-03, 2.21285573e-03, 2.07586940e-02,
          5.47945220e-03, 1.93888303e-02, 2.52897781e-03, 5.90094831e-03,
          1.05374078e-04, 3.16122227e-04, 3.08746044e-02, 4.32033697e-03,
          1.04320338e-02, 5.37407817e-03, 1.65437311e-02, 3.16122244e-03,
          3.19283456e-02, 8.42992624e-04, 2.09694412e-02, 6.32244453e-04,
          1.12750260e-02, 2.18124334e-02, 2.73972610e-03, 4.63645952e-03,
          2.19178088e-02, 1.05374074e-03, 9.48366709e-04, 7.48155965e-03,
          4.32033697e-03, 1.26448891e-03, 2.63435184e-03, 1.19072711e-02,
          1.05374074e-03, 2.31822976e-03, 3.68809281e-03, 9.48366709e-04,
          7.37618562e-03, 2.84510013e-03, 4.32033697e-03, 2.45521609e-02,
          1.57007370e-02, 7.90305622e-03, 3.99367772e-02, 1.81243420e-02,
          1.61222331e-02, 3.79346684e-03, 9.79978964e-03, 6.84931502e-03,
          4.42571146e-03, 8.11380427e-03, 8.00842978e-03, 1.79135927e-03,
          3.26659647e-03, 9.79978964e-03, 5.26870368e-03, 3.97260264e-02,
          6.32244488e-03, 1.26448898e-02, 3.79346684e-03, 1.75974704e-02,
          7.06006307e-03, 1.15911488e-03, 9.69441514e-03, 7.37618539e-04,
          2.95047415e-03, 2.10748147e-03, 2.09694412e-02, 4.32033697e-03,
          2.63435184e-03, 2.16016863e-02, 7.16543710e-03, 3.89884086e-03 ]
      - [ 1.84093341e-02, 1.93188246e-02, 5.70783438e-03, 4.98651480e-03,
          1.49909053e-02, 2.19532102e-03, 2.02910379e-02, 0.,
          1.18860947e-02, 7.93451723e-03, 1.25760529e-02, 1.20742647e-02,
          2.50893831e-03, 1.10079665e-02, 9.75349732e-03, 1.02866469e-02,
          7.84043223e-03, 3.41842836e-03, 3.95471379e-02, 1.75625668e-03,
          6.86821854e-03, 1.35482661e-02, 9.50260367e-03, 1.35796284e-02,
          2.03223992e-02, 1.90992914e-02, 9.03217774e-03, 1.04434555e-02,
          4.86106798e-03, 1.04120933e-02, 1.42695857e-02, 8.87536909e-03,
          8.81264545e-03, 1.10393278e-02, 8.46766680e-03, 7.40136765e-03,
          3.01072584e-03, 3.79476906e-03, 6.83685672e-03, 3.82613065e-03,
          1.53045226e-02, 6.77413307e-03, 1.62453745e-02, 1.73430350e-02,
          7.27592083e-03, 8.56175181e-03, 1.94442715e-03, 8.43630452e-03,
          9.22034774e-03, 2.25804430e-02, 1.08197955e-02, 6.89957989e-04,
          1.69039704e-02, 5.73919620e-03, 1.19801797e-02, 1.10706901e-02,
          3.48115177e-03, 1.63080986e-03, 1.14470301e-02, 2.16395920e-03,
          1.17292861e-02, 2.13259738e-03, 2.09496338e-02, 5.55102574e-03,
          1.25446916e-03, 1.74057595e-02, 1.47086503e-02, 5.33149345e-04,
          9.69077367e-03, 2.88527901e-03, 1.56808645e-04, 7.52681459e-04,
          1.88170362e-03, 1.77193768e-02, 3.41842836e-03, 1.62453745e-02,
          9.03217774e-03, 1.09138815e-02, 1.07257105e-02, 4.23383340e-03,
          7.43272947e-03, 9.78485867e-03, 1.69980563e-02, 7.84043223e-03,
          6.68004807e-03, 5.80191938e-03, 1.59631185e-02, 2.03851219e-02,
          9.15762410e-03, 1.83466114e-02, 1.05375405e-02, 1.01298383e-02,
          3.70068382e-03, 6.27234532e-03, 2.04792079e-02, 1.69980563e-02,
          1.22624356e-02, 1.14156688e-02, 9.62805003e-03, 1.81584395e-02 ]
      - [ 1.56432837e-02, 1.57048702e-02, 5.20416303e-03, 2.77144788e-03,
          3.72605771e-03, 4.00320254e-03, 7.63687817e-03, 0.,
          8.25275574e-03, 3.75685142e-03, 8.43751896e-03, 8.37593153e-03,
          5.78924641e-03, 1.05622951e-02, 1.64131299e-02, 1.33337434e-02,
          9.82324313e-03, 7.48290913e-03, 3.78764533e-02, 2.92541715e-03,
          8.93022027e-03, 1.63515415e-02, 1.37032699e-02, 1.28718354e-02,
          1.41651779e-02, 4.09558415e-03, 1.15784928e-02, 8.86863284e-03,
          1.17016686e-02, 7.94481672e-03, 1.24407215e-02, 1.17632560e-02,
          3.78764537e-03, 1.23791331e-02, 1.51197873e-02, 7.54449656e-03,
          3.44891287e-03, 4.40352270e-03, 3.69526376e-03, 6.00480335e-03,
          1.27178663e-02, 7.82164186e-03, 1.79836173e-02, 9.97721218e-03,
          1.50889938e-03, 6.58988720e-03, 3.38732498e-03, 8.65307637e-03,
          1.37032699e-02, 9.05339606e-03, 1.28718354e-02, 8.93022050e-04,
          4.37272852e-03, 1.55201079e-02, 1.38880331e-02, 1.87226702e-02,
          5.69686480e-03, 7.63687817e-03, 1.25638964e-02, 4.00320254e-03,
          8.89942702e-03, 3.91082093e-03, 1.80144105e-02, 1.34261250e-02,
          3.60288215e-03, 1.41343838e-02, 1.37340631e-02, 5.14257513e-03,
          5.51210158e-03, 5.69686480e-03, 3.69526388e-04, 4.15717158e-03,
          6.18956657e-03, 1.79528221e-02, 1.02543570e-02, 1.96156912e-02,
          1.53969321e-02, 1.32413618e-02, 1.99852176e-02, 5.11178141e-03,
          6.71306252e-03, 3.17176804e-03, 2.08782405e-02, 3.91082093e-03,
          1.33029493e-02, 7.88322929e-03, 1.46270860e-02, 7.60608446e-03,
          1.32721560e-02, 1.71213895e-02, 1.41651779e-02, 1.29334228e-02,
          1.23175457e-02, 9.97721218e-03, 1.35185067e-02, 1.26870722e-02,
          1.21635767e-02, 6.46671141e-03, 8.25275574e-03, 1.85994934e-02 ]
      - [ 9.53197945e-03, 1.14860358e-02, 4.38471045e-03, 6.95834495e-03,
          1.77771412e-02, 2.24001519e-02, 5.05194906e-03, 2.67848633e-02,
          6.19578687e-03, 1.14383758e-03, 9.05538071e-03, 1.00085782e-02,
          1.08187972e-02, 1.00562386e-02, 1.00562386e-02, 9.81793925e-03,
          6.72004558e-03, 3.46010849e-02, 2.14469545e-02, 5.67152770e-03,
          9.67495888e-03, 6.52940618e-03, 9.19836015e-03, 1.24392333e-02,
          8.57878197e-03, 1.49175478e-02, 6.43408624e-03, 1.73482019e-02,
          5.43322833e-03, 9.91325919e-03, 6.43408624e-03, 1.34400912e-02,
          9.48431995e-03, 6.57706615e-03, 8.72176141e-03, 1.12953959e-02,
          6.19578687e-03, 3.52683244e-03, 1.61090456e-02, 6.43408624e-03,
          1.27728526e-02, 1.55847864e-02, 1.95882171e-02, 9.77027882e-03,
          4.76598972e-03, 6.62472565e-03, 3.14555317e-03, 4.57535032e-03,
          1.38690304e-02, 7.57792359e-03, 9.96091869e-03, 2.26384513e-02,
          7.67324353e-03, 5.05194906e-03, 8.72176141e-03, 6.76770555e-03,
          1.10094361e-02, 1.76341622e-03, 7.86388293e-03, 4.09875112e-03,
          3.21227722e-02, 6.38642628e-03, 7.00600492e-03, 7.14898482e-03,
          9.77027882e-03, 1.12953959e-02, 8.34048260e-03, 1.90639589e-03,
          1.38213700e-02, 6.19578687e-03, 1.76341622e-03, 6.05280697e-03,
          2.34010108e-02, 1.14383753e-02, 1.02468785e-02, 6.86302548e-03,
          5.52854827e-03, 1.12953959e-02, 6.91068498e-03, 3.38385277e-03,
          8.43580160e-03, 1.97311975e-02, 9.24602058e-03, 1.23439133e-02,
          4.90896963e-03, 1.83490608e-02, 6.33876631e-03, 7.95920286e-03,
          1.17719946e-02, 1.09617766e-02, 8.72176141e-03, 5.43322833e-03,
          6.86302548e-03, 5.95748704e-03, 6.95834495e-03, 9.57963988e-03,
          4.14641108e-03, 1.33924317e-02, 1.55847864e-02, 9.96091869e-03 ]
      - [ 1.59604196e-02, 1.54852411e-02, 4.10889974e-03, 1.54013857e-02,
          9.11225379e-03, 1.25503130e-02, 1.10409213e-02, 0.,
          7.23948982e-03, 1.22707961e-02, 9.36381891e-03, 1.12365829e-02,
          1.95661886e-03, 7.49105541e-03, 1.68548748e-02, 1.14601962e-02,
          6.93202112e-03, 4.13685152e-03, 2.05724500e-02, 1.95661886e-03,
          3.49396234e-03, 1.04539357e-02, 1.02303214e-02, 1.67430677e-02,
          1.06495973e-02, 1.58486124e-02, 2.14110017e-02, 1.28298299e-02,
          5.11516072e-03, 9.30791534e-03, 8.69297795e-03, 1.59045160e-02,
          8.05008970e-03, 1.04818875e-02, 9.00044665e-03, 5.92576014e-03,
          5.92576014e-03, 3.07468697e-03, 1.58206616e-02, 7.57491030e-03,
          2.42061708e-02, 1.41994627e-02, 2.34794263e-02, 1.15160998e-02,
          6.09347038e-03, 4.24865820e-03, 5.86985669e-04, 4.33251355e-03,
          2.22216006e-02, 1.02862250e-02, 1.00626117e-02, 5.86985669e-04,
          1.52616277e-02, 6.54069753e-03, 1.35286227e-02, 1.43951252e-02,
          5.11516072e-03, 2.31999112e-03, 8.91659223e-03, 1.25782646e-03,
          9.36381891e-03, 6.00961549e-03, 1.45348832e-02, 3.21444543e-03,
          1.62119849e-03, 1.66312605e-02, 1.05098384e-02, 1.22987479e-03,
          1.59045160e-02, 6.42889086e-03, 3.63372092e-04, 1.34168158e-03,
          2.06842576e-03, 1.62958410e-02, 4.83564381e-03, 1.62399374e-02,
          9.78309475e-03, 1.27739264e-02, 1.60722267e-02, 5.17106429e-03,
          5.89780835e-03, 7.29539338e-03, 1.13204382e-02, 5.36672631e-03,
          7.35129695e-03, 1.36683807e-02, 9.89490189e-03, 1.40317529e-02,
          1.54852411e-02, 1.35286227e-02, 1.74698122e-02, 4.61203046e-03,
          4.61203046e-03, 7.15563493e-03, 2.35353298e-02, 1.79170389e-02,
          1.04259839e-02, 9.25201271e-03, 1.40317529e-02, 1.59324687e-02 ]
      - [ 8.40115547e-03, 5.71016036e-03, 3.11761629e-03, 1.98871102e-02,
          4.23339475e-03, 2.97322143e-02, 1.35862436e-02, 3.07823587e-02,
          5.74297737e-03, 2.92071421e-03, 4.43029683e-03, 1.09936995e-02,
          2.17248630e-02, 5.74297737e-03, 8.13861936e-03, 9.68101900e-03,
          5.74297737e-03, 9.41848289e-03, 9.18876380e-03, 2.39564199e-03,
          6.69467077e-03, 7.15410896e-03, 7.18692597e-03, 1.13875037e-02,
          5.11945412e-03, 1.99527442e-02, 4.92255203e-03, 1.27330013e-02,
          7.64636416e-03, 8.00735131e-03, 3.64268851e-03, 9.48411692e-03,
          8.49960651e-03, 6.43213466e-03, 5.11945412e-03, 1.34877926e-02,
          1.10265166e-02, 5.02100307e-03, 1.40784988e-02, 7.05565792e-03,
          8.86059366e-03, 9.45129991e-03, 9.87792108e-03, 6.00551348e-03,
          6.66185375e-03, 2.88789719e-03, 3.19637731e-02, 5.80861140e-03,
          9.25439782e-03, 8.66369158e-03, 5.08663710e-03, 4.56484668e-02,
          1.36518776e-02, 8.43397249e-03, 9.25439782e-03, 5.90706244e-03,
          1.27001842e-02, 2.36282498e-03, 6.99002389e-03, 1.54568134e-02,
          6.62903674e-03, 1.30939884e-02, 6.39931764e-03, 7.81044923e-03,
          5.93987945e-03, 7.05565792e-03, 6.03833050e-03, 1.41113158e-02,
          1.95261240e-02, 9.68101900e-03, 3.63612510e-02, 1.75899193e-02,
          2.89446060e-02, 5.57889231e-03, 8.82777665e-03, 7.15410896e-03,
          6.92438986e-03, 7.12129194e-03, 6.07114751e-03, 3.01916525e-03,
          8.04016832e-03, 1.28314523e-02, 5.41480724e-03, 1.64085068e-03,
          1.05014443e-02, 1.19125759e-02, 5.02100307e-03, 1.58506185e-02,
          6.26804959e-03, 5.38199022e-03, 6.92438986e-03, 1.10265166e-02,
          6.82593882e-03, 6.33368362e-03, 2.65161470e-02, 6.03833050e-03,
          3.97085864e-03, 2.85508018e-03, 6.82593882e-03, 4.79128398e-03 ]
      - [ 1.37729021e-02, 1.18409572e-02, 2.83559761e-03, 1.03764171e-02,
          9.50392615e-03, 1.50816394e-02, 1.90701727e-02, 3.11604126e-05,
          1.09061440e-02, 3.83273070e-03, 9.56624653e-03, 2.47102063e-02,
          1.22772027e-02, 9.50392615e-03, 7.38501782e-03, 8.84955749e-03,
          3.55228712e-03, 3.83273070e-03, 1.21214008e-02, 5.11030760e-03,
          8.66259448e-03, 6.41904492e-03, 6.57484727e-03, 1.55490460e-02,
          1.29004112e-02, 1.28380898e-02, 7.69662205e-03, 2.38377154e-02,
          4.54942044e-03, 1.67643018e-02, 1.11242672e-02, 8.78723618e-03,
          8.72491580e-03, 6.41904492e-03, 3.77040985e-03, 9.34812333e-03,
          7.29153678e-03, 4.08201385e-03, 2.81378534e-02, 6.51252642e-03,
          1.13735506e-02, 1.20902397e-02, 1.18721174e-02, 1.70135852e-02,
          1.19967591e-02, 5.88931795e-03, 1.56425275e-02, 2.74211634e-03,
          1.43026290e-02, 1.57983284e-02, 6.51252642e-03, 8.69375467e-03,
          1.24018444e-02, 4.58058063e-03, 5.51539287e-03, 6.51252642e-03,
          6.51252642e-03, 3.17836204e-03, 4.23781620e-03, 1.45830736e-02,
          2.15006853e-03, 7.38501782e-03, 6.35672407e-03, 2.02542683e-03,
          4.64290148e-03, 1.06568607e-02, 1.33054964e-02, 1.56113664e-02,
          1.86027661e-02, 9.56624653e-03, 1.12800691e-02, 9.69088823e-03,
          1.29938917e-02, 8.41331109e-03, 7.26037612e-03, 7.54081970e-03,
          3.48996627e-03, 7.63430120e-03, 6.41904492e-03, 4.20665555e-03,
          1.19655989e-02, 1.67019814e-02, 6.48136577e-03, 8.56911391e-03,
          8.22634902e-03, 1.86339263e-02, 9.62856784e-03, 1.59852915e-02,
          1.40845068e-02, 1.03452569e-02, 9.81552992e-03, 8.50679260e-03,
          5.45307202e-03, 6.66832831e-03, 3.29365544e-02, 1.33366566e-02,
          5.76467626e-03, 7.97706563e-03, 1.80418789e-02, 6.04511984e-03 ]
      - [ 9.31623951e-03, 9.44444444e-03, 1.45299139e-03, 2.24358980e-02,
          4.05982882e-03, 1.92307699e-02, 5.29914536e-03, 2.25128204e-01,
          6.58119656e-03, 3.37606831e-03, 4.99999989e-03, 8.33333284e-03,
          1.11111114e-03, 4.14529908e-03, 9.82906017e-03, 5.08547015e-03,
          3.03418795e-03, 3.67521355e-03, 1.13675212e-02, 1.45299139e-03,
          4.70085477e-04, 5.21367509e-03, 1.13675212e-02, 1.09829055e-02,
          7.39316223e-03, 7.26495730e-03, 9.78632458e-03, 1.05982907e-02,
          5.94017096e-03, 5.34188049e-03, 4.65811975e-03, 1.13675212e-02,
          2.61538457e-02, 6.06837589e-03, 3.84615385e-03, 2.51282044e-02,
          1.52136749e-02, 6.41025661e-04, 9.52991471e-03, 5.94017096e-03,
          1.21367518e-02, 2.24786326e-02, 1.57692302e-02, 8.80341884e-03,
          3.11965798e-03, 1.49572652e-03, 2.94871791e-03, 2.05128198e-03,
          1.10256411e-02, 5.17093996e-03, 5.85470069e-03, 5.76923089e-03,
          5.47008542e-03, 5.89743583e-03, 4.65811975e-03, 5.38461516e-03,
          1.53846154e-02, 6.41025661e-04, 6.79487176e-03, 1.28205132e-03,
          6.83760690e-03, 5.59829036e-03, 9.65811964e-03, 4.61538462e-03,
          3.20512825e-03, 7.99145270e-03, 4.10256395e-03, 1.88034191e-03,
          7.09401723e-03, 4.18803422e-03, 1.14102559e-02, 1.02564099e-03,
          2.43589748e-03, 9.95726511e-03, 7.30769243e-03, 8.24786350e-03,
          5.72649576e-03, 9.61538497e-03, 7.35042710e-03, 8.11965787e-04,
          5.64102549e-03, 1.76495723e-02, 7.82051310e-03, 2.77777785e-03,
          6.79487176e-03, 2.27350425e-02, 5.08547015e-03, 5.64102549e-03,
          8.58974364e-03, 9.44444444e-03, 8.63247830e-03, 8.84615351e-03,
          5.42735029e-03, 4.52991435e-03, 1.21367518e-02, 1.64102558e-02,
          6.45299163e-03, 6.92307670e-03, 2.54700854e-02, 9.52991471e-03 ]
      - [ 1.57629251e-02, 1.57056060e-02, 8.25404096e-03, 1.17505447e-03,
          2.72268709e-03, 8.39733984e-03, 4.01238119e-03, 0.,
          1.38713745e-02, 3.06660542e-03, 1.67946797e-02, 5.47403423e-03,
          2.46474822e-03, 2.46761423e-02, 1.34701366e-02, 1.42439529e-02,
          1.74251981e-02, 5.96125191e-03, 6.81818202e-02, 1.92021090e-03,
          4.92949644e-03, 1.25243608e-02, 6.53444882e-03, 9.57239512e-03,
          1.87435504e-02, 3.41052376e-03, 9.85899288e-03, 1.04608508e-02,
          5.98991150e-03, 1.01169320e-02, 1.65654011e-02, 6.13321085e-03,
          1.46165304e-03, 6.93568727e-03, 1.47598302e-02, 6.01857156e-03,
          3.81176197e-03, 3.61114298e-03, 8.56929924e-03, 7.30826519e-03,
          1.11200269e-02, 1.15212658e-02, 9.48641542e-03, 2.10936610e-02,
          2.98062596e-03, 1.41293127e-02, 2.83732661e-03, 1.34414760e-02,
          1.32695176e-02, 3.35320411e-03, 1.50464289e-02, 3.72578244e-04,
          2.14948971e-03, 1.03175510e-02, 2.00619046e-02, 1.38713745e-02,
          7.65218353e-03, 2.03485042e-03, 1.49317896e-02, 1.94887072e-03,
          5.15877549e-03, 4.38495912e-03, 2.07497422e-02, 6.93568727e-03,
          2.69402727e-03, 1.82563327e-02, 1.20658027e-02, 2.00619060e-03,
          8.56929924e-03, 7.70950364e-03, 1.43299316e-04, 1.43299322e-03,
          2.66536744e-03, 1.71672590e-02, 4.78619756e-03, 1.47598302e-02,
          1.28682787e-02, 1.11773470e-02, 1.06614698e-02, 1.10627078e-02,
          1.25530204e-02, 8.94187763e-03, 1.64507627e-02, 3.89774144e-03,
          1.20371431e-02, 7.42290495e-03, 1.88008714e-02, 4.24165977e-03,
          8.48331954e-03, 2.20107753e-02, 1.65367424e-02, 1.08620888e-02,
          4.58557811e-03, 1.13493064e-02, 4.35629953e-03, 9.74435359e-03,
          9.71569400e-03, 8.02476238e-03, 1.34987962e-02, 1.87148917e-02 ]
      - [ 1.09985918e-02, 1.07303336e-02, 7.64536252e-03, 8.78546014e-03,
          4.59392369e-03, 1.27422707e-02, 8.45013745e-03, 0.,
          1.17363017e-02, 7.57829798e-03, 1.27422707e-02, 3.87633294e-02,
          8.71839584e-04, 1.16692372e-02, 7.20944256e-03, 4.92924685e-03,
          4.76158550e-03, 1.90128088e-02, 4.74146605e-02, 4.42626234e-03,
          2.41432502e-03, 7.57829798e-03, 9.79142915e-03, 1.37147075e-02,
          1.35135129e-02, 1.07303336e-02, 5.80108631e-03, 2.51156855e-02,
          1.02944132e-02, 1.36476429e-02, 1.23063512e-02, 1.30775934e-02,
          6.90765213e-03, 1.00261550e-02, 7.57829798e-03, 9.95909050e-03,
          4.99631139e-03, 2.31372798e-03, 5.55630066e-02, 3.55442287e-03,
          8.24894384e-03, 7.84655567e-03, 1.15351081e-02, 1.88116152e-02,
          5.83461858e-03, 4.66098869e-03, 2.24666344e-03, 8.14834703e-03,
          1.01267518e-02, 5.09690819e-03, 1.05962036e-02, 1.34129165e-04,
          1.06968004e-02, 7.64536252e-03, 7.44416844e-03, 7.44416844e-03,
          1.06968004e-02, 4.42626234e-03, 1.38153043e-02, 2.34726048e-03,
          1.26081416e-02, 3.52089060e-03, 1.21386889e-02, 8.75192787e-03,
          1.46536110e-02, 9.38904192e-03, 9.89202596e-03, 1.84427598e-03,
          2.01193746e-02, 6.60586124e-03, 5.70048927e-04, 5.70048927e-04,
          2.61551864e-03, 1.47206755e-02, 1.16357049e-02, 7.51123298e-03,
          6.16994174e-03, 1.21386889e-02, 4.76158550e-03, 3.95681057e-03,
          1.39159011e-02, 1.08979950e-02, 1.04620745e-02, 6.87411986e-03,
          1.11327209e-02, 1.02944132e-02, 8.95312149e-03, 5.36516681e-03,
          6.47173217e-03, 1.17027694e-02, 8.18187930e-03, 9.38904192e-03,
          6.80705532e-03, 9.65730008e-03, 1.44188851e-02, 1.49218692e-02,
          4.49332688e-03, 5.49929589e-03, 1.80403721e-02, 1.65984835e-02 ]
      - [ 1.29195135e-02, 1.12117622e-02, 3.15562822e-03, 1.34763895e-02,
          6.23700675e-03, 7.53638288e-03, 3.71250394e-03, 9.80101060e-03,
          7.46213272e-03, 1.24368882e-02, 6.05138112e-03, 1.51841408e-02,
          9.24413465e-03, 9.20700934e-03, 1.50356404e-02, 1.61493924e-02,
          9.02138464e-03, 8.53875931e-03, 2.94030309e-02, 1.37362641e-03,
          3.89812910e-03, 1.19542629e-02, 1.18800122e-02, 8.76150932e-03,
          1.42931398e-02, 1.36620142e-02, 1.12117622e-02, 1.03207612e-02,
          8.09325837e-03, 8.72438401e-03, 1.03207612e-02, 1.03207612e-02,
          9.02138464e-03, 9.87526029e-03, 1.07291359e-02, 8.57588369e-03,
          1.48500153e-03, 3.34125361e-03, 2.87719052e-02, 1.07291359e-02,
          1.54440161e-02, 4.34362935e-03, 2.07157712e-02, 1.38476398e-02,
          1.55925169e-03, 5.64300595e-03, 2.93287798e-03, 6.42263191e-03,
          1.56667661e-02, 3.93525418e-03, 1.12488866e-02, 6.01425627e-03,
          1.05063859e-02, 8.42738338e-03, 1.58152673e-02, 1.39218895e-02,
          2.26462749e-03, 6.68250723e-03, 1.06920116e-02, 3.22987838e-03,
          1.58895161e-02, 4.75200498e-03, 1.33650145e-02, 7.46213272e-03,
          5.94000611e-03, 1.03578856e-02, 1.08033866e-02, 5.01188030e-03,
          9.02138464e-03, 1.45530151e-02, 1.89337693e-03, 1.15830125e-02,
          1.08033866e-02, 1.26225129e-02, 9.31838434e-03, 1.81912687e-02,
          1.27710132e-02, 1.10632619e-02, 1.76715180e-02, 6.08850643e-03,
          7.12800771e-03, 1.01351356e-02, 1.28081385e-02, 6.08850643e-03,
          1.03578856e-02, 9.20700934e-03, 1.13973869e-02, 5.64300595e-03,
          1.18428878e-02, 1.23626376e-02, 1.28823882e-02, 7.09088240e-03,
          6.75675692e-03, 1.29937632e-02, 1.30680138e-02, 1.23255132e-02,
          7.38788256e-03, 4.82625514e-03, 1.00608859e-02, 1.40332645e-02 ]
      - [ 1.23524014e-02, 1.56482868e-02, 1.12346672e-02, 9.42909531e-03,
          1.75111778e-02, 3.76590602e-02, 1.35561153e-02, 0.,
          8.94187763e-03, 2.46474822e-03, 1.08907484e-02, 1.29542584e-02,
          1.00309530e-03, 1.60495248e-02, 1.28109595e-02, 1.08907484e-02,
          1.07187890e-02, 6.01857156e-03, 5.23042530e-02, 1.12633267e-02,
          6.04723115e-03, 1.05181700e-02, 8.16806126e-03, 7.99610186e-03,
          1.01742521e-02, 1.46451909e-02, 5.81795257e-03, 1.55049870e-02,
          4.87217680e-03, 9.57239512e-03, 9.71569400e-03, 7.16496585e-03,
          4.41361917e-03, 9.77301411e-03, 1.20084835e-02, 3.78310215e-03,
          1.11773470e-03, 4.87217680e-03, 4.10695858e-02, 3.35320411e-03,
          4.67155781e-03, 1.08334282e-02, 6.93568727e-03, 1.16359051e-02,
          1.64507627e-02, 7.65218353e-03, 2.29278905e-03, 8.97053722e-03,
          6.84970757e-03, 1.36134354e-02, 1.16359051e-02, 5.73197285e-05,
          7.91012216e-03, 4.78619756e-03, 1.30688976e-02, 1.31548773e-02,
          1.89155107e-03, 3.92640149e-03, 1.31835379e-02, 2.60804757e-03,
          8.11074115e-03, 9.45775490e-03, 1.27249798e-02, 6.47712918e-03,
          7.68084358e-03, 1.49604492e-02, 1.18365241e-02, 1.83423131e-03,
          2.81153265e-02, 2.60804757e-03, 5.73197285e-05, 7.73816311e-04,
          9.74435359e-04, 1.67946797e-02, 5.84661216e-03, 1.06041497e-02,
          8.65527894e-03, 1.18365241e-02, 8.16806126e-03, 5.87527221e-03,
          7.76682328e-03, 3.98372114e-03, 1.46738505e-02, 2.08930410e-02,
          5.35939448e-03, 3.38186393e-03, 8.68393853e-03, 1.55909657e-02,
          3.61114298e-03, 1.02029117e-02, 1.65654011e-02, 5.76063292e-03,
          2.52206810e-03, 3.92640149e-03, 9.57239512e-03, 9.08517651e-03,
          4.27031983e-03, 2.31858306e-02, 1.37853948e-02, 1.73678771e-02 ]
      - [ 1.45230060e-02, 8.88257287e-03, 6.04014937e-03, 9.45993979e-03,
          7.86107685e-03, 7.77225103e-03, 9.32670105e-03, 4.79658926e-03,
          1.31906206e-02, 1.03926100e-02, 8.34961794e-03, 8.57168250e-03,
          4.35246062e-03, 1.21691246e-02, 1.14585189e-02, 9.41552687e-03,
          8.12755432e-03, 5.24071790e-03, 2.50932686e-02, 4.75217635e-03,
          6.88399374e-03, 7.99431559e-03, 8.17196723e-03, 1.24356020e-02,
          1.71433650e-02, 8.17196723e-03, 8.70492123e-03, 1.29685560e-02,
          9.85965598e-03, 1.23023633e-02, 1.39456391e-02, 1.54556762e-02,
          2.05631554e-02, 7.15047121e-03, 7.41694821e-03, 1.71433650e-02,
          1.28797302e-02, 6.48427801e-03, 5.68484655e-03, 9.23787523e-03,
          1.42565295e-02, 1.41677037e-02, 1.56333279e-02, 2.08296329e-02,
          6.66192966e-03, 7.94990268e-03, 4.39687353e-03, 1.02593713e-02,
          1.44341802e-02, 8.43844377e-03, 1.00817196e-02, 7.32812239e-03,
          3.86391906e-03, 9.90406889e-03, 9.72641725e-03, 1.09699769e-02,
          1.15029318e-02, 3.81950638e-03, 1.03037842e-02, 2.66477186e-03,
          5.55160781e-03, 4.70776344e-03, 1.14585189e-02, 8.66050832e-03,
          4.39687353e-03, 9.72641725e-03, 9.23787523e-03, 2.44270754e-03,
          6.48427801e-03, 1.42565295e-02, 3.86391906e-03, 2.70918477e-03,
          6.43986510e-03, 1.01261325e-02, 1.00373076e-02, 1.29241431e-02,
          7.23929657e-03, 1.11032156e-02, 9.32670105e-03, 7.37253530e-03,
          8.30520596e-03, 2.61147637e-02, 1.02149583e-02, 7.94990268e-03,
          9.01581161e-03, 1.54556762e-02, 1.27909044e-02, 1.03926100e-02,
          8.66050832e-03, 1.71433650e-02, 1.07923262e-02, 1.49671352e-02,
          6.92840666e-03, 1.04814358e-02, 5.01865381e-03, 1.05702616e-02,
          1.10143898e-02, 1.07479133e-02, 1.74542554e-02, 1.03481971e-02 ]
      - [ 1.00389421e-02, 1.59055274e-02, 8.47114716e-03, 5.03211422e-03,
          5.94244665e-03, 4.02063411e-03, 1.07469782e-02, 5.05740149e-03,
          7.25737074e-03, 3.11030191e-03, 1.31239565e-02, 2.55904514e-02,
          4.93096653e-03, 1.27699384e-02, 1.27193648e-02, 1.36296963e-02,
          1.37814190e-02, 1.62342582e-02, 3.42386067e-02, 1.26435037e-03,
          8.74930434e-03, 1.21377632e-02, 1.50457686e-02, 1.69422943e-02,
          1.23400595e-02, 5.43670636e-03, 9.53320134e-03, 2.30617505e-02,
          1.28710866e-02, 1.81560703e-02, 7.56081520e-03, 1.61331110e-02,
          9.10332240e-03, 1.34274010e-02, 1.11515699e-02, 9.65963677e-03,
          1.71951647e-03, 8.04126821e-03, 7.28265801e-03, 8.26885086e-03,
          6.97921403e-03, 1.22641986e-02, 1.88641064e-02, 1.83330793e-02,
          5.58842858e-03, 1.07722646e-02, 2.52870074e-03, 1.26940776e-02,
          1.00389421e-02, 8.01598094e-03, 1.26435030e-02, 2.47812667e-03,
          5.36084548e-03, 9.83664580e-03, 2.08112057e-02, 9.07803513e-03,
          3.91948596e-03, 3.48960701e-03, 1.44641679e-02, 2.83214473e-03,
          7.20679713e-03, 3.66661604e-03, 1.21630505e-02, 9.30561870e-03,
          9.65963677e-03, 1.50204822e-02, 1.27446512e-02, 1.61836843e-03,
          7.05507491e-03, 9.10332240e-03, 4.55166126e-04, 2.32640468e-03,
          3.59075493e-03, 2.20755562e-02, 1.55515093e-02, 8.69873073e-03,
          7.78839830e-03, 1.56273693e-02, 8.04126821e-03, 1.09239873e-02,
          1.70687288e-02, 3.99534730e-03, 1.29975211e-02, 4.39993897e-03,
          1.21630505e-02, 5.76543761e-03, 8.44585989e-03, 1.21630505e-02,
          4.52637440e-03, 1.13285789e-02, 8.85045249e-03, 9.07803513e-03,
          6.49876054e-03, 9.98836756e-03, 6.39761286e-03, 8.49643443e-03,
          6.87806588e-03, 6.42289966e-03, 6.85277907e-03, 1.35791227e-02 ]
      - [ 7.05011142e-03, 9.23108123e-03, 8.62243876e-04, 3.55041586e-03,
          1.89186446e-02, 3.13450992e-02, 9.12964065e-03, 0.,
          4.10833862e-03, 4.76770140e-02, 4.61554062e-03, 1.47595862e-02,
          1.52160681e-03, 3.55041586e-03, 5.17346337e-03, 2.84033269e-03,
          1.77520793e-03, 1.49117466e-02, 9.63684358e-03, 2.02880916e-03,
          1.31872587e-03, 4.66626091e-03, 1.13613307e-02, 1.11077297e-02,
          5.32562379e-03, 3.09393387e-02, 7.30371289e-03, 1.13106109e-02,
          1.24771763e-02, 6.49218913e-03, 1.97808887e-03, 2.17082575e-02,
          8.72387923e-03, 3.39825521e-03, 3.04321363e-03, 1.04483673e-02,
          5.12274308e-03, 1.16656523e-03, 3.77358496e-02, 6.39074855e-03,
          1.71941575e-02, 8.26739706e-03, 2.40921080e-02, 4.31121932e-03,
          1.04990872e-02, 1.47088664e-03, 1.48103060e-02, 1.26800570e-03,
          1.43031040e-02, 1.23250149e-02, 4.20977874e-03, 1.16656523e-03,
          2.65266784e-02, 5.07202279e-03, 4.61554062e-03, 3.24609457e-03,
          9.78900399e-03, 2.75918040e-02, 4.20977874e-03, 1.06512476e-02,
          1.44552644e-02, 3.55041586e-03, 8.57171882e-03, 7.15155201e-03,
          7.86163565e-03, 9.73828323e-03, 4.26049903e-03, 4.66626091e-03,
          2.58673169e-02, 3.42361555e-02, 1.31872587e-03, 1.67376746e-03,
          8.11523665e-03, 8.47027823e-03, 4.20470685e-02, 7.35443318e-03,
          5.02130250e-03, 8.26739706e-03, 7.35443318e-03, 5.57922525e-04,
          4.61554062e-03, 1.22742951e-02, 8.41955747e-03, 1.13106109e-02,
          5.98498667e-03, 9.58612282e-03, 7.45587330e-03, 1.60275921e-02,
          8.92676041e-03, 6.39074855e-03, 4.15905844e-03, 9.63684358e-03,
          2.58673169e-03, 1.27814971e-02, 1.47088664e-02, 1.47595862e-02,
          5.27490349e-03, 1.30858188e-02, 1.30350981e-02, 8.11523665e-03 ]
      - [ 6.35264954e-03, 4.49333712e-03, 1.38415452e-02, 1.23954134e-03,
          6.19770668e-04, 2.68567284e-03, 6.71418209e-04, 0.,
          3.87356663e-03, 7.79878069e-03, 3.71862389e-03, 8.36690422e-03,
          1.39448401e-02, 9.60644521e-03, 6.19770680e-03, 6.66253455e-03,
          1.09492820e-02, 1.78700536e-02, 1.62689798e-02, 8.26360891e-04,
          2.56171878e-02, 7.33395293e-03, 5.52628841e-03, 4.49333712e-03,
          1.24470610e-02, 1.13624625e-03, 6.09441148e-03, 5.99111663e-03,
          2.23117433e-02, 6.04276406e-03, 1.12075200e-02, 2.25699823e-02,
          4.49333712e-03, 9.34820715e-03, 1.08459871e-02, 1.61140375e-02,
          1.18789379e-03, 2.04524323e-02, 5.00981277e-03, 5.21640293e-03,
          4.75157518e-03, 3.25379591e-03, 1.89546533e-02, 5.16475551e-03,
          2.06590223e-04, 1.25503559e-02, 2.88193356e-02, 1.31701268e-02,
          6.30100165e-03, 2.06590223e-04, 6.61088713e-03, 7.23065808e-04,
          1.85931195e-03, 2.42227037e-02, 6.14605891e-03, 1.48228481e-02,
          4.80322260e-03, 4.77223396e-02, 1.20338807e-02, 2.74248514e-02,
          2.60303672e-02, 2.58237764e-04, 2.78896792e-03, 5.93430400e-02,
          1.84381772e-02, 3.82191921e-03, 9.76138841e-03, 1.72502827e-02,
          1.34283642e-03, 1.33767165e-02, 1.29118888e-03, 1.61656849e-02,
          2.31381059e-02, 3.82191921e-03, 3.83224860e-02, 9.08997003e-03,
          9.29655973e-03, 7.74713326e-03, 8.72843713e-03, 1.00196255e-02,
          1.16723478e-02, 6.76582986e-03, 7.69548584e-03, 1.18789379e-03,
          1.11558717e-02, 3.20214848e-03, 6.97242003e-03, 1.54942667e-04,
          2.68567284e-03, 5.88782132e-03, 3.35709122e-03, 3.11951227e-02,
          1.18789375e-02, 1.27052991e-02, 2.06590211e-03, 5.11310808e-03,
          4.69992775e-03, 1.29118888e-03, 4.85487003e-03, 6.24935422e-03 ]
      - [ 1.29529554e-02, 8.78099166e-03, 4.60902741e-03, 9.21805482e-03,
          4.72822599e-03, 1.02511123e-02, 2.74157664e-03, 1.98664959e-04,
          8.10553040e-03, 8.82072467e-03, 5.08582313e-03, 1.62110608e-02,
          8.46312754e-03, 8.10553040e-03, 7.82739930e-03, 1.20390970e-02,
          6.83407485e-03, 1.81579776e-02, 1.44230761e-02, 8.34392849e-04,
          5.52288583e-03, 1.08868405e-02, 6.07914804e-03, 1.09663066e-02,
          1.33900186e-02, 1.27940234e-02, 1.01716463e-02, 1.76017154e-02,
          8.93992372e-03, 6.83407485e-03, 8.86045769e-03, 8.50286055e-03,
          7.66846770e-03, 7.78766675e-03, 8.26446246e-03, 9.85378213e-03,
          8.82072467e-03, 5.04609011e-03, 1.87142398e-02, 1.12047037e-02,
          1.58534646e-02, 1.71249192e-02, 8.62205960e-03, 1.35092176e-02,
          1.82771764e-03, 9.69485007e-03, 9.57565103e-03, 6.27781311e-03,
          1.46614742e-02, 2.30451371e-03, 6.55594375e-03, 6.19834708e-03,
          9.21805482e-03, 1.62905268e-02, 9.45645198e-03, 1.48601392e-02,
          1.72441192e-02, 4.45009535e-03, 1.29926885e-02, 8.46312754e-03,
          1.78798474e-02, 8.26446246e-03, 8.97965673e-03, 1.82771776e-02,
          1.08471075e-02, 1.02113793e-02, 1.07279085e-02, 1.31118875e-02,
          8.26446246e-03, 1.08471075e-02, 7.03273993e-03, 1.27145573e-02,
          7.58900167e-03, 8.66179261e-03, 1.09663066e-02, 1.71249192e-02,
          7.66846770e-03, 6.91354088e-03, 1.04100443e-02, 5.12555614e-03,
          1.22774951e-02, 1.27542904e-02, 1.05689764e-02, 2.38397950e-03,
          1.78798474e-02, 2.05022246e-02, 7.94659834e-03, 1.86745066e-03,
          1.58137307e-02, 7.54926866e-03, 9.09885578e-03, 1.80785116e-02,
          7.54926866e-03, 1.27145573e-02, 1.27542904e-02, 1.19993640e-02,
          4.80769202e-03, 6.71487581e-03, 1.29132224e-02, 1.07279085e-02 ]
      - [ 1.18049877e-02, 1.27759604e-02, 1.01185609e-02, 1.52289448e-02,
          3.06623057e-03, 1.46668022e-02, 1.78863446e-03, 2.04415363e-03,
          1.03229759e-02, 4.75265738e-03, 8.07440653e-03, 8.27882253e-03,
          1.37980375e-02, 1.24693373e-02, 8.63654912e-03, 1.61488131e-02,
          7.51226489e-03, 5.31479949e-03, 3.90944406e-02, 1.78863446e-03,
          1.04762875e-02, 1.11917416e-02, 8.94317217e-03, 7.56336842e-03,
          1.03229759e-02, 6.95012230e-03, 7.05233030e-03, 1.35425180e-02,
          7.92109501e-03, 1.06295990e-02, 1.33892065e-02, 6.33687619e-03,
          1.50245298e-02, 1.07829105e-02, 9.04538017e-03, 1.78863443e-02,
          1.59443989e-02, 7.61447242e-03, 8.99427570e-03, 1.08340140e-02,
          3.47506115e-03, 1.76819284e-02, 8.43213405e-03, 8.94317217e-03,
          3.88389197e-03, 1.14472602e-02, 7.35895336e-03, 8.12551100e-03,
          8.02330300e-03, 2.09525740e-03, 8.58544558e-03, 4.80376091e-03,
          3.42395739e-03, 1.01185609e-02, 6.28577266e-03, 8.58544558e-03,
          2.59096473e-02, 1.95216667e-02, 1.40535561e-02, 7.41005689e-03,
          3.62837268e-03, 5.82583807e-03, 8.43213405e-03, 7.76778394e-03,
          5.46811102e-03, 1.39513491e-02, 1.30825834e-02, 7.92109501e-03,
          9.09648370e-03, 7.92109501e-03, 8.07440653e-03, 1.08851185e-02,
          1.25715453e-02, 1.21627143e-02, 6.54129172e-03, 1.20094027e-02,
          8.02330300e-03, 1.10384300e-02, 8.68765265e-03, 5.16148796e-03,
          1.23160258e-02, 1.95727721e-02, 1.52289448e-02, 3.47506115e-03,
          8.27882253e-03, 1.82951745e-02, 1.24693373e-02, 1.27759599e-03,
          5.00817643e-03, 1.11917416e-02, 9.19869170e-03, 1.94705632e-02,
          6.08135713e-03, 1.55355679e-02, 8.17661453e-03, 4.85486491e-03,
          7.71667995e-03, 8.43213405e-03, 1.50245298e-02, 1.38491411e-02 ]
      - [ 1.09174782e-02, 6.91952836e-03, 1.10712461e-02, 5.79190161e-03,
          1.94771914e-03, 1.08662229e-02, 3.07534612e-03, 0.,
          9.48231667e-03, 1.02511537e-03, 7.73962075e-03, 1.41465915e-02,
          1.38903130e-02, 1.26601746e-02, 9.27729346e-03, 1.58380326e-02,
          1.84520762e-02, 1.76832397e-02, 1.00461300e-02, 9.73859569e-04,
          1.65556129e-02, 9.02101491e-03, 5.94566902e-03, 9.89236310e-03,
          1.65043566e-02, 1.35315228e-02, 6.76576141e-03, 2.06048191e-02,
          1.07637113e-02, 1.41978478e-02, 1.45053817e-02, 9.53357294e-03,
          2.71655573e-03, 9.07227118e-03, 1.22501282e-02, 8.25217832e-03,
          2.97283451e-03, 1.01998979e-02, 1.40440799e-02, 1.11225015e-02,
          8.55971314e-03, 5.63813420e-03, 9.58482828e-03, 1.54279862e-02,
          3.99794988e-03, 1.36852898e-02, 8.25217832e-03, 1.05074318e-02,
          8.86724796e-03, 1.74269604e-03, 8.40594620e-03, 4.66427486e-03,
          8.71348009e-03, 1.15325479e-02, 1.16863148e-02, 1.15838032e-02,
          2.81906710e-03, 9.07227118e-03, 1.24038961e-02, 9.02101491e-03,
          1.84520762e-02, 3.22911330e-03, 1.16863148e-02, 1.71706825e-02,
          1.48641728e-02, 7.79087655e-03, 1.34290112e-02, 5.84315741e-03,
          1.15325479e-02, 2.97796000e-02, 1.38390576e-03, 1.53767299e-02,
          1.28651978e-02, 8.86724796e-03, 2.11173762e-02, 1.16863148e-02,
          8.61096848e-03, 7.79087655e-03, 1.01486417e-02, 1.03024095e-02,
          1.51204513e-02, 1.00461300e-02, 6.86827302e-03, 2.46027671e-03,
          1.28651978e-02, 4.20297310e-03, 1.40953362e-02, 2.76781153e-03,
          7.84213282e-03, 1.32239880e-02, 5.63813420e-03, 1.08662229e-02,
          5.68939000e-03, 1.37878014e-02, 1.35315228e-02, 1.34290112e-02,
          9.63608455e-03, 4.71553067e-03, 7.58585334e-03, 7.27831898e-03 ]
      - [ 9.06277634e-03, 8.67595058e-03, 1.11074271e-02, 2.65251985e-03,
          8.45490769e-03, 6.63129985e-03, 4.64191008e-03, 0.,
          1.47546427e-02, 7.18390802e-04, 7.62599474e-03, 1.24889482e-02,
          4.25508432e-03, 9.00751539e-03, 1.03337755e-02, 2.61383746e-02,
          8.23386386e-03, 2.39279401e-02, 1.61361638e-02, 1.71308580e-03,
          1.14389928e-02, 9.28382017e-03, 5.52608306e-03, 1.42572951e-02,
          9.94694978e-03, 2.92882416e-03, 7.62599474e-03, 2.04465073e-02,
          1.37046864e-02, 1.26547311e-02, 1.16600357e-02, 1.26547311e-02,
          3.53669329e-03, 1.14389928e-02, 6.41025649e-03, 1.28757739e-02,
          4.19982336e-03, 7.62599474e-03, 8.51016864e-03, 6.57603890e-03,
          1.74071621e-02, 1.67992935e-02, 1.22679053e-02, 1.48099028e-02,
          1.34283826e-02, 5.19451825e-03, 5.69186592e-03, 1.09416451e-02,
          3.11671104e-02, 3.26038920e-03, 9.39434115e-03, 1.10521665e-04,
          2.32095504e-03, 8.12334195e-03, 1.69650763e-02, 1.09969061e-02,
          1.12179490e-02, 4.69717057e-03, 2.17727683e-02, 4.86295344e-03,
          1.71308573e-02, 2.54199840e-03, 1.00022107e-02, 1.43125560e-02,
          6.85234321e-03, 1.69098154e-02, 1.45335989e-02, 4.97347489e-03,
          6.24447409e-03, 1.94518138e-02, 0., 3.31564993e-03,
          3.09460657e-03, 1.23784263e-02, 2.67462432e-02, 1.01679936e-02,
          7.68125569e-03, 9.89168882e-03, 7.34969089e-03, 5.74712642e-03,
          8.67595058e-03, 9.72590689e-03, 8.51016864e-03, 6.90760417e-03,
          8.84173345e-03, 2.30990276e-02, 9.89168882e-03, 4.19982336e-03,
          7.84703810e-03, 1.15495138e-02, 8.34438577e-03, 1.65782496e-02,
          6.24447409e-03, 8.39964673e-03, 2.98408489e-03, 1.08311232e-02,
          5.63660497e-03, 1.19916005e-02, 1.93965528e-02, 9.72590689e-03 ]
      - [ 1.07526882e-02, 8.16595647e-03, 1.14120515e-02, 3.60113615e-03,
          7.60803407e-04, 5.07202276e-05, 1.57232711e-03, 0.,
          1.17163723e-02, 2.02880910e-04, 1.10570099e-02, 7.40515301e-03,
          5.47778467e-03, 1.29843783e-02, 7.76019460e-03, 5.62994508e-03,
          1.12091703e-02, 1.51146278e-02, 1.57232713e-02, 1.31872587e-03,
          1.25786169e-02, 1.19192535e-02, 9.78900399e-03, 1.44552644e-02,
          1.39480624e-02, 5.57922525e-04, 4.81842179e-03, 9.78900399e-03,
          2.52079535e-02, 1.45059852e-02, 1.11077297e-02, 1.52160684e-02,
          2.38385075e-03, 1.01947654e-02, 9.94116440e-03, 1.43538248e-02,
          7.05011142e-03, 1.14627713e-02, 5.07202290e-04, 1.81071218e-02,
          7.50659360e-03, 5.73138567e-03, 1.59768723e-02, 1.48103060e-02,
          6.59362937e-04, 1.06005277e-02, 6.39074855e-03, 1.17670931e-02,
          8.57171882e-03, 9.12964111e-04, 1.09555693e-02, 3.04321351e-04,
          4.05761821e-04, 1.91722456e-02, 9.99188516e-03, 8.41955747e-03,
          8.01379606e-03, 3.09393387e-02, 1.01947654e-02, 8.87603965e-03,
          1.95780080e-02, 3.75329680e-03, 6.84723072e-03, 2.42442694e-02,
          2.14039367e-02, 5.83282625e-03, 1.52160684e-02, 5.68066537e-03,
          3.55041586e-04, 2.50050724e-02, 3.55041586e-04, 5.37634408e-03,
          1.03469267e-02, 9.07892082e-03, 2.76425239e-02, 9.53540299e-03,
          8.47027823e-03, 1.06005277e-02, 7.45587330e-03, 6.89795101e-03,
          1.49624674e-02, 1.13106109e-02, 1.11077297e-02, 9.63684346e-04,
          1.83100030e-02, 7.50659360e-03, 9.02820006e-03, 1.21728540e-03,
          1.29336584e-02, 1.11584505e-02, 7.05011142e-03, 2.18604188e-02,
          1.88679248e-02, 2.57151555e-02, 3.95617774e-03, 1.22235753e-02,
          1.40495030e-02, 1.42016634e-03, 1.45059852e-02, 8.16595647e-03 ]
      - [ 8.10866617e-03, 3.66697647e-03, 1.10525768e-02, 1.49777916e-03,
          5.16475528e-04, 3.09885334e-04, 2.89226323e-03, 2.39644665e-02,
          1.00712730e-02, 1.96260703e-03, 6.50759181e-03, 1.22921178e-02,
          6.35264954e-03, 1.03811584e-02, 8.26360844e-03, 1.22921178e-02,
          1.27052991e-02, 9.45150293e-03, 2.81995647e-02, 8.78008432e-04,
          1.43580204e-02, 1.14141097e-02, 9.19326488e-03, 2.49457695e-02,
          1.12591675e-02, 6.71418209e-04, 5.31969825e-03, 1.20855281e-02,
          2.28798669e-02, 8.10866617e-03, 6.30100165e-03, 1.10525768e-02,
          2.78896792e-03, 9.08997003e-03, 1.17756426e-02, 1.23437662e-02,
          4.69992775e-03, 1.38415452e-02, 1.96260703e-03, 1.29118888e-02,
          1.71469878e-02, 1.09492820e-02, 1.35833072e-02, 1.16207004e-02,
          9.81303514e-04, 8.83173198e-03, 5.47464099e-03, 1.24470610e-02,
          1.54426191e-02, 2.16919743e-03, 7.07571534e-03, 5.68123127e-04,
          9.81303514e-04, 1.95227768e-02, 1.79217011e-02, 1.23437662e-02,
          3.25379591e-03, 1.60107426e-02, 1.53393243e-02, 7.12736277e-03,
          1.24470610e-02, 1.58558004e-02, 1.03811584e-02, 2.09172592e-02,
          1.21371755e-02, 8.16031359e-03, 1.13624623e-02, 5.93946874e-03,
          5.68123127e-04, 1.25503559e-02, 3.09885334e-04, 7.95372389e-03,
          7.64383841e-03, 1.19822333e-02, 3.73928286e-02, 1.18789375e-02,
          9.39985551e-03, 9.50315036e-03, 1.04328059e-02, 1.17239952e-02,
          1.05361016e-02, 4.54498501e-03, 1.09492820e-02, 3.61532904e-04,
          1.68887507e-02, 5.88782132e-03, 1.04844542e-02, 1.44613162e-03,
          3.25896069e-02, 1.06910439e-02, 7.23065762e-03, 1.98326614e-02,
          1.78184062e-02, 1.30151836e-02, 2.63402541e-03, 5.21640293e-03,
          1.08459871e-02, 2.16919743e-03, 4.28674696e-03, 6.86912471e-03 ]
      - [ 1.56365894e-02, 9.39431414e-03, 5.37700858e-03, 3.58467246e-03,
          8.03461112e-03, 1.91594567e-03, 5.00618061e-03, 0.,
          1.11248456e-02, 1.98393073e-02, 3.89369600e-03, 1.92830656e-02,
          2.96662562e-03, 6.86032139e-03, 8.09641555e-03, 1.17428927e-02,
          1.00741656e-02, 1.60692222e-02, 1.68726817e-02, 2.71940674e-03,
          3.33745359e-03, 7.78739201e-03, 1.28553770e-02, 1.56365894e-02,
          8.83807149e-03, 1.40296668e-02, 1.27317682e-02, 1.53275654e-02,
          1.16192829e-02, 1.11248456e-02, 7.78739201e-03, 2.39184182e-02,
          1.79233623e-03, 9.20889992e-03, 5.99505566e-03, 2.41038320e-03,
          8.65265785e-04, 5.31520415e-03, 1.19283069e-02, 8.22002441e-03,
          2.27441285e-02, 8.46724398e-03, 4.44993824e-02, 1.14956740e-02,
          1.60692213e-03, 6.86032139e-03, 1.73053157e-03, 1.24845486e-02,
          2.52163168e-02, 4.26452421e-03, 8.22002441e-03, 0.,
          1.54511742e-02, 1.16810882e-02, 1.80469714e-02, 1.22373300e-02,
          6.79851684e-04, 8.52904841e-03, 1.48331271e-02, 1.91594567e-03,
          2.70086527e-02, 1.85414089e-03, 1.18665025e-02, 1.44004943e-02,
          7.78739201e-03, 1.06304083e-02, 1.04449941e-02, 2.28677387e-03,
          5.93325123e-03, 2.34857854e-02, 0., 1.73053157e-03,
          1.17428927e-03, 2.60197781e-02, 1.92212611e-02, 8.65265727e-03,
          7.29295425e-03, 1.30407913e-02, 1.01359701e-02, 1.00123612e-02,
          5.31520415e-03, 1.91594567e-03, 8.83807149e-03, 3.39925848e-03,
          1.17428927e-02, 5.74783701e-03, 8.83807149e-03, 6.36588410e-03,
          1.25463540e-02, 1.10630412e-02, 8.65265727e-03, 8.34363420e-03,
          7.35475915e-03, 1.18665025e-02, 1.23609398e-02, 2.65142154e-02,
          9.57972836e-03, 5.31520415e-03, 9.39431414e-03, 1.16810882e-02 ]
      - [ 1.27114300e-02, 7.27831898e-03, 5.22808824e-03, 3.69041529e-03,
          2.61404412e-03, 3.02409031e-03, 2.51153251e-03, 2.06048191e-02,
          1.84520762e-02, 2.71655573e-03, 1.44028710e-02, 1.67093799e-02,
          4.20297310e-03, 1.67606361e-02, 8.45720153e-03, 1.75807290e-02,
          9.43106133e-03, 1.13275247e-02, 2.22450029e-02, 1.89646333e-03,
          7.12455157e-03, 5.94566902e-03, 4.81804227e-03, 1.61455665e-02,
          1.23013845e-02, 5.63813420e-03, 8.71348009e-03, 2.64992323e-02,
          1.08149666e-02, 1.11225015e-02, 1.70681700e-02, 1.10199898e-02,
          5.63813420e-03, 8.76473635e-03, 5.02306502e-03, 1.76832397e-02,
          5.58687840e-03, 7.68836495e-03, 3.89543828e-03, 6.25320338e-03,
          1.47104049e-02, 1.71194263e-02, 1.04561765e-02, 1.80420298e-02,
          3.58790369e-03, 1.32752433e-02, 3.63915949e-03, 1.40953362e-02,
          2.04510503e-02, 1.74269604e-03, 1.10712461e-02, 1.53767294e-04,
          4.76678647e-03, 1.52229629e-02, 1.81957968e-02, 1.01486417e-02,
          7.27831898e-03, 4.04920569e-03, 1.90671459e-02, 3.53664788e-03,
          1.51717067e-02, 1.75807290e-02, 9.22603812e-03, 1.59405433e-02,
          5.99692483e-03, 1.20451050e-02, 8.04715510e-03, 3.79292667e-03,
          1.38390576e-03, 8.30343459e-03, 4.10046137e-04, 4.30548424e-03,
          4.45925165e-03, 1.11737568e-02, 1.29164532e-02, 5.48436726e-03,
          7.43208639e-03, 1.28139416e-02, 5.79190161e-03, 7.79087655e-03,
          1.59917995e-02, 9.73859616e-03, 8.20092298e-03, 5.43311145e-03,
          7.94464350e-03, 1.55817531e-02, 7.32957479e-03, 2.66529992e-03,
          2.39876993e-02, 7.32957479e-03, 1.56842656e-02, 2.60891858e-02,
          1.03536649e-02, 6.97078416e-03, 1.14812916e-02, 7.89338816e-03,
          6.04818063e-03, 3.69041529e-03, 1.66068692e-02, 1.07124550e-02 ]
      - [ 3.77643504e-03, 2.84685101e-03, 9.17964242e-03, 1.16198004e-04,
          5.75180119e-03, 8.13386054e-04, 1.87659767e-02, 1.13699749e-01,
          2.67255399e-03, 2.03346508e-03, 2.67255399e-03, 9.87683050e-03,
          3.77643504e-03, 3.71833611e-03, 2.78875208e-03, 1.02835232e-02,
          1.82430875e-02, 5.46130631e-03, 9.47013684e-03, 2.73065316e-03,
          7.02997902e-03, 6.10039523e-03, 5.17081097e-03, 2.67836396e-02,
          7.14617735e-03, 2.32396007e-04, 3.36974207e-03, 4.12502931e-03,
          2.13804320e-02, 2.67255399e-03, 4.41552419e-03, 5.28700929e-03,
          5.80990018e-05, 7.08807819e-03, 7.43667223e-03, 3.25354422e-03,
          2.32396007e-04, 1.21426918e-02, 2.67255399e-03, 4.03788052e-02,
          9.64443386e-03, 3.54403909e-03, 2.11480372e-02, 4.35742503e-03,
          5.69370203e-03, 5.80990035e-03, 1.04578200e-03, 1.60934236e-02,
          7.08807819e-03, 1.67906117e-02, 1.97536615e-03, 0.,
          6.97188021e-04, 2.28910074e-02, 1.77782942e-02, 7.66906841e-03,
          2.90494994e-04, 8.59865267e-03, 7.08807819e-03, 9.29584028e-04,
          5.75180119e-03, 4.09597978e-02, 6.73948415e-03, 7.14617735e-03,
          6.50708843e-03, 5.92609821e-03, 7.37857306e-03, 1.49314431e-02,
          1.20264934e-02, 1.55124338e-02, 0., 1.75458994e-02,
          1.27817807e-03, 1.24912858e-02, 2.09156405e-02, 7.14617735e-03,
          4.00883099e-03, 6.85568200e-03, 7.90146459e-03, 1.53381368e-02,
          2.73065316e-03, 2.78875208e-03, 6.27469225e-03, 8.71485041e-04,
          2.41691843e-02, 1.16198004e-04, 7.55287008e-03, 1.03997216e-02,
          2.77132243e-02, 4.06693015e-03, 1.85916806e-03, 4.00883099e-03,
          4.02045101e-02, 1.65582150e-02, 3.18382531e-02, 2.39367895e-02,
          1.31303743e-02, 1.39437604e-03, 4.18312801e-03, 5.05461311e-03 ]
      - [ 4.59333649e-03, 6.36942638e-03, 4.53209179e-03, 5.69573697e-03,
          5.57324803e-03, 3.49093578e-03, 2.20480142e-03, 1.82324827e-01,
          6.36942638e-03, 1.10240071e-03, 5.32827014e-03, 5.87947061e-03,
          4.10338072e-03, 5.26702590e-03, 3.67466919e-03, 1.02890739e-02,
          1.06565403e-02, 1.23101417e-02, 1.12689855e-02, 6.30818214e-03,
          5.08329226e-03, 7.90053885e-03, 2.69475742e-03, 1.40249869e-02,
          5.81822591e-03, 2.69475742e-03, 4.47084755e-03, 8.57422780e-03,
          1.23101417e-02, 4.83831437e-03, 3.24595766e-03, 9.98285133e-03,
          6.43067108e-03, 4.96080332e-03, 4.71582543e-03, 7.77804945e-03,
          1.15139633e-02, 6.79813791e-03, 3.24595766e-03, 2.45590396e-02,
          8.88045039e-03, 1.18814306e-02, 1.94757469e-02, 5.75698167e-03,
          4.10338072e-03, 6.12444850e-03, 2.20480142e-03, 9.24791768e-03,
          1.24938749e-02, 1.10240071e-03, 4.28711390e-03, 4.28711390e-03,
          9.79911769e-04, 1.54948551e-02, 1.81896128e-02, 6.12444850e-03,
          1.12077408e-02, 3.55218025e-03, 9.79911722e-03, 2.69475742e-03,
          1.63522772e-02, 1.51886325e-02, 9.30916145e-03, 7.28809368e-03,
          4.34835861e-03, 1.28000975e-02, 5.69573697e-03, 1.27388528e-02,
          1.95982354e-03, 1.08402744e-02, 8.57422780e-03, 1.73934344e-02,
          3.12346872e-03, 1.43924542e-02, 1.22488970e-02, 6.73689321e-03,
          4.59333649e-03, 6.12444850e-03, 5.20578120e-03, 7.47182732e-03,
          4.22586966e-03, 6.36942638e-03, 6.92062685e-03, 8.75796098e-03,
          1.82508565e-02, 5.63449273e-03, 5.94071532e-03, 3.12346872e-03,
          1.94757469e-02, 3.30720213e-03, 5.32827014e-03, 4.71582543e-03,
          3.31945121e-02, 1.05340518e-02, 8.94169509e-03, 1.51273878e-02,
          1.76384114e-02, 1.37800090e-02, 1.16364518e-02, 7.83929415e-03 ]
      - [ 1.08137224e-02, 1.32996356e-02, 8.57640058e-03, 1.69870735e-03,
          3.39741469e-03, 5.80046384e-04, 4.22605220e-03, 5.38614532e-03,
          1.18080871e-02, 2.61020870e-03, 1.05651310e-02, 1.03579713e-02,
          4.47464362e-03, 1.62827317e-02, 1.01093799e-02, 9.15644690e-03,
          1.47911832e-02, 1.25538614e-02, 4.30062972e-02, 3.31455085e-04,
          9.28074215e-03, 1.64070260e-02, 7.99635425e-03, 1.61170028e-02,
          1.88929401e-02, 3.14882328e-03, 8.99071898e-03, 1.06479945e-02,
          1.20981103e-02, 1.18909515e-02, 1.49983428e-02, 7.08485255e-03,
          1.24295661e-03, 1.06894262e-02, 1.43354321e-02, 2.77593639e-03,
          9.52933391e-04, 7.74776284e-03, 4.43321187e-03, 1.13109052e-02,
          1.62412990e-02, 5.84189594e-03, 1.77328475e-02, 1.42525686e-02,
          2.40304926e-03, 1.41697051e-02, 7.04342034e-04, 1.46668879e-02,
          1.33824991e-02, 4.97182645e-03, 1.25124296e-02, 0.,
          2.98309582e-03, 1.55369574e-02, 1.59927085e-02, 1.25124296e-02,
          4.22605220e-03, 4.47464362e-03, 1.91000998e-02, 1.65727548e-03,
          1.13523370e-02, 1.90586678e-03, 1.51226381e-02, 1.34653626e-02,
          6.54623797e-03, 9.73649323e-03, 1.65313222e-02, 1.24295661e-03,
          1.74013921e-03, 8.74212757e-03, 0., 3.02452757e-03,
          3.81173356e-03, 1.63241625e-02, 7.37487571e-03, 1.28853163e-02,
          1.21395420e-02, 1.03579713e-02, 1.25538614e-02, 1.08965859e-02,
          9.90222022e-03, 4.39177966e-03, 1.86857805e-02, 2.36161752e-03,
          2.22903546e-02, 7.41630746e-03, 2.15031486e-02, 3.72886960e-03,
          2.71793175e-02, 1.57026853e-02, 9.86078847e-03, 8.94928724e-03,
          9.11501516e-03, 1.61998682e-02, 1.16423601e-02, 1.46668879e-02,
          1.43768648e-02, 3.56314215e-03, 6.96055684e-03, 1.73185281e-02 ]
      - [ 1.01720812e-02, 9.04631708e-03, 2.29173377e-02, 2.15503369e-02,
          1.83740761e-02, 2.96719205e-02, 1.23431971e-02, 3.01543903e-03,
          9.97105148e-03, 1.12576387e-03, 1.04937283e-02, 6.75458368e-03,
          2.18719840e-02, 1.48359602e-02, 4.98552574e-03, 4.26182058e-03,
          8.36281758e-03, 5.74943703e-03, 2.38420721e-02, 1.76101644e-02,
          3.06368601e-02, 5.78964315e-03, 3.57832108e-03, 4.86490829e-03,
          1.28256679e-02, 1.54390484e-02, 3.77935031e-03, 1.20215500e-02,
          3.09585081e-03, 1.02926986e-02, 9.56899300e-03, 7.84014165e-03,
          8.96590576e-03, 4.78449650e-03, 5.58861392e-03, 7.15664215e-03,
          1.05741397e-02, 1.60823409e-02, 1.25442268e-02, 4.74429084e-03,
          3.29688005e-03, 1.47957541e-02, 5.06593753e-03, 1.86153110e-02,
          1.37906084e-02, 1.27050495e-02, 1.77307818e-02, 9.24734678e-03,
          4.74429084e-03, 7.31746526e-03, 8.32261145e-03, 1.08555807e-02,
          1.64844003e-03, 6.55355398e-03, 8.28240626e-03, 7.19684782e-03,
          1.87761337e-02, 2.49276287e-03, 9.64940526e-03, 1.24638146e-02,
          3.65873263e-03, 2.45255721e-03, 7.88034778e-03, 6.35252474e-03,
          6.59376010e-03, 8.84528831e-03, 6.83499500e-03, 4.46284981e-03,
          1.00514637e-02, 1.56802835e-03, 1.02524925e-02, 2.93502724e-03,
          1.87761337e-02, 1.27854617e-02, 2.81440979e-03, 6.19170163e-03,
          6.55355398e-03, 7.35767139e-03, 3.05564492e-03, 1.14988741e-02,
          1.80122219e-02, 7.71952420e-03, 7.88034778e-03, 2.39626896e-02,
          9.08652321e-03, 8.56384728e-03, 8.08137655e-03, 1.39916372e-02,
          5.66902524e-03, 8.64425860e-03, 8.92569963e-03, 1.35895787e-02,
          2.33193953e-03, 5.34737855e-03, 1.72885170e-03, 6.39273087e-03,
          4.70408471e-03, 3.18832435e-02, 2.12286916e-02, 1.06545510e-02 ]
      - [ 1.24824187e-02, 2.10970454e-02, 2.22691032e-03, 2.51992489e-03,
          1.68776363e-02, 4.35419604e-02, 1.23652127e-02, 0.,
          4.45382064e-03, 2.22105011e-02, 8.38021562e-03, 6.32911362e-03,
          1.28926395e-03, 6.27051108e-03, 2.13900600e-02, 1.04899202e-02,
          4.80543822e-03, 1.11345516e-03, 2.23277062e-02, 8.67323019e-03,
          2.57852790e-03, 8.55602417e-03, 1.07243313e-02, 5.09845279e-03,
          5.97749650e-03, 1.71120483e-02, 2.95358635e-02, 5.86029049e-03,
          5.97749650e-03, 5.68448193e-03, 5.21565881e-03, 1.49437413e-02,
          2.10970454e-03, 1.40646975e-02, 7.32536335e-03, 3.63338017e-03,
          4.68823244e-04, 2.63713067e-03, 4.57688682e-02, 4.74683521e-03,
          2.87154242e-02, 8.90764128e-03, 1.97491795e-02, 6.79793721e-03,
          1.57641824e-02, 3.16455681e-03, 5.27426135e-04, 2.87154247e-03,
          2.38513816e-02, 1.32442564e-02, 9.90389101e-03, 0.,
          1.12517579e-02, 1.81669008e-03, 1.01383030e-02, 1.71706509e-02,
          3.51617433e-04, 5.86029026e-04, 8.02859850e-03, 4.68823244e-04,
          5.62587893e-03, 4.33661509e-03, 1.25996247e-02, 2.40271911e-03,
          1.17205805e-03, 1.92803554e-02, 9.43506788e-03, 1.52367551e-03,
          2.44374108e-02, 6.32911362e-03, 0., 7.03234866e-04,
          2.34411622e-04, 1.82255041e-02, 4.80543822e-03, 1.87529288e-02,
          1.17205810e-02, 1.30098453e-02, 1.85771212e-02, 3.69198294e-03,
          2.87154247e-03, 3.28176282e-03, 1.30098453e-02, 1.97491795e-02,
          2.51992489e-03, 5.74308494e-03, 6.15330506e-03, 1.76980775e-02,
          1.54711669e-02, 7.96999503e-03, 2.43202057e-02, 2.46132212e-03,
          1.99249876e-03, 6.62212819e-03, 1.04899202e-02, 1.56469755e-02,
          3.80918896e-03, 2.07454283e-02, 9.43506788e-03, 2.29723398e-02 ]
      - [ 1.27168307e-02, 1.46507267e-02, 3.86779173e-03, 3.16455681e-03,
          1.80496946e-02, 1.74636655e-02, 1.64088141e-02, 0.,
          2.98874825e-03, 2.10970454e-02, 1.08415373e-02, 7.79418647e-03,
          1.64088141e-03, 7.85278901e-03, 2.95358635e-02, 3.19385827e-02,
          8.61462671e-03, 1.03141116e-02, 1.31856538e-02, 1.01969056e-02,
          3.22315982e-03, 9.66947898e-03, 2.19760891e-02, 8.08720104e-03,
          5.86029049e-03, 1.26582272e-02, 2.68401299e-02, 1.38302855e-02,
          5.97749650e-03, 1.03727141e-02, 4.39521810e-03, 1.81669015e-02,
          1.99249876e-03, 2.19760891e-02, 7.44256889e-03, 3.80918896e-03,
          3.51617433e-04, 3.10595403e-03, 1.77566800e-02, 5.39146736e-03,
          2.16830745e-02, 1.30684478e-02, 2.66643222e-02, 5.91889350e-03,
          9.61087644e-03, 5.50867291e-03, 8.20440706e-04, 6.56352565e-03,
          3.06493193e-02, 2.00421941e-02, 8.26300960e-03, 0.,
          1.72292534e-02, 1.23066106e-03, 2.22691037e-02, 1.31270513e-02,
          4.16080607e-03, 2.22691032e-03, 6.09470205e-03, 8.79043597e-04,
          2.46132212e-03, 1.87529298e-03, 5.91889350e-03, 1.40646973e-03,
          2.46132212e-03, 2.15072669e-02, 5.91889350e-03, 1.05485227e-03,
          1.41233001e-02, 1.60571970e-02, 1.17205811e-04, 6.44631975e-04,
          1.40646973e-03, 9.84528847e-03, 6.27051108e-03, 1.01969056e-02,
          8.90764128e-03, 1.60571970e-02, 2.26207208e-02, 3.39896861e-03,
          9.02484730e-03, 5.62587893e-03, 1.10173458e-02, 1.46507267e-02,
          3.92639451e-03, 9.02484730e-03, 4.80543822e-03, 2.52578519e-02,
          1.02555081e-02, 8.20440706e-03, 1.76394749e-02, 2.75433646e-03,
          3.51617439e-03, 6.21190807e-03, 1.82841066e-02, 4.74683521e-03,
          1.17205805e-03, 1.52367558e-02, 4.04360052e-03, 1.11345518e-02 ]
      - [ 1.38302855e-02, 1.56469755e-02, 3.92639451e-03, 1.69948430e-03,
          2.02766061e-02, 3.76230665e-02, 1.81669015e-02, 0.,
          4.10220353e-03, 4.10220325e-02, 5.21565881e-03, 1.40646975e-02,
          2.46132212e-03, 4.27801209e-03, 1.80496946e-02, 6.03609905e-03,
          4.68823221e-03, 2.57852790e-03, 8.73183273e-03, 6.09470205e-03,
          5.03984978e-03, 1.00796996e-02, 2.27379277e-02, 9.55227390e-03,
          7.55977491e-03, 1.17791845e-02, 2.98288781e-02, 1.16033750e-02,
          4.74683521e-03, 5.74308494e-03, 6.85653975e-03, 3.00632901e-02,
          4.10220353e-04, 1.90459434e-02, 7.61837792e-03, 1.23066106e-03,
          4.10220353e-04, 3.80918896e-03, 2.95358635e-02, 5.15705580e-03,
          2.58438811e-02, 9.72808246e-03, 2.66643222e-02, 4.86404123e-03,
          1.20721981e-02, 2.46132212e-03, 2.34411610e-03, 4.39521810e-03,
          2.50820443e-02, 1.84599161e-02, 5.50867291e-03, 1.17205811e-04,
          1.57055780e-02, 2.40271911e-03, 6.03609905e-03, 1.25410222e-02,
          5.27426135e-04, 1.69948430e-03, 4.45382064e-03, 1.58227840e-03,
          6.38771662e-03, 4.62962966e-03, 1.51781524e-02, 2.98874825e-03,
          3.22315982e-03, 1.13103604e-02, 8.49742163e-03, 1.87529298e-03,
          2.45546177e-02, 1.25996247e-02, 5.86029055e-05, 3.51617433e-04,
          5.86029026e-04, 1.45335207e-02, 7.09095178e-03, 1.54711669e-02,
          9.49367043e-03, 1.26582272e-02, 1.57641824e-02, 2.93014525e-03,
          2.75433646e-03, 2.51992489e-03, 1.04899202e-02, 1.68776363e-02,
          5.91889350e-03, 3.98499751e-03, 7.03234877e-03, 2.23863106e-02,
          1.57641824e-02, 8.96624476e-03, 1.51781524e-02, 1.58227840e-03,
          2.16830755e-03, 9.61087644e-03, 8.14580359e-03, 1.27168307e-02,
          6.03609905e-03, 1.79324895e-02, 1.02555081e-02, 1.57055780e-02 ]
      - [ 1.45335207e-02, 1.97491795e-02, 4.98124678e-03, 1.58227840e-03,
          1.84013117e-02, 2.57852785e-02, 2.23863106e-02, 0.,
          5.62587893e-03, 1.31270513e-02, 1.27168307e-02, 1.78738870e-02,
          2.28551333e-03, 1.48265352e-02, 1.38888890e-02, 9.55227390e-03,
          1.25996247e-02, 6.56352565e-03, 2.93014534e-02, 1.35958744e-02,
          6.97374577e-03, 1.33614624e-02, 8.43881816e-03, 7.50117190e-03,
          8.90764128e-03, 1.69948433e-02, 1.32442564e-02, 2.08040308e-02,
          6.15330506e-03, 1.07243313e-02, 7.73558347e-03, 6.91514276e-03,
          1.81669008e-03, 1.64674167e-02, 9.43506788e-03, 5.97749650e-03,
          2.93014513e-04, 5.62587893e-03, 2.50820443e-02, 2.63713067e-03,
          1.06071262e-02, 1.28926393e-02, 1.17205810e-02, 1.22480076e-02,
          1.55883729e-02, 8.84903874e-03, 2.46132212e-03, 5.80168748e-03,
          8.14580359e-03, 2.34997645e-02, 1.10759493e-02, 3.51617433e-04,
          1.98077820e-02, 3.45757138e-03, 1.37130795e-02, 1.25996247e-02,
          1.34786684e-03, 2.40271911e-03, 6.97374577e-03, 1.28926395e-03,
          1.58227840e-03, 3.69198294e-03, 1.14861699e-02, 4.57102666e-03,
          3.57477716e-03, 1.72292534e-02, 1.06071262e-02, 7.61837757e-04,
          2.46132202e-02, 6.91514276e-03, 0., 8.20440706e-04,
          1.58227840e-03, 1.37130795e-02, 5.15705580e-03, 1.14275664e-02,
          7.96999503e-03, 1.02555081e-02, 1.13689639e-02, 7.20815733e-03,
          1.10759493e-02, 4.80543822e-03, 1.48265352e-02, 1.71120483e-02,
          6.32911362e-03, 2.46132212e-03, 7.32536335e-03, 2.51992494e-02,
          8.38021562e-03, 7.91139249e-03, 1.48265352e-02, 4.92264424e-03,
          3.45757138e-03, 7.44256889e-03, 2.36169714e-02, 3.51617439e-03,
          2.16830755e-03, 2.03352086e-02, 7.09095178e-03, 1.33614624e-02 ]
      - [ 5.45007037e-03, 9.61087644e-03, 3.16455681e-03, 9.08345077e-03,
          3.01218927e-02, 6.12986386e-02, 1.04899202e-02, 0.,
          4.92264424e-03, 4.39521782e-02, 4.39521810e-03, 9.25925933e-03,
          2.93014525e-03, 4.10220353e-03, 8.84903874e-03, 7.32536335e-03,
          5.33286436e-03, 5.74308494e-03, 6.44631963e-03, 1.07243313e-02,
          7.73558347e-03, 6.68073120e-03, 5.80168748e-03, 6.85653975e-03,
          6.68073120e-03, 5.13947494e-02, 2.02766061e-02, 1.44163147e-02,
          6.38771662e-03, 6.73933420e-03, 5.56727592e-03, 1.43577121e-02,
          1.93389587e-03, 1.07243313e-02, 6.44631963e-03, 2.22691032e-03,
          7.03234866e-04, 3.69198294e-03, 4.58274707e-02, 3.92639451e-03,
          1.37130795e-02, 1.60571970e-02, 8.90764128e-03, 8.73183273e-03,
          1.69948433e-02, 3.22315982e-03, 3.51617439e-03, 3.69198294e-03,
          1.30098453e-02, 1.59399901e-02, 5.39146736e-03, 7.61837757e-04,
          4.37177680e-02, 2.34411610e-03, 7.44256889e-03, 1.30098453e-02,
          1.93389587e-03, 2.10970454e-03, 5.74308494e-03, 3.51617439e-03,
          3.80918896e-03, 5.97749650e-03, 9.25925933e-03, 1.46507262e-03,
          2.69573368e-03, 9.55227390e-03, 9.31786187e-03, 2.40271911e-03,
          2.94186585e-02, 1.01383030e-02, 2.34411622e-04, 1.64088141e-03,
          2.63713067e-03, 7.91139249e-03, 4.74683521e-03, 8.84903874e-03,
          7.55977491e-03, 6.15330506e-03, 7.26676034e-03, 2.81293946e-03,
          4.45382064e-03, 3.34036560e-03, 8.02859850e-03, 2.52578519e-02,
          4.62962966e-03, 7.50117190e-03, 4.74683521e-03, 2.17416771e-02,
          8.26300960e-03, 8.49742163e-03, 1.06071262e-02, 1.81669008e-03,
          1.81669008e-03, 7.38396589e-03, 4.19010781e-02, 7.09095178e-03,
          2.98874825e-03, 1.75808724e-02, 9.55227390e-03, 7.61837792e-03 ]
      - [ 1.13103604e-02, 8.96624476e-03, 4.86404123e-03, 1.27754332e-02,
          2.51406468e-02, 2.99460851e-02, 2.30895448e-02, 0.,
          7.44256889e-03, 2.79535856e-02, 5.33286436e-03, 9.55227390e-03,
          1.43577121e-02, 5.27426135e-03, 9.49367043e-03, 3.92639451e-03,
          3.22315982e-03, 1.34786684e-03, 8.67323019e-03, 1.44163147e-02,
          8.73183273e-03, 5.33286436e-03, 8.20440706e-03, 6.21190807e-03,
          5.62587893e-03, 3.53961550e-02, 1.45921232e-02, 1.21308016e-02,
          2.98874825e-03, 6.32911362e-03, 7.55977491e-03, 7.79418647e-03,
          3.92639451e-03, 1.04899202e-02, 4.10220353e-03, 5.09845279e-03,
          1.40646973e-03, 8.02859850e-03, 3.03563047e-02, 2.34411610e-03,
          1.03727141e-02, 9.14205331e-03, 1.24238161e-02, 9.08345077e-03,
          1.55297704e-02, 3.80918896e-03, 1.71120483e-02, 3.45757138e-03,
          7.85278901e-03, 2.10384429e-02, 7.96999503e-03, 4.04360052e-03,
          3.15283649e-02, 2.05110176e-03, 1.75808719e-03, 9.14205331e-03,
          2.22691032e-03, 1.66432243e-02, 5.03984978e-03, 1.29512418e-02,
          1.09001407e-02, 3.16455681e-03, 8.43881816e-03, 2.16830755e-03,
          1.17205805e-03, 5.21565881e-03, 6.21190807e-03, 1.42405061e-02,
          2.36755740e-02, 6.56352565e-03, 8.73183273e-03, 6.97374577e-03,
          1.30684478e-02, 1.03141116e-02, 2.16830755e-03, 7.67698046e-03,
          4.27801209e-03, 6.79793721e-03, 8.20440706e-03, 3.04735103e-03,
          3.80918896e-03, 5.68448193e-03, 6.03609905e-03, 2.36169714e-02,
          4.04360052e-03, 8.26300960e-03, 5.33286436e-03, 3.17627750e-02,
          5.62587893e-03, 8.08720104e-03, 8.90764128e-03, 5.03984978e-03,
          1.99249876e-03, 3.86779173e-03, 2.50234399e-02, 1.47093292e-02,
          4.04360052e-03, 2.51406468e-02, 2.97702756e-02, 9.31786187e-03 ]
      - [ 7.44256889e-03, 1.45921232e-02, 2.57852790e-03, 6.15330506e-03,
          2.34411620e-02, 2.81879976e-02, 2.31481474e-02, 0.,
          5.50867291e-03, 3.97913717e-02, 6.68073120e-03, 1.51195498e-02,
          2.98874825e-03, 3.10595403e-03, 1.75222680e-02, 5.33286436e-03,
          4.04360052e-03, 4.16080607e-03, 5.45007037e-03, 1.15447724e-02,
          4.27801209e-03, 8.79043620e-03, 2.02766061e-02, 9.66947898e-03,
          8.08720104e-03, 1.47093292e-02, 2.39685886e-02, 1.68776363e-02,
          8.84903874e-03, 9.14205331e-03, 5.74308494e-03, 1.58227850e-02,
          2.51992489e-03, 1.41233001e-02, 7.50117190e-03, 3.57477716e-03,
          2.93014513e-04, 4.62962966e-03, 3.19385827e-02, 5.33286436e-03,
          2.45546177e-02, 9.78668500e-03, 2.72503514e-02, 1.02555081e-02,
          1.29512418e-02, 2.51992489e-03, 4.10220353e-04, 2.81293946e-03,
          1.93389580e-02, 2.09798403e-02, 6.15330506e-03, 2.34411622e-04,
          1.72878578e-02, 6.97374577e-03, 4.68823221e-03, 8.32161214e-03,
          1.23066106e-03, 1.40646973e-03, 5.27426135e-03, 1.58227840e-03,
          3.80918896e-03, 6.56352565e-03, 1.13103604e-02, 5.74308494e-03,
          6.21190807e-03, 9.96249355e-03, 1.01383030e-02, 1.40646973e-03,
          2.44960152e-02, 4.16080607e-03, 0., 3.22315982e-03,
          1.58227840e-03, 1.76394749e-02, 8.61462671e-03, 1.09587433e-02,
          7.03234877e-03, 1.20135956e-02, 1.35372709e-02, 3.10595403e-03,
          6.68073120e-03, 1.28926395e-03, 9.31786187e-03, 2.04524137e-02,
          5.91889350e-03, 4.74683521e-03, 4.80543822e-03, 2.75433660e-02,
          1.04313176e-02, 9.14205331e-03, 1.10173458e-02, 4.27801209e-03,
          3.63338017e-03, 5.21565881e-03, 1.77566800e-02, 1.93975624e-02,
          3.22315982e-03, 2.01007966e-02, 1.24238161e-02, 1.41819036e-02 ]
      - [ 7.09095178e-03, 1.55297704e-02, 1.75808719e-03, 1.81669008e-03,
          3.14111561e-02, 5.03984988e-02, 2.38513816e-02, 0.,
          3.51617439e-03, 4.17838730e-02, 4.45382064e-03, 1.83427092e-02,
          2.75433646e-03, 5.03984978e-03, 1.21894041e-02, 4.39521810e-03,
          3.10595403e-03, 2.69573368e-03, 1.27168307e-02, 1.01383030e-02,
          3.92639451e-03, 8.79043620e-03, 1.50609463e-02, 9.25925933e-03,
          6.91514276e-03, 1.62916072e-02, 2.69573368e-02, 1.23652127e-02,
          6.27051108e-03, 4.92264424e-03, 6.56352565e-03, 1.76980775e-02,
          1.34786684e-03, 1.47093292e-02, 4.80543822e-03, 2.51992489e-03,
          5.86029026e-04, 3.34036560e-03, 3.94983590e-02, 4.39521810e-03,
          2.36169714e-02, 4.80543822e-03, 2.09798403e-02, 7.09095178e-03,
          1.70534458e-02, 3.04735103e-03, 2.51992489e-03, 2.81293946e-03,
          2.32653543e-02, 1.58813875e-02, 7.03234877e-03, 2.34411622e-04,
          2.56094690e-02, 2.63713067e-03, 5.80168748e-03, 1.04313176e-02,
          5.27426135e-04, 1.05485227e-03, 6.09470205e-03, 2.28551333e-03,
          8.26300960e-03, 2.98874825e-03, 1.12517579e-02, 2.10970454e-03,
          5.45007037e-03, 9.14205331e-03, 9.02484730e-03, 2.28551333e-03,
          2.46718228e-02, 4.92264424e-03, 1.17205811e-04, 1.75808719e-03,
          2.34411610e-03, 1.48265352e-02, 5.74308494e-03, 1.01969056e-02,
          7.44256889e-03, 1.12517579e-02, 1.04313176e-02, 2.57852790e-03,
          3.92639451e-03, 2.51992489e-03, 9.02484730e-03, 3.31106409e-02,
          6.50492264e-03, 3.86779173e-03, 6.38771662e-03, 2.63713077e-02,
          8.84903874e-03, 6.38771662e-03, 1.33028599e-02, 1.99249876e-03,
          3.34036560e-03, 4.98124678e-03, 1.86357237e-02, 6.68073120e-03,
          6.03609905e-03, 2.73089539e-02, 1.13689639e-02, 1.06071262e-02 ]
      - [ 5.09845279e-03, 7.79418647e-03, 7.85278901e-03, 1.17205810e-02,
          2.53164545e-02, 3.93225513e-02, 1.65846217e-02, 0.,
          4.27801209e-03, 2.63713077e-02, 2.46132212e-03, 1.25996247e-02,
          1.40646975e-02, 2.16830755e-03, 4.33661509e-03, 4.04360052e-03,
          3.45757138e-03, 7.20815733e-03, 3.39896861e-03, 4.10220353e-03,
          1.14861699e-02, 3.10595403e-03, 4.04360052e-03, 2.87154247e-03,
          4.74683521e-03, 3.55719626e-02, 1.01969056e-02, 1.11345518e-02,
          5.97749650e-03, 5.50867291e-03, 5.50867291e-03, 1.54711669e-02,
          1.99249876e-03, 5.74308494e-03, 3.92639451e-03, 5.86029049e-03,
          1.28926395e-03, 7.38396589e-03, 5.37974685e-02, 1.23066106e-03,
          1.07243313e-02, 6.79793721e-03, 1.10173458e-02, 9.14205331e-03,
          9.25925933e-03, 3.69198294e-03, 3.32864486e-02, 1.87529298e-03,
          1.51781524e-02, 1.66432243e-02, 2.28551333e-03, 2.57852790e-03,
          2.93014534e-02, 1.05485227e-03, 7.61837757e-04, 6.91514276e-03,
          2.93014525e-03, 6.71003237e-02, 4.92264424e-03, 2.08626352e-02,
          7.96999503e-03, 2.63713067e-03, 4.39521810e-03, 1.18963895e-02,
          4.39521810e-03, 3.86779173e-03, 2.98874825e-03, 1.38302855e-02,
          2.78363805e-02, 5.55555560e-02, 6.56352565e-03, 3.69198294e-03,
          1.10759493e-02, 4.39521810e-03, 7.67698046e-03, 6.21190807e-03,
          3.22315982e-03, 6.03609905e-03, 5.91889350e-03, 1.69948430e-03,
          3.04735103e-03, 3.04735103e-03, 3.04735103e-03, 1.28340367e-02,
          1.58227840e-03, 5.27426135e-03, 3.51617439e-03, 2.90670414e-02,
          3.28176282e-03, 3.57477716e-03, 3.86779173e-03, 2.34411610e-03,
          2.05110176e-03, 1.24238161e-02, 1.68190338e-02, 1.20135956e-02,
          1.23066106e-03, 1.61157995e-02, 1.29512418e-02, 4.68823221e-03 ]
      - [ 1.10759493e-02, 1.10759493e-02, 9.20065586e-03, 4.04360052e-03,
          2.54336614e-02, 3.49859335e-02, 2.58438811e-02, 0.,
          4.04360052e-03, 2.34411620e-02, 5.74308494e-03, 7.96999503e-03,
          8.26300960e-03, 5.56727592e-03, 1.29512418e-02, 5.21565881e-03,
          5.68448193e-03, 4.10220353e-03, 1.44163147e-02, 1.20135956e-02,
          1.35372709e-02, 9.49367043e-03, 1.38888890e-02, 6.97374577e-03,
          8.90764128e-03, 2.83638071e-02, 1.71120483e-02, 9.43506788e-03,
          3.75058595e-03, 9.25925933e-03, 7.09095178e-03, 8.43881816e-03,
          1.17205805e-03, 1.24824187e-02, 1.02555081e-02, 2.75433646e-03,
          5.86029026e-04, 8.55602417e-03, 3.60993892e-02, 5.74308494e-03,
          1.77566800e-02, 3.16455681e-03, 1.51781524e-02, 8.96624476e-03,
          1.33614624e-02, 6.50492264e-03, 6.03609905e-03, 5.80168748e-03,
          8.79043620e-03, 2.79535856e-02, 7.03234877e-03, 2.34411622e-04,
          2.10970454e-02, 3.98499751e-03, 6.15330506e-03, 1.09001407e-02,
          1.17205805e-03, 1.40646973e-03, 5.09845279e-03, 6.97374577e-03,
          7.38396589e-03, 3.69198294e-03, 1.19549930e-02, 2.75433646e-03,
          4.98124678e-03, 9.96249355e-03, 1.01383030e-02, 4.33661509e-03,
          2.32653543e-02, 5.97749650e-03, 2.93014513e-04, 4.10220353e-03,
          4.16080607e-03, 9.90389101e-03, 3.39896861e-03, 1.21308016e-02,
          7.67698046e-03, 8.84903874e-03, 1.25410222e-02, 7.85278901e-03,
          5.62587893e-03, 3.69198294e-03, 1.24824187e-02, 1.95733700e-02,
          9.02484730e-03, 2.05110176e-03, 9.96249355e-03, 3.45171131e-02,
          7.67698046e-03, 8.96624476e-03, 9.96249355e-03, 2.93014525e-03,
          2.28551333e-03, 9.14205331e-03, 3.04149073e-02, 1.10173458e-02,
          5.80168748e-03, 1.86943263e-02, 9.20065586e-03, 9.08345077e-03 ]
      - [ 3.69198294e-03, 1.10173458e-02, 3.51617433e-04, 7.67698046e-03,
          2.80707926e-02, 7.23745897e-02, 9.66947898e-03, 0.,
          5.09845279e-03, 2.13900600e-02, 3.51617439e-03, 4.73511480e-02,
          4.39521810e-03, 2.93014525e-03, 8.08720104e-03, 4.80543822e-03,
          2.16830755e-03, 2.27965303e-02, 8.79043597e-04, 8.32161214e-03,
          3.75058595e-03, 3.92639451e-03, 6.50492264e-03, 1.51781524e-02,
          9.14205331e-03, 2.63713077e-02, 1.47679318e-02, 5.08673228e-02,
          2.57852790e-03, 4.16080607e-03, 8.08720104e-03, 1.52953584e-02,
          3.63338017e-03, 7.38396589e-03, 2.69573368e-03, 8.20440706e-04,
          9.96249379e-04, 5.86029026e-04, 1.03961557e-01, 3.57477716e-03,
          9.90389101e-03, 1.17205810e-02, 1.38302855e-02, 1.03141116e-02,
          1.00210970e-02, 3.86779173e-03, 1.52367551e-03, 6.44631975e-04,
          8.84903874e-03, 1.55883729e-02, 2.81293946e-03, 1.64088141e-03,
          2.02766061e-02, 4.74683521e-03, 3.92639451e-03, 5.21565881e-03,
          1.93389587e-03, 1.87529298e-03, 2.98874825e-03, 2.40271911e-03,
          9.14205331e-03, 1.87529288e-02, 2.93014525e-03, 7.50117190e-03,
          2.16830755e-03, 4.27801209e-03, 6.44631963e-03, 3.28176282e-03,
          5.62001877e-02, 4.45382064e-03, 1.75808716e-04, 5.15705580e-03,
          5.68448193e-03, 6.09470205e-03, 2.28551333e-03, 5.50867291e-03,
          1.75808719e-03, 7.09095178e-03, 5.56727592e-03, 1.28926395e-03,
          6.56352565e-03, 3.10595403e-03, 3.80918896e-03, 1.99249871e-02,
          7.44256889e-03, 4.45382064e-03, 3.75058595e-03, 2.04524137e-02,
          5.39146736e-03, 5.45007037e-03, 6.21190807e-03, 5.68448193e-03,
          1.99249876e-03, 3.69198294e-03, 1.44749172e-02, 1.15447724e-02,
          3.22315982e-03, 1.81669015e-02, 1.33028599e-02, 2.63713067e-03 ]
      - [ 7.61837792e-03, 1.86357237e-02, 7.44256889e-03, 1.11345516e-03,
          2.87154242e-02, 3.46929207e-02, 3.86193134e-02, 0.,
          4.45382064e-03, 2.68987343e-02, 3.10595403e-03, 1.20721981e-02,
          5.39146736e-03, 3.92639451e-03, 1.11931553e-02, 3.92639451e-03,
          4.98124678e-03, 2.34411610e-03, 4.80543822e-03, 1.03727141e-02,
          2.22691032e-03, 7.32536335e-03, 1.28340367e-02, 1.10173458e-02,
          8.73183273e-03, 1.28926393e-02, 2.22105011e-02, 7.20815733e-03,
          9.61087644e-03, 5.21565881e-03, 5.56727592e-03, 1.48265352e-02,
          4.10220353e-04, 7.20815733e-03, 6.73933420e-03, 2.34411610e-03,
          2.34411622e-04, 1.05485227e-02, 2.61368956e-02, 5.74308494e-03,
          2.76019685e-02, 6.56352565e-03, 2.25035157e-02, 9.78668500e-03,
          1.93975624e-02, 1.99249876e-03, 9.37646488e-04, 5.45007037e-03,
          2.08040308e-02, 3.03563047e-02, 6.91514276e-03, 0.,
          1.71706509e-02, 6.21190807e-03, 3.45757138e-03, 9.08345077e-03,
          3.51617433e-04, 1.17205805e-03, 5.03984978e-03, 1.34786684e-03,
          4.74683521e-03, 5.03984978e-03, 1.31270513e-02, 4.57102666e-03,
          3.10595403e-03, 1.17791845e-02, 9.37646441e-03, 7.55977491e-03,
          2.36755740e-02, 3.98499751e-03, 0., 6.38771662e-03,
          8.20440706e-04, 1.84599161e-02, 5.56727592e-03, 8.32161214e-03,
          7.61837792e-03, 7.09095178e-03, 1.38888890e-02, 9.72808246e-03,
          2.63713067e-03, 9.37646488e-04, 8.90764128e-03, 2.22691037e-02,
          5.21565881e-03, 3.04735103e-03, 6.15330506e-03, 3.55133601e-02,
          1.10173458e-02, 1.28340367e-02, 1.33028599e-02, 1.58227840e-03,
          7.44256889e-03, 7.14955432e-03, 1.87529288e-02, 1.54125644e-02,
          5.39146736e-03, 2.43202057e-02, 1.31856538e-02, 1.45921232e-02 ]
      - [ 1.36544770e-02, 1.31856538e-02, 4.27801209e-03, 1.00210970e-02,
          2.14486625e-02, 2.47304253e-02, 1.86357237e-02, 1.40646973e-03,
          5.80168748e-03, 1.50023438e-02, 8.73183273e-03, 4.92264424e-03,
          4.51242365e-03, 5.21565881e-03, 2.18002815e-02, 1.15447724e-02,
          6.44631963e-03, 3.51617439e-03, 1.78152826e-02, 1.33028599e-02,
          5.86029049e-03, 1.20135956e-02, 2.08626352e-02, 4.74683521e-03,
          5.50867291e-03, 2.18002815e-02, 1.70534458e-02, 5.56727592e-03,
          9.02484730e-03, 8.43881816e-03, 4.51242365e-03, 1.05485227e-02,
          1.16033750e-02, 2.03938112e-02, 1.49437413e-02, 1.10759493e-02,
          1.28926395e-03, 5.27426135e-03, 1.47679318e-02, 5.21565881e-03,
          1.98077820e-02, 6.38771662e-03, 1.96319725e-02, 4.80543822e-03,
          1.38302855e-02, 3.22315982e-03, 3.28176282e-03, 4.39521810e-03,
          1.99835915e-02, 2.29723398e-02, 9.25925933e-03, 2.22691032e-03,
          1.97491795e-02, 5.27426135e-03, 9.78668500e-03, 1.44163147e-02,
          9.37646488e-04, 5.33286436e-03, 6.68073120e-03, 3.34036560e-03,
          4.16080607e-03, 2.81293946e-03, 8.26300960e-03, 7.44256889e-03,
          3.69198294e-03, 1.49437413e-02, 6.73933420e-03, 1.81669008e-03,
          1.56469755e-02, 8.67323019e-03, 7.61837757e-04, 1.58227840e-03,
          4.62962966e-03, 1.38888890e-02, 9.14205331e-03, 1.55883729e-02,
          1.17791845e-02, 1.42991086e-02, 1.67018287e-02, 5.56727592e-03,
          4.51242365e-03, 5.15705580e-03, 1.43577121e-02, 1.56469755e-02,
          6.03609905e-03, 1.10173458e-02, 4.62962966e-03, 2.53164545e-02,
          8.08720104e-03, 5.62587893e-03, 1.43577121e-02, 3.04735103e-03,
          5.86029049e-03, 9.31786187e-03, 2.67229248e-02, 6.09470205e-03,
          3.10595403e-03, 1.49437413e-02, 7.03234877e-03, 9.20065586e-03 ]
      - [ 7.91139249e-03, 1.42991086e-02, 2.75433646e-03, 9.37646488e-04,
          2.29723398e-02, 4.16666642e-02, 2.50234399e-02, 0.,
          3.80918896e-03, 8.67323019e-03, 5.56727592e-03, 2.89498344e-02,
          5.03984978e-03, 5.62587893e-03, 6.85653975e-03, 8.20440706e-03,
          5.15705580e-03, 3.57477716e-03, 1.68190338e-02, 1.28926393e-02,
          7.61837792e-03, 8.20440706e-03, 7.85278901e-03, 1.91631503e-02,
          8.32161214e-03, 1.90459434e-02, 8.84903874e-03, 2.08626352e-02,
          4.98124678e-03, 6.27051108e-03, 1.16033750e-02, 7.73558347e-03,
          1.23066106e-03, 1.10759493e-02, 5.97749650e-03, 4.04360052e-03,
          4.10220353e-04, 2.81293946e-03, 5.18635698e-02, 5.09845279e-03,
          2.18588840e-02, 9.90389101e-03, 9.96249355e-03, 6.85653975e-03,
          2.33825594e-02, 6.62212819e-03, 2.98874825e-03, 3.16455681e-03,
          1.68776363e-02, 2.11556498e-02, 6.79793721e-03, 7.61837757e-04,
          1.62330046e-02, 3.98499751e-03, 6.85653975e-03, 1.02555081e-02,
          2.34411622e-04, 1.52367551e-03, 3.63338017e-03, 3.10595403e-03,
          5.33286436e-03, 6.97374577e-03, 1.12517579e-02, 3.04735103e-03,
          5.15705580e-03, 1.10173458e-02, 1.08415373e-02, 3.69198294e-03,
          4.73511480e-02, 5.03984978e-03, 1.17205811e-04, 3.28176282e-03,
          5.09845279e-03, 1.15447724e-02, 3.63338017e-03, 1.22480076e-02,
          7.14955432e-03, 6.21190807e-03, 4.86404123e-03, 3.86779173e-03,
          4.04360052e-03, 3.28176282e-03, 1.04899202e-02, 2.75433660e-02,
          6.56352565e-03, 5.86029049e-03, 1.04313176e-02, 3.25832143e-02,
          1.45921232e-02, 7.85278901e-03, 5.97749650e-03, 3.28176282e-03,
          3.80918896e-03, 8.26300960e-03, 1.91631503e-02, 1.34200649e-02,
          4.68823221e-03, 1.70534458e-02, 1.15447724e-02, 5.91889350e-03 ]
      - [ 5.73287858e-03, 2.22084485e-03, 5.78452647e-03, 2.06590223e-04,
          1.54942667e-04, 1.03295111e-04, 4.64827986e-04, 1.57628343e-01,
          2.68567284e-03, 3.09885340e-03, 3.66697647e-03, 3.40357386e-02,
          1.32217743e-02, 6.09441148e-03, 5.11310808e-03, 2.37578759e-03,
          7.74713326e-03, 4.78256382e-02, 1.28602413e-02, 0.,
          6.55923970e-03, 5.99111663e-03, 7.17901019e-03, 5.16475551e-03,
          8.93502682e-03, 0., 1.96260703e-03, 2.58237775e-03,
          7.12736277e-03, 4.90651792e-03, 5.37134567e-03, 2.42743501e-03,
          3.09885334e-04, 7.02406745e-03, 9.29655973e-03, 2.99555832e-03,
          5.68123127e-04, 5.11310808e-03, 1.27052991e-02, 1.12075200e-02,
          1.27569465e-02, 8.78008432e-04, 1.40997823e-02, 6.40429696e-03,
          7.23065808e-04, 8.16031359e-03, 9.65809263e-03, 8.05701874e-03,
          8.36690422e-03, 1.54942667e-04, 4.13180422e-03, 4.15246338e-02,
          6.71418209e-04, 1.04328059e-02, 5.26805082e-03, 6.19770680e-03,
          5.16475528e-04, 7.74713326e-03, 1.60107424e-03, 1.70436930e-02,
          5.84650338e-02, 1.03295111e-04, 3.04720574e-03, 3.75477746e-02,
          3.41906808e-02, 2.01425469e-03, 5.62958373e-03, 3.24863121e-02,
          2.78896792e-03, 7.74713326e-03, 3.26929018e-02, 4.89102341e-02,
          1.55975614e-02, 2.68567284e-03, 1.04844542e-02, 8.62514134e-03,
          6.19770680e-03, 3.97686195e-03, 1.06910439e-02, 9.55479778e-03,
          5.99111663e-03, 1.49777916e-03, 5.99111663e-03, 0.,
          1.03295110e-02, 2.58237764e-04, 6.19770680e-03, 2.06590223e-04,
          8.41855165e-03, 4.44168970e-03, 2.37578759e-03, 1.70436932e-03,
          8.67678970e-03, 7.02406745e-03, 9.29655973e-04, 9.65809263e-03,
          4.69992775e-03, 6.71418209e-04, 2.16919743e-03, 2.47908267e-03 ]
      - [ 1.37320720e-02, 1.16264876e-02, 1.21452548e-02, 1.70888007e-03,
          1.40372291e-03, 5.00457734e-03, 3.96704301e-03, 0.,
          5.76747023e-03, 5.58437593e-03, 1.20842233e-02, 5.30973449e-03,
          4.91303019e-03, 2.43210252e-02, 8.33079033e-03, 1.01617333e-02,
          1.88281965e-02, 4.21116874e-03, 5.31888902e-02, 7.01861456e-04,
          8.69697891e-03, 2.22459566e-02, 7.56789744e-03, 1.46475434e-02,
          1.24198962e-02, 3.29569727e-03, 5.06560877e-03, 6.19469024e-03,
          1.17485505e-02, 1.23283491e-02, 1.01007018e-02, 5.12664020e-03,
          1.46475434e-03, 8.20872746e-03, 1.94079950e-02, 4.79096733e-03,
          8.84955749e-04, 1.06499847e-02, 5.06560877e-03, 2.12084223e-02,
          7.56789744e-03, 6.07262738e-03, 1.24504119e-02, 1.12297833e-02,
          2.92950869e-03, 1.64784864e-02, 1.31217577e-03, 1.80958193e-02,
          7.17119314e-03, 3.57033871e-03, 1.70888007e-02, 3.05157155e-05,
          4.15013731e-03, 1.88281965e-02, 1.49221849e-02, 1.15044247e-02,
          8.54440033e-04, 3.20415013e-03, 8.97162035e-03, 3.29569727e-03,
          5.03509305e-03, 7.32377172e-03, 1.55935306e-02, 4.30271588e-03,
          8.30027461e-03, 1.30302105e-02, 1.87061336e-02, 9.49038751e-03,
          5.12664020e-03, 9.39884037e-03, 0., 1.13518462e-02,
          2.92950869e-03, 1.48001220e-02, 7.93408602e-03, 1.85535550e-02,
          1.40372291e-02, 6.74397312e-03, 1.18095819e-02, 1.82483979e-02,
          1.15349405e-02, 3.87549587e-03, 2.07812022e-02, 1.55630149e-03,
          2.64876410e-02, 2.89899297e-03, 1.57461092e-02, 3.69240157e-03,
          1.86451022e-02, 1.40677448e-02, 7.23222457e-03, 4.94354591e-03,
          2.20933780e-02, 1.63869392e-02, 7.78150745e-03, 1.43118706e-02,
          1.40372291e-02, 3.63137014e-03, 7.17119314e-03, 1.65700335e-02 ]
      - [ 7.69569026e-03, 1.33880582e-02, 2.76067629e-02, 9.28369001e-04,
          6.35199854e-03, 2.10104557e-03, 1.00899050e-02, 0.,
          3.59132211e-03, 3.37144523e-03, 5.52135240e-03, 1.41942734e-02,
          3.56689142e-03, 1.03342123e-02, 6.13212166e-03, 1.02609200e-02,
          7.57353660e-03, 4.66627581e-03, 3.25173438e-02, 1.22153817e-03,
          1.40232584e-02, 1.94713175e-02, 7.45138293e-03, 1.84207950e-02,
          1.89338420e-02, 2.58966093e-03, 8.20873678e-03, 6.84061367e-03,
          3.43252234e-02, 7.57353660e-03, 9.82116628e-03, 2.58966093e-03,
