%YAML:1.0
---
opencv_ml_svm:
   format: 3
   svmType: C_SVC
   kernel:
      type: CHI2
      gamma: 1.
   C: 100.
   term_criteria: { iterations:100 }
   var_count: 100
   class_count: 5
   class_labels: !!opencv-matrix
      rows: 5
      cols: 1
      dt: i
      data: [ 0, 1, 2, 3, 4 ]
   sv_total: 75
   support_vectors:
      - [ 1.46750519e-02, 4.19287197e-03, 1.67714879e-02, 2.09643599e-03,
          1.25786159e-02, 6.28930796e-03, 3.98322828e-02, 6.28930796e-03,
          1.04821799e-02, 6.28930796e-03, 4.19287197e-03, 1.25786159e-02,
          1.46750519e-02, 1.04821799e-02, 4.19287197e-03, 6.28930796e-03,
          8.38574395e-03, 1.88679248e-02, 6.28930796e-03, 6.28930796e-03,
          6.28930796e-03, 1.04821799e-02, 8.38574395e-03, 1.04821799e-02,
          1.25786159e-02, 1.25786159e-02, 1.25786159e-02, 1.25786159e-02,
          4.19287197e-03, 1.04821799e-02, 6.28930796e-03, 8.38574395e-03,
          4.19287197e-03, 8.38574395e-03, 6.28930796e-03, 4.19287197e-03,
          8.38574395e-03, 6.28930796e-03, 4.19287197e-03, 6.28930796e-03,
          1.88679248e-02, 6.28930796e-03, 1.04821799e-02, 8.38574395e-03,
          8.38574395e-03, 2.72536688e-02, 1.04821799e-02, 1.25786159e-02,
          6.28930796e-03, 2.09643599e-02, 1.25786159e-02, 1.04821799e-02,
          6.28930796e-03, 0., 2.51572318e-02, 1.46750519e-02,
          1.67714879e-02, 1.67714879e-02, 8.38574395e-03, 1.04821799e-02,
          8.38574395e-03, 6.28930796e-03, 8.38574395e-03, 1.25786159e-02,
          1.25786159e-02, 6.28930796e-03, 4.19287197e-03, 2.09643599e-02,
          3.14465389e-02, 1.46750519e-02, 6.28930796e-03, 8.38574395e-03,
          4.19287197e-03, 4.19287197e-03, 4.19287197e-03, 1.25786159e-02,
          1.67714879e-02, 4.19287197e-03, 8.38574395e-03, 6.28930796e-03,
          6.28930796e-03, 1.46750519e-02, 1.46750519e-02, 8.38574395e-03,
          8.38574395e-03, 1.46750519e-02, 1.04821799e-02, 8.38574395e-03,
          2.09643599e-03, 4.19287197e-03, 4.19287197e-03, 0.,
          1.25786159e-02, 6.28930796e-03, 6.28930796e-03, 6.28930796e-03,
          8.38574395e-03, 8.38574395e-03, 2.09643599e-02, 6.28930796e-03 ]
      - [ 1.29310340e-02, 0., 8.62068962e-03, 8.62068962e-03,
          1.29310340e-02, 0., 9.48275849e-02, 8.62068962e-03,
          4.31034481e-03, 4.31034481e-03, 1.29310340e-02, 2.15517245e-02,
          0., 0., 8.62068962e-03, 4.31034481e-03, 4.31034481e-03,
          8.62068962e-03, 0., 8.62068962e-03, 1.72413792e-02,
          4.31034481e-03, 8.62068962e-03, 2.58620679e-02, 4.31034481e-03,
          0., 1.29310340e-02, 1.29310340e-02, 4.31034481e-03,
          8.62068962e-03, 0., 4.31034481e-03, 8.62068962e-03,
          4.31034481e-03, 0., 2.58620679e-02, 4.31034481e-03,
          1.72413792e-02, 4.31034481e-03, 4.31034481e-03, 1.29310340e-02,
          4.31034481e-03, 0., 0., 0., 2.15517245e-02, 2.15517245e-02,
          8.62068962e-03, 2.15517245e-02, 2.15517245e-02, 4.31034481e-03,
          8.62068962e-03, 0., 4.31034481e-03, 3.87931019e-02,
          4.31034481e-03, 1.72413792e-02, 8.62068962e-03, 8.62068962e-03,
          0., 1.29310340e-02, 1.72413792e-02, 0., 0., 8.62068962e-03,
          8.62068962e-03, 4.31034481e-03, 2.58620679e-02, 6.03448264e-02,
          8.62068962e-03, 8.62068962e-03, 0., 4.31034481e-03,
          4.31034481e-03, 8.62068962e-03, 3.87931019e-02, 8.62068962e-03,
          0., 0., 1.29310340e-02, 4.31034481e-03, 8.62068962e-03, 0.,
          1.72413792e-02, 1.29310340e-02, 4.31034481e-03, 1.29310340e-02,
          8.62068962e-03, 8.62068962e-03, 4.31034481e-03, 8.62068962e-03,
          1.29310340e-02, 4.31034481e-03, 4.31034481e-03, 4.31034481e-03,
          0., 1.29310340e-02, 1.72413792e-02, 8.62068962e-03,
          8.62068962e-03 ]
      - [ 4.44444455e-02, 0., 0., 2.22222228e-02, 0., 2.22222228e-02,
          6.66666701e-02, 0., 1.11111114e-02, 1.11111114e-02, 0.,
          1.11111114e-02, 0., 2.22222228e-02, 4.44444455e-02,
          1.11111114e-02, 0., 2.22222228e-02, 0., 0., 1.11111114e-02, 0.,
          2.22222228e-02, 1.11111114e-02, 1.11111114e-02, 0., 0., 0., 0.,
          0., 0., 1.11111114e-02, 0., 1.11111114e-02, 0., 1.11111114e-02,
          0., 0., 1.11111114e-02, 1.11111114e-02, 1.11111114e-02,
          1.11111114e-02, 0., 2.22222228e-02, 0., 1.11111114e-02,
          1.11111114e-02, 0., 3.33333351e-02, 6.66666701e-02, 0.,
          2.22222228e-02, 0., 1.11111114e-02, 0., 1.11111114e-02,
          1.11111114e-02, 0., 0., 0., 0., 0., 0., 0., 1.11111114e-02, 0.,
          2.22222228e-02, 5.55555560e-02, 4.44444455e-02, 1.11111114e-02,
          1.11111114e-02, 0., 0., 0., 0., 2.22222228e-02, 0.,
          2.22222228e-02, 2.22222228e-02, 2.22222228e-02, 0.,
          1.11111114e-02, 1.11111114e-02, 0., 2.22222228e-02, 0.,
          1.11111114e-02, 0., 1.11111114e-02, 0., 1.11111114e-02, 0., 0.,
          0., 1.11111114e-02, 0., 0., 1.11111114e-02, 3.33333351e-02, 0. ]
      - [ 2.25563906e-02, 0., 3.75939859e-03, 1.12781953e-02,
          2.25563906e-02, 1.12781953e-02, 5.63909784e-02, 1.87969934e-02,
          1.50375944e-02, 0., 7.51879718e-03, 3.75939868e-02,
          7.51879718e-03, 0., 2.63157897e-02, 7.51879718e-03, 0.,
          1.12781953e-02, 3.75939859e-03, 7.51879718e-03, 3.75939859e-03,
          3.75939859e-03, 3.75939859e-03, 3.75939868e-02, 3.75939859e-03,
          0., 3.75939859e-03, 3.75939859e-03, 1.87969934e-02, 0.,
          1.50375944e-02, 7.51879718e-03, 0., 2.25563906e-02, 0., 0., 0.,
          0., 7.51879718e-03, 3.38345878e-02, 7.51879718e-03, 0., 0., 0.,
          3.75939859e-03, 3.75939859e-03, 3.75939859e-03, 1.87969934e-02,
          3.75939868e-02, 5.26315793e-02, 1.12781953e-02, 1.50375944e-02,
          7.51879718e-03, 3.75939859e-03, 7.51879718e-03, 1.87969934e-02,
          3.75939859e-03, 0., 0., 1.12781953e-02, 1.12781953e-02,
          4.51127812e-02, 0., 3.75939859e-03, 3.75939859e-03,
          3.75939859e-03, 3.75939859e-03, 2.25563906e-02, 2.25563906e-02,
          0., 3.75939859e-03, 0., 7.51879718e-03, 0., 0., 2.25563906e-02,
          1.50375944e-02, 1.12781953e-02, 3.75939859e-03, 0., 0.,
          7.51879718e-03, 0., 7.51879718e-03, 2.63157897e-02,
          2.25563906e-02, 3.75939859e-03, 0., 1.87969934e-02, 0.,
          1.50375944e-02, 1.87969934e-02, 0., 3.75939859e-03,
          1.12781953e-02, 0., 1.12781953e-02, 7.51879718e-03,
          1.50375944e-02, 7.51879718e-03 ]
      - [ 5.68181835e-03, 1.13636367e-02, 2.27272734e-02, 5.68181835e-03,
          1.13636367e-02, 1.13636367e-02, 6.25000000e-02, 5.68181835e-03,
          0., 0., 0., 0., 5.68181835e-03, 2.27272734e-02, 1.13636367e-02,
          2.27272734e-02, 1.70454551e-02, 0., 1.13636367e-02,
          5.68181835e-03, 0., 1.13636367e-02, 5.68181835e-03,
          1.13636367e-02, 1.70454551e-02, 3.40909101e-02, 1.13636367e-02,
          1.70454551e-02, 0., 1.13636367e-02, 1.70454551e-02, 0.,
          5.68181835e-03, 0., 0., 1.70454551e-02, 5.68181835e-03,
          1.70454551e-02, 0., 5.68181835e-03, 1.13636367e-02,
          1.70454551e-02, 1.70454551e-02, 0., 0., 5.68181835e-03,
          5.68181835e-03, 1.13636367e-02, 1.70454551e-02, 5.11363670e-02,
          0., 0., 2.27272734e-02, 0., 0., 1.13636367e-02, 5.68181835e-03,
          5.68181835e-03, 0., 5.68181835e-03, 5.68181835e-03,
          5.68181835e-03, 2.27272734e-02, 0., 5.68181835e-03, 0.,
          5.68181835e-03, 2.84090918e-02, 5.68181835e-03, 0.,
          5.68181835e-03, 5.68181835e-03, 1.70454551e-02, 1.70454551e-02,
          3.40909101e-02, 1.70454551e-02, 2.27272734e-02, 5.68181835e-03,
          0., 5.68181835e-03, 1.13636367e-02, 1.13636367e-02, 0., 0., 0.,
          5.68181835e-03, 1.70454551e-02, 0., 1.13636367e-02,
          2.27272734e-02, 3.40909101e-02, 0., 5.68181835e-03,
          1.13636367e-02, 1.13636367e-02, 1.13636367e-02, 0.,
          5.68181835e-03, 1.70454551e-02, 5.68181835e-03 ]
      - [ 1.13636367e-02, 5.68181835e-03, 5.68181835e-03, 5.68181835e-03,
          0., 2.27272734e-02, 5.68181835e-02, 5.68181835e-03, 0., 0., 0.,
          5.68181835e-03, 1.13636367e-02, 1.13636367e-02, 0.,
          2.84090918e-02, 0., 5.68181835e-03, 2.27272734e-02, 0., 0., 0.,
          5.68181835e-03, 5.68181835e-03, 1.70454551e-02, 3.40909101e-02,
          1.13636367e-02, 3.40909101e-02, 5.68181835e-03, 5.68181835e-03,
          0., 0., 5.68181835e-03, 5.68181835e-03, 5.68181835e-03,
          1.13636367e-02, 5.68181835e-03, 3.40909101e-02, 5.68181835e-03,
          1.13636367e-02, 2.27272734e-02, 1.70454551e-02, 1.13636367e-02,
          0., 0., 0., 1.13636367e-02, 5.68181835e-03, 5.68181835e-03,
          6.25000000e-02, 5.68181835e-03, 5.68181835e-03, 0., 0.,
          1.70454551e-02, 5.68181835e-03, 5.68181835e-03, 1.70454551e-02,
          0., 2.27272734e-02, 1.70454551e-02, 1.13636367e-02,
          5.68181835e-03, 0., 0., 0., 1.13636367e-02, 1.13636367e-02, 0.,
          5.68181835e-03, 5.68181835e-03, 5.68181835e-03, 3.40909101e-02,
          5.68181835e-03, 1.70454551e-02, 5.68181835e-03, 2.27272734e-02,
          2.27272734e-02, 5.68181835e-03, 5.68181835e-03, 0.,
          5.68181835e-03, 0., 0., 5.68181835e-03, 2.27272734e-02, 0.,
          5.68181835e-03, 5.68181835e-03, 1.13636367e-02, 6.25000000e-02,
          0., 0., 2.27272734e-02, 1.13636367e-02, 5.68181835e-03,
          5.68181835e-03, 5.68181835e-03, 1.70454551e-02, 0. ]
      - [ 6.75675692e-03, 6.75675692e-03, 0., 6.75675692e-03,
          6.75675692e-03, 0., 1.01351351e-01, 0., 6.75675692e-03,
          1.35135138e-02, 1.35135138e-02, 4.05405425e-02, 6.75675692e-03,
          0., 4.05405425e-02, 2.02702712e-02, 0., 4.05405425e-02,
          2.02702712e-02, 1.35135138e-02, 0., 6.75675692e-03,
          6.75675692e-03, 2.02702712e-02, 1.35135138e-02, 3.37837860e-02,
          2.02702712e-02, 1.35135138e-02, 0., 0., 0., 6.75675692e-03, 0.,
          6.75675692e-03, 6.75675692e-03, 2.70270277e-02, 0.,
          2.70270277e-02, 1.35135138e-02, 6.75675692e-03, 1.35135138e-02,
          1.35135138e-02, 0., 1.35135138e-02, 0., 0., 1.35135138e-02, 0.,
          0., 8.10810849e-02, 0., 6.75675692e-03, 1.35135138e-02, 0., 0.,
          0., 6.75675692e-03, 1.35135138e-02, 0., 0., 1.35135138e-02,
          6.75675692e-03, 0., 2.02702712e-02, 0., 0., 0., 6.75675692e-03,
          3.37837860e-02, 6.75675692e-03, 6.75675692e-03, 0.,
          2.02702712e-02, 0., 3.37837860e-02, 6.75675692e-03,
          1.35135138e-02, 0., 1.35135138e-02, 0., 0., 6.75675692e-03, 0.,
          0., 0., 2.02702712e-02, 6.75675692e-03, 0., 0., 6.75675692e-03,
          2.02702712e-02, 0., 6.75675692e-03, 1.35135138e-02, 0., 0.,
          6.75675692e-03, 0., 0., 0. ]
      - [ 0., 0., 4.28571440e-02, 0., 0., 0., 4.28571440e-02, 0.,
          2.85714287e-02, 0., 1.42857144e-02, 5.71428575e-02, 0., 0., 0.,
          4.28571440e-02, 0., 1.42857144e-02, 0., 0., 0., 0., 0.,
          1.42857144e-02, 0., 2.85714287e-02, 0., 2.85714287e-02,
          1.42857144e-02, 0., 0., 2.85714287e-02, 0., 2.85714287e-02, 0.,
          1.42857144e-02, 1.42857144e-02, 0., 0., 1.42857144e-02, 0.,
          1.42857144e-02, 0., 2.85714287e-02, 1.42857144e-02, 0.,
          1.42857144e-02, 1.42857144e-02, 0., 4.28571440e-02, 0.,
          1.42857144e-02, 0., 0., 0., 0., 0., 0., 1.42857144e-02, 0.,
          2.85714287e-02, 0., 0., 1.42857144e-02, 1.42857144e-02, 0., 0.,
          2.85714287e-02, 4.28571440e-02, 0., 0., 2.85714287e-02,
          7.14285746e-02, 0., 1.42857144e-02, 1.42857144e-02, 0.,
          1.42857144e-02, 0., 0., 0., 0., 0., 1.42857144e-02, 0., 0.,
          1.42857144e-02, 0., 0., 0., 2.85714287e-02, 0., 1.42857144e-02,
          1.42857144e-02, 0., 1.42857144e-02, 0., 0., 4.28571440e-02, 0. ]
      - [ 0., 0., 0., 1.36986300e-02, 0., 0., 6.84931502e-02,
          1.36986300e-02, 1.36986300e-02, 0., 4.10958901e-02, 0., 0., 0.,
          1.36986300e-02, 0., 1.36986300e-02, 4.10958901e-02,
          1.36986300e-02, 0., 1.36986300e-02, 0., 0., 5.47945201e-02, 0.,
          0., 0., 0., 1.36986300e-02, 1.36986300e-02, 0., 1.36986300e-02,
          0., 5.47945201e-02, 0., 0., 0., 0., 0., 0., 0., 1.36986300e-02,
          0., 0., 0., 4.10958901e-02, 1.36986300e-02, 1.36986300e-02, 0.,
          1.36986300e-02, 0., 1.36986300e-02, 0., 1.36986300e-02,
          2.73972601e-02, 0., 1.36986300e-02, 0., 0., 0., 1.36986300e-02,
          1.36986300e-02, 0., 0., 1.36986300e-02, 0., 0., 4.10958901e-02,
          2.73972601e-02, 0., 0., 0., 0., 2.73972601e-02, 0.,
          4.10958901e-02, 0., 4.10958901e-02, 0., 0., 0., 0., 0., 0.,
          5.47945201e-02, 1.36986300e-02, 0., 1.36986300e-02,
          2.73972601e-02, 0., 0., 2.73972601e-02, 1.36986300e-02, 0.,
          1.36986300e-02, 0., 1.36986300e-02, 2.73972601e-02,
          1.36986300e-02, 0. ]
      - [ 4.91071455e-02, 0., 0., 1.33928582e-02, 8.92857183e-03,
          1.78571437e-02, 4.01785746e-02, 8.92857183e-03, 2.23214291e-02,
          4.46428591e-03, 4.46428591e-03, 8.48214328e-02, 0.,
          4.46428591e-03, 8.92857183e-03, 2.23214291e-02, 4.46428591e-03,
          2.23214291e-02, 4.46428591e-03, 0., 0., 0., 4.46428591e-03,
          1.33928582e-02, 8.92857183e-03, 4.46428591e-03, 4.46428591e-03,
          0., 1.33928582e-02, 8.92857183e-03, 0., 1.78571437e-02, 0.,
          1.33928582e-02, 0., 8.92857183e-03, 0., 8.92857183e-03,
          4.46428591e-03, 8.92857183e-03, 0., 1.33928582e-02,
          1.33928582e-02, 0., 8.92857183e-03, 2.23214291e-02,
          4.46428591e-03, 4.46428591e-03, 6.69642910e-02, 8.92857164e-02,
          0., 4.46428591e-03, 0., 0., 4.46428591e-03, 4.46428591e-03, 0.,
          4.46428591e-03, 0., 4.46428591e-03, 1.33928582e-02,
          3.57142873e-02, 0., 0., 8.92857183e-03, 0., 4.46428591e-03,
          1.78571437e-02, 4.46428591e-03, 2.23214291e-02, 4.46428591e-03,
          0., 0., 0., 0., 1.78571437e-02, 0., 4.46428591e-03, 0., 0.,
          8.92857183e-03, 4.46428591e-03, 8.92857183e-03, 8.92857183e-03,
          0., 8.92857183e-03, 4.46428591e-03, 4.46428591e-03,
          4.46428591e-03, 4.46428591e-03, 2.23214291e-02, 8.92857183e-03,
          0., 1.78571437e-02, 0., 8.92857183e-03, 0., 4.46428591e-03,
          5.80357164e-02, 0. ]
      - [ 1.29870130e-02, 1.29870130e-02, 2.59740259e-02, 0., 0., 0.,
          2.59740259e-02, 1.29870130e-02, 0., 0., 0., 0., 0., 0.,
          2.59740259e-02, 1.29870130e-02, 0., 0., 1.29870130e-02,
          2.59740259e-02, 1.29870130e-02, 1.29870130e-02, 0., 0., 0., 0.,
          1.29870130e-02, 2.59740259e-02, 0., 0., 0., 1.29870130e-02,
          1.29870130e-02, 2.59740259e-02, 0., 1.29870130e-02, 0.,
          2.59740259e-02, 1.29870130e-02, 2.59740259e-02, 0.,
          1.29870130e-02, 2.59740259e-02, 1.29870130e-02, 0., 0.,
          1.29870130e-02, 6.49350658e-02, 0., 1.29870130e-02, 0.,
          1.29870130e-02, 0., 2.59740259e-02, 0., 0., 2.59740259e-02, 0.,
          2.59740259e-02, 0., 0., 1.29870130e-02, 0., 1.29870130e-02, 0.,
          0., 0., 3.89610380e-02, 1.03896104e-01, 0., 1.29870130e-02, 0.,
          1.29870130e-02, 0., 1.29870130e-02, 0., 0., 0., 0., 0., 0., 0.,
          0., 1.29870130e-02, 1.29870130e-02, 2.59740259e-02,
          2.59740259e-02, 1.29870130e-02, 2.59740259e-02, 1.29870130e-02,
          0., 0., 0., 0., 0., 0., 0., 1.29870130e-02, 2.59740259e-02,
          2.59740259e-02 ]
      - [ 7.29927002e-03, 0., 2.18978096e-02, 2.18978096e-02,
          7.29927002e-03, 0., 2.26277366e-01, 0., 1.45985400e-02, 0., 0.,
          7.29927002e-03, 0., 7.29927002e-03, 1.45985400e-02,
          2.18978096e-02, 0., 0., 7.29927002e-03, 0., 0., 0.,
          2.18978096e-02, 3.64963487e-02, 0., 0., 0., 7.29927002e-03,
          7.29927002e-03, 7.29927002e-03, 0., 7.29927002e-03, 0., 0., 0.,
          0., 0., 3.64963487e-02, 7.29927002e-03, 2.18978096e-02, 0., 0.,
          0., 0., 1.45985400e-02, 0., 1.45985400e-02, 2.18978096e-02,
          2.91970801e-02, 1.45985400e-02, 0., 1.45985400e-02, 0.,
          7.29927002e-03, 7.29927002e-03, 1.45985400e-02, 1.45985400e-02,
          0., 0., 0., 1.45985400e-02, 7.29927002e-03, 0., 0.,
          7.29927002e-03, 1.45985400e-02, 2.91970801e-02, 5.10948896e-02,
          5.83941601e-02, 7.29927002e-03, 7.29927002e-03, 0.,
          7.29927002e-03, 0., 0., 2.18978096e-02, 2.18978096e-02, 0., 0.,
          0., 7.29927002e-03, 0., 0., 0., 7.29927002e-03, 0., 0.,
          7.29927002e-03, 7.29927002e-03, 0., 0., 0., 7.29927002e-03,
          7.29927002e-03, 0., 0., 1.45985400e-02, 1.45985400e-02,
          7.29927002e-03, 7.29927002e-03 ]
      - [ 4.42477874e-02, 4.42477874e-03, 4.42477874e-03, 0.,
          4.42477874e-03, 4.42477874e-03, 6.19469024e-02, 4.42477874e-03,
          1.76991150e-02, 4.42477874e-03, 1.76991150e-02, 3.98230106e-02,
          4.42477874e-03, 4.42477874e-03, 0., 8.84955749e-03, 0.,
          2.21238937e-02, 0., 0., 8.84955749e-03, 8.84955749e-03, 0.,
          1.32743362e-02, 8.84955749e-03, 0., 1.32743362e-02, 0.,
          4.42477874e-03, 1.32743362e-02, 0., 0., 4.42477874e-03,
          1.76991150e-02, 4.42477874e-03, 0., 4.42477874e-03, 0.,
          8.84955749e-03, 8.84955749e-03, 8.84955749e-03, 4.42477874e-03,
          1.76991150e-02, 4.42477874e-03, 8.84955749e-03, 4.86725643e-02,
          0., 8.84955749e-03, 1.76991150e-02, 6.63716793e-02,
          4.42477874e-03, 0., 0., 0., 1.32743362e-02, 8.84955749e-03,
          4.42477874e-03, 4.42477874e-03, 8.84955749e-03, 4.42477874e-03,
          1.76991150e-02, 3.53982300e-02, 0., 4.42477874e-03, 0.,
          4.42477874e-03, 0., 1.76991150e-02, 5.30973449e-02,
          3.09734512e-02, 8.84955749e-03, 4.42477874e-03, 4.42477874e-03,
          4.42477874e-03, 0., 4.42477874e-03, 4.42477874e-03, 0.,
          4.42477874e-03, 4.42477874e-03, 0., 8.84955749e-03, 0.,
          8.84955749e-03, 8.84955749e-03, 2.21238937e-02, 8.84955749e-03,
          1.32743362e-02, 4.42477874e-03, 0., 6.19469024e-02,
          4.42477874e-03, 1.76991150e-02, 0., 4.42477874e-03, 0., 0.,
          4.42477874e-03, 1.76991150e-02, 8.84955749e-03 ]
      - [ 1.28205130e-02, 6.41025649e-03, 1.92307699e-02, 1.28205130e-02,
          6.41025649e-03, 0., 3.84615399e-02, 6.41025649e-03, 0.,
          1.28205130e-02, 1.28205130e-02, 2.56410260e-02, 0.,
          6.41025649e-03, 6.41025649e-03, 6.41025649e-03, 6.41025649e-03,
          0., 6.41025649e-03, 1.28205130e-02, 0., 6.41025649e-03,
          2.56410260e-02, 2.56410260e-02, 0., 0., 6.41025649e-03,
          6.41025649e-03, 6.41025649e-03, 1.28205130e-02, 0.,
          1.28205130e-02, 6.41025649e-03, 2.56410260e-02, 6.41025649e-03,
          2.56410260e-02, 1.28205130e-02, 6.41025649e-03, 6.41025649e-03,
          2.56410260e-02, 0., 0., 1.92307699e-02, 6.41025649e-03,
          6.41025649e-03, 0., 1.92307699e-02, 3.20512839e-02,
          1.28205130e-02, 5.76923080e-02, 1.92307699e-02, 6.41025649e-03,
          0., 0., 1.92307699e-02, 6.41025649e-03, 6.41025649e-03,
          6.41025649e-03, 6.41025649e-03, 6.41025649e-03, 6.41025649e-03,
          1.28205130e-02, 2.56410260e-02, 0., 0., 6.41025649e-03,
          1.92307699e-02, 0., 3.84615399e-02, 1.28205130e-02, 0., 0.,
          6.41025649e-03, 0., 0., 0., 6.41025649e-03, 6.41025649e-03,
          1.28205130e-02, 1.92307699e-02, 1.28205130e-02, 0.,
          1.28205130e-02, 6.41025649e-03, 2.56410260e-02, 0.,
          6.41025649e-03, 1.28205130e-02, 1.28205130e-02, 1.28205130e-02,
          6.41025649e-03, 1.28205130e-02, 6.41025649e-03, 0.,
          6.41025649e-03, 6.41025649e-03, 6.41025649e-03, 0.,
          1.92307699e-02, 1.28205130e-02 ]
      - [ 1.65745858e-02, 1.10497242e-02, 1.10497242e-02, 1.10497242e-02,
          1.10497242e-02, 5.52486209e-03, 4.97237593e-02, 2.76243109e-02,
          0., 5.52486209e-03, 1.65745858e-02, 0., 5.52486209e-03,
          1.10497242e-02, 2.76243109e-02, 0., 2.20994484e-02, 0.,
          5.52486209e-03, 1.10497242e-02, 5.52486209e-03, 0.,
          1.65745858e-02, 1.65745858e-02, 0., 0., 5.52486209e-03,
          1.65745858e-02, 1.10497242e-02, 1.65745858e-02, 5.52486209e-03,
          5.52486209e-03, 0., 1.65745858e-02, 2.76243109e-02, 0.,
          1.65745858e-02, 5.52486209e-03, 0., 1.65745858e-02, 0.,
          5.52486209e-03, 5.52486209e-03, 0., 1.10497242e-02,
          2.20994484e-02, 1.10497242e-02, 5.52486209e-03, 1.10497242e-02,
          5.52486209e-03, 0., 5.52486209e-03, 5.52486209e-03,
          2.20994484e-02, 2.20994484e-02, 5.52486209e-03, 5.52486209e-03,
          2.20994484e-02, 1.10497242e-02, 1.10497242e-02, 5.52486209e-03,
          1.65745858e-02, 0., 5.52486209e-03, 1.65745858e-02,
          1.10497242e-02, 1.65745858e-02, 2.20994484e-02, 2.20994484e-02,
          3.31491716e-02, 5.52486209e-03, 0., 0., 5.52486209e-03,
          5.52486209e-03, 2.20994484e-02, 1.10497242e-02, 0.,
          1.10497242e-02, 0., 5.52486209e-03, 1.65745858e-02, 0.,
          1.10497242e-02, 2.76243109e-02, 5.52486209e-03, 1.10497242e-02,
          0., 5.52486209e-03, 1.65745858e-02, 0., 0., 0., 5.52486209e-03,
          1.10497242e-02, 0., 1.65745858e-02, 1.65745858e-02,
          2.20994484e-02, 0. ]
      - [ 4.90196096e-03, 1.10294120e-02, 1.16421571e-02, 1.89950988e-02,
          8.57843179e-03, 8.57843179e-03, 2.14460790e-02, 2.45098048e-03,
          1.34803923e-02, 4.28921590e-03, 4.90196096e-03, 3.06372554e-03,
          6.74019614e-03, 7.35294167e-03, 1.83823542e-03, 1.89950988e-02,
          7.96568673e-03, 6.12745120e-04, 1.16421571e-02, 1.04166670e-02,
          4.28921590e-03, 6.12745108e-03, 2.02205889e-02, 2.57352944e-02,
          1.22549022e-02, 1.65441185e-02, 1.40931373e-02, 1.04166670e-02,
          7.96568673e-03, 7.96568673e-03, 4.28921590e-03, 1.83823537e-02,
          4.90196096e-03, 1.34803923e-02, 1.16421571e-02, 9.80392192e-03,
          8.57843179e-03, 1.96078438e-02, 6.12745108e-03, 9.19117685e-03,
          9.19117685e-03, 2.26715691e-02, 1.71568636e-02, 1.16421571e-02,
          6.74019614e-03, 1.83823542e-03, 1.47058833e-02, 6.12745120e-04,
          3.06372554e-03, 5.51470602e-03, 1.83823542e-03, 1.16421571e-02,
          3.67647083e-03, 7.96568673e-03, 2.26715691e-02, 9.19117685e-03,
          4.28921590e-03, 1.40931373e-02, 3.06372554e-03, 8.57843179e-03,
          9.19117685e-03, 1.83823542e-03, 7.96568673e-03, 3.06372554e-03,
          5.51470602e-03, 4.90196096e-03, 9.80392192e-03, 1.71568636e-02,
          1.83823542e-03, 1.10294120e-02, 1.04166670e-02, 1.34803923e-02,
          1.28676472e-02, 1.22549024e-03, 2.26715691e-02, 1.28676472e-02,
          2.20588241e-02, 2.02205889e-02, 8.57843179e-03, 4.28921590e-03,
          7.96568673e-03, 1.59313735e-02, 9.19117685e-03, 2.45098048e-03,
          2.26715691e-02, 1.16421571e-02, 6.12745108e-03, 1.22549022e-02,
          4.90196096e-03, 2.87990198e-02, 4.28921590e-03, 1.83823542e-03,
          7.96568673e-03, 9.80392192e-03, 1.10294120e-02, 4.90196096e-03,
          1.96078438e-02, 3.67647083e-03, 1.83823537e-02, 4.90196096e-03 ]
      - [ 2.14723926e-02, 0., 3.06748459e-03, 0., 1.22699384e-02,
          2.76073609e-02, 6.13496918e-03, 3.06748459e-03, 3.06748459e-03,
          1.84049085e-02, 0., 3.06748459e-03, 6.13496918e-03,
          6.13496918e-03, 9.20245424e-03, 2.14723926e-02, 6.13496918e-03,
          0., 2.14723926e-02, 6.13496918e-03, 0., 0., 6.13496918e-03,
          6.13496918e-03, 1.22699384e-02, 1.07361957e-01, 3.06748459e-03,
          1.84049085e-02, 1.53374225e-02, 6.13496918e-03, 1.22699384e-02,
          3.06748459e-03, 1.53374225e-02, 0., 6.13496918e-03,
          1.84049085e-02, 3.06748459e-03, 6.13496918e-03, 6.13496918e-03,
          0., 5.52147217e-02, 1.84049085e-02, 1.53374225e-02, 0.,
          1.22699384e-02, 0., 6.13496918e-03, 1.22699384e-02,
          3.37423310e-02, 2.14723926e-02, 0., 0., 2.45398767e-02,
          3.06748459e-03, 3.06748459e-03, 1.53374225e-02, 0., 0., 0.,
          3.06748459e-03, 0., 2.14723926e-02, 2.45398767e-02,
          9.20245424e-03, 3.06748459e-03, 0., 1.53374225e-02,
          6.13496918e-03, 3.06748459e-03, 6.13496918e-03, 1.53374225e-02,
          1.22699384e-02, 3.06748450e-02, 0., 6.13496918e-03,
          9.20245424e-03, 1.22699384e-02, 6.13496918e-03, 6.13496918e-03,
          0., 6.13496918e-03, 3.06748459e-03, 3.06748459e-03,
          6.13496918e-03, 0., 1.84049085e-02, 0., 9.20245424e-03, 0.,
          3.06748459e-03, 3.37423310e-02, 3.06748459e-03, 3.06748459e-03,
          3.68098170e-02, 9.20245424e-03, 9.20245424e-03, 0., 0., 0.,
          2.45398767e-02 ]
      - [ 8.83838348e-03, 1.13636367e-02, 7.57575780e-03, 1.38888890e-02,
          8.83838348e-03, 5.05050505e-03, 5.05050495e-02, 5.05050505e-03,
          1.26262626e-03, 5.05050505e-03, 6.31313119e-03, 8.83838348e-03,
          1.01010101e-02, 1.26262626e-03, 1.13636367e-02, 1.01010101e-02,
          2.52525252e-03, 2.52525252e-03, 7.57575780e-03, 3.78787890e-03,
          1.26262626e-03, 8.83838348e-03, 1.89393945e-02, 2.39898991e-02,
          3.78787890e-03, 3.78787890e-03, 1.26262624e-02, 7.57575780e-03,
          6.31313119e-03, 6.31313119e-03, 1.26262626e-03, 6.31313119e-03,
          0., 1.89393945e-02, 3.78787890e-03, 2.52525252e-03,
          8.83838348e-03, 1.26262624e-02, 6.31313119e-03, 1.01010101e-02,
          5.05050505e-03, 7.57575780e-03, 6.31313119e-03, 1.13636367e-02,
          2.52525252e-03, 6.31313119e-03, 6.31313119e-03, 7.57575780e-03,
          8.83838348e-03, 2.77777780e-02, 7.57575780e-03, 2.14646459e-02,
          2.52525252e-03, 0., 3.03030312e-02, 1.13636367e-02,
          5.05050505e-03, 5.05050505e-03, 2.52525252e-03, 7.57575780e-03,
          8.83838348e-03, 1.64141413e-02, 2.52525252e-03, 6.31313119e-03,
          6.31313119e-03, 5.05050505e-03, 1.13636367e-02, 8.58585835e-02,
          1.64141413e-02, 5.05050505e-03, 8.83838348e-03, 6.31313119e-03,
          5.05050505e-03, 2.52525252e-03, 6.31313119e-03, 1.51515156e-02,
          2.65151523e-02, 7.57575780e-03, 5.05050505e-03, 1.13636367e-02,
          8.83838348e-03, 8.83838348e-03, 8.83838348e-03, 5.05050505e-03,
          5.05050495e-02, 7.57575780e-03, 7.57575780e-03, 7.57575780e-03,
          2.52525252e-03, 1.76767670e-02, 1.01010101e-02, 5.05050505e-03,
          6.31313119e-03, 1.26262626e-03, 1.26262626e-03, 0.,
          2.27272734e-02, 8.83838348e-03, 2.77777780e-02, 3.78787890e-03 ]
      - [ 2.77777785e-03, 8.33333377e-03, 1.11111114e-02, 1.11111114e-02,
          5.55555569e-03, 5.55555569e-03, 8.33333377e-03, 1.66666675e-02,
          8.33333377e-03, 5.55555569e-03, 8.33333377e-03, 5.55555569e-03,
          8.33333377e-03, 8.33333377e-03, 2.77777785e-03, 8.33333377e-03,
          1.11111114e-02, 4.44444455e-02, 1.94444451e-02, 2.77777780e-02,
          0., 5.55555569e-03, 1.11111114e-02, 1.66666675e-02,
          2.77777785e-03, 1.66666675e-02, 1.11111114e-02, 2.22222228e-02,
          0., 5.55555569e-03, 5.55555569e-03, 1.11111114e-02,
          8.33333377e-03, 1.11111114e-02, 5.55555569e-03, 2.22222228e-02,
          1.11111114e-02, 1.38888890e-02, 0., 0., 8.33333377e-03,
          8.33333377e-03, 1.66666675e-02, 2.22222228e-02, 1.66666675e-02,
          0., 3.61111127e-02, 0., 5.55555569e-03, 5.55555569e-03,
          5.55555569e-03, 1.66666675e-02, 2.77777780e-02, 1.11111114e-02,
          8.33333377e-03, 2.22222228e-02, 8.33333377e-03, 1.11111114e-02,
          0., 8.33333377e-03, 2.77777785e-03, 5.55555569e-03,
          2.77777780e-02, 1.11111114e-02, 5.55555569e-03, 2.77777785e-03,
          1.11111114e-02, 5.55555569e-03, 5.55555569e-03, 0.,
          8.33333377e-03, 1.38888890e-02, 1.11111114e-02, 0.,
          1.94444451e-02, 1.38888890e-02, 8.33333377e-03, 1.11111114e-02,
          1.66666675e-02, 1.66666675e-02, 1.11111114e-02, 1.38888890e-02,
          1.38888890e-02, 1.11111114e-02, 2.77777785e-03, 0.,
          2.77777785e-03, 8.33333377e-03, 2.77777785e-03, 8.33333377e-03,
          8.33333377e-03, 8.33333377e-03, 2.77777785e-03, 2.50000004e-02,
          0., 1.11111114e-02, 0., 5.55555569e-03, 1.11111114e-02,
          8.33333377e-03 ]
      - [ 0., 1.60642564e-02, 1.60642564e-02, 5.22088334e-02,
          4.01606411e-03, 4.01606411e-03, 7.22891539e-02, 1.20481923e-02,
          0., 0., 4.01606411e-03, 1.60642564e-02, 0., 0., 0., 0.,
          4.01606411e-03, 0., 1.20481923e-02, 4.01606411e-03,
          4.01606411e-03, 0., 8.03212821e-03, 6.82730898e-02, 0.,
          8.03212821e-03, 0., 1.20481923e-02, 0., 0., 0., 4.01606411e-03,
          0., 2.40963846e-02, 4.01606411e-03, 8.03212821e-03,
          8.03212821e-03, 8.03212821e-03, 4.01606411e-03, 8.03212821e-03,
          0., 1.60642564e-02, 1.60642564e-02, 0., 0., 4.01606411e-03,
          2.00803205e-02, 0., 2.00803205e-02, 8.03212821e-03, 0.,
          8.03212821e-03, 0., 4.01606411e-03, 3.61445770e-02,
          8.03212821e-03, 0., 1.60642564e-02, 0., 0., 8.03212821e-03,
          8.03212821e-03, 0., 8.03212821e-03, 0., 4.01606411e-03,
          2.81124488e-02, 2.40963846e-02, 4.01606411e-03, 1.20481923e-02,
          2.00803205e-02, 0., 0., 8.03212821e-03, 8.03212821e-03,
          3.61445770e-02, 2.81124488e-02, 5.22088334e-02, 8.03212821e-03,
          0., 1.20481923e-02, 2.81124488e-02, 4.01606411e-03, 0.,
          2.00803205e-02, 4.01606411e-03, 4.01606411e-03, 8.03212821e-03,
          4.01606411e-03, 1.20481923e-02, 4.01606411e-03, 4.01606411e-03,
          4.01606411e-03, 8.03212821e-03, 4.01606411e-03, 0.,
          1.60642564e-02, 2.40963846e-02, 4.01606411e-02, 0. ]
      - [ 9.38086305e-03, 0., 3.75234522e-03, 9.38086305e-03, 0.,
          9.38086305e-03, 2.25140713e-02, 7.50469044e-03, 5.62851783e-03,
          9.38086305e-03, 3.75234522e-03, 9.38086305e-03, 1.87617261e-03,
          5.62851783e-03, 9.38086305e-03, 1.87617261e-03, 3.75234522e-03,
          1.87617261e-02, 1.31332083e-02, 9.38086305e-03, 5.62851783e-03,
          3.18949334e-02, 5.62851783e-03, 7.50469044e-03, 3.75234522e-03,
          3.75234522e-03, 7.50469044e-03, 5.62851783e-03, 3.75234522e-03,
          9.38086305e-03, 3.75234522e-03, 7.50469044e-03, 7.50469044e-03,
          9.38086305e-03, 7.50469044e-03, 1.87617261e-03, 9.38086305e-03,
          3.75234522e-03, 1.87617261e-03, 1.31332083e-02, 3.75234522e-03,
          5.62851783e-03, 1.12570357e-02, 5.62851783e-03, 7.50469044e-03,
          9.38086305e-03, 0., 3.75234522e-03, 5.62851783e-03, 0.,
          4.12757993e-02, 3.75234522e-03, 1.87617261e-03, 2.06378996e-02,
          1.87617261e-03, 5.62851783e-03, 9.38086305e-03, 3.75234522e-03,
          1.29455909e-01, 1.87617261e-03, 1.87617261e-03, 1.50093809e-02,
          1.87617261e-03, 9.38086305e-03, 1.87617261e-02, 0.,
          1.12570357e-02, 9.38086305e-03, 2.06378996e-02, 7.50469044e-03,
          7.50469044e-03, 1.87617261e-03, 5.62851783e-03, 1.87617261e-03,
          0., 1.87617261e-03, 5.62851783e-03, 1.87617261e-03,
          1.87617261e-03, 1.12570357e-02, 3.75234522e-03, 1.87617261e-03,
          4.69043143e-02, 1.29455909e-01, 1.12570357e-02, 1.87617261e-03,
          2.06378996e-02, 1.87617261e-03, 0., 3.75234522e-03, 0.,
          2.06378996e-02, 7.50469044e-03, 5.62851783e-03, 1.31332083e-02,
          7.50469044e-03, 3.75234522e-03, 0., 3.75234522e-03,
          5.62851783e-03 ]
      - [ 1.50537640e-02, 1.07526882e-02, 0., 6.45161327e-03,
          8.60215072e-03, 1.50537640e-02, 1.72043014e-02, 4.30107536e-03,
          4.30107536e-03, 1.50537640e-02, 1.29032265e-02, 2.15053768e-03,
          1.72043014e-02, 1.93548389e-02, 4.30107536e-03, 2.15053768e-03,
          8.60215072e-03, 1.50537640e-02, 1.72043014e-02, 4.30107536e-03,
          8.60215072e-03, 3.22580636e-02, 1.29032265e-02, 2.36559138e-02,
          6.45161327e-03, 1.50537640e-02, 1.50537640e-02, 2.15053768e-03,
          1.29032265e-02, 1.93548389e-02, 0., 1.07526882e-02,
          6.45161327e-03, 1.50537640e-02, 1.29032265e-02, 1.07526882e-02,
          8.60215072e-03, 4.30107536e-03, 1.29032265e-02, 1.07526882e-02,
          0., 6.45161327e-03, 1.29032265e-02, 3.65591422e-02,
          1.50537640e-02, 1.29032265e-02, 8.60215072e-03, 2.15053768e-03,
          2.15053768e-03, 0., 1.50537640e-02, 2.15053768e-03,
          2.15053768e-03, 1.29032265e-02, 8.60215072e-03, 0.,
          6.45161327e-03, 4.30107536e-03, 1.07526882e-02, 1.93548389e-02,
          2.36559138e-02, 8.60215072e-03, 0., 4.30107536e-03,
          6.45161327e-03, 1.07526882e-02, 1.07526882e-02, 2.15053768e-03,
          1.50537640e-02, 1.29032265e-02, 1.72043014e-02, 1.72043014e-02,
          2.15053768e-03, 1.07526882e-02, 2.15053768e-03, 6.45161327e-03,
          0., 1.07526882e-02, 8.60215072e-03, 6.45161327e-03,
          2.36559138e-02, 1.29032265e-02, 3.44086029e-02, 2.15053768e-03,
          8.60215072e-03, 6.45161327e-03, 1.93548389e-02, 6.45161327e-03,
          6.45161327e-03, 2.15053768e-03, 0., 1.07526882e-02,
          6.45161327e-03, 2.15053763e-02, 4.30107536e-03, 4.30107536e-03,
          4.30107536e-03, 4.30107536e-03, 2.36559138e-02, 2.15053768e-03 ]
      - [ 1.65094342e-02, 8.25471710e-03, 1.76886795e-03, 1.23820752e-02,
          1.12028308e-02, 1.53301889e-02, 4.71698120e-03, 9.43396240e-03,
          1.17924530e-02, 1.12028308e-02, 1.53301889e-02, 6.48584915e-03,
          1.00235846e-02, 1.00235846e-02, 4.12735855e-03, 7.07547180e-03,
          1.00235846e-02, 1.70990564e-02, 1.41509436e-02, 1.41509436e-02,
          1.41509436e-02, 1.35613214e-02, 4.71698120e-03, 7.66509445e-03,
          1.65094342e-02, 2.94811325e-03, 9.43396240e-03, 5.30660385e-03,
          8.25471710e-03, 1.23820752e-02, 5.30660385e-03, 1.17924530e-02,
          1.47405658e-02, 7.66509445e-03, 1.35613214e-02, 1.00235846e-02,
          1.12028308e-02, 3.53773590e-03, 8.84434022e-03, 1.06132077e-02,
          8.84434022e-03, 1.47405658e-02, 8.84434022e-03, 1.70990564e-02,
          1.41509436e-02, 5.30660385e-03, 1.23820752e-02, 1.76886795e-03,
          4.12735855e-03, 5.89622650e-03, 1.53301889e-02, 1.29716983e-02,
          7.07547180e-03, 1.76886804e-02, 1.47405658e-02, 9.43396240e-03,
          9.43396240e-03, 7.07547180e-03, 8.84434022e-03, 1.12028308e-02,
          1.17924530e-02, 1.29716983e-02, 5.89622650e-03, 1.12028308e-02,
          1.00235846e-02, 1.06132077e-02, 8.25471710e-03, 6.48584915e-03,
          2.47641504e-02, 9.43396240e-03, 1.53301889e-02, 1.47405658e-02,
          8.84434022e-03, 8.25471710e-03, 5.89622650e-03, 5.30660385e-03,
          1.06132077e-02, 2.94811325e-03, 4.71698120e-03, 1.29716983e-02,
          1.47405658e-02, 1.06132077e-02, 1.53301889e-02, 2.35849060e-03,
          9.43396240e-03, 1.59198120e-02, 7.07547180e-03, 1.23820752e-02,
          5.89622650e-03, 5.89622650e-03, 4.71698120e-03, 9.43396240e-03,
          1.41509436e-02, 1.00235846e-02, 1.06132077e-02, 8.25471710e-03,
          9.43396240e-03, 1.17924530e-02, 2.94811325e-03, 7.66509445e-03 ]
      - [ 0., 2.70270277e-02, 3.00300308e-03, 1.20120123e-02,
          9.00900923e-03, 3.00300308e-03, 5.40540554e-02, 6.00600615e-03,
          3.00300308e-03, 2.40240246e-02, 0., 3.00300308e-03,
          1.20120123e-02, 3.00300308e-03, 3.00300308e-03, 2.10210215e-02,
          2.10210215e-02, 0., 3.00300308e-03, 9.00900923e-03, 0.,
          6.00600615e-03, 2.70270277e-02, 5.40540554e-02, 3.00300308e-03,
          3.00300308e-02, 3.00300308e-03, 6.00600615e-03, 9.00900923e-03,
          6.00600615e-03, 6.00600615e-03, 1.20120123e-02, 0.,
          3.00300308e-03, 3.00300308e-03, 3.00300308e-03, 2.40240246e-02,
          2.40240246e-02, 3.00300308e-03, 3.00300308e-03, 9.00900923e-03,
          2.10210215e-02, 0., 1.50150154e-02, 1.20120123e-02, 0.,
          6.00600615e-03, 0., 3.00300308e-03, 1.20120123e-02,
          3.00300308e-03, 1.20120123e-02, 9.00900923e-03, 3.00300308e-03,
          1.50150154e-02, 6.00600615e-03, 6.00600615e-03, 6.00600615e-03,
          0., 3.00300308e-03, 3.00300308e-03, 3.00300308e-03,
          3.30330357e-02, 0., 1.50150154e-02, 0., 1.80180185e-02,
          2.40240246e-02, 0., 3.00300308e-03, 0., 3.00300308e-02,
          9.00900923e-03, 0., 2.40240246e-02, 2.10210215e-02,
          2.10210215e-02, 2.40240246e-02, 6.00600615e-03, 6.00600615e-03,
          0., 3.00300308e-03, 6.00600615e-03, 3.00300308e-03,
          3.00300308e-02, 2.70270277e-02, 0., 1.20120123e-02, 0.,
          1.50150154e-02, 3.00300308e-03, 3.00300308e-03, 0.,
          1.50150154e-02, 0., 2.70270277e-02, 6.00600615e-03, 0.,
          2.10210215e-02, 6.00600615e-03 ]
      - [ 0., 0., 5.50964195e-03, 5.50964195e-03, 1.10192839e-02,
          2.20385678e-02, 2.75482088e-02, 2.75482098e-03, 0.,
          1.65289268e-02, 0., 2.47933883e-02, 8.26446339e-03,
          8.26446339e-03, 8.26446339e-03, 5.50964195e-03, 1.65289268e-02,
          2.47933883e-02, 1.10192839e-02, 8.26446339e-03, 0.,
          5.50964195e-03, 5.50964195e-03, 1.10192839e-02, 3.03030312e-02,
          8.26446339e-03, 8.26446339e-03, 8.26446339e-03, 1.92837473e-02,
          2.75482098e-03, 8.26446339e-03, 8.26446339e-03, 0.,
          2.75482098e-03, 5.50964195e-03, 1.92837473e-02, 5.50964195e-03,
          1.10192839e-02, 1.10192839e-02, 8.26446339e-03, 1.65289268e-02,
          1.37741044e-02, 8.26446339e-03, 1.37741044e-02, 2.75482098e-03,
          2.75482098e-03, 8.26446339e-03, 1.10192839e-02, 1.92837473e-02,
          2.47933883e-02, 0., 1.92837473e-02, 1.65289268e-02,
          2.75482098e-03, 8.26446339e-03, 1.10192839e-02, 8.26446339e-03,
          1.37741044e-02, 2.75482098e-03, 2.47933883e-02, 2.75482098e-03,
          1.37741044e-02, 1.37741044e-02, 8.26446339e-03, 5.50964195e-03,
          8.26446339e-03, 1.37741044e-02, 1.65289268e-02, 2.75482098e-03,
          2.47933883e-02, 1.10192839e-02, 2.75482098e-03, 1.10192839e-02,
          5.50964195e-03, 0., 1.65289268e-02, 1.10192839e-02,
          2.75482098e-03, 1.65289268e-02, 0., 5.50964195e-03,
          1.65289268e-02, 5.50964195e-03, 1.10192839e-02, 1.65289268e-02,
          1.92837473e-02, 2.75482098e-03, 1.10192839e-02, 5.50964195e-03,
          5.50964195e-03, 2.20385678e-02, 2.75482098e-03, 0.,
          1.10192839e-02, 8.26446339e-03, 1.10192839e-02, 2.75482098e-03,
          1.37741044e-02, 8.26446339e-03, 1.92837473e-02 ]
      - [ 9.90853645e-03, 1.52439019e-03, 1.29573168e-02, 1.75304879e-02,
          8.38414580e-03, 2.43902430e-02, 2.36280486e-02, 4.57317056e-03,
          6.85975607e-03, 7.62195094e-03, 2.28658528e-03, 1.06707308e-02,
          9.14634112e-03, 1.37195121e-02, 3.12499981e-02, 1.67682916e-02,
          1.29573168e-02, 0., 1.29573168e-02, 1.44817065e-02,
          3.81097547e-03, 3.04878037e-03, 4.57317056e-03, 1.21951215e-02,
          1.75304879e-02, 6.09756075e-03, 1.44817065e-02, 1.29573168e-02,
          1.44817065e-02, 5.33536542e-03, 7.62195094e-03, 7.62195094e-03,
          4.57317056e-03, 5.33536542e-03, 3.81097547e-03, 7.62195094e-03,
          9.14634112e-03, 2.13414617e-02, 9.14634112e-03, 1.06707308e-02,
          1.82926822e-02, 1.67682916e-02, 8.38414580e-03, 7.62195094e-04,
          2.21036579e-02, 3.81097547e-03, 6.85975607e-03, 5.33536542e-03,
          9.90853645e-03, 2.05792673e-02, 1.52439019e-03, 4.57317056e-03,
          1.67682916e-02, 8.38414580e-03, 4.57317056e-03, 7.62195094e-03,
          7.62195094e-03, 7.62195094e-03, 2.28658528e-03, 1.44817065e-02,
          9.90853645e-03, 9.14634112e-03, 9.14634112e-03, 1.21951215e-02,
          9.14634112e-03, 0., 2.36280486e-02, 1.14329262e-02,
          2.28658528e-03, 9.14634112e-03, 9.14634112e-03, 9.14634112e-03,
          1.52439019e-02, 2.28658528e-03, 6.09756075e-03, 9.90853645e-03,
          1.21951215e-02, 7.62195094e-03, 1.06707308e-02, 7.62195094e-03,
          1.29573168e-02, 6.09756075e-03, 7.62195094e-03, 2.28658528e-03,
          6.85975607e-03, 1.67682916e-02, 6.85975607e-03, 6.09756075e-03,
          9.14634112e-03, 9.90853645e-03, 1.90548766e-02, 5.33536542e-03,
          6.09756075e-03, 1.67682916e-02, 2.59146336e-02, 6.09756075e-03,
          6.09756075e-03, 4.57317056e-03, 9.90853645e-03, 1.82926822e-02 ]
      - [ 1.18265441e-02, 1.05124833e-02, 1.83968451e-02, 1.70827862e-02,
          2.62812083e-03, 1.05124833e-02, 5.12483567e-02, 1.05124833e-02,
          6.57030195e-03, 6.57030195e-03, 1.05124833e-02, 9.19842254e-03,
          5.25624165e-03, 3.94218136e-03, 1.31406041e-03, 1.97109058e-02,
          7.88436271e-03, 6.57030195e-03, 6.57030195e-03, 5.25624165e-03,
          9.19842254e-03, 9.19842254e-03, 2.10249666e-02, 3.54796313e-02,
          6.57030195e-03, 3.94218136e-03, 9.19842254e-03, 1.70827862e-02,
          1.31406041e-03, 9.19842254e-03, 2.62812083e-03, 7.88436271e-03,
          9.19842254e-03, 1.18265441e-02, 1.18265441e-02, 7.88436271e-03,
          6.57030195e-03, 9.19842254e-03, 9.19842254e-03, 3.94218136e-03,
          1.18265441e-02, 6.57030195e-03, 3.94218136e-03, 1.31406039e-02,
          2.62812083e-03, 1.31406039e-02, 6.57030195e-03, 7.88436271e-03,
          1.83968451e-02, 3.94218136e-03, 5.25624165e-03, 2.62812083e-03,
          1.44546647e-02, 2.62812083e-03, 2.23390274e-02, 1.31406039e-02,
          6.57030195e-03, 1.18265441e-02, 3.94218136e-03, 7.88436271e-03,
          1.05124833e-02, 9.19842254e-03, 0., 3.94218136e-03,
          1.31406041e-03, 3.94218136e-03, 6.57030195e-03, 3.54796313e-02,
          6.57030195e-03, 1.57687254e-02, 1.05124833e-02, 9.19842254e-03,
          1.31406039e-02, 5.25624165e-03, 7.88436271e-03, 1.18265441e-02,
          1.44546647e-02, 1.18265441e-02, 3.94218136e-03, 9.19842254e-03,
          9.19842254e-03, 9.19842254e-03, 1.57687254e-02, 7.88436271e-03,
          2.10249666e-02, 3.94218136e-03, 7.88436271e-03, 1.05124833e-02,
          3.94218136e-03, 1.18265441e-02, 9.19842254e-03, 1.05124833e-02,
          6.57030195e-03, 1.31406039e-02, 1.05124833e-02, 2.62812083e-03,
          1.31406039e-02, 1.18265441e-02, 2.23390274e-02, 5.25624165e-03 ]
      - [ 6.68286765e-03, 6.07533427e-03, 6.07533427e-03, 9.72053502e-03,
          8.50546826e-03, 1.64034031e-02, 1.09356018e-02, 4.86026751e-03,
          2.12636702e-02, 6.07533427e-03, 1.82260033e-02, 6.68286765e-03,
          5.46780089e-03, 2.30862703e-02, 7.29040150e-03, 5.46780089e-03,
          1.21506685e-02, 3.03766713e-03, 1.70109365e-02, 1.03280684e-02,
          1.39732687e-02, 1.21506685e-02, 5.46780089e-03, 7.89793488e-03,
          1.03280684e-02, 4.25273413e-03, 1.09356018e-02, 4.25273413e-03,
          1.03280684e-02, 1.51883364e-02, 1.03280684e-02, 1.21506685e-02,
          1.51883364e-02, 6.68286765e-03, 6.68286765e-03, 4.86026751e-03,
          9.11300164e-03, 5.46780089e-03, 1.70109365e-02, 3.03766713e-03,
          7.29040150e-03, 6.68286765e-03, 7.89793488e-03, 1.21506685e-02,
          1.39732687e-02, 4.25273413e-03, 8.50546826e-03, 7.29040150e-03,
          3.03766713e-03, 1.76184699e-02, 1.21506685e-02, 9.72053502e-03,
          1.39732687e-02, 1.33657353e-02, 1.51883364e-02, 6.68286765e-03,
          6.68286765e-03, 8.50546826e-03, 7.29040150e-03, 1.09356018e-02,
          1.15431352e-02, 7.89793488e-03, 1.39732687e-02, 9.72053502e-03,
          1.09356018e-02, 2.36938037e-02, 1.45808030e-02, 6.68286765e-03,
          1.39732687e-02, 8.50546826e-03, 1.51883364e-02, 9.72053502e-03,
          7.89793488e-03, 1.57958698e-02, 2.43013375e-03, 4.86026751e-03,
          7.89793488e-03, 4.86026751e-03, 4.86026751e-03, 1.21506685e-02,
          2.00486034e-02, 4.25273413e-03, 1.33657353e-02, 1.21506688e-03,
          9.11300164e-03, 1.27582019e-02, 5.46780089e-03, 8.50546826e-03,
          3.64520075e-03, 4.25273413e-03, 6.07533427e-03, 1.09356018e-02,
          1.88335367e-02, 1.09356018e-02, 1.76184699e-02, 1.64034031e-02,
          1.21506685e-02, 1.45808030e-02, 8.50546826e-03, 1.03280684e-02 ]
      - [ 1.21155642e-02, 3.72786587e-03, 6.52376516e-03, 9.31966491e-03,
          1.67753957e-02, 1.02516310e-02, 3.35507914e-02, 9.31966491e-03,
          1.39794974e-02, 3.72786587e-03, 1.21155642e-02, 4.65983246e-03,
          5.59179857e-03, 3.72786587e-03, 2.79589929e-03, 3.72786587e-03,
          1.02516310e-02, 1.02516310e-02, 1.30475303e-02, 1.39794974e-02,
          6.52376516e-03, 9.31966491e-03, 1.39794974e-02, 1.30475303e-02,
          5.59179857e-03, 3.72786587e-03, 1.11835971e-02, 7.45573174e-03,
          6.52376516e-03, 5.59179857e-03, 5.59179857e-03, 1.67753957e-02,
          1.11835971e-02, 1.39794974e-02, 1.11835971e-02, 9.31966491e-03,
          7.45573174e-03, 1.49114635e-02, 1.77073628e-02, 1.21155642e-02,
          1.86393294e-03, 1.11835971e-02, 2.79589929e-03, 1.30475303e-02,
          6.52376516e-03, 1.86393298e-02, 2.32991613e-02, 7.45573174e-03,
          1.30475303e-02, 1.39794974e-02, 3.72786587e-03, 1.49114635e-02,
          5.59179857e-03, 1.58434305e-02, 1.67753957e-02, 8.38769786e-03,
          9.31966491e-03, 7.45573174e-03, 6.52376516e-03, 8.38769786e-03,
          1.95712950e-02, 6.52376516e-03, 1.86393294e-03, 7.45573174e-03,
          6.52376516e-03, 1.21155642e-02, 1.49114635e-02, 2.32991613e-02,
          3.72786587e-03, 1.49114635e-02, 8.38769786e-03, 3.72786587e-03,
          4.65983246e-03, 1.86393294e-03, 9.31966491e-03, 1.11835971e-02,
          7.45573174e-03, 9.31966491e-03, 1.21155642e-02, 7.45573174e-03,
          1.30475303e-02, 1.11835971e-02, 1.21155642e-02, 3.72786587e-03,
          1.21155642e-02, 7.45573174e-03, 5.59179857e-03, 1.39794974e-02,
          6.52376516e-03, 9.31966491e-03, 1.30475303e-02, 4.65983246e-03,
          1.30475303e-02, 2.79589929e-03, 8.38769786e-03, 5.59179857e-03,
          1.86393298e-02, 1.39794974e-02, 1.95712950e-02, 7.45573174e-03 ]
      - [ 9.30916145e-03, 9.79911722e-03, 7.83929415e-03, 6.36942638e-03,
          8.32924992e-03, 1.07790297e-02, 1.95982354e-03, 9.30916145e-03,
          1.02890739e-02, 1.42087210e-02, 5.87947061e-03, 1.12689855e-02,
          8.32924992e-03, 6.36942638e-03, 7.83929415e-03, 1.12689855e-02,
          1.32288085e-02, 7.83929415e-03, 1.17589412e-02, 1.02890739e-02,
          6.36942638e-03, 8.32924992e-03, 1.27388528e-02, 6.36942638e-03,
          1.37187652e-02, 1.61685441e-02, 1.46986768e-02, 1.02890739e-02,
          7.34933838e-03, 1.46986768e-02, 7.34933838e-03, 1.17589412e-02,
          5.87947061e-03, 9.30916145e-03, 1.37187652e-02, 1.32288085e-02,
          1.07790297e-02, 8.81920569e-03, 9.79911722e-03, 1.12689855e-02,
          1.22488970e-02, 1.27388528e-02, 1.46986768e-02, 1.37187652e-02,
          9.79911722e-03, 1.17589412e-02, 1.22488970e-02, 5.38951484e-03,
          3.91964708e-03, 5.38951484e-03, 8.32924992e-03, 7.83929415e-03,
          1.42087210e-02, 1.46986768e-02, 9.79911722e-03, 5.87947061e-03,
          7.34933838e-03, 1.02890739e-02, 1.17589412e-02, 9.30916145e-03,
          1.27388528e-02, 9.79911722e-03, 1.71484556e-02, 1.12689855e-02,
          1.02890739e-02, 6.36942638e-03, 5.87947061e-03, 4.89955861e-03,
          2.20480151e-02, 9.30916145e-03, 1.07790297e-02, 1.81283671e-02,
          7.83929415e-03, 1.46986765e-03, 2.40078382e-02, 5.87947061e-03,
          2.93973531e-03, 6.85938261e-03, 9.79911722e-03, 7.83929415e-03,
          9.79911722e-03, 1.17589412e-02, 8.32924992e-03, 1.12689855e-02,
          4.40960284e-03, 1.07790297e-02, 7.34933838e-03, 1.07790297e-02,
          7.34933838e-03, 2.59676613e-02, 1.02890739e-02, 1.12689855e-02,
          7.34933838e-03, 1.71484556e-02, 4.89955861e-03, 1.07790297e-02,
          6.36942638e-03, 6.85938261e-03, 6.85938261e-03, 8.81920569e-03 ]
      - [ 1.41025642e-02, 1.28205130e-02, 6.41025649e-03, 1.41025642e-02,
          6.41025649e-03, 1.28205130e-02, 1.53846163e-02, 6.41025649e-03,
          1.53846163e-02, 5.12820529e-03, 7.69230817e-03, 1.28205130e-02,
          1.15384618e-02, 3.84615408e-03, 1.92307699e-02, 1.02564106e-02,
          5.12820529e-03, 5.12820529e-03, 5.12820529e-03, 3.84615408e-03,
          5.12820529e-03, 1.02564106e-02, 6.41025649e-03, 1.66666675e-02,
          1.92307699e-02, 1.02564106e-02, 1.53846163e-02, 6.41025649e-03,
          1.79487187e-02, 8.97435937e-03, 8.97435937e-03, 1.92307699e-02,
          1.02564106e-02, 6.41025649e-03, 1.15384618e-02, 6.41025649e-03,
          6.41025649e-03, 7.69230817e-03, 1.15384618e-02, 5.12820529e-03,
          1.41025642e-02, 1.02564106e-02, 1.28205130e-02, 8.97435937e-03,
          1.79487187e-02, 2.56410264e-03, 1.15384618e-02, 1.02564106e-02,
          5.12820529e-03, 1.15384618e-02, 1.02564106e-02, 7.69230817e-03,
          2.56410264e-03, 5.12820529e-03, 1.41025642e-02, 1.28205130e-02,
          6.41025649e-03, 8.97435937e-03, 3.84615408e-03, 7.69230817e-03,
          1.15384618e-02, 1.28205130e-02, 5.12820529e-03, 6.41025649e-03,
          1.02564106e-02, 2.30769236e-02, 8.97435937e-03, 2.17948724e-02,
          1.15384618e-02, 3.84615408e-03, 1.41025642e-02, 8.97435937e-03,
          6.41025649e-03, 1.28205130e-02, 5.12820529e-03, 5.12820529e-03,
          2.30769236e-02, 1.02564106e-02, 3.84615408e-03, 7.69230817e-03,
          1.92307699e-02, 6.41025649e-03, 8.97435937e-03, 3.84615408e-03,
          2.56410260e-02, 1.41025642e-02, 8.97435937e-03, 1.15384618e-02,
          1.15384618e-02, 0., 1.28205130e-02, 7.69230817e-03,
          7.69230817e-03, 2.56410264e-03, 5.12820529e-03, 7.69230817e-03,
          1.15384618e-02, 1.15384618e-02, 1.28205130e-02, 8.97435937e-03 ]
      - [ 1.84696577e-02, 3.95778380e-03, 5.27704507e-03, 1.05540901e-02,
          5.27704507e-03, 1.84696577e-02, 1.31926127e-02, 6.59630634e-03,
          1.05540901e-02, 1.31926127e-02, 1.31926127e-03, 1.31926127e-02,
          5.27704507e-03, 9.23482887e-03, 1.45118739e-02, 1.97889190e-02,
          1.05540901e-02, 2.63852254e-03, 1.31926127e-02, 7.91556761e-03,
          1.71503965e-02, 9.23482887e-03, 9.23482887e-03, 3.95778380e-03,
          2.11081803e-02, 9.23482887e-03, 9.23482887e-03, 1.18733514e-02,
          1.31926127e-02, 1.31926127e-03, 1.05540901e-02, 1.05540901e-02,
          1.18733514e-02, 5.27704507e-03, 9.23482887e-03, 1.58311352e-02,
          6.59630634e-03, 2.24274416e-02, 7.91556761e-03, 1.31926127e-02,
          1.97889190e-02, 1.97889190e-02, 6.59630634e-03, 3.95778380e-03,
          1.45118739e-02, 9.23482887e-03, 1.05540901e-02, 2.63852254e-03,
          1.31926127e-02, 6.59630634e-03, 1.05540901e-02, 9.23482887e-03,
          7.91556761e-03, 3.95778380e-03, 1.18733514e-02, 1.18733514e-02,
          1.45118739e-02, 0., 1.31926127e-03, 6.59630634e-03,
          5.27704507e-03, 2.11081803e-02, 7.91556761e-03, 7.91556761e-03,
          3.95778380e-03, 7.91556761e-03, 1.84696577e-02, 3.95778380e-03,
          1.97889190e-02, 6.59630634e-03, 1.58311352e-02, 6.59630634e-03,
          9.23482887e-03, 3.95778380e-03, 1.45118739e-02, 3.95778380e-03,
          2.50659641e-02, 6.59630634e-03, 5.27704507e-03, 5.27704507e-03,
          1.58311352e-02, 1.05540901e-02, 1.31926127e-02, 1.31926127e-03,
          3.95778380e-03, 1.05540901e-02, 5.27704507e-03, 1.18733514e-02,
          6.59630634e-03, 1.71503965e-02, 6.59630634e-03, 5.27704507e-03,
          1.84696577e-02, 1.05540901e-02, 9.23482887e-03, 1.18733514e-02,
          1.31926127e-02, 3.95778380e-03, 7.91556761e-03, 1.05540901e-02 ]
      - [ 4.48717959e-02, 3.20512825e-03, 1.60256412e-03, 0.,
          4.80769249e-03, 2.56410260e-02, 9.61538497e-03, 1.44230770e-02,
          1.60256419e-02, 1.76282059e-02, 9.61538497e-03, 6.08974360e-02,
          1.60256412e-03, 6.41025649e-03, 1.44230770e-02, 1.12179490e-02,
          0., 2.08333340e-02, 6.41025649e-03, 6.41025649e-03,
          4.80769249e-03, 1.12179490e-02, 0., 3.20512825e-03,
          1.60256419e-02, 1.60256412e-03, 6.41025649e-03, 8.01282097e-03,
          3.52564119e-02, 6.41025649e-03, 9.61538497e-03, 1.60256412e-03,
          4.80769249e-03, 6.41025649e-03, 6.41025649e-03, 6.41025649e-03,
          9.61538497e-03, 0., 4.80769249e-03, 1.60256419e-02,
          2.88461540e-02, 4.80769249e-03, 1.12179490e-02, 1.60256412e-03,
          2.56410260e-02, 1.76282059e-02, 6.41025649e-03, 1.60256412e-03,
          2.88461540e-02, 4.80769249e-03, 1.60256419e-02, 3.20512825e-03,
          1.28205130e-02, 1.60256412e-03, 0., 1.12179490e-02,
          1.60256412e-03, 8.01282097e-03, 6.41025649e-03, 1.12179490e-02,
          1.44230770e-02, 4.16666679e-02, 1.60256412e-03, 8.01282097e-03,
          1.60256419e-02, 3.20512825e-03, 0., 1.60256412e-03,
          9.61538497e-03, 6.41025649e-03, 3.36538479e-02, 1.60256412e-03,
          2.72435900e-02, 1.60256412e-03, 1.60256412e-03, 3.20512825e-03,
          0., 1.60256412e-03, 3.20512825e-03, 4.80769249e-03,
          2.08333340e-02, 3.20512825e-03, 1.12179490e-02, 4.80769249e-03,
          0., 1.92307699e-02, 1.44230770e-02, 3.20512825e-03,
          4.80769249e-03, 1.60256412e-03, 3.20512839e-02, 2.40384620e-02,
          4.80769249e-03, 4.80769249e-03, 9.61538497e-03, 6.41025649e-03,
          0., 6.41025649e-03, 1.60256412e-03, 8.01282097e-03 ]
      - [ 1.30434781e-02, 1.08695645e-02, 2.17391294e-03, 2.17391294e-03,
          1.08695645e-02, 1.08695645e-02, 4.56521735e-02, 1.73913036e-02,
          6.52173907e-03, 1.30434781e-02, 0., 2.39130426e-02, 0.,
          4.34782589e-03, 1.08695645e-02, 1.08695645e-02, 4.34782589e-03,
          1.73913036e-02, 2.17391290e-02, 8.69565178e-03, 6.52173907e-03,
          1.52173908e-02, 1.08695645e-02, 3.26086953e-02, 2.39130426e-02,
          0., 6.52173907e-03, 1.52173908e-02, 1.08695645e-02,
          8.69565178e-03, 0., 2.17391294e-03, 0., 4.34782589e-03,
          2.39130426e-02, 1.08695645e-02, 8.69565178e-03, 4.34782589e-03,
          1.08695645e-02, 1.95652172e-02, 1.30434781e-02, 1.08695645e-02,
          1.08695645e-02, 1.95652172e-02, 8.69565178e-03, 5.86956479e-02,
          2.17391294e-03, 6.52173907e-03, 4.34782589e-03, 6.52173907e-03,
          4.34782589e-03, 8.69565178e-03, 2.17391294e-03, 2.17391294e-03,
          2.17391294e-03, 2.17391294e-03, 2.17391294e-03, 2.17391290e-02,
          8.69565178e-03, 1.95652172e-02, 1.08695645e-02, 2.17391290e-02,
          4.34782589e-03, 0., 6.52173907e-03, 4.34782589e-03, 0.,
          3.69565189e-02, 1.30434781e-02, 1.08695645e-02, 6.52173907e-03,
          4.34782589e-03, 1.52173908e-02, 0., 0., 2.60869563e-02,
          2.17391294e-03, 2.17391290e-02, 6.52173907e-03, 1.08695645e-02,
          1.52173908e-02, 6.52173907e-03, 4.34782589e-03, 6.52173907e-03,
          4.34782589e-03, 1.52173908e-02, 1.52173908e-02, 8.69565178e-03,
          4.34782589e-03, 0., 4.34782589e-03, 1.30434781e-02,
          2.17391294e-03, 8.69565178e-03, 4.34782589e-03, 4.34782589e-03,
          6.52173907e-03, 4.34782589e-03, 4.34782589e-03, 0. ]
      - [ 1.98675506e-02, 1.65562914e-03, 8.27814545e-03, 1.15894042e-02,
          3.31125828e-03, 3.31125828e-03, 3.31125818e-02, 3.31125828e-03,
          1.82119198e-02, 3.31125828e-03, 1.65562914e-03, 6.62251655e-03,
          3.31125828e-03, 1.65562909e-02, 1.15894042e-02, 6.62251655e-03,
          3.31125828e-03, 3.31125828e-03, 9.93377529e-03, 9.93377529e-03,
          2.31788084e-02, 4.96688765e-03, 8.27814545e-03, 2.48344373e-02,
          1.65562914e-03, 8.27814545e-03, 6.62251655e-03, 1.15894042e-02,
          1.15894042e-02, 4.96688765e-03, 1.15894042e-02, 0.,
          1.65562914e-03, 1.32450331e-02, 4.96688765e-03, 8.27814545e-03,
          6.62251655e-03, 6.62251655e-03, 1.65562914e-03, 9.93377529e-03,
          8.27814545e-03, 6.62251655e-03, 8.27814545e-03, 6.62251655e-03,
          1.32450331e-02, 8.27814545e-03, 6.62251655e-03, 7.78145716e-02,
          4.96688765e-03, 0., 1.98675506e-02, 4.96688765e-03,
          9.93377529e-03, 8.27814545e-03, 6.62251655e-03, 6.62251655e-03,
          1.32450331e-02, 3.31125828e-03, 1.15894042e-02, 6.62251655e-03,
          8.27814545e-03, 2.15231795e-02, 1.15894042e-02, 6.62251655e-03,
          8.27814545e-03, 0., 2.15231795e-02, 3.14569548e-02,
          5.46357632e-02, 3.31125828e-03, 9.93377529e-03, 3.31125828e-03,
          1.32450331e-02, 4.96688765e-03, 3.31125828e-03, 4.96688765e-03,
          1.32450331e-02, 8.27814545e-03, 4.96688765e-03, 1.15894042e-02,
          1.15894042e-02, 3.31125828e-03, 8.27814545e-03, 8.27814545e-03,
          1.32450331e-02, 8.27814545e-03, 8.27814545e-03, 9.93377529e-03,
          8.27814545e-03, 6.62251655e-03, 1.65562914e-03, 2.15231795e-02,
          6.62251655e-03, 1.15894042e-02, 1.65562909e-02, 4.96688765e-03,
          9.93377529e-03, 4.96688765e-03, 8.27814545e-03, 1.65562914e-03 ]
      - [ 1.52380951e-02, 1.90476188e-03, 0., 1.90476188e-03,
          5.71428565e-03, 0., 1.90476188e-03, 7.61904754e-03,
          1.33333337e-02, 1.90476188e-03, 2.85714287e-02, 0., 0., 0., 0.,
          0., 0., 1.33333325e-01, 1.90476188e-03, 0., 3.99999991e-02,
          1.33333337e-02, 1.90476188e-03, 1.90476188e-03, 3.80952377e-03,
          0., 9.52380896e-03, 0., 3.80952377e-03, 5.71428565e-03,
          1.90476188e-03, 1.33333337e-02, 0., 1.90476188e-03,
          1.71428565e-02, 0., 1.90476188e-03, 0., 3.80952377e-03,
          1.14285713e-02, 0., 0., 9.52380896e-03, 1.90476188e-03,
          1.90476188e-03, 3.80952377e-03, 1.90476188e-03, 0., 0., 0.,
          4.95238081e-02, 3.80952377e-03, 0., 1.90476188e-03,
          5.71428565e-03, 5.71428565e-03, 7.61904754e-03, 9.52380896e-03,
          2.66666673e-02, 0., 1.52380951e-02, 1.14285713e-02, 0.,
          7.61904754e-03, 0., 4.76190485e-02, 0., 0., 5.71428575e-02,
          3.80952377e-03, 1.33333337e-02, 1.90476188e-03, 0.,
          1.79047614e-01, 0., 0., 0., 3.80952377e-03, 0., 3.80952377e-03,
          5.71428565e-03, 1.90476188e-03, 3.80952377e-03, 7.61904754e-03,
          1.90476188e-03, 1.90476188e-03, 3.99999991e-02, 1.90476188e-03,
          3.80952377e-03, 0., 0., 6.28571436e-02, 1.33333337e-02,
          3.80952377e-03, 0., 5.71428565e-03, 0., 2.47619040e-02,
          1.90476188e-03, 0. ]
      - [ 8.26446339e-03, 2.75482098e-03, 5.50964195e-03, 2.75482098e-03,
          4.13223170e-03, 1.65289268e-02, 2.34159790e-02, 4.13223170e-03,
          1.10192839e-02, 1.37741049e-03, 4.13223170e-03, 1.37741044e-02,
          1.23966942e-02, 5.50964195e-03, 1.92837473e-02, 1.79063361e-02,
          1.65289268e-02, 1.92837473e-02, 6.88705221e-03, 5.50964195e-03,
          4.13223170e-03, 5.50964195e-03, 5.50964195e-03, 9.64187365e-03,
          1.23966942e-02, 1.92837473e-02, 9.64187365e-03, 9.64187365e-03,
          1.65289268e-02, 8.26446339e-03, 5.50964195e-03, 9.64187365e-03,
          5.50964195e-03, 5.50964195e-03, 5.50964195e-03, 1.51515156e-02,
          6.88705221e-03, 9.64187365e-03, 4.13223170e-03, 9.64187365e-03,
          1.92837473e-02, 1.79063361e-02, 5.50964195e-03, 2.75482098e-03,
          1.37741044e-02, 5.50964195e-03, 1.92837473e-02, 6.88705221e-03,
          1.23966942e-02, 3.30578536e-02, 6.88705221e-03, 5.50964195e-03,
          1.23966942e-02, 8.26446339e-03, 1.37741049e-03, 5.50964195e-03,
          1.37741049e-03, 6.88705221e-03, 1.10192839e-02, 6.88705221e-03,
          1.23966942e-02, 1.92837473e-02, 1.10192839e-02, 2.75482098e-03,
          5.50964195e-03, 0., 8.26446339e-03, 2.20385678e-02,
          8.26446339e-03, 8.26446339e-03, 1.65289268e-02, 2.06611566e-02,
          1.51515156e-02, 1.37741049e-03, 1.79063361e-02, 5.50964195e-03,
          1.10192839e-02, 2.75482098e-03, 5.50964195e-03, 9.64187365e-03,
          1.79063361e-02, 5.50964195e-03, 1.37741044e-02, 4.13223170e-03,
          1.23966942e-02, 2.47933883e-02, 9.64187365e-03, 6.88705221e-03,
          8.26446339e-03, 6.88705221e-03, 3.99449058e-02, 6.88705221e-03,
          5.50964195e-03, 1.10192839e-02, 1.10192839e-02, 1.10192839e-02,
          8.26446339e-03, 1.37741049e-03, 5.50964195e-03, 4.13223170e-03 ]
      - [ 1.05448160e-02, 7.02987704e-03, 7.02987704e-03, 5.27240802e-03,
          7.02987704e-03, 1.58172231e-02, 2.98769772e-02, 1.58172231e-02,
          3.51493852e-03, 2.28471011e-02, 0., 1.40597541e-02,
          1.93321612e-02, 1.40597541e-02, 1.58172231e-02, 1.40597541e-02,
          5.27240802e-03, 5.27240802e-03, 1.75746921e-02, 7.02987704e-03,
          5.27240802e-03, 1.75746926e-03, 3.51493852e-03, 3.51493852e-03,
          1.05448160e-02, 5.27240802e-03, 1.40597541e-02, 7.02987704e-03,
          1.58172231e-02, 7.02987704e-03, 1.75746921e-02, 0.,
          7.02987704e-03, 1.05448160e-02, 1.05448160e-02, 1.23022851e-02,
          5.27240802e-03, 1.93321612e-02, 5.27240802e-03, 3.51493852e-03,
          8.78734607e-03, 7.02987704e-03, 1.40597541e-02, 8.78734607e-03,
          1.23022851e-02, 1.75746926e-03, 7.02987704e-03, 1.40597541e-02,
          1.05448160e-02, 2.98769772e-02, 1.05448160e-02, 1.75746926e-03,
          1.05448160e-02, 7.02987704e-03, 5.27240802e-03, 5.27240802e-03,
          1.23022851e-02, 1.05448160e-02, 1.75746926e-03, 8.78734607e-03,
          1.75746926e-03, 1.58172231e-02, 1.58172231e-02, 8.78734607e-03,
          1.40597541e-02, 0., 2.98769772e-02, 4.39367332e-02,
          1.23022851e-02, 7.02987704e-03, 5.27240802e-03, 7.02987704e-03,
          3.51493852e-03, 5.27240802e-03, 1.58172231e-02, 1.40597541e-02,
          2.10896321e-02, 7.02987704e-03, 1.58172231e-02, 5.27240802e-03,
          1.05448160e-02, 5.27240802e-03, 5.27240802e-03, 5.27240802e-03,
          5.27240802e-03, 1.75746921e-02, 7.02987704e-03, 7.02987704e-03,
          7.02987704e-03, 3.51493852e-03, 1.75746921e-02, 1.58172231e-02,
          5.27240802e-03, 1.93321612e-02, 7.02987704e-03, 5.27240802e-03,
          1.75746926e-03, 0., 1.23022851e-02, 1.75746926e-03 ]
      - [ 2.16450207e-02, 2.81385276e-02, 4.32900432e-03, 2.16450216e-03,
          0., 6.49350649e-03, 3.67965363e-02, 4.32900432e-03,
          4.32900432e-03, 0., 0., 8.65800865e-03, 4.32900432e-03, 0.,
          2.16450216e-03, 1.73160173e-02, 1.29870130e-02, 3.89610380e-02,
          4.32900432e-03, 4.32900432e-03, 1.29870130e-02, 1.94805190e-02,
          2.16450216e-03, 6.49350649e-03, 6.49350649e-03, 7.57575780e-02,
          1.08225103e-02, 6.49350649e-03, 2.16450216e-03, 1.51515156e-02,
          6.49350649e-03, 2.16450216e-03, 8.65800865e-03, 1.29870130e-02,
          2.16450216e-03, 0., 1.51515156e-02, 2.16450216e-03,
          6.49350649e-03, 1.51515156e-02, 6.49350649e-03, 6.49350649e-03,
          2.38095243e-02, 1.29870130e-02, 1.29870130e-02, 4.32900432e-03,
          2.16450216e-03, 6.49350649e-03, 4.32900432e-03, 4.32900432e-03,
          2.16450207e-02, 4.32900432e-03, 1.29870130e-02, 8.65800865e-03,
          0., 2.16450216e-03, 1.08225103e-02, 6.49350649e-03,
          1.29870130e-02, 0., 0., 4.32900432e-03, 2.38095243e-02, 0.,
          1.94805190e-02, 0., 2.16450216e-03, 3.24675329e-02,
          6.06060624e-02, 2.16450216e-03, 6.49350649e-03, 4.11255397e-02,
          6.49350649e-03, 0., 1.29870130e-02, 2.16450216e-03,
          1.08225103e-02, 6.49350649e-03, 0., 1.51515156e-02,
          6.49350649e-03, 1.29870130e-02, 1.73160173e-02, 1.08225103e-02,
          0., 8.65800865e-03, 8.65800865e-03, 8.65800865e-03,
          1.29870130e-02, 1.94805190e-02, 6.49350649e-03, 1.73160173e-02,
          4.32900432e-03, 4.32900432e-03, 0., 2.16450216e-03, 0., 0.,
          8.65800865e-03, 8.65800865e-03 ]
      - [ 3.67309456e-03, 7.34618912e-03, 1.28558306e-02, 8.26446246e-03,
          3.67309456e-03, 2.20385678e-02, 1.37741044e-02, 5.50964195e-03,
          3.67309456e-03, 1.10192839e-02, 2.75482098e-03, 4.59136814e-03,
          9.18273628e-03, 2.11202931e-02, 9.18273628e-03, 1.65289249e-02,
          2.02020202e-02, 9.18273639e-04, 1.46923782e-02, 1.46923782e-02,
          7.34618912e-03, 1.10192839e-02, 8.26446246e-03, 2.75482098e-03,
          1.01010101e-02, 5.50964177e-02, 1.10192839e-02, 1.74471997e-02,
          8.26446246e-03, 1.10192839e-02, 9.18273628e-03, 6.42791530e-03,
          8.26446246e-03, 6.42791530e-03, 7.34618912e-03, 1.74471997e-02,
          1.19375577e-02, 1.74471997e-02, 2.75482098e-03, 6.42791530e-03,
          1.56106520e-02, 1.46923782e-02, 1.10192839e-02, 7.34618912e-03,
          1.28558306e-02, 2.75482098e-03, 1.37741044e-02, 1.28558306e-02,
          9.18273628e-03, 4.59136814e-03, 9.18273639e-04, 9.18273639e-04,
          1.65289249e-02, 1.01010101e-02, 0., 3.67309456e-03,
          1.28558306e-02, 4.59136814e-03, 0., 7.34618912e-03,
          3.67309456e-03, 6.42791530e-03, 2.47933883e-02, 1.37741044e-02,
          1.28558306e-02, 9.18273639e-04, 2.66299360e-02, 3.67309456e-03,
          6.42791530e-03, 1.10192839e-02, 1.10192839e-02, 1.92837473e-02,
          1.46923782e-02, 0., 1.37741044e-02, 1.83654728e-03,
          2.75482088e-02, 2.75482098e-03, 1.37741044e-02, 7.34618912e-03,
          9.18273628e-03, 1.37741044e-02, 1.19375577e-02, 1.83654728e-03,
          7.34618912e-03, 1.65289249e-02, 3.67309456e-03, 1.65289249e-02,
          4.59136814e-03, 1.37741044e-02, 5.50964195e-03, 5.50964195e-03,
          2.75482098e-03, 2.38751154e-02, 1.01010101e-02, 8.26446246e-03,
          2.75482098e-03, 0., 5.50964195e-03, 1.10192839e-02 ]
      - [ 3.99201596e-03, 1.79640725e-02, 0., 3.99201596e-03,
          5.98802418e-03, 1.99600798e-03, 2.79441122e-02, 3.59281451e-02,
          1.39720561e-02, 3.99201596e-03, 1.39720561e-02, 0., 0., 0., 0.,
          1.99600798e-03, 1.19760484e-02, 3.19361277e-02, 9.98003967e-03,
          5.98802418e-03, 1.79640725e-02, 5.98802418e-03, 3.99201596e-03,
          6.18762486e-02, 0., 2.79441122e-02, 1.99600793e-02,
          1.99600798e-03, 0., 1.59680638e-02, 1.99600798e-03,
          3.99201596e-03, 1.19760484e-02, 1.99600793e-02, 1.79640725e-02,
          1.99600798e-03, 1.79640725e-02, 7.98403192e-03, 3.99201596e-03,
          1.19760484e-02, 0., 1.39720561e-02, 2.99401190e-02,
          1.19760484e-02, 1.99600798e-03, 3.99201596e-03, 7.98403192e-03,
          0., 7.98403192e-03, 0., 5.98802418e-03, 1.99600798e-03,
          5.98802418e-03, 1.99600798e-03, 7.98403192e-03, 0.,
          5.98802418e-03, 3.19361277e-02, 9.98003967e-03, 0.,
          9.98003967e-03, 1.99600793e-02, 1.59680638e-02, 0.,
          3.99201596e-03, 0., 1.19760484e-02, 2.59481035e-02,
          2.79441122e-02, 2.59481035e-02, 7.98403192e-03, 2.79441122e-02,
          3.99201596e-03, 3.99201596e-03, 7.98403192e-03, 3.99201596e-03,
          5.98802418e-03, 1.59680638e-02, 0., 7.98403192e-03,
          1.19760484e-02, 7.98403192e-03, 1.19760484e-02, 7.98403192e-03,
          3.99201596e-03, 5.98802418e-03, 1.99600793e-02, 3.99201596e-03,
          1.19760484e-02, 1.99600798e-03, 0., 2.79441122e-02,
          9.98003967e-03, 9.98003967e-03, 3.99201596e-03, 1.99600798e-03,
          0., 7.98403192e-03, 2.59481035e-02, 0. ]
      - [ 2.03619916e-02, 5.65610873e-03, 3.39366542e-03, 7.91855250e-03,
          6.78733084e-03, 6.78733084e-03, 6.78733084e-03, 9.04977415e-03,
          1.58371050e-02, 4.52488707e-03, 1.35746617e-02, 1.13122177e-03,
          2.26244354e-03, 1.35746617e-02, 4.52488707e-03, 1.13122177e-03,
          3.39366542e-03, 1.43665165e-01, 2.26244354e-03, 7.91855250e-03,
          2.03619916e-02, 1.24434391e-02, 0., 9.04977415e-03,
          1.13122177e-03, 1.13122177e-03, 1.69683266e-02, 4.52488707e-03,
          1.13122177e-03, 6.78733084e-03, 4.52488707e-03, 5.65610873e-03,
          1.01809958e-02, 9.04977415e-03, 5.65610873e-03, 4.52488707e-03,
          5.65610873e-03, 7.91855250e-03, 9.04977415e-03, 2.14932133e-02,
          1.13122177e-03, 9.04977415e-03, 5.65610873e-03, 1.01809958e-02,
          9.04977415e-03, 7.91855250e-03, 6.78733084e-03, 4.52488707e-03,
          0., 1.13122177e-03, 4.41176482e-02, 5.65610873e-03,
          5.65610873e-03, 1.47058833e-02, 3.39366542e-03, 3.39366542e-03,
          3.39366542e-03, 6.78733084e-03, 3.39366533e-02, 0.,
          1.01809958e-02, 9.04977415e-03, 2.26244354e-03, 6.78733084e-03,
          7.91855250e-03, 2.26244354e-03, 4.52488707e-03, 1.69683266e-02,
          5.09049781e-02, 3.39366542e-03, 9.04977415e-03, 1.01809958e-02,
          4.52488707e-03, 5.65610873e-03, 1.13122177e-03, 2.26244354e-03,
          1.13122177e-03, 1.13122177e-03, 1.13122177e-03, 1.58371050e-02,
          1.58371050e-02, 3.39366542e-03, 2.03619916e-02, 1.47058833e-02,
          1.13122175e-02, 3.39366542e-03, 3.95927615e-02, 1.13122175e-02,
          3.39366542e-03, 3.39366542e-03, 0., 3.39366533e-02,
          1.92307699e-02, 4.52488707e-03, 1.35746617e-02, 2.26244354e-03,
          5.65610873e-03, 7.91855250e-03, 1.13122177e-03, 4.52488707e-03 ]
      - [ 2.32558139e-02, 0., 4.65116277e-03, 9.30232555e-03, 0.,
          4.65116277e-03, 1.76744193e-01, 4.65116277e-03, 4.65116277e-03,
          0., 9.30232555e-03, 4.65116277e-03, 0., 0., 9.30232555e-03,
          2.32558139e-02, 0., 6.97674453e-02, 0., 0., 4.65116277e-03,
          9.30232555e-03, 0., 8.37209299e-02, 0., 0., 0., 4.65116277e-03,
          4.65116277e-03, 0., 0., 4.65116277e-03, 0., 0., 0.,
          4.65116277e-03, 0., 4.65116277e-03, 0., 9.30232555e-03, 0., 0.,
          9.30232555e-03, 0., 0., 0., 9.30232555e-03, 2.32558139e-02, 0.,
          4.65116277e-03, 9.30232555e-03, 4.65116277e-03, 0., 0.,
          1.39534883e-02, 4.65116277e-03, 4.65116277e-03, 0., 0., 0., 0.,
          9.30232555e-03, 0., 0., 9.30232555e-03, 0., 9.30232555e-03,
          1.44186050e-01, 3.25581394e-02, 4.65116277e-03, 0., 0.,
          9.30232555e-03, 4.65116277e-03, 9.30232555e-03, 2.32558139e-02,
          4.65116277e-03, 5.11627905e-02, 0., 0., 0., 0., 9.30232555e-03,
          4.65116277e-03, 4.65116277e-02, 0., 1.39534883e-02, 0., 0., 0.,
          4.65116277e-03, 9.30232555e-03, 0., 0., 0., 4.65116277e-03,
          1.86046511e-02, 9.30232555e-03, 9.30232555e-03, 0. ]
      - [ 1.57068074e-02, 1.04712043e-02, 2.61780098e-02, 2.61780098e-02,
          1.04712043e-02, 5.23560215e-03, 3.14136147e-02, 0.,
          1.04712043e-02, 0., 5.23560215e-03, 0., 0., 1.57068074e-02, 0.,
          2.09424086e-02, 5.23560215e-03, 1.04712043e-02, 1.04712043e-02,
          0., 0., 0., 0., 0., 1.04712043e-02, 5.23560215e-03,
          5.23560215e-03, 2.61780098e-02, 5.23560215e-03, 2.09424086e-02,
          1.04712043e-02, 1.57068074e-02, 1.04712043e-02, 0.,
          5.23560215e-03, 2.09424086e-02, 0., 1.57068074e-02,
          5.23560215e-03, 0., 0., 5.23560215e-03, 1.57068074e-02,
          5.23560215e-03, 2.09424086e-02, 0., 1.57068074e-02,
          1.57068074e-02, 1.04712043e-02, 5.23560215e-03, 0.,
          5.23560215e-03, 1.04712043e-02, 1.57068074e-02, 1.04712043e-02,
          1.04712043e-02, 1.04712043e-02, 0., 5.23560215e-03,
          5.23560215e-03, 0., 0., 1.57068074e-02, 1.04712043e-02,
          1.04712043e-02, 0., 2.61780098e-02, 7.32984319e-02,
          2.61780098e-02, 5.23560215e-03, 1.57068074e-02, 0.,
          5.23560215e-03, 5.23560215e-03, 1.04712043e-02, 5.23560215e-03,
          4.18848172e-02, 0., 0., 5.23560215e-03, 2.61780098e-02, 0.,
          5.23560215e-03, 1.57068074e-02, 4.71204184e-02, 0., 0.,
          5.23560215e-03, 5.23560215e-03, 1.57068074e-02, 0., 0.,
          5.23560215e-03, 1.57068074e-02, 3.14136147e-02, 1.04712043e-02,
          1.04712043e-02, 5.23560215e-03, 0., 1.57068074e-02 ]
      - [ 0., 0., 1.36986300e-02, 6.84931502e-03, 1.36986300e-02, 0.,
          1.23287670e-01, 2.73972601e-02, 6.84931502e-03, 6.84931502e-03,
          1.36986300e-02, 0., 0., 0., 0., 0., 6.84931502e-03,
          4.79452051e-02, 0., 6.84931502e-03, 6.84931502e-03,
          6.84931502e-03, 0., 3.42465751e-02, 0., 6.84931502e-03,
          1.36986300e-02, 4.10958901e-02, 0., 0., 6.84931502e-03,
          6.84931502e-03, 6.84931502e-03, 0., 0., 6.84931502e-03,
          6.84931502e-03, 1.36986300e-02, 0., 0., 0., 6.84931502e-03, 0.,
          0., 0., 0., 2.73972601e-02, 2.05479451e-02, 0., 0.,
          6.84931502e-03, 1.36986300e-02, 0., 6.84931502e-03,
          1.36986300e-02, 6.84931502e-03, 6.84931502e-03, 1.36986300e-02,
          1.36986300e-02, 0., 0., 0., 0., 0., 1.36986300e-02,
          1.36986300e-02, 1.36986300e-02, 1.57534242e-01, 2.05479451e-02,
          0., 0., 0., 4.10958901e-02, 0., 0., 6.84931502e-03, 0.,
          4.10958901e-02, 6.84931502e-03, 0., 0., 0., 0., 1.36986300e-02,
          2.05479451e-02, 6.84931502e-03, 0., 6.84931502e-03, 0., 0., 0.,
          2.05479451e-02, 1.36986300e-02, 0., 0., 0., 2.05479451e-02,
          1.36986300e-02, 0., 0. ]
      - [ 1.47058824e-02, 2.94117653e-03, 1.17647061e-02, 2.05882359e-02,
          2.35294122e-02, 1.47058824e-02, 2.64705885e-02, 2.94117653e-03,
          2.94117653e-03, 1.17647061e-02, 2.94117653e-03, 1.76470596e-02,
          8.82352982e-03, 2.94117653e-03, 2.64705885e-02, 1.17647061e-02,
          2.94117653e-03, 5.88235306e-03, 1.76470596e-02, 5.88235306e-03,
          2.94117653e-03, 2.94117653e-03, 8.82352982e-03, 2.05882359e-02,
          1.47058824e-02, 2.35294122e-02, 5.88235306e-03, 8.82352982e-03,
          5.88235306e-03, 5.88235306e-03, 8.82352982e-03, 1.17647061e-02,
          2.94117653e-03, 2.94117653e-03, 0., 1.76470596e-02,
          2.94117653e-03, 1.17647061e-02, 2.94117653e-03, 1.17647061e-02,
          1.17647061e-02, 5.88235306e-03, 1.76470596e-02, 2.94117653e-03,
          0., 1.17647061e-02, 1.47058824e-02, 8.82352982e-03,
          1.76470596e-02, 7.94117674e-02, 2.94117653e-03, 8.82352982e-03,
          1.47058824e-02, 1.17647061e-02, 8.82352982e-03, 5.88235306e-03,
          8.82352982e-03, 2.94117653e-03, 8.82352982e-03, 5.88235306e-03,
          8.82352982e-03, 2.35294122e-02, 1.17647061e-02, 5.88235306e-03,
          1.47058824e-02, 2.05882359e-02, 5.88235306e-03, 5.88235306e-03,
          5.88235306e-03, 5.88235306e-03, 8.82352982e-03, 8.82352982e-03,
          2.94117653e-03, 8.82352982e-03, 0., 8.82352982e-03,
          2.94117653e-03, 5.88235306e-03, 5.88235306e-03, 2.94117653e-03,
          5.88235306e-03, 1.17647061e-02, 5.88235306e-03, 0.,
          2.94117653e-03, 1.17647061e-02, 2.94117653e-03, 1.76470596e-02,
          1.17647061e-02, 1.76470596e-02, 1.47058824e-02, 8.82352982e-03,
          2.94117653e-03, 2.94117653e-03, 5.88235306e-03, 0.,
          2.94117653e-03, 1.47058824e-02, 2.05882359e-02, 1.47058824e-02 ]
      - [ 1.35746617e-02, 6.78733084e-03, 1.13122175e-02, 1.58371050e-02,
          6.78733084e-03, 2.26244354e-03, 4.52488707e-03, 1.13122175e-02,
          2.26244354e-03, 1.13122175e-02, 2.26244354e-03, 2.26244349e-02,
          6.78733084e-03, 6.78733084e-03, 2.48868782e-02, 2.48868782e-02,
          1.13122175e-02, 0., 1.35746617e-02, 0., 2.26244354e-03,
          4.52488707e-03, 2.03619916e-02, 1.58371050e-02, 1.35746617e-02,
          2.03619916e-02, 9.04977415e-03, 4.52488707e-03, 9.04977415e-03,
          1.13122175e-02, 6.78733084e-03, 6.78733084e-03, 0.,
          9.04977415e-03, 4.52488707e-03, 9.04977415e-03, 6.78733084e-03,
          6.78733084e-03, 6.78733084e-03, 9.04977415e-03, 2.94117667e-02,
          2.26244354e-03, 9.04977415e-03, 1.13122175e-02, 6.78733084e-03,
          2.26244354e-03, 9.04977415e-03, 4.52488707e-03, 1.35746617e-02,
          5.20361997e-02, 4.52488707e-03, 6.78733084e-03, 2.03619916e-02,
          9.04977415e-03, 6.78733084e-03, 9.04977415e-03, 4.52488707e-03,
          1.13122175e-02, 0., 6.78733084e-03, 6.78733084e-03,
          4.52488707e-03, 1.80995483e-02, 4.52488707e-03, 1.58371050e-02,
          2.26244354e-03, 1.13122175e-02, 9.04977415e-03, 1.13122175e-02,
          1.13122175e-02, 2.03619916e-02, 1.35746617e-02, 1.35746617e-02,
          2.26244354e-03, 1.80995483e-02, 1.13122175e-02, 1.80995483e-02,
          4.52488707e-03, 4.52488707e-03, 1.58371050e-02, 2.26244354e-03,
          6.78733084e-03, 1.13122175e-02, 0., 1.13122175e-02,
          2.03619916e-02, 6.78733084e-03, 6.78733084e-03, 2.26244354e-03,
          2.03619916e-02, 4.97737564e-02, 4.52488707e-03, 0.,
          1.35746617e-02, 4.52488707e-03, 0., 4.52488707e-03,
          2.26244354e-03, 9.04977415e-03, 1.13122175e-02 ]
      - [ 7.83289783e-03, 7.83289783e-03, 5.22193220e-03, 5.22193220e-03,
          1.30548310e-02, 7.83289783e-03, 7.83289783e-03, 1.04438644e-02,
          5.22193220e-03, 0., 1.30548310e-02, 1.56657957e-02,
          1.30548310e-02, 1.04438644e-02, 2.08877288e-02, 2.61096610e-03,
          1.04438644e-02, 0., 2.61096610e-03, 7.83289783e-03,
          1.30548310e-02, 2.61096610e-03, 1.30548310e-02, 1.04438644e-02,
          5.22193220e-03, 3.39425579e-02, 0., 5.22193220e-03,
          1.30548310e-02, 7.83289783e-03, 1.04438644e-02, 1.30548310e-02,
          5.22193220e-03, 2.34986953e-02, 7.83289783e-03, 1.04438644e-02,
          5.22193220e-03, 1.04438644e-02, 7.83289783e-03, 1.30548310e-02,
          1.04438644e-02, 1.30548310e-02, 2.08877288e-02, 1.82767622e-02,
          1.30548310e-02, 7.83289783e-03, 1.04438644e-02, 2.61096610e-03,
          7.83289783e-03, 7.31070489e-02, 0., 1.30548310e-02,
          7.83289783e-03, 1.04438644e-02, 2.61096610e-03, 1.04438644e-02,
          2.61096619e-02, 1.56657957e-02, 0., 2.61096610e-03,
          7.83289783e-03, 7.83289783e-03, 7.83289783e-03, 1.56657957e-02,
          1.56657957e-02, 5.22193220e-03, 1.82767622e-02, 7.83289783e-03,
          0., 7.83289783e-03, 5.22193220e-03, 1.04438644e-02,
          2.61096610e-03, 2.61096610e-03, 1.56657957e-02, 1.30548310e-02,
          1.30548310e-02, 1.30548310e-02, 2.61096610e-03, 5.22193220e-03,
          5.22193220e-03, 2.61096610e-03, 2.61096610e-03, 5.22193220e-03,
          2.61096610e-03, 3.13315913e-02, 5.22193220e-03, 0., 0.,
          5.22193220e-03, 2.61096619e-02, 7.83289783e-03, 2.61096610e-03,
          1.04438644e-02, 1.56657957e-02, 2.61096610e-03, 7.83289783e-03,
          7.83289783e-03, 2.08877288e-02, 1.56657957e-02 ]
      - [ 2.46305414e-03, 4.92610829e-03, 1.97044332e-02, 1.97044332e-02,
          1.72413792e-02, 7.38916267e-03, 1.97044332e-02, 7.38916267e-03,
          7.38916267e-03, 9.85221658e-03, 0., 2.46305414e-03,
          9.85221658e-03, 1.97044332e-02, 9.85221658e-03, 1.47783253e-02,
          4.92610829e-03, 7.38916267e-03, 7.38916267e-03, 1.47783253e-02,
          7.38916267e-03, 7.38916267e-03, 7.38916267e-03, 7.38916267e-03,
          1.72413792e-02, 9.85221658e-03, 9.85221658e-03, 4.92610829e-03,
          9.85221658e-03, 1.72413792e-02, 9.85221658e-03, 2.46305414e-03,
          9.85221658e-03, 9.85221658e-03, 4.92610829e-03, 1.97044332e-02,
          1.23152705e-02, 4.92610829e-03, 4.92610829e-03, 0.,
          1.47783253e-02, 7.38916267e-03, 7.38916267e-03, 9.85221658e-03,
          9.85221658e-03, 0., 1.97044332e-02, 1.47783253e-02,
          9.85221658e-03, 1.23152705e-02, 4.92610829e-03, 1.23152705e-02,
          2.21674871e-02, 1.72413792e-02, 1.23152705e-02, 2.46305410e-02,
          0., 7.38916267e-03, 0., 2.46305410e-02, 7.38916267e-03,
          4.92610829e-03, 4.92610829e-03, 1.23152705e-02, 1.23152705e-02,
          2.46305414e-03, 1.23152705e-02, 2.46305410e-02, 7.38916267e-03,
          7.38916267e-03, 1.47783253e-02, 4.92610829e-03, 4.92610829e-03,
          9.85221658e-03, 9.85221658e-03, 2.46305414e-03, 4.92610829e-03,
          2.46305414e-03, 1.23152705e-02, 1.23152705e-02, 1.97044332e-02,
          1.23152705e-02, 9.85221658e-03, 7.38916267e-03, 1.23152705e-02,
          1.23152705e-02, 7.38916267e-03, 9.85221658e-03, 9.85221658e-03,
          1.47783253e-02, 2.21674871e-02, 7.38916267e-03, 4.92610829e-03,
          1.23152705e-02, 9.85221658e-03, 4.92610829e-03, 7.38916267e-03,
          2.46305414e-03, 7.38916267e-03, 1.47783253e-02 ]
      - [ 1.10410098e-02, 1.10410098e-02, 3.15457419e-03, 1.41955838e-02,
          4.73186141e-03, 1.10410098e-02, 1.10410098e-02, 4.73186141e-03,
          1.57728717e-02, 1.10410098e-02, 1.57728717e-02, 6.30914839e-03,
          1.26182968e-02, 1.10410098e-02, 3.15457419e-03, 6.30914839e-03,
          1.41955838e-02, 6.30914839e-03, 9.46372282e-03, 6.30914839e-03,
          4.73186141e-03, 4.73186141e-03, 1.41955838e-02, 6.30914839e-03,
          1.57728717e-02, 1.10410098e-02, 9.46372282e-03, 1.26182968e-02,
          3.15457419e-03, 1.57728717e-02, 1.10410098e-02, 1.26182968e-02,
          1.41955838e-02, 1.41955838e-02, 1.57728717e-02, 7.88643584e-03,
          6.30914839e-03, 6.30914839e-03, 2.52365936e-02, 9.46372282e-03,
          6.30914839e-03, 9.46372282e-03, 4.73186141e-03, 1.26182968e-02,
          1.10410098e-02, 6.30914839e-03, 1.10410098e-02, 1.57728710e-03,
          4.73186141e-03, 2.36593056e-02, 7.88643584e-03, 1.89274456e-02,
          1.10410098e-02, 9.46372282e-03, 1.57728710e-03, 1.57728717e-02,
          4.73186141e-03, 1.89274456e-02, 7.88643584e-03, 1.57728717e-02,
          9.46372282e-03, 9.46372282e-03, 7.88643584e-03, 6.30914839e-03,
          4.73186141e-03, 2.36593056e-02, 7.88643584e-03, 6.30914839e-03,
          7.88643584e-03, 2.36593056e-02, 1.10410098e-02, 1.10410098e-02,
          1.41955838e-02, 1.41955838e-02, 1.10410098e-02, 7.88643584e-03,
          4.73186141e-03, 7.88643584e-03, 7.88643584e-03, 7.88643584e-03,
          7.88643584e-03, 9.46372282e-03, 1.73501577e-02, 3.15457419e-03,
          4.73186141e-03, 1.10410098e-02, 6.30914839e-03, 1.73501577e-02,
          6.30914839e-03, 6.30914839e-03, 4.73186141e-03, 0.,
          1.41955838e-02, 3.15457419e-03, 2.05047317e-02, 1.10410098e-02,
          9.46372282e-03, 1.10410098e-02, 1.10410098e-02, 6.30914839e-03 ]
      - [ 7.11743766e-03, 1.06761567e-02, 5.33807836e-03, 8.89679696e-03,
          8.89679696e-03, 7.11743766e-03, 1.95729528e-02, 8.89679696e-03,
          1.77935939e-02, 7.11743766e-03, 1.24555156e-02, 5.33807836e-03,
          8.89679696e-03, 2.13523135e-02, 1.95729528e-02, 8.89679696e-03,
          3.55871883e-03, 3.55871883e-03, 1.42348753e-02, 1.06761567e-02,
          8.89679696e-03, 7.11743766e-03, 1.06761567e-02, 1.06761567e-02,
          1.24555156e-02, 7.11743766e-03, 1.95729528e-02, 5.33807836e-03,
          8.89679696e-03, 8.89679696e-03, 7.11743766e-03, 8.89679696e-03,
          7.11743766e-03, 1.95729528e-02, 8.89679696e-03, 1.06761567e-02,
          5.33807836e-03, 8.89679696e-03, 8.89679696e-03, 5.33807836e-03,
          7.11743766e-03, 1.24555156e-02, 7.11743766e-03, 8.89679696e-03,
          1.06761567e-02, 3.55871883e-03, 8.89679696e-03, 1.06761567e-02,
          8.89679696e-03, 2.31316723e-02, 5.33807836e-03, 1.42348753e-02,
          8.89679696e-03, 1.24555156e-02, 8.89679696e-03, 1.24555156e-02,
          8.89679696e-03, 3.55871883e-03, 1.60142351e-02, 8.89679696e-03,
          1.42348753e-02, 1.06761567e-02, 1.24555156e-02, 5.33807836e-03,
          3.55871883e-03, 5.33807836e-03, 1.24555156e-02, 2.31316723e-02,
          1.42348753e-02, 1.42348753e-02, 1.60142351e-02, 5.33807836e-03,
          3.55871883e-03, 7.11743766e-03, 7.11743766e-03, 8.89679696e-03,
          1.06761567e-02, 1.42348753e-02, 3.55871883e-03, 1.06761567e-02,
          8.89679696e-03, 5.33807836e-03, 3.55871883e-03, 1.24555156e-02,
          1.60142351e-02, 1.24555156e-02, 5.33807836e-03, 7.11743766e-03,
          8.89679696e-03, 3.55871883e-03, 1.60142351e-02, 1.42348753e-02,
          8.89679696e-03, 8.89679696e-03, 1.24555156e-02, 1.06761567e-02,
          1.24555156e-02, 7.11743766e-03, 1.42348753e-02, 7.11743766e-03 ]
      - [ 8.40336177e-03, 8.40336177e-03, 5.60224103e-03, 8.40336177e-03,
          8.40336177e-03, 5.60224103e-03, 1.68067235e-02, 8.40336177e-03,
          8.40336177e-03, 5.60224103e-03, 1.12044821e-02, 1.12044821e-02,
          5.60224103e-03, 1.40056023e-02, 5.60224103e-03, 8.40336177e-03,
          1.68067235e-02, 2.80112051e-03, 1.68067235e-02, 8.40336177e-03,
          2.80112051e-03, 1.68067235e-02, 8.40336177e-03, 2.80112051e-03,
          8.40336177e-03, 1.96078438e-02, 5.60224103e-03, 2.24089641e-02,
          5.60224103e-03, 5.60224103e-03, 8.40336177e-03, 5.60224103e-03,
          1.40056023e-02, 8.40336177e-03, 8.40336177e-03, 2.52100844e-02,
          1.12044821e-02, 5.60224103e-03, 5.60224103e-03, 1.12044821e-02,
          1.12044821e-02, 5.60224103e-03, 1.12044821e-02, 8.40336177e-03,
          2.80112051e-03, 5.60224103e-03, 5.60224103e-03, 8.40336177e-03,
          1.68067235e-02, 2.24089641e-02, 2.80112051e-03, 2.80112051e-03,
          1.12044821e-02, 1.68067235e-02, 5.60224103e-03, 8.40336177e-03,
          2.52100844e-02, 1.40056023e-02, 5.60224103e-03, 1.40056023e-02,
          2.80112051e-03, 1.96078438e-02, 1.40056023e-02, 1.12044821e-02,
          2.80112051e-03, 5.60224103e-03, 2.24089641e-02, 5.60224103e-03,
          5.60224103e-03, 5.60224103e-03, 1.12044821e-02, 1.12044821e-02,
          1.96078438e-02, 0., 1.40056023e-02, 1.96078438e-02,
          8.40336177e-03, 5.60224103e-03, 8.40336177e-03, 1.12044821e-02,
          8.40336177e-03, 5.60224103e-03, 5.60224103e-03, 8.40336177e-03,
          8.40336177e-03, 1.40056023e-02, 1.12044821e-02, 1.12044821e-02,
          8.40336177e-03, 1.96078438e-02, 1.40056023e-02, 5.60224103e-03,
          5.60224103e-03, 1.96078438e-02, 2.80112051e-03, 2.80112051e-03,
          1.12044821e-02, 8.40336177e-03, 1.96078438e-02, 1.40056023e-02 ]
      - [ 6.94444450e-03, 3.47222225e-03, 6.94444450e-03, 1.38888890e-02,
          1.04166670e-02, 1.38888890e-02, 4.51388881e-02, 3.47222225e-03,
          6.94444450e-03, 3.47222225e-03, 3.47222225e-03, 1.04166670e-02,
          0., 1.04166670e-02, 1.38888890e-02, 1.04166670e-02,
          2.08333340e-02, 0., 1.73611119e-02, 6.94444450e-03,
          6.94444450e-03, 6.94444450e-03, 0., 6.94444450e-03,
          1.38888890e-02, 1.73611119e-02, 3.47222225e-03, 1.73611119e-02,
          3.47222225e-03, 1.04166670e-02, 3.47222225e-03, 6.94444450e-03,
          3.47222225e-03, 1.73611119e-02, 3.47222225e-03, 2.77777780e-02,
          3.47222225e-03, 3.47222225e-03, 1.38888890e-02, 1.04166670e-02,
          1.04166670e-02, 6.94444450e-03, 6.94444450e-03, 6.94444450e-03,
          6.94444450e-03, 1.04166670e-02, 2.43055560e-02, 3.12500000e-02,
          2.08333340e-02, 3.12500000e-02, 0., 3.47222225e-03,
          1.04166670e-02, 6.94444450e-03, 0., 3.47222225e-03,
          1.73611119e-02, 6.94444450e-03, 3.47222225e-03, 1.38888890e-02,
          1.04166670e-02, 2.08333340e-02, 6.94444450e-03, 3.47222225e-03,
          3.47222225e-03, 6.94444450e-03, 2.08333340e-02, 1.38888890e-02,
          0., 1.38888890e-02, 1.38888890e-02, 1.04166670e-02, 0.,
          1.04166670e-02, 3.12500000e-02, 2.08333340e-02, 6.94444450e-03,
          0., 1.04166670e-02, 6.94444450e-03, 0., 1.04166670e-02,
          3.47222225e-03, 3.47222225e-03, 1.73611119e-02, 3.47222225e-03,
          6.94444450e-03, 6.94444450e-03, 3.47222225e-03, 2.08333340e-02,
          1.38888890e-02, 1.04166670e-02, 0., 3.12500000e-02,
          3.47222225e-03, 0., 6.94444450e-03, 3.47222225e-03,
          2.08333340e-02, 1.04166670e-02 ]
      - [ 1.90972220e-02, 1.73611112e-03, 8.68055597e-03, 8.68055597e-03,
          1.38888890e-02, 5.20833349e-03, 3.12500000e-02, 1.38888890e-02,
          1.56250000e-02, 5.20833349e-03, 8.68055597e-03, 1.38888890e-02,
          6.94444450e-03, 1.04166670e-02, 8.68055597e-03, 1.73611119e-02,
          6.94444450e-03, 1.73611119e-02, 5.20833349e-03, 5.20833349e-03,
          1.21527780e-02, 5.20833349e-03, 8.68055597e-03, 2.25694440e-02,
          6.94444450e-03, 0., 6.94444450e-03, 5.20833349e-03,
          5.20833349e-03, 1.38888890e-02, 1.04166670e-02, 1.56250000e-02,
          6.94444450e-03, 8.68055597e-03, 5.20833349e-03, 8.68055597e-03,
          5.20833349e-03, 8.68055597e-03, 5.20833349e-03, 1.90972220e-02,
          6.94444450e-03, 6.94444450e-03, 8.68055597e-03, 1.38888890e-02,
          3.47222225e-03, 5.20833349e-03, 1.04166670e-02, 1.04166670e-02,
          1.38888890e-02, 1.90972220e-02, 8.68055597e-03, 2.25694440e-02,
          1.73611112e-03, 5.20833349e-03, 1.56250000e-02, 1.21527780e-02,
          6.94444450e-03, 1.38888890e-02, 5.20833349e-03, 1.73611112e-03,
          1.04166670e-02, 1.21527780e-02, 3.47222225e-03, 1.73611119e-02,
          3.47222225e-03, 5.20833349e-03, 2.77777780e-02, 1.90972220e-02,
          2.25694440e-02, 1.04166670e-02, 3.47222225e-03, 3.47222225e-03,
          1.04166670e-02, 3.47222225e-03, 5.20833349e-03, 1.21527780e-02,
          1.38888890e-02, 8.68055597e-03, 8.68055597e-03, 6.94444450e-03,
          1.04166670e-02, 8.68055597e-03, 3.47222225e-03, 5.20833349e-03,
          1.21527780e-02, 1.21527780e-02, 5.20833349e-03, 8.68055597e-03,
          1.73611119e-02, 5.20833349e-03, 8.68055597e-03, 1.73611119e-02,
          1.38888890e-02, 3.47222225e-03, 1.04166670e-02, 5.20833349e-03,
          8.68055597e-03, 8.68055597e-03, 2.08333340e-02, 8.68055597e-03 ]
      - [ 1.24481339e-02, 6.22406695e-03, 2.07468891e-03, 4.14937781e-03,
          1.03734443e-02, 8.29875562e-03, 1.65975112e-02, 6.22406695e-03,
          1.24481339e-02, 1.24481339e-02, 8.29875562e-03, 2.69709565e-02,
          4.14937781e-03, 1.45228226e-02, 1.24481339e-02, 4.14937781e-03,
          8.29875562e-03, 8.29875562e-03, 8.29875562e-03, 4.14937781e-03,
          4.14937781e-03, 1.45228226e-02, 1.03734443e-02, 8.29875562e-03,
          2.07468886e-02, 0., 6.22406695e-03, 2.07468891e-03,
          6.22406695e-03, 6.22406695e-03, 1.03734443e-02, 1.65975112e-02,
          1.24481339e-02, 1.03734443e-02, 8.29875562e-03, 6.22406695e-03,
          1.45228226e-02, 6.22406695e-03, 2.69709565e-02, 1.03734443e-02,
          1.03734443e-02, 6.22406695e-03, 6.22406695e-03, 2.07468886e-02,
          1.03734443e-02, 1.86721999e-02, 8.29875562e-03, 1.65975112e-02,
          1.86721999e-02, 2.48962678e-02, 4.14937781e-03, 1.03734443e-02,
          1.24481339e-02, 1.03734443e-02, 4.14937781e-03, 1.86721999e-02,
          8.29875562e-03, 1.65975112e-02, 4.14937781e-03, 1.65975112e-02,
          1.45228226e-02, 1.45228226e-02, 4.14937781e-03, 1.86721999e-02,
          1.24481339e-02, 6.22406695e-03, 4.14937781e-03, 4.14937781e-03,
          1.45228226e-02, 8.29875562e-03, 1.03734443e-02, 1.03734443e-02,
          4.14937781e-03, 8.29875562e-03, 4.14937781e-03, 1.45228226e-02,
          1.24481339e-02, 4.14937781e-03, 8.29875562e-03, 1.24481339e-02,
          1.03734443e-02, 6.22406695e-03, 1.03734443e-02, 8.29875562e-03,
          8.29875562e-03, 6.22406695e-03, 4.14937781e-03, 8.29875562e-03,
          4.14937781e-03, 2.07468891e-03, 1.24481339e-02, 1.03734443e-02,
          1.86721999e-02, 2.07468891e-03, 8.29875562e-03, 1.03734443e-02,
          0., 1.24481339e-02, 1.86721999e-02, 8.29875562e-03 ]
      - [ 2.32558139e-02, 2.58397940e-03, 2.58397940e-03, 0.,
          5.16795879e-03, 1.03359176e-02, 5.68475462e-02, 7.75193796e-03,
          7.75193796e-03, 1.03359176e-02, 2.58397940e-03, 1.80878565e-02,
          7.75193796e-03, 7.75193796e-03, 7.75193796e-03, 7.75193796e-03,
          7.75193796e-03, 7.75193796e-03, 5.16795879e-03, 5.16795879e-03,
          2.58397940e-03, 1.29198972e-02, 1.55038759e-02, 1.29198972e-02,
          1.29198972e-02, 2.58397940e-03, 1.03359176e-02, 7.75193796e-03,
          1.03359176e-02, 5.16795879e-03, 5.16795879e-03, 1.55038759e-02,
          1.80878565e-02, 1.29198972e-02, 5.16795879e-03, 1.29198972e-02,
          7.75193796e-03, 5.16795879e-03, 1.55038759e-02, 5.16795879e-03,
          1.03359176e-02, 2.06718352e-02, 1.55038759e-02, 1.03359176e-02,
          2.58397940e-03, 5.16795879e-03, 1.55038759e-02, 2.06718352e-02,
          1.03359176e-02, 1.29198972e-02, 1.29198972e-02, 5.16795879e-03,
          5.16795879e-03, 1.03359176e-02, 7.75193796e-03, 7.75193796e-03,
          5.16795879e-03, 5.16795879e-03, 7.75193796e-03, 7.75193796e-03,
          2.58397940e-03, 5.16795879e-03, 5.16795879e-03, 1.03359176e-02,
          1.03359176e-02, 1.03359176e-02, 5.16795879e-03, 1.55038759e-02,
          1.80878565e-02, 1.80878565e-02, 1.29198972e-02, 7.75193796e-03,
          7.75193796e-03, 1.55038759e-02, 7.75193796e-03, 1.29198972e-02,
          7.75193796e-03, 5.16795879e-03, 1.03359176e-02, 1.55038759e-02,
          7.75193796e-03, 2.58397940e-03, 1.03359176e-02, 1.29198972e-02,
          1.03359176e-02, 1.29198972e-02, 7.75193796e-03, 1.03359176e-02,
          7.75193796e-03, 1.29198972e-02, 1.55038759e-02, 2.58397940e-03,
          1.03359176e-02, 5.16795879e-03, 1.29198972e-02, 7.75193796e-03,
          0., 7.75193796e-03, 3.61757129e-02, 2.58397940e-03 ]
      - [ 1.56250000e-02, 6.25000009e-03, 1.56250002e-03, 7.81250000e-03,
          1.25000002e-02, 6.25000009e-03, 1.40625006e-02, 4.68750019e-03,
          1.40625006e-02, 7.81250000e-03, 6.25000009e-03, 1.56250000e-02,
          9.37500037e-03, 1.40625006e-02, 9.37500037e-03, 3.12500005e-03,
          9.37500037e-03, 6.25000009e-03, 9.37500037e-03, 7.81250000e-03,
          6.25000009e-03, 1.25000002e-02, 1.09374998e-02, 1.56250002e-03,
          1.71875004e-02, 0., 1.56250000e-02, 6.25000009e-03,
          1.71875004e-02, 1.09374998e-02, 9.37500037e-03, 1.09374998e-02,
          7.81250000e-03, 1.09374998e-02, 1.40625006e-02, 6.25000009e-03,
          7.81250000e-03, 4.68750019e-03, 1.56250000e-02, 1.25000002e-02,
          6.25000009e-03, 1.09374998e-02, 2.34375000e-02, 2.03125011e-02,
          9.37500037e-03, 3.12500005e-03, 1.25000002e-02, 1.56250002e-03,
          9.37500037e-03, 1.25000002e-02, 9.37500037e-03, 1.71875004e-02,
          7.81250000e-03, 9.37500037e-03, 3.12500005e-03, 1.40625006e-02,
          6.25000009e-03, 2.03125011e-02, 1.71875004e-02, 1.09374998e-02,
          1.09374998e-02, 7.81250000e-03, 3.12500005e-03, 1.25000002e-02,
          1.40625006e-02, 1.71875004e-02, 7.81250000e-03, 4.68750019e-03,
          1.40625006e-02, 1.71875004e-02, 2.34375000e-02, 6.25000009e-03,
          1.56250002e-03, 2.03125011e-02, 1.56250002e-03, 4.68750019e-03,
          7.81250000e-03, 6.25000009e-03, 7.81250000e-03, 4.68750019e-03,
          1.09374998e-02, 2.03125011e-02, 1.71875004e-02, 6.25000009e-03,
          7.81250000e-03, 1.09374998e-02, 1.71875004e-02, 1.25000002e-02,
          7.81250000e-03, 3.12500005e-03, 4.68750019e-03, 6.25000009e-03,
          6.25000009e-03, 4.68750019e-03, 4.68750019e-03, 1.09374998e-02,
          4.68750019e-03, 1.09374998e-02, 2.34375000e-02, 1.09374998e-02 ]
      - [ 0., 0., 0., 2.06185561e-02, 1.54639166e-02, 5.15463902e-03,
          4.63917516e-02, 2.06185561e-02, 1.03092780e-02, 5.15463902e-03,
          0., 2.57731955e-02, 0., 5.15463902e-03, 1.03092780e-02,
          1.03092780e-02, 1.54639166e-02, 5.15463911e-02, 5.15463902e-03,
          2.06185561e-02, 0., 5.15463902e-03, 5.15463902e-03,
          2.57731955e-02, 0., 0., 0., 5.15463902e-03, 1.03092780e-02,
          1.03092780e-02, 5.15463902e-03, 1.54639166e-02, 5.15463902e-03,
          2.57731955e-02, 0., 2.06185561e-02, 0., 1.03092780e-02,
          5.15463902e-03, 0., 0., 0., 5.15463902e-03, 5.15463902e-03, 0.,
          5.15463902e-03, 1.54639166e-02, 2.06185561e-02, 2.06185561e-02,
          5.67010306e-02, 5.15463902e-03, 2.06185561e-02, 1.03092780e-02,
          0., 5.15463902e-03, 5.15463902e-03, 1.54639166e-02,
          2.06185561e-02, 0., 1.03092780e-02, 1.54639166e-02,
          2.57731955e-02, 1.03092780e-02, 0., 0., 0., 2.57731955e-02,
          3.60824727e-02, 2.06185561e-02, 1.54639166e-02, 0., 0.,
          5.15463902e-03, 0., 0., 2.06185561e-02, 2.57731955e-02,
          5.15463902e-03, 0., 1.54639166e-02, 0., 0., 0., 1.03092780e-02,
          0., 0., 5.15463902e-03, 5.15463902e-03, 1.54639166e-02,
          1.03092780e-02, 4.12371121e-02, 2.57731955e-02, 5.15463902e-03,
          0., 0., 0., 5.15463902e-03, 0., 5.15463902e-03, 1.03092780e-02 ]
      - [ 1.31578948e-02, 0., 2.30263155e-02, 1.64473690e-02,
          3.28947371e-03, 9.86842066e-03, 2.30263155e-02, 6.57894742e-03,
          3.28947371e-03, 3.28947371e-03, 0., 1.64473690e-02,
          1.64473690e-02, 1.31578948e-02, 6.57894742e-03, 2.63157897e-02,
          6.57894742e-03, 6.57894742e-03, 6.57894742e-03, 1.31578948e-02,
          3.28947371e-03, 9.86842066e-03, 1.64473690e-02, 6.57894742e-03,
          9.86842066e-03, 1.31578948e-02, 1.31578948e-02, 3.28947371e-03,
          0., 9.86842066e-03, 6.57894742e-03, 3.28947371e-03,
          6.57894742e-03, 9.86842066e-03, 0., 1.31578948e-02,
          3.28947371e-03, 1.64473690e-02, 9.86842066e-03, 9.86842066e-03,
          1.64473690e-02, 1.64473690e-02, 1.97368413e-02, 6.57894742e-03,
          0., 3.28947371e-03, 9.86842066e-03, 1.31578948e-02,
          6.57894742e-03, 7.23684207e-02, 0., 0., 1.64473690e-02,
          9.86842066e-03, 3.28947371e-03, 3.28947371e-03, 9.86842066e-03,
          6.57894742e-03, 0., 6.57894742e-03, 6.57894742e-03,
          6.57894742e-03, 9.86842066e-03, 1.64473690e-02, 0., 0.,
          2.30263155e-02, 6.57894742e-03, 6.57894742e-03, 1.31578948e-02,
          3.28947371e-03, 3.28947371e-03, 6.57894742e-03, 0.,
          3.28947371e-03, 6.57894742e-03, 3.28947380e-02, 1.31578948e-02,
          9.86842066e-03, 1.64473690e-02, 9.86842066e-03, 1.97368413e-02,
          9.86842066e-03, 0., 6.57894742e-03, 1.31578948e-02,
          3.28947371e-03, 3.28947371e-03, 6.57894742e-03, 6.57894742e-03,
          4.93421070e-02, 1.31578948e-02, 6.57894742e-03, 9.86842066e-03,
          1.64473690e-02, 3.28947371e-03, 3.28947371e-03, 3.28947371e-03,
          3.28947380e-02, 0. ]
      - [ 9.59692895e-03, 1.34357000e-02, 1.91938574e-03, 1.91938574e-03,
          1.15163140e-02, 1.15163140e-02, 1.91938579e-02, 7.67754298e-03,
          9.59692895e-03, 5.75815700e-03, 1.34357000e-02, 5.75815700e-03,
          7.67754298e-03, 5.75815700e-03, 7.67754298e-03, 1.72744710e-02,
          7.67754298e-03, 1.15163140e-02, 1.53550860e-02, 5.75815700e-03,
          9.59692895e-03, 3.83877149e-03, 2.11132430e-02, 7.67754298e-03,
          9.59692895e-03, 1.53550860e-02, 7.67754298e-03, 3.83877149e-03,
          9.59692895e-03, 7.67754298e-03, 1.53550860e-02, 1.72744710e-02,
          1.53550860e-02, 1.34357000e-02, 9.59692895e-03, 9.59692895e-03,
          5.75815700e-03, 0., 1.53550860e-02, 1.34357000e-02,
          1.34357000e-02, 1.91938574e-03, 9.59692895e-03, 1.34357000e-02,
          1.15163140e-02, 1.34357000e-02, 1.91938574e-03, 1.34357000e-02,
          7.67754298e-03, 1.15163140e-02, 0., 1.15163140e-02,
          7.67754298e-03, 9.59692895e-03, 5.75815700e-03, 7.67754298e-03,
          3.83877149e-03, 1.34357000e-02, 9.59692895e-03, 1.53550860e-02,
          1.34357000e-02, 1.34357000e-02, 7.67754298e-03, 9.59692895e-03,
          7.67754298e-03, 5.75815700e-03, 7.67754298e-03, 1.34357000e-02,
          1.34357000e-02, 1.53550860e-02, 1.34357000e-02, 3.83877149e-03,
          1.15163140e-02, 5.75815700e-03, 7.67754298e-03, 3.83877149e-03,
          5.75815700e-03, 9.59692895e-03, 1.34357000e-02, 1.53550860e-02,
          5.75815700e-03, 1.72744710e-02, 3.83877149e-03, 5.75815700e-03,
          5.75815700e-03, 1.72744710e-02, 9.59692895e-03, 1.34357000e-02,
          3.83877149e-03, 9.59692895e-03, 1.34357000e-02, 1.53550860e-02,
          1.15163140e-02, 9.59692895e-03, 1.15163140e-02, 5.75815700e-03,
          9.59692895e-03, 5.75815700e-03, 3.26295570e-02, 1.15163140e-02 ]
      - [ 1.24223605e-02, 3.10559012e-03, 3.10559012e-03, 2.79503111e-02,
          1.55279506e-02, 0., 3.10559012e-03, 9.31677036e-03,
          3.10559012e-03, 6.21118024e-03, 1.24223605e-02, 1.24223605e-02,
          3.10559012e-03, 9.31677036e-03, 9.31677036e-03, 6.21118024e-03,
          6.21118024e-03, 4.34782617e-02, 1.24223605e-02, 1.24223605e-02,
          9.31677036e-03, 6.21118024e-03, 1.55279506e-02, 2.48447210e-02,
          6.21118024e-03, 9.31677036e-03, 1.55279506e-02, 6.21118024e-03,
          3.10559012e-03, 6.21118024e-03, 0., 2.48447210e-02,
          1.86335407e-02, 0., 3.10559012e-03, 6.21118024e-03,
          3.10559012e-03, 3.10559012e-03, 6.21118024e-03, 9.31677036e-03,
          6.21118024e-03, 2.48447210e-02, 1.24223605e-02, 2.48447210e-02,
          1.24223605e-02, 2.17391308e-02, 1.24223605e-02, 0., 0., 0.,
          2.17391308e-02, 1.55279506e-02, 6.21118024e-03, 9.31677036e-03,
          1.55279506e-02, 6.21118024e-03, 6.21118024e-03, 6.21118024e-03,
          6.21118024e-03, 6.21118024e-03, 6.21118024e-03, 1.55279506e-02,
          9.31677036e-03, 3.10559012e-03, 9.31677036e-03, 2.17391308e-02,
          9.31677036e-03, 1.86335407e-02, 1.55279506e-02, 1.55279506e-02,
          1.86335407e-02, 6.21118024e-03, 3.10559012e-03, 9.31677036e-03,
          2.48447210e-02, 1.55279506e-02, 1.55279506e-02, 2.17391308e-02,
