%YAML:1.0
---
opencv_ml_svm:
   format: 3
   svmType: C_SVC
   kernel:
      type: CHI2
      gamma: 1.
   C: 100.
   term_criteria: { iterations:100 }
   var_count: 100
   class_count: 10
   class_labels: !!opencv-matrix
      rows: 10
      cols: 1
      dt: i
      data: [ 0, 1, 2, 3, 4, 5, 6, 7, 8, 9 ]
   sv_total: 150
   support_vectors:
      - [ 0., 3.27868834e-02, 2.45901626e-02, 1.63934417e-02, 0.,
          1.63934417e-02, 3.27868834e-02, 0., 3.27868834e-02,
          1.63934417e-02, 8.19672085e-03, 8.19672085e-03, 8.19672085e-03,
          0., 8.19672085e-03, 8.19672085e-03, 8.19672085e-03, 0.,
          1.63934417e-02, 0., 8.19672085e-03, 8.19672085e-03, 0., 0., 0.,
          4.09836024e-02, 0., 3.27868834e-02, 1.63934417e-02, 0., 0., 0.,
          8.19672085e-03, 8.19672085e-03, 8.19672085e-03, 0., 0., 0.,
          1.63934417e-02, 8.19672085e-03, 0., 8.19672085e-03,
          8.19672085e-03, 1.63934417e-02, 0., 0., 3.27868834e-02, 0., 0.,
          8.19672085e-03, 0., 3.27868834e-02, 8.19672085e-03, 0., 0., 0.,
          0., 1.63934417e-02, 0., 0., 1.63934417e-02, 2.45901626e-02,
          8.19672085e-03, 1.63934417e-02, 0., 1.63934417e-02,
          8.19672085e-03, 4.91803251e-02, 8.19672085e-03, 4.09836024e-02,
          0., 0., 0., 1.63934417e-02, 8.19672085e-03, 0., 0.,
          1.63934417e-02, 4.09836024e-02, 0., 1.63934417e-02, 0.,
          3.27868834e-02, 2.45901626e-02, 8.19672085e-03, 1.63934417e-02,
          1.63934417e-02, 1.63934417e-02, 2.45901626e-02, 8.19672085e-03,
          0., 0., 1.63934417e-02, 8.19672085e-03, 0., 8.19672085e-03, 0.,
          0., 8.19672085e-03, 0. ]
      - [ 1.63934417e-02, 2.73224041e-02, 5.46448072e-03, 0., 0., 0.,
          5.46448072e-03, 0., 1.63934417e-02, 3.27868834e-02, 0.,
          1.63934417e-02, 0., 0., 5.46448072e-03, 5.46448072e-03,
          2.73224041e-02, 1.09289614e-02, 0., 0., 0., 0., 5.46448072e-03,
          9.28961709e-02, 3.82513665e-02, 2.18579229e-02, 0.,
          5.46448072e-03, 0., 2.18579229e-02, 1.09289614e-02,
          5.46448072e-03, 0., 1.63934417e-02, 1.09289614e-02, 0., 0.,
          5.46448072e-03, 5.46448072e-03, 1.63934417e-02, 5.46448072e-03,
          5.46448072e-03, 0., 5.46448072e-03, 0., 0., 0., 1.63934417e-02,
          2.18579229e-02, 5.46448072e-03, 0., 1.09289614e-02,
          5.46448072e-03, 0., 5.46448072e-03, 0., 5.46448072e-03,
          2.18579229e-02, 0., 0., 1.63934417e-02, 5.46448072e-03, 0.,
          1.03825137e-01, 5.46448072e-03, 5.46448072e-03, 5.46448072e-03,
          1.63934417e-02, 0., 5.46448072e-03, 3.82513665e-02,
          5.46448072e-03, 5.46448082e-02, 1.63934417e-02, 5.46448072e-03,
          3.27868834e-02, 0., 2.73224041e-02, 0., 5.46448072e-03,
          1.09289614e-02, 0., 0., 3.27868834e-02, 5.46448072e-03, 0.,
          1.63934417e-02, 0., 0., 0., 5.46448072e-03, 0., 0.,
          1.09289614e-02, 5.46448072e-03, 1.63934417e-02, 5.46448072e-03,
          0., 5.46448072e-03, 0. ]
      - [ 7.14285718e-03, 1.07142860e-02, 0., 3.57142859e-03,
          7.14285718e-03, 3.57142859e-03, 1.42857144e-02, 2.14285720e-02,
          7.14285718e-03, 3.57142859e-03, 1.07142860e-02, 1.78571437e-02,
          7.14285718e-03, 3.57142859e-03, 1.78571437e-02, 3.57142859e-03,
          0., 2.14285720e-02, 3.57142859e-03, 0., 1.07142860e-02,
          3.57142859e-03, 2.50000004e-02, 1.07142860e-02, 7.14285718e-03,
          1.78571437e-02, 7.14285718e-03, 1.78571437e-02, 0.,
          1.78571437e-02, 0., 0., 7.14285718e-03, 1.42857144e-02,
          1.07142860e-02, 7.14285718e-03, 7.14285718e-03, 3.57142859e-03,
          0., 7.14285718e-03, 4.64285724e-02, 3.57142859e-03,
          1.07142860e-02, 1.07142860e-02, 1.07142860e-02, 7.14285718e-03,
          0., 2.85714287e-02, 1.42857144e-02, 3.57142859e-03, 0.,
          7.14285718e-03, 7.14285718e-03, 3.57142859e-03, 1.42857144e-02,
          7.14285718e-03, 2.50000004e-02, 7.14285718e-03, 3.57142859e-03,
          7.14285718e-03, 1.42857144e-02, 1.42857144e-02, 3.57142859e-03,
          3.57142873e-02, 1.07142860e-02, 1.42857144e-02, 2.14285720e-02,
          1.78571437e-02, 1.42857144e-02, 1.07142860e-02, 3.57142859e-03,
          1.42857144e-02, 1.78571437e-02, 3.57142859e-03, 1.42857144e-02,
          3.57142859e-03, 1.42857144e-02, 3.57142859e-03, 3.57142859e-03,
          1.42857144e-02, 1.78571437e-02, 1.07142860e-02, 1.07142860e-02,
          1.07142860e-02, 1.78571437e-02, 1.07142860e-02, 1.07142860e-02,
          7.14285718e-03, 1.07142860e-02, 3.92857157e-02, 1.07142860e-02,
          0., 3.57142859e-03, 0., 1.07142860e-02, 3.57142859e-03,
          1.07142860e-02, 3.57142859e-03, 0., 3.57142859e-03 ]
      - [ 1.27659570e-02, 0., 2.97872331e-02, 0., 0., 0., 4.25531901e-03,
          4.25531901e-03, 8.51063803e-03, 8.51063803e-03, 4.25531901e-03,
          1.70212761e-02, 0., 0., 4.25531901e-03, 4.25531901e-03,
          1.27659570e-02, 0., 0., 3.40425521e-02, 8.51063803e-03,
          3.40425521e-02, 8.51063803e-03, 4.68085110e-02, 2.55319141e-02,
          1.70212761e-02, 4.25531901e-03, 1.70212761e-02, 4.25531901e-03,
          1.27659570e-02, 0., 0., 0., 8.51063803e-03, 4.25531901e-03,
          2.12765951e-02, 4.25531901e-03, 8.51063803e-03, 1.70212761e-02,
          0., 1.27659570e-02, 4.25531901e-03, 4.25531901e-03,
          8.51063803e-03, 0., 0., 0., 0., 8.51063803e-03, 1.27659570e-02,
          0., 2.12765951e-02, 4.25531901e-03, 1.27659570e-02, 0.,
          8.51063803e-03, 1.27659570e-02, 2.97872331e-02, 4.25531901e-03,
          0., 4.25531901e-03, 4.25531901e-03, 4.25531901e-03,
          8.51063803e-03, 0., 4.25531901e-03, 8.51063803e-03,
          8.51063803e-03, 0., 0., 2.12765951e-02, 8.51063803e-03,
          3.82978693e-02, 2.55319141e-02, 4.25531901e-03, 8.51063803e-03,
          8.93616974e-02, 8.51063803e-03, 8.51063803e-03, 6.38297871e-02,
          4.25531901e-03, 8.51063803e-03, 4.25531901e-02, 0.,
          1.27659570e-02, 0., 0., 4.25531901e-03, 4.25531901e-03, 0.,
          1.27659570e-02, 8.51063803e-03, 4.25531901e-03, 0., 0.,
          2.12765951e-02, 4.25531901e-03, 4.25531901e-03, 4.25531901e-03,
          1.27659570e-02 ]
      - [ 1.09890113e-02, 0., 1.09890113e-02, 0., 0., 4.39560451e-02, 0.,
          0., 0., 0., 0., 0., 0., 0., 0., 0., 1.09890113e-02, 0., 0., 0.,
          1.09890113e-02, 2.19780225e-02, 0., 1.09890111e-01,
          1.09890113e-02, 0., 0., 4.39560451e-02, 0., 7.69230798e-02, 0.,
          0., 0., 0., 0., 2.19780225e-02, 1.09890113e-02, 0., 0., 0., 0.,
          0., 0., 0., 1.09890113e-02, 0., 3.29670347e-02, 0.,
          2.19780225e-02, 0., 0., 4.39560451e-02, 0., 0., 0., 0., 0.,
          6.59340695e-02, 0., 0., 2.19780225e-02, 0., 0., 0.,
          2.19780225e-02, 0., 2.19780225e-02, 3.29670347e-02, 0., 0.,
          1.09890111e-01, 0., 6.59340695e-02, 1.09890113e-02,
          1.09890113e-02, 1.09890113e-02, 2.19780225e-02, 0.,
          2.19780225e-02, 2.19780225e-02, 0., 0., 0., 0., 0., 0.,
          2.19780225e-02, 0., 0., 1.09890113e-02, 0., 0., 0., 0., 0.,
          3.29670347e-02, 0., 0., 0., 0. ]
      - [ 2.98507456e-02, 0., 1.49253728e-02, 0., 1.49253728e-02, 0.,
          2.98507456e-02, 0., 1.49253728e-02, 0., 4.47761193e-02, 0., 0.,
          0., 0., 0., 0., 1.49253728e-02, 1.49253728e-02, 2.98507456e-02,
          2.98507456e-02, 1.49253728e-02, 0., 0., 1.49253728e-02, 0., 0.,
          0., 0., 0., 0., 0., 0., 0., 1.49253728e-02, 0., 0., 0., 0.,
          1.49253728e-02, 0., 0., 0., 0., 0., 0., 1.49253728e-02, 0.,
          2.98507456e-02, 0., 0., 1.49253728e-02, 0., 0., 0., 0., 0.,
          4.47761193e-02, 1.49253728e-02, 0., 0., 4.47761193e-02, 0., 0.,
          0., 1.49253728e-02, 0., 0., 0., 1.49253728e-02, 8.95522386e-02,
          1.49253728e-02, 2.98507456e-02, 1.49253728e-02, 0.,
          2.98507456e-02, 1.19402982e-01, 4.47761193e-02, 0.,
          2.98507456e-02, 0., 0., 0., 0., 2.98507456e-02, 0., 0., 0.,
          1.49253728e-02, 0., 1.49253728e-02, 1.49253728e-02, 0., 0., 0.,
          2.98507456e-02, 0., 0., 2.98507456e-02, 0. ]
      - [ 4.20168079e-02, 0., 8.40336177e-03, 0., 0., 8.40336177e-03,
          8.40336177e-03, 0., 1.68067235e-02, 8.40336177e-03, 0., 0., 0.,
          0., 8.40336177e-03, 1.68067235e-02, 8.40336177e-03, 0.,
          8.40336177e-03, 8.40336177e-03, 0., 1.68067235e-02, 0.,
          5.88235334e-02, 8.40336177e-03, 1.68067235e-02, 0.,
          3.36134471e-02, 1.68067235e-02, 3.36134471e-02, 3.36134471e-02,
          0., 0., 8.40336177e-03, 0., 8.40336177e-03, 1.68067235e-02, 0.,
          8.40336177e-03, 8.40336177e-03, 0., 0., 0., 0., 0., 0., 0., 0.,
          1.68067235e-02, 2.52100863e-02, 0., 2.52100863e-02, 0.,
          8.40336177e-03, 8.40336177e-03, 0., 0., 5.04201725e-02,
          8.40336177e-03, 0., 0., 5.04201725e-02, 0., 3.36134471e-02, 0.,
          8.40336177e-03, 0., 4.20168079e-02, 0., 0., 4.20168079e-02,
          1.68067235e-02, 9.24369767e-02, 0., 0., 2.52100863e-02, 0.,
          1.68067235e-02, 0., 8.40336177e-03, 1.68067235e-02, 0.,
          8.40336177e-03, 8.40336177e-03, 0., 0., 0., 0., 0.,
          8.40336177e-03, 0., 0., 0., 2.52100863e-02, 0., 1.68067235e-02,
          0., 0., 8.40336177e-03, 1.68067235e-02 ]
      - [ 0., 1.07526882e-02, 1.07526882e-02, 1.07526882e-02, 0.,
          1.07526882e-02, 0., 0., 0., 9.67741907e-02, 0., 2.15053763e-02,
          0., 0., 1.07526882e-02, 3.22580636e-02, 0., 0., 1.07526882e-02,
          3.22580636e-02, 0., 3.22580636e-02, 0., 0., 0., 4.30107526e-02,
          0., 2.15053763e-02, 0., 4.30107526e-02, 1.07526882e-02, 0., 0.,
          0., 0., 1.07526882e-02, 0., 0., 1.07526882e-02, 0., 0., 0., 0.,
          1.07526882e-02, 0., 1.07526882e-02, 1.07526882e-02, 0.,
          5.37634417e-02, 1.07526882e-02, 0., 5.37634417e-02, 0.,
          1.07526882e-02, 0., 1.07526882e-02, 1.07526882e-02,
          1.07526882e-02, 1.07526882e-02, 0., 2.15053763e-02, 0.,
          1.07526882e-02, 1.07526882e-02, 1.07526882e-02, 0., 0.,
          2.15053763e-02, 0., 0., 1.07526882e-02, 1.07526882e-02,
          2.15053763e-02, 1.07526882e-02, 1.07526882e-02, 3.22580636e-02,
          3.22580636e-02, 2.15053763e-02, 1.07526882e-02, 0., 0., 0., 0.,
          1.07526882e-02, 0., 0., 0., 0., 1.07526882e-02, 1.07526882e-02,
          1.07526882e-02, 2.15053763e-02, 0., 1.07526882e-02,
          1.07526882e-02, 1.07526882e-02, 0., 1.07526882e-02,
          3.22580636e-02, 0. ]
      - [ 3.05343512e-02, 7.63358781e-03, 1.52671756e-02, 7.63358781e-03,
          0., 1.52671756e-02, 7.63358781e-03, 0., 7.63358781e-03,
          7.63358781e-03, 0., 7.63358781e-03, 0., 0., 0., 2.29007639e-02,
          0., 0., 7.63358781e-03, 3.81679386e-02, 0., 0., 3.81679386e-02,
          4.58015278e-02, 0., 0., 7.63358781e-03, 5.34351133e-02,
          1.52671756e-02, 7.63358781e-03, 0., 0., 0., 0., 0.,
          3.05343512e-02, 0., 0., 0., 3.81679386e-02, 7.63358781e-03, 0.,
          0., 0., 0., 0., 7.63358781e-03, 0., 7.63358781e-03,
          2.29007639e-02, 0., 3.05343512e-02, 0., 1.52671756e-02,
          7.63358781e-03, 0., 7.63358781e-03, 4.58015278e-02, 0., 0., 0.,
          3.81679386e-02, 0., 2.29007639e-02, 1.52671756e-02, 0.,
          7.63358781e-03, 0., 0., 0., 6.87022880e-02, 0., 9.92366448e-02,
          0., 0., 7.63358781e-03, 3.81679386e-02, 2.29007639e-02,
          7.63358781e-03, 0., 1.52671756e-02, 0., 1.52671756e-02, 0., 0.,
          0., 1.52671756e-02, 0., 1.52671756e-02, 0., 0., 0., 0.,
          7.63358781e-03, 0., 1.52671756e-02, 0., 0., 2.29007639e-02, 0. ]
      - [ 0., 2.23463681e-02, 2.79329605e-02, 1.11731840e-02, 0.,
          1.11731840e-02, 0., 0., 2.23463681e-02, 2.79329605e-02,
          1.11731840e-02, 1.11731840e-02, 5.58659201e-03, 0.,
          1.11731840e-02, 0., 1.11731840e-02, 1.67597756e-02,
          5.58659201e-03, 0., 2.23463681e-02, 0., 5.58659201e-03, 0.,
          2.79329605e-02, 1.67597756e-02, 1.11731840e-02, 5.58659201e-03,
          2.23463681e-02, 1.67597756e-02, 5.58659201e-03, 1.11731840e-02,
          5.02793267e-02, 4.46927361e-02, 5.58659201e-03, 4.46927361e-02,
          5.58659201e-03, 0., 5.58659201e-03, 3.91061455e-02, 0.,
          1.67597756e-02, 1.11731840e-02, 1.11731840e-02, 5.58659201e-03,
          0., 5.58659201e-03, 0., 5.58659201e-03, 0., 5.58659201e-03, 0.,
          5.58659201e-03, 1.11731840e-02, 1.67597756e-02, 0.,
          5.58659201e-03, 1.67597756e-02, 0., 0., 1.11731840e-02,
          5.58659201e-03, 1.11731840e-02, 5.58659201e-03, 5.58659201e-03,
          5.58659201e-03, 2.23463681e-02, 0., 0., 3.35195512e-02,
          5.58659201e-03, 2.79329605e-02, 5.58659201e-03, 0.,
          5.58659201e-03, 1.11731840e-02, 0., 0., 5.58659201e-03,
          5.58659201e-03, 2.23463681e-02, 0., 5.58659201e-03,
          1.67597756e-02, 1.67597756e-02, 0., 1.11731840e-02,
          5.58659201e-03, 1.67597756e-02, 0., 1.11731840e-02, 0.,
          1.11731840e-02, 2.23463681e-02, 1.11731840e-02, 5.58659201e-03,
          1.11731840e-02, 5.58659201e-03, 0., 5.58659201e-03 ]
      - [ 6.87022880e-02, 7.63358781e-03, 0., 0., 0., 7.63358781e-03,
          3.81679386e-02, 0., 3.81679386e-02, 7.63358781e-03, 0., 0.,
          1.52671756e-02, 7.63358781e-03, 0., 0., 3.05343512e-02,
          7.63358781e-03, 1.52671756e-02, 0., 2.29007639e-02,
          7.63358781e-03, 0., 4.58015278e-02, 1.52671756e-02,
          1.52671756e-02, 0., 7.63358781e-03, 0., 1.52671756e-02, 0., 0.,
          0., 7.63358781e-03, 0., 3.05343512e-02, 0., 6.87022880e-02,
          7.63358781e-03, 0., 7.63358781e-03, 0., 0., 7.63358781e-03, 0.,
          0., 0., 0., 2.29007639e-02, 0., 7.63358781e-03, 2.29007639e-02,
          0., 0., 0., 0., 0., 4.58015278e-02, 0., 0., 0., 2.29007639e-02,
          7.63358781e-03, 2.29007639e-02, 3.81679386e-02, 1.52671756e-02,
          7.63358781e-03, 2.29007639e-02, 0., 0., 3.81679386e-02,
          1.52671756e-02, 1.52671756e-02, 0., 0., 0., 0., 7.63358781e-03,
          7.63358781e-03, 7.63358781e-03, 1.52671756e-02, 7.63358781e-03,
          7.63358781e-03, 1.52671756e-02, 0., 7.63358781e-03,
          7.63358781e-03, 0., 1.52671756e-02, 0., 0., 0., 0.,
          7.63358781e-03, 0., 3.05343512e-02, 2.29007639e-02,
          1.52671756e-02, 7.63358781e-03, 7.63358781e-03 ]
      - [ 1.52284261e-02, 1.01522841e-02, 5.07614203e-03, 0.,
          5.07614203e-03, 0., 2.03045681e-02, 5.07614203e-03,
          1.01522841e-02, 0., 0., 1.52284261e-02, 1.01522841e-02,
          1.52284261e-02, 5.07614203e-03, 0., 1.52284261e-02,
          5.07614203e-03, 1.01522841e-02, 2.53807101e-02, 2.53807101e-02,
          5.07614203e-03, 5.07614203e-03, 3.04568522e-02, 3.55329961e-02,
          1.52284261e-02, 1.01522841e-02, 3.04568522e-02, 2.03045681e-02,
          1.52284261e-02, 1.52284261e-02, 5.07614203e-03, 0.,
          2.03045681e-02, 1.52284261e-02, 0., 0., 5.07614203e-03,
          5.07614203e-03, 1.52284261e-02, 1.01522841e-02, 5.07614203e-03,
          1.01522841e-02, 1.01522841e-02, 0., 5.07614203e-03, 0.,
          1.52284261e-02, 2.53807101e-02, 1.52284261e-02, 0.,
          2.03045681e-02, 5.07614203e-03, 0., 1.01522841e-02, 0., 0.,
          1.01522841e-02, 0., 5.07614203e-03, 2.03045681e-02,
          2.03045681e-02, 0., 4.56852764e-02, 1.52284261e-02,
          1.01522841e-02, 0., 2.03045681e-02, 0., 5.07614203e-03,
          1.01522841e-02, 0., 5.58375642e-02, 2.53807101e-02,
          5.07614203e-03, 2.03045681e-02, 5.07614203e-03, 1.01522841e-02,
          5.07614203e-03, 0., 0., 5.07614203e-03, 0., 0., 1.01522841e-02,
          1.01522841e-02, 1.52284261e-02, 0., 1.01522841e-02,
          1.01522841e-02, 0., 0., 0., 1.01522841e-02, 0., 1.52284261e-02,
          3.55329961e-02, 5.07614203e-03, 5.07614203e-03, 0. ]
      - [ 0., 1.09890113e-02, 0., 1.09890113e-02, 0., 0., 4.39560451e-02,
          0., 4.39560451e-02, 0., 0., 1.09890113e-02, 1.09890113e-02, 0.,
          0., 1.09890113e-02, 3.29670347e-02, 2.19780225e-02, 0., 0.,
          2.19780225e-02, 0., 0., 6.59340695e-02, 0., 4.39560451e-02, 0.,
          0., 0., 0., 0., 0., 0., 3.29670347e-02, 0., 2.19780225e-02,
          1.09890113e-02, 0., 0., 1.09890113e-02, 1.09890113e-02, 0., 0.,
          2.19780225e-02, 0., 0., 1.09890113e-02, 0., 1.09890113e-02,
          2.19780225e-02, 0., 1.09890113e-02, 0., 0., 0., 0., 0.,
          1.09890113e-02, 0., 0., 2.19780225e-02, 0., 0., 1.31868139e-01,
          3.29670347e-02, 0., 1.09890113e-02, 1.09890113e-02, 0.,
          1.09890113e-02, 6.59340695e-02, 0., 3.29670347e-02, 0., 0., 0.,
          4.39560451e-02, 0., 0., 0., 0., 0., 3.29670347e-02,
          2.19780225e-02, 1.09890113e-02, 0., 0., 0., 3.29670347e-02, 0.,
          0., 0., 0., 0., 0., 2.19780225e-02, 0., 0., 1.09890113e-02, 0. ]
      - [ 8.84955749e-03, 0., 4.42477874e-02, 0., 0., 1.76991150e-02,
          8.84955749e-03, 0., 0., 1.76991150e-02, 0., 8.84955749e-03,
          8.84955749e-03, 0., 8.84955749e-03, 0., 1.76991150e-02,
          8.84955749e-03, 1.76991150e-02, 0., 0., 3.53982300e-02,
          3.53982300e-02, 1.76991150e-02, 0., 1.76991150e-02, 0.,
          8.84955749e-03, 1.76991150e-02, 2.65486725e-02, 0., 0., 0.,
          1.76991150e-02, 0., 8.84955749e-03, 0., 0., 0., 8.84955749e-03,
          1.76991150e-02, 8.84955749e-03, 0., 8.84955749e-03, 0., 0., 0.,
          0., 2.65486725e-02, 0., 2.65486725e-02, 1.76991150e-02,
          8.84955749e-03, 0., 0., 8.84955749e-03, 0., 3.53982300e-02, 0.,
          8.84955749e-03, 1.76991150e-02, 1.76991150e-02, 0., 0.,
          1.76991150e-02, 0., 3.53982300e-02, 2.65486725e-02, 0.,
          8.84955749e-03, 5.30973449e-02, 0., 2.65486725e-02,
          1.76991150e-02, 0., 1.76991150e-02, 6.19469024e-02, 0., 0.,
          1.76991150e-02, 0., 8.84955749e-03, 2.65486725e-02, 0., 0., 0.,
          1.76991150e-02, 0., 1.76991150e-02, 8.84955749e-03,
          8.84955749e-03, 0., 0., 8.84955749e-03, 0., 2.65486725e-02,
          2.65486725e-02, 0., 0., 0. ]
      - [ 1.25000002e-02, 0., 2.50000004e-02, 0., 0., 1.25000002e-02,
          1.25000002e-02, 0., 6.25000000e-02, 0., 0., 0., 1.25000002e-02,
          1.25000002e-02, 0., 0., 3.75000015e-02, 0., 7.50000030e-02, 0.,
          2.50000004e-02, 2.50000004e-02, 0., 0., 3.75000015e-02, 0.,
          1.25000002e-02, 0., 1.25000002e-02, 0., 2.50000004e-02, 0., 0.,
          1.25000002e-02, 0., 2.50000004e-02, 0., 0., 0., 0., 0., 0., 0.,
          1.25000002e-02, 0., 0., 0., 1.25000002e-02, 2.50000004e-02, 0.,
          1.25000002e-02, 3.75000015e-02, 0., 0., 0., 0., 0.,
          1.25000002e-02, 0., 0., 0., 1.25000002e-02, 0., 1.25000002e-02,
          0., 1.25000002e-02, 2.50000004e-02, 1.25000002e-02, 0., 0.,
          5.00000007e-02, 0., 0., 1.25000002e-02, 2.50000004e-02,
          3.75000015e-02, 1.25000002e-02, 2.50000004e-02, 3.75000015e-02,
          0., 1.25000002e-02, 0., 0., 0., 1.25000002e-02, 0.,
          3.75000015e-02, 0., 0., 3.75000015e-02, 0., 1.25000002e-02, 0.,
          0., 0., 2.50000004e-02, 0., 1.25000002e-02, 1.25000002e-02,
          1.25000002e-02 ]
      - [ 2.30946881e-03, 2.30946881e-03, 3.92609686e-02, 6.92840666e-03,
          2.30946881e-03, 2.30946881e-03, 0., 1.15473438e-02,
          1.61662810e-02, 2.30946881e-03, 9.23787523e-03, 0.,
          2.30946876e-02, 9.23787523e-03, 6.92840666e-03, 2.30946881e-03,
          2.30946881e-03, 0., 4.61893762e-03, 6.92840666e-03,
          2.07852200e-02, 0., 4.61893762e-03, 2.07852200e-02,
          1.84757505e-02, 9.23787523e-03, 9.23787523e-03, 2.30946881e-03,
          1.38568133e-02, 6.92840666e-03, 4.61893762e-03, 2.30946881e-03,
          2.54041571e-02, 2.30946876e-02, 3.23325619e-02, 1.38568133e-02,
          1.15473438e-02, 2.30946881e-03, 9.23787523e-03, 2.07852200e-02,
          2.30946881e-03, 9.23787523e-03, 3.46420333e-02, 6.92840666e-03,
          6.92840666e-03, 6.92840666e-03, 1.38568133e-02, 0.,
          2.30946881e-03, 9.23787523e-03, 1.38568133e-02, 0.,
          2.54041571e-02, 1.38568133e-02, 1.38568133e-02, 4.61893762e-03,
          1.84757505e-02, 4.61893762e-03, 9.23787523e-03, 0.,
          2.30946881e-03, 0., 6.92840666e-03, 0., 1.38568133e-02,
          1.61662810e-02, 2.07852200e-02, 2.30946881e-03, 1.38568133e-02,
          4.38799076e-02, 0., 1.61662810e-02, 1.15473438e-02, 0.,
          1.61662810e-02, 9.23787523e-03, 2.30946881e-03, 1.15473438e-02,
          1.84757505e-02, 2.30946881e-03, 1.61662810e-02, 4.61893762e-03,
          0., 2.77136266e-02, 0., 6.92840666e-03, 1.61662810e-02,
          6.92840666e-03, 1.38568133e-02, 1.15473438e-02, 1.61662810e-02,
          1.15473438e-02, 1.15473438e-02, 1.15473438e-02, 4.61893762e-03,
          1.61662810e-02, 2.30946881e-03, 4.61893762e-03, 6.92840666e-03,
          4.61893762e-03 ]
      - [ 3.31125828e-03, 8.27814545e-03, 8.27814545e-03, 8.27814545e-03,
          1.15894042e-02, 1.65562914e-03, 1.65562914e-03, 2.15231795e-02,
          1.82119198e-02, 1.65562909e-02, 6.62251655e-03, 3.31125828e-03,
          0., 4.96688765e-03, 1.32450331e-02, 3.31125828e-03,
          1.65562914e-03, 4.96688765e-03, 1.82119198e-02, 3.31125828e-03,
          1.49006620e-02, 4.96688765e-03, 8.27814545e-03, 6.62251655e-03,
          1.98675506e-02, 6.62251655e-03, 2.31788084e-02, 1.15894042e-02,
          6.62251655e-03, 3.31125828e-03, 1.32450331e-02, 1.65562914e-03,
          1.65562909e-02, 1.49006620e-02, 2.48344373e-02, 4.96688765e-03,
          1.65562914e-03, 1.65562914e-03, 1.98675506e-02, 1.98675506e-02,
          9.93377529e-03, 4.96688765e-03, 1.49006620e-02, 1.82119198e-02,
          1.82119198e-02, 4.96688765e-03, 1.32450331e-02, 1.65562909e-02,
          3.31125828e-03, 8.27814545e-03, 1.49006620e-02, 4.96688765e-03,
          1.32450331e-02, 1.98675506e-02, 1.32450331e-02, 9.93377529e-03,
          1.98675506e-02, 1.15894042e-02, 1.49006620e-02, 9.93377529e-03,
          1.65562914e-03, 8.27814545e-03, 2.48344373e-02, 3.31125828e-03,
          0., 1.49006620e-02, 3.31125828e-03, 4.96688765e-03,
          8.27814545e-03, 1.82119198e-02, 6.62251655e-03, 1.98675506e-02,
          9.93377529e-03, 4.96688765e-03, 1.98675506e-02, 8.27814545e-03,
          0., 8.27814545e-03, 1.49006620e-02, 3.31125828e-03,
          1.65562914e-03, 4.96688765e-03, 1.65562914e-03, 1.82119198e-02,
          6.62251655e-03, 4.96688765e-03, 2.15231795e-02, 1.49006620e-02,
          1.32450331e-02, 1.32450331e-02, 1.15894042e-02, 1.65562914e-03,
          4.96688765e-03, 1.15894042e-02, 1.65562909e-02, 6.62251655e-03,
          9.93377529e-03, 1.15894042e-02, 3.31125828e-03, 8.27814545e-03 ]
      - [ 0., 2.23713648e-03, 5.14541380e-02, 8.94854590e-03,
          8.94854590e-03, 2.23713648e-03, 0., 2.23713648e-03,
          2.23713648e-03, 1.78970918e-02, 8.94854590e-03, 8.94854590e-03,
          6.71140943e-03, 2.23713648e-03, 6.71140943e-03, 2.23713648e-03,
          1.11856824e-02, 0., 2.23713648e-03, 2.23713648e-03,
          2.01342292e-02, 2.23713648e-03, 1.56599544e-02, 2.23713648e-03,
          2.46085003e-02, 1.56599544e-02, 1.34228189e-02, 2.23713648e-02,
          2.23713648e-02, 2.23713648e-03, 6.71140943e-03, 0.,
          2.01342292e-02, 8.94854590e-03, 1.34228189e-02, 1.78970918e-02,
          2.23713648e-03, 2.23713648e-03, 1.34228189e-02, 8.94854590e-03,
          4.47427295e-03, 8.94854590e-03, 1.56599544e-02, 2.23713648e-03,
          6.71140943e-03, 0., 1.56599544e-02, 8.94854590e-03,
          1.11856824e-02, 8.94854590e-03, 2.46085003e-02, 1.11856824e-02,
          2.23713648e-02, 6.71140943e-03, 1.11856824e-02, 2.23713648e-03,
          2.68456377e-02, 1.56599544e-02, 1.56599544e-02, 2.23713648e-03,
          2.23713648e-03, 2.23713648e-03, 1.56599544e-02, 1.34228189e-02,
          0., 0., 8.94854590e-03, 2.23713648e-03, 6.71140943e-03,
          1.34228189e-02, 4.47427295e-03, 1.11856824e-02, 6.71140943e-03,
          0., 1.56599544e-02, 4.47427295e-03, 2.23713648e-03,
          6.71140943e-03, 8.94854590e-03, 0., 1.11856824e-02, 0., 0.,
          3.57941836e-02, 0., 2.23713648e-03, 8.94854590e-03,
          1.34228189e-02, 3.35570462e-02, 6.71140943e-03, 2.23713648e-02,
          1.11856824e-02, 1.78970918e-02, 1.56599544e-02, 2.01342292e-02,
          3.57941836e-02, 1.34228189e-02, 4.47427295e-03, 1.56599544e-02,
          2.23713648e-03 ]
      - [ 4.86618001e-03, 0., 2.67639905e-02, 1.45985400e-02,
          1.21654496e-02, 2.43309001e-03, 0., 1.70316305e-02,
          1.45985400e-02, 4.86618001e-03, 7.29927002e-03, 2.43309001e-03,
          1.70316305e-02, 4.86618001e-03, 1.45985400e-02, 0.,
          2.43309001e-03, 7.29927002e-03, 0., 2.43309001e-03,
          2.43309001e-03, 4.86618001e-03, 9.73236002e-03, 1.45985400e-02,
          1.45985400e-02, 1.21654496e-02, 2.67639905e-02, 4.86618001e-03,
          1.45985400e-02, 4.86618001e-03, 7.29927002e-03, 0.,
          3.89294401e-02, 9.73236002e-03, 1.21654496e-02, 4.86618001e-03,
          4.86618001e-03, 2.43309001e-03, 9.73236002e-03, 2.43309001e-03,
          0., 7.29927002e-03, 4.37956192e-02, 4.86618001e-03,
          1.94647200e-02, 0., 0., 1.21654496e-02, 7.29927002e-03,
          7.29927002e-03, 2.67639905e-02, 9.73236002e-03, 0.,
          1.21654496e-02, 1.21654496e-02, 2.43309001e-03, 1.45985400e-02,
          1.45985400e-02, 9.73236002e-03, 7.29927002e-03, 2.43309001e-03,
          4.86618001e-03, 9.73236002e-03, 2.43309001e-03, 9.73236002e-03,
          1.45985400e-02, 1.45985400e-02, 4.86618001e-03, 1.70316305e-02,
          3.89294401e-02, 2.43309001e-03, 1.45985400e-02, 7.29927002e-03,
          0., 2.43308991e-02, 9.73236002e-03, 0., 2.43309001e-03,
          4.86618001e-03, 0., 2.18978096e-02, 0., 0., 3.40632610e-02,
          2.43309001e-03, 4.86618001e-03, 1.45985400e-02, 7.29927002e-03,
          4.13625315e-02, 7.29927002e-03, 9.73236002e-03, 7.29927002e-03,
          1.70316305e-02, 2.18978096e-02, 1.21654496e-02, 1.70316305e-02,
          7.29927002e-03, 0., 4.86618001e-03, 1.45985400e-02 ]
      - [ 2.34741787e-03, 4.69483575e-03, 3.05164326e-02, 1.40845068e-02,
          7.04225339e-03, 9.38967150e-03, 0., 2.58215964e-02,
          1.40845068e-02, 4.69483575e-03, 4.69483575e-03, 2.34741787e-03,
          4.69483575e-03, 2.34741792e-02, 7.04225339e-03, 4.69483575e-03,
          9.38967150e-03, 4.69483575e-03, 4.69483575e-03, 0.,
          1.40845068e-02, 4.69483575e-03, 7.04225339e-03, 4.69483575e-03,
          1.17370896e-02, 1.87793430e-02, 7.04225339e-03, 2.34741792e-02,
          0., 4.69483575e-03, 4.69483575e-03, 0., 1.87793430e-02,
          9.38967150e-03, 2.11267602e-02, 1.87793430e-02, 9.38967150e-03,
          2.34741787e-03, 1.17370896e-02, 7.04225339e-03, 4.69483575e-03,
          7.04225339e-03, 2.34741792e-02, 2.34741787e-03, 4.69483575e-03,
          0., 1.64319258e-02, 0., 1.17370896e-02, 4.69483575e-03,
          1.17370896e-02, 2.81690136e-02, 1.40845068e-02, 7.04225339e-03,
          4.69483575e-03, 4.69483575e-03, 7.04225339e-03, 9.38967150e-03,
          1.17370896e-02, 0., 0., 7.04225339e-03, 7.04225339e-03, 0.,
          7.04225339e-03, 9.38967150e-03, 7.04225339e-03, 1.40845068e-02,
          2.34741787e-03, 5.39906099e-02, 2.34741787e-03, 2.11267602e-02,
          1.40845068e-02, 0., 2.81690136e-02, 7.04225339e-03,
          4.69483575e-03, 1.17370896e-02, 1.64319258e-02, 0.,
          1.87793430e-02, 4.69483575e-03, 9.38967150e-03, 1.64319258e-02,
          7.04225339e-03, 0., 4.69483575e-03, 4.69483575e-03,
          2.81690136e-02, 4.69483584e-02, 9.38967150e-03, 7.04225339e-03,
          9.38967150e-03, 7.04225339e-03, 4.69483575e-03, 2.34741792e-02,
          1.40845068e-02, 4.69483575e-03, 9.38967150e-03, 4.69483575e-03 ]
      - [ 6.14250591e-03, 8.59950855e-03, 1.47420149e-02, 1.35135129e-02,
          3.31695341e-02, 3.68550373e-03, 1.22850121e-03, 1.47420149e-02,
          2.45700241e-03, 9.82800964e-03, 1.59705151e-02, 3.68550373e-03,
          6.14250591e-03, 1.22850118e-02, 1.22850118e-02, 4.91400482e-03,
          6.14250591e-03, 1.22850121e-03, 4.91400482e-03, 8.59950855e-03,
          1.35135129e-02, 2.45700241e-03, 1.84275173e-02, 6.14250591e-03,
          8.59950855e-03, 3.68550373e-03, 2.45700236e-02, 6.14250591e-03,
          1.22850121e-03, 7.37100746e-03, 3.68550373e-03, 2.45700241e-03,
          2.33415235e-02, 2.45700241e-03, 2.57985257e-02, 1.22850121e-03,
          9.82800964e-03, 2.45700241e-03, 6.14250591e-03, 7.37100746e-03,
          1.59705151e-02, 3.68550373e-03, 3.93120386e-02, 1.22850118e-02,
          3.43980342e-02, 8.59950855e-03, 9.82800964e-03, 6.14250591e-03,
          1.22850121e-03, 2.70270258e-02, 6.14250591e-03, 2.45700241e-03,
          2.45700236e-02, 2.45700236e-02, 1.22850118e-02, 1.22850121e-03,
          1.47420149e-02, 2.45700241e-03, 6.14250600e-02, 0.,
          1.22850121e-03, 1.22850121e-03, 1.71990171e-02, 3.68550373e-03,
          1.22850121e-03, 9.82800964e-03, 2.45700241e-03, 4.91400482e-03,
          1.35135129e-02, 2.82555278e-02, 7.37100746e-03, 7.37100746e-03,
          6.14250591e-03, 1.22850121e-03, 2.21130215e-02, 1.22850121e-03,
          1.84275173e-02, 4.91400482e-03, 4.91400482e-03, 0.,
          3.68550373e-03, 9.82800964e-03, 1.22850121e-03, 8.59950855e-03,
          2.45700241e-03, 2.45700241e-03, 9.82800964e-03, 1.84275173e-02,
          1.22850118e-02, 1.84275173e-02, 4.91400482e-03, 6.14250591e-03,
          8.59950855e-03, 1.84275173e-02, 2.21130215e-02, 1.22850121e-03,
          3.68550373e-03, 1.35135129e-02, 1.22850121e-03, 6.14250591e-03 ]
      - [ 2.87769781e-03, 1.43884891e-03, 1.58273373e-02, 3.45323756e-02,
          1.29496399e-02, 2.87769781e-03, 2.87769781e-03, 3.59712243e-02,
          8.63309391e-03, 4.31654695e-03, 1.15107913e-02, 1.43884891e-03,
          1.00719426e-02, 2.58992799e-02, 1.58273373e-02, 0., 0.,
          4.31654695e-03, 7.19424430e-03, 1.43884891e-03, 1.72661878e-02,
          0., 4.31654695e-03, 2.87769781e-03, 2.44604312e-02,
          1.00719426e-02, 2.30215825e-02, 2.87769781e-03, 8.63309391e-03,
          2.87769781e-03, 1.43884891e-03, 0., 1.72661878e-02,
          8.63309391e-03, 2.87769772e-02, 7.19424430e-03, 2.87769772e-02,
          1.43884891e-03, 5.75539563e-03, 4.31654695e-03, 1.00719426e-02,
          1.00719426e-02, 2.73381285e-02, 1.43884891e-03, 1.43884886e-02,
          0., 1.43884886e-02, 5.75539563e-03, 0., 7.19424430e-03,
          7.19424430e-03, 1.43884891e-03, 2.15827338e-02, 1.29496399e-02,
          2.73381285e-02, 1.00719426e-02, 1.87050365e-02, 5.75539563e-03,
          1.58273373e-02, 2.87769781e-03, 0., 1.43884891e-03,
          8.63309391e-03, 0., 4.31654695e-03, 1.43884886e-02,
          1.43884891e-03, 1.43884891e-03, 2.30215825e-02, 5.03597111e-02,
          2.87769781e-03, 1.72661878e-02, 1.43884891e-03, 1.43884891e-03,
          2.44604312e-02, 4.31654695e-03, 8.63309391e-03, 1.43884891e-03,
          1.43884886e-02, 0., 4.31654695e-03, 1.15107913e-02,
          7.19424430e-03, 2.01438852e-02, 4.31654695e-03, 1.43884891e-03,
          0., 1.29496399e-02, 5.75539563e-03, 6.33093491e-02,
          7.19424430e-03, 2.87769781e-03, 5.75539563e-03, 2.87769781e-03,
          1.58273373e-02, 2.58992799e-02, 1.43884891e-03, 7.19424430e-03,
          2.87769781e-03, 1.43884891e-03 ]
      - [ 1.49476831e-03, 5.97907323e-03, 1.49476826e-02, 1.34529145e-02,
          1.64424516e-02, 0., 4.48430516e-03, 8.96861032e-03,
          1.64424516e-02, 8.96861032e-03, 1.34529145e-02, 4.48430516e-03,
          8.96861032e-03, 1.19581465e-02, 1.04633784e-02, 2.98953662e-03,
          1.19581465e-02, 1.49476831e-03, 7.47384131e-03, 4.48430516e-03,
          1.94319878e-02, 0., 1.04633784e-02, 2.98953662e-03,
          1.79372206e-02, 8.96861032e-03, 2.69058291e-02, 1.34529145e-02,
          1.49476831e-03, 8.96861032e-03, 0., 0., 1.94319878e-02,
          1.64424516e-02, 1.49476826e-02, 4.48430516e-03, 8.96861032e-03,
          1.49476831e-03, 1.34529145e-02, 8.96861032e-03, 4.48430516e-03,
          8.96861032e-03, 3.88639756e-02, 4.48430516e-03, 2.24215239e-02,
          0., 1.04633784e-02, 7.47384131e-03, 1.49476831e-03,
          1.04633784e-02, 7.47384131e-03, 1.19581465e-02, 8.96861032e-03,
          1.04633784e-02, 2.39162929e-02, 1.94319878e-02, 1.79372206e-02,
          7.47384131e-03, 2.69058291e-02, 4.48430516e-03, 1.49476831e-03,
          1.49476831e-03, 8.96861032e-03, 2.98953662e-03, 5.97907323e-03,
          1.19581465e-02, 1.64424516e-02, 4.48430516e-03, 5.97907323e-03,
          1.34529145e-02, 4.48430516e-03, 1.19581465e-02, 4.48430516e-03,
          0., 3.58744413e-02, 5.97907323e-03, 1.49476831e-03,
          8.96861032e-03, 1.04633784e-02, 0., 7.47384131e-03,
          8.96861032e-03, 1.49476831e-03, 2.24215239e-02, 5.97907323e-03,
          1.49476831e-03, 1.19581465e-02, 1.64424516e-02, 1.94319878e-02,
          1.64424516e-02, 1.34529145e-02, 1.94319878e-02, 1.19581465e-02,
          7.47384131e-03, 1.64424516e-02, 1.64424516e-02, 2.98953662e-03,
          4.48430516e-03, 1.34529145e-02, 8.96861032e-03 ]
      - [ 5.10204071e-03, 7.65306130e-03, 1.27551015e-02, 2.55102031e-02,
          1.78571418e-02, 7.65306130e-03, 3.82653065e-03, 3.18877548e-02,
          7.65306130e-03, 7.65306130e-03, 1.14795920e-02, 1.27551018e-03,
          1.27551018e-03, 5.10204071e-03, 3.31632644e-02, 2.55102036e-03,
          1.27551015e-02, 1.27551018e-03, 3.82653065e-03, 0.,
          1.40306121e-02, 6.37755077e-03, 5.10204071e-03, 3.82653065e-03,
          8.92857090e-03, 1.65816322e-02, 2.42346935e-02, 1.27551018e-03,
          3.82653065e-03, 1.78571418e-02, 5.10204071e-03, 0.,
          5.10204071e-03, 1.78571418e-02, 3.06122452e-02, 0.,
          1.65816322e-02, 1.27551018e-03, 1.02040814e-02, 6.37755077e-03,
          2.55102036e-03, 1.02040814e-02, 3.95408161e-02, 1.02040814e-02,
          3.06122452e-02, 6.37755077e-03, 2.55102036e-03, 3.82653065e-03,
          3.82653065e-03, 1.78571418e-02, 1.27551018e-03, 2.55102036e-03,
          3.82653065e-03, 3.82653065e-02, 2.80612241e-02, 8.92857090e-03,
          1.65816322e-02, 3.82653065e-03, 4.08163257e-02, 1.27551015e-02,
          6.37755077e-03, 5.10204071e-03, 2.04081628e-02, 2.55102036e-03,
          0., 2.42346935e-02, 5.10204071e-03, 3.82653065e-03,
          2.04081628e-02, 0., 8.92857090e-03, 1.14795920e-02,
          2.55102036e-03, 0., 1.91326533e-02, 2.55102036e-03, 0.,
          6.37755077e-03, 8.92857090e-03, 0., 2.55102036e-03,
          1.27551015e-02, 2.55102036e-03, 1.27551018e-03, 3.82653065e-03,
          1.27551018e-03, 1.27551018e-03, 2.16836724e-02, 5.10204071e-03,
          1.27551015e-02, 8.92857090e-03, 7.65306130e-03, 1.40306121e-02,
          1.27551018e-03, 2.93367337e-02, 2.55102036e-03, 3.82653065e-03,
          2.42346935e-02, 3.82653065e-03, 1.14795920e-02 ]
      - [ 0., 1.36778113e-02, 2.58358661e-02, 1.97568387e-02,
          1.97568387e-02, 4.55927057e-03, 3.03951371e-03, 1.97568387e-02,
          1.06382985e-02, 9.11854114e-03, 1.51975686e-02, 9.11854114e-03,
          1.36778113e-02, 1.51975686e-02, 2.27963533e-02, 1.51975686e-03,
          4.55927057e-03, 6.07902743e-03, 3.03951371e-03, 4.55927057e-03,
          1.36778113e-02, 0., 1.21580549e-02, 1.06382985e-02,
          1.51975686e-02, 1.06382985e-02, 2.73556225e-02, 6.07902743e-03,
          1.51975686e-03, 3.03951371e-03, 3.03951371e-03, 1.51975686e-03,
          1.97568387e-02, 4.55927057e-03, 2.12765969e-02, 1.51975686e-03,
          1.67173259e-02, 1.51975686e-03, 7.59878429e-03, 3.03951371e-03,
          1.51975686e-03, 3.03951371e-03, 3.19148935e-02, 1.36778113e-02,
          5.16717322e-02, 1.51975686e-03, 6.07902743e-03, 3.03951371e-03,
          1.51975686e-03, 4.55927057e-03, 7.59878429e-03, 1.51975686e-03,
          1.51975686e-02, 1.82370823e-02, 9.11854114e-03, 1.21580549e-02,
          9.11854114e-03, 3.03951371e-03, 4.40729484e-02, 6.07902743e-03,
          3.03951371e-03, 1.51975686e-03, 4.10334356e-02, 1.51975686e-03,
          4.55927057e-03, 7.59878429e-03, 9.11854114e-03, 4.55927057e-03,
          9.11854114e-03, 1.82370823e-02, 4.55927057e-03, 1.51975686e-02,
          3.03951371e-03, 3.03951371e-03, 2.27963533e-02, 2.12765969e-02,
          1.51975686e-03, 3.03951371e-03, 4.55927057e-03, 0.,
          4.55927057e-03, 1.82370823e-02, 3.03951371e-03, 6.07902743e-03,
          3.03951371e-03, 3.03951371e-03, 4.55927057e-03, 1.21580549e-02,
          1.06382985e-02, 3.03951371e-02, 1.36778113e-02, 6.07902743e-03,
          1.06382985e-02, 4.55927057e-03, 1.36778113e-02, 9.11854114e-03,
          4.55927057e-03, 9.11854114e-03, 1.51975686e-03, 4.55927057e-03 ]
      - [ 3.11041996e-03, 4.66562994e-03, 2.64385697e-02, 4.66562994e-03,
          6.22083992e-03, 1.86625198e-02, 0., 1.39968898e-02,
          6.22083992e-03, 1.71073098e-02, 3.11041996e-03, 6.22083992e-03,
          4.66562994e-03, 0., 1.39968898e-02, 4.66562994e-03,
          1.55520998e-03, 6.22083992e-03, 0., 7.77604990e-03,
          1.24416798e-02, 6.22083992e-03, 1.71073098e-02, 1.24416798e-02,
          1.08864699e-02, 6.22083992e-03, 1.08864699e-02, 3.11041996e-02,
          3.11041996e-03, 2.02177297e-02, 1.08864699e-02, 0.,
          1.08864699e-02, 7.77604990e-03, 1.08864699e-02, 1.55520998e-02,
          3.11041996e-03, 0., 1.39968898e-02, 1.86625198e-02,
          1.55520998e-03, 1.39968898e-02, 3.11041996e-03, 7.77604990e-03,
          6.22083992e-03, 9.33125988e-03, 6.22083992e-03, 4.66562994e-03,
          9.33125988e-03, 7.77604990e-03, 1.55520998e-03, 2.17729397e-02,
          1.24416798e-02, 3.11041996e-02, 3.26594114e-02, 6.22083992e-03,
          1.86625198e-02, 1.86625198e-02, 2.17729397e-02, 1.71073098e-02,
          1.55520998e-03, 9.33125988e-03, 1.24416798e-02, 0., 0.,
          7.77604990e-03, 1.08864699e-02, 1.86625198e-02, 7.77604990e-03,
          3.11041996e-03, 3.11041996e-03, 1.39968898e-02, 2.02177297e-02,
          1.55520998e-03, 1.55520998e-02, 1.86625198e-02, 1.55520998e-03,
          2.64385697e-02, 6.22083992e-03, 0., 1.24416798e-02, 0.,
          4.66562994e-03, 7.77604990e-03, 1.71073098e-02, 0.,
          7.77604990e-03, 1.24416798e-02, 7.77604990e-03, 1.08864699e-02,
          1.08864699e-02, 1.39968898e-02, 6.22083992e-03, 7.77604990e-03,
          1.39968898e-02, 3.26594114e-02, 1.55520998e-03, 9.33125988e-03,
          1.55520998e-02, 4.66562994e-03 ]
      - [ 2.84495018e-03, 2.84495018e-03, 1.99146513e-02, 1.99146513e-02,
          1.84921771e-02, 5.68990037e-03, 1.42247509e-03, 1.42247509e-02,
          8.53485055e-03, 1.28022758e-02, 1.42247509e-02, 4.26742528e-03,
          1.42247509e-02, 7.11237546e-03, 1.42247509e-02, 2.84495018e-03,
          1.42247509e-03, 5.68990037e-03, 1.42247509e-03, 7.11237546e-03,
          1.42247509e-02, 4.26742528e-03, 1.42247509e-02, 0.,
          1.13798007e-02, 2.84495018e-03, 1.28022758e-02, 1.13798007e-02,
          4.26742528e-03, 1.42247509e-03, 2.84495018e-03, 2.84495018e-03,
          1.28022758e-02, 1.28022758e-02, 1.99146513e-02, 7.11237546e-03,
          1.13798007e-02, 2.84495018e-03, 1.56472251e-02, 1.42247509e-02,
          2.84495018e-03, 8.53485055e-03, 3.55618782e-02, 4.26742528e-03,
          2.27596015e-02, 0., 1.56472251e-02, 4.26742528e-03, 0.,
          1.13798007e-02, 2.84495018e-03, 9.95732564e-03, 2.56045517e-02,
          2.56045517e-02, 1.84921771e-02, 8.53485055e-03, 1.99146513e-02,
          1.42247509e-02, 2.70270258e-02, 7.11237546e-03, 0.,
          1.42247509e-03, 5.68990037e-03, 0., 1.42247509e-02,
          1.13798007e-02, 9.95732564e-03, 7.11237546e-03, 8.53485055e-03,
          1.42247509e-02, 1.42247509e-03, 2.70270258e-02, 5.68990037e-03,
          0., 2.13371255e-02, 1.13798007e-02, 0., 5.68990037e-03,
          1.84921771e-02, 0., 8.53485055e-03, 9.95732564e-03,
          4.26742528e-03, 1.28022758e-02, 4.26742528e-03, 5.68990037e-03,
          5.68990037e-03, 1.99146513e-02, 1.42247509e-02, 1.99146513e-02,
          8.53485055e-03, 2.13371255e-02, 1.56472251e-02, 4.26742528e-03,
          1.13798007e-02, 8.53485055e-03, 4.26742528e-03, 1.13798007e-02,
          1.56472251e-02, 7.11237546e-03 ]
      - [ 0., 1.76282059e-02, 8.01282097e-03, 1.12179490e-02,
          2.40384620e-02, 4.80769249e-03, 1.60256412e-03, 1.60256419e-02,
          1.60256412e-03, 3.20512825e-03, 1.12179490e-02, 6.41025649e-03,
          1.28205130e-02, 8.01282097e-03, 2.40384620e-02, 6.41025649e-03,
          3.20512825e-03, 2.56410260e-02, 8.01282097e-03, 0.,
          9.61538497e-03, 0., 6.41025649e-03, 4.80769249e-03,
          4.80769249e-03, 1.12179490e-02, 1.44230770e-02, 1.60256412e-03,
          6.41025649e-03, 1.44230770e-02, 9.61538497e-03, 0.,
          3.20512839e-02, 1.60256419e-02, 1.92307699e-02, 1.60256412e-03,
          2.40384620e-02, 6.41025649e-03, 0., 1.12179490e-02,
          3.20512825e-03, 1.60256412e-03, 2.56410260e-02, 1.28205130e-02,
          3.20512839e-02, 1.12179490e-02, 1.60256412e-03, 4.80769249e-03,
          3.20512825e-03, 1.28205130e-02, 1.44230770e-02, 1.60256412e-03,
          1.28205130e-02, 2.24358980e-02, 1.44230770e-02, 4.80769249e-03,
          1.44230770e-02, 0., 2.88461540e-02, 1.60256412e-03,
          1.60256412e-03, 1.60256412e-03, 4.64743599e-02, 1.60256412e-03,
          1.12179490e-02, 1.60256419e-02, 1.60256412e-03, 4.80769249e-03,
          2.72435900e-02, 1.44230770e-02, 0., 6.41025649e-03, 0.,
          3.20512825e-03, 1.28205130e-02, 3.20512825e-03, 0.,
          1.60256412e-03, 8.01282097e-03, 0., 1.60256412e-03,
          3.04487180e-02, 4.80769249e-03, 2.08333340e-02, 1.28205130e-02,
          0., 1.60256419e-02, 2.24358980e-02, 1.60256412e-03,
          3.20512839e-02, 8.01282097e-03, 1.60256412e-03, 0.,
          1.44230770e-02, 1.76282059e-02, 4.80769249e-03, 1.60256419e-02,
          1.44230770e-02, 0., 6.41025649e-03 ]
      - [ 0., 0., 5.48628457e-02, 2.49376567e-03, 4.23940159e-02,
          4.98753134e-03, 0., 7.48129701e-03, 0., 9.97506268e-03,
          2.24438906e-02, 0., 0., 0., 4.98753134e-03, 0., 0.,
          2.49376567e-03, 0., 1.24688279e-02, 4.98753134e-03,
          2.49376567e-03, 1.99501254e-02, 0., 0., 2.49376567e-03,
          2.74314228e-02, 3.24189551e-02, 7.48129701e-03, 2.49376567e-03,
          2.49376567e-03, 0., 3.99002507e-02, 2.49376567e-03,
          9.97506268e-03, 9.97506268e-03, 7.48129701e-03, 0.,
          7.48129701e-03, 7.48129701e-03, 0., 1.74563602e-02,
          5.73566109e-02, 4.98753134e-03, 4.98753116e-02, 0., 0., 0., 0.,
          9.97506268e-03, 1.99501254e-02, 0., 4.98753134e-03,
          2.74314228e-02, 0., 1.74563602e-02, 7.48129701e-03,
          1.49625940e-02, 4.48877811e-02, 4.98753134e-03, 0., 0.,
          1.24688279e-02, 0., 2.49376567e-03, 9.97506268e-03,
          9.97506268e-03, 7.48129701e-03, 2.49376567e-03, 1.99501254e-02,
          2.49376567e-03, 1.74563602e-02, 0., 0., 9.97506268e-03, 0.,
          7.48129701e-03, 2.49376567e-03, 0., 7.48129701e-03,
          1.74563602e-02, 0., 4.98753134e-03, 3.24189551e-02, 0., 0.,
          7.48129701e-03, 9.97506268e-03, 4.23940159e-02, 9.97506268e-03,
          4.98753134e-03, 2.24438906e-02, 4.98753134e-03, 2.49376567e-03,
          2.24438906e-02, 3.24189551e-02, 2.49376567e-03, 2.49376567e-03,
          2.99251880e-02, 4.98753134e-03 ]
      - [ 1.44300144e-03, 1.01010101e-02, 1.15440115e-02, 8.65800865e-03,
          1.15440115e-02, 5.77200577e-03, 4.32900432e-03, 2.16450207e-02,
          1.58730149e-02, 1.73160173e-02, 1.44300144e-02, 0.,
          1.44300144e-02, 1.87590197e-02, 3.03030312e-02, 0.,
          5.77200577e-03, 1.44300144e-03, 1.01010101e-02, 7.21500721e-03,
          1.58730149e-02, 0., 7.21500721e-03, 2.88600288e-03,
          5.77200577e-03, 2.02020202e-02, 2.59740259e-02, 1.44300144e-03,
          1.44300144e-03, 1.15440115e-02, 7.21500721e-03, 4.32900432e-03,
          7.21500721e-03, 5.77200577e-03, 1.73160173e-02, 1.44300144e-03,
          1.01010101e-02, 2.88600288e-03, 1.15440115e-02, 1.01010101e-02,
          1.44300144e-03, 2.16450207e-02, 2.30880231e-02, 5.77200577e-03,
          1.58730149e-02, 1.44300144e-03, 1.15440115e-02, 5.77200577e-03,
          1.15440115e-02, 1.01010101e-02, 5.77200577e-03, 4.32900432e-03,
          1.01010101e-02, 2.59740259e-02, 1.44300144e-02, 8.65800865e-03,
          3.60750370e-02, 4.32900432e-03, 2.16450207e-02, 1.29870130e-02,
          1.44300144e-03, 1.44300144e-03, 2.45310254e-02, 1.44300144e-03,
          5.77200577e-03, 1.73160173e-02, 7.21500721e-03, 1.44300144e-03,
          1.58730149e-02, 2.45310254e-02, 0., 1.44300144e-02,
          2.88600288e-03, 0., 2.02020202e-02, 5.77200577e-03,
          2.88600288e-03, 1.01010101e-02, 1.01010101e-02, 1.44300144e-03,
          0., 1.01010101e-02, 0., 1.29870130e-02, 1.29870130e-02, 0.,
          5.77200577e-03, 2.30880231e-02, 1.44300144e-03, 2.02020202e-02,
          1.58730149e-02, 7.21500721e-03, 1.29870130e-02, 8.65800865e-03,
          2.16450207e-02, 1.44300144e-03, 8.65800865e-03, 2.45310254e-02,
          2.88600288e-03, 7.21500721e-03 ]
      - [ 1.94174761e-03, 3.88349523e-03, 1.55339809e-02, 9.70873795e-03,
          1.74757279e-02, 1.94174761e-03, 9.70873795e-03, 1.55339809e-02,
          5.82524296e-03, 3.88349523e-03, 1.55339809e-02, 0.,
          9.70873795e-03, 2.71844659e-02, 1.94174759e-02, 9.70873795e-03,
          1.16504859e-02, 5.82524296e-03, 1.55339809e-02, 1.94174761e-03,
          1.16504859e-02, 3.88349523e-03, 5.82524296e-03, 0.,
          9.70873795e-03, 5.82524296e-03, 1.55339809e-02, 3.88349523e-03,
          1.94174761e-03, 0., 3.88349523e-03, 9.70873795e-03,
          7.76699046e-03, 5.82524296e-03, 2.33009718e-02, 1.94174761e-03,
          1.16504859e-02, 7.76699046e-03, 5.82524296e-03, 1.55339809e-02,
          9.70873795e-03, 5.82524296e-03, 3.68932039e-02, 1.94174759e-02,
          4.07766998e-02, 3.88349523e-03, 1.94174759e-02, 1.16504859e-02,
          3.88349523e-03, 1.94174759e-02, 1.55339809e-02, 1.94174761e-03,
          2.13592239e-02, 1.55339809e-02, 1.35922330e-02, 1.55339809e-02,
          1.55339809e-02, 0., 1.55339809e-02, 3.88349523e-03,
          3.88349523e-03, 0., 1.94174759e-02, 1.94174761e-03,
          1.94174761e-03, 5.82524296e-03, 1.35922330e-02, 1.94174761e-03,
          1.55339809e-02, 3.10679618e-02, 1.16504859e-02, 7.76699046e-03,
          7.76699046e-03, 0., 1.35922330e-02, 5.82524296e-03,
          3.88349523e-03, 9.70873795e-03, 5.82524296e-03, 0.,
          3.88349523e-03, 1.74757279e-02, 9.70873795e-03, 1.94174761e-03,
          0., 0., 1.74757279e-02, 1.55339809e-02, 1.55339809e-02,
          1.55339809e-02, 1.55339809e-02, 1.94174761e-03, 1.35922330e-02,
          1.35922330e-02, 1.94174759e-02, 1.94174761e-03, 5.82524296e-03,
          1.35922330e-02, 1.94174761e-03, 1.16504859e-02 ]
      - [ 0., 2.74725277e-02, 8.24175868e-03, 5.49450563e-03,
          2.19780225e-02, 0., 0., 1.09890113e-02, 5.49450563e-03,
          1.37362638e-02, 1.09890113e-02, 2.47252751e-02, 8.24175868e-03,
          2.19780225e-02, 1.09890113e-02, 2.74725282e-03, 5.49450563e-03,
          1.09890113e-02, 1.09890113e-02, 1.09890113e-02, 1.37362638e-02,
          5.49450563e-03, 5.49450563e-03, 5.49450563e-03, 8.24175868e-03,
          0., 5.49450563e-03, 2.47252751e-02, 2.74725282e-03,
          5.49450563e-03, 8.24175868e-03, 5.49450563e-03, 1.92307699e-02,
          2.19780225e-02, 5.49450563e-03, 5.49450563e-03, 2.74725277e-02,
          2.74725282e-03, 5.49450563e-03, 1.37362638e-02, 2.47252751e-02,
          1.09890113e-02, 1.09890113e-02, 8.24175868e-03, 1.64835174e-02,
          1.09890113e-02, 2.74725277e-02, 1.64835174e-02, 0.,
          2.47252751e-02, 5.49450563e-03, 8.24175868e-03, 2.74725282e-03,
          2.74725277e-02, 2.74725282e-03, 1.09890113e-02, 3.57142873e-02,
          2.74725282e-03, 2.74725282e-03, 0., 8.24175868e-03,
          5.49450563e-03, 8.24175868e-03, 8.24175868e-03, 8.24175868e-03,
          2.74725282e-03, 0., 5.49450563e-03, 1.64835174e-02,
          2.74725282e-03, 1.92307699e-02, 8.24175868e-03, 8.24175868e-03,
          2.74725282e-03, 1.37362638e-02, 5.49450563e-03, 0.,
          1.37362638e-02, 1.09890113e-02, 2.74725282e-03, 1.09890113e-02,
          2.74725282e-03, 8.24175868e-03, 5.49450563e-03, 2.47252751e-02,
          0., 1.09890113e-02, 2.74725282e-03, 5.49450563e-03,
          5.49450563e-03, 5.49450563e-03, 0., 2.74725282e-03,
          1.92307699e-02, 1.37362638e-02, 5.76923080e-02, 8.24175868e-03,
          5.49450563e-03, 0., 5.49450563e-03 ]
      - [ 3.03030312e-02, 2.59740259e-02, 3.03030312e-02, 2.59740259e-02,
          0., 4.32900432e-03, 4.32900432e-03, 8.65800865e-03, 0.,
          2.16450207e-02, 1.29870130e-02, 1.73160173e-02, 8.65800865e-03,
          0., 4.32900432e-03, 1.29870130e-02, 0., 0., 4.32900432e-03,
          5.19480519e-02, 8.65800865e-03, 0., 1.29870130e-02,
          4.32900432e-03, 8.65800865e-03, 1.29870130e-02, 3.46320346e-02,
          4.32900432e-03, 8.65800865e-03, 1.73160173e-02, 1.29870130e-02,
          0., 1.29870130e-02, 0., 8.65800865e-03, 4.32900432e-03,
          1.29870130e-02, 4.32900432e-03, 0., 1.29870130e-02, 0.,
          1.29870130e-02, 8.65800865e-03, 0., 3.46320346e-02, 0., 0., 0.,
          0., 4.32900414e-02, 0., 0., 1.29870130e-02, 2.16450207e-02,
          8.65800865e-03, 1.29870130e-02, 2.16450207e-02, 8.65800865e-03,
          1.73160173e-02, 0., 0., 1.29870130e-02, 0., 4.32900432e-03,
          8.65800865e-03, 1.73160173e-02, 4.32900432e-03, 0.,
          1.73160173e-02, 1.29870130e-02, 8.65800865e-03, 1.29870130e-02,
          1.29870130e-02, 8.65800865e-03, 1.73160173e-02, 1.73160173e-02,
          1.29870130e-02, 1.29870130e-02, 0., 8.65800865e-03, 0., 0.,
          1.73160173e-02, 4.32900432e-03, 4.32900432e-03, 1.29870130e-02,
          1.73160173e-02, 1.73160173e-02, 4.32900432e-03, 4.32900432e-03,
          4.32900432e-03, 0., 8.65800865e-03, 4.32900432e-03,
          1.29870130e-02, 1.73160173e-02, 0., 4.32900432e-03,
          2.16450207e-02, 4.32900432e-03 ]
      - [ 1.93423603e-03, 2.70793047e-02, 1.93423603e-03, 3.86847206e-03,
          1.93423603e-03, 1.16054164e-02, 1.54738883e-02, 2.12765969e-02,
          1.54738883e-02, 7.73694413e-03, 5.80270821e-03, 4.06189561e-02,
          3.86847206e-03, 5.80270821e-03, 2.51450688e-02, 1.35396523e-02,
          9.67118051e-03, 2.51450688e-02, 1.93423603e-03, 5.80270821e-03,
          0., 1.93423603e-03, 3.86847206e-03, 1.93423603e-03,
          1.35396523e-02, 9.67118051e-03, 0., 0., 5.80270821e-03,
          5.80270821e-03, 7.73694413e-03, 2.70793047e-02, 1.93423603e-03,
          1.74081251e-02, 1.74081251e-02, 1.54738883e-02, 3.86847206e-03,
          0., 7.73694413e-03, 1.35396523e-02, 2.12765969e-02,
          3.86847206e-03, 1.74081251e-02, 1.74081251e-02, 1.35396523e-02,
          1.16054164e-02, 2.12765969e-02, 1.35396523e-02, 1.16054164e-02,
          2.51450688e-02, 1.74081251e-02, 1.54738883e-02, 1.93423603e-03,
          1.35396523e-02, 1.74081251e-02, 9.67118051e-03, 9.67118051e-03,
          5.80270821e-03, 0., 3.86847206e-03, 7.73694413e-03,
          5.80270821e-03, 7.73694413e-03, 9.67118051e-03, 2.12765969e-02,
          3.86847206e-03, 5.80270821e-03, 3.86847206e-03, 1.35396523e-02,
          0., 3.86847206e-03, 1.35396523e-02, 3.86847206e-03, 0.,
          1.93423603e-03, 9.67118051e-03, 0., 5.80270821e-03,
          9.67118051e-03, 0., 1.74081251e-02, 7.73694413e-03,
          3.86847206e-03, 5.80270821e-03, 1.93423603e-03, 0.,
          4.06189561e-02, 1.74081251e-02, 7.73694413e-03, 1.93423603e-03,
          1.35396523e-02, 1.93423603e-03, 0., 5.80270821e-03,
          1.35396523e-02, 4.25531939e-02, 9.67118051e-03, 1.35396523e-02,
          1.93423603e-03, 1.35396523e-02 ]
      - [ 0., 0., 5.01193330e-02, 1.90930795e-02, 4.77326987e-03,
          1.43198092e-02, 0., 1.90930795e-02, 1.19331749e-02,
          7.15990458e-03, 7.15990458e-03, 2.38663494e-03, 7.15990458e-03,
          2.38663494e-03, 2.38663498e-02, 4.77326987e-03, 0.,
          2.38663494e-03, 0., 3.34128886e-02, 9.54653975e-03, 0.,
          1.19331749e-02, 4.77326987e-03, 2.38663494e-03, 2.38663498e-02,
          1.67064443e-02, 1.43198092e-02, 7.15990458e-03, 1.43198092e-02,
          9.54653975e-03, 4.77326987e-03, 1.19331749e-02, 4.77326987e-03,
          2.62529850e-02, 2.38663494e-03, 4.77326987e-03, 0.,
          3.34128886e-02, 4.77326987e-03, 0., 9.54653975e-03,
          1.19331749e-02, 9.54653975e-03, 1.67064443e-02, 0.,
          7.15990458e-03, 9.54653975e-03, 4.77326987e-03, 1.67064443e-02,
          0., 2.38663494e-03, 4.77326987e-03, 1.90930795e-02,
          2.38663498e-02, 2.38663498e-02, 1.43198092e-02, 0.,
          9.54653975e-03, 1.43198092e-02, 2.38663494e-03, 4.77326987e-03,
          1.90930795e-02, 2.38663494e-03, 2.38663494e-03, 1.19331749e-02,
          4.77326987e-03, 0., 7.15990458e-03, 2.38663494e-03,
          4.77326987e-03, 1.43198092e-02, 9.54653975e-03, 0.,
          1.43198092e-02, 2.86396183e-02, 3.34128886e-02, 1.67064443e-02,
          7.15990458e-03, 2.38663494e-03, 4.77326987e-03, 0.,
          4.77326987e-03, 7.15990458e-03, 2.38663494e-03, 0., 0.,
          9.54653975e-03, 3.10262535e-02, 0., 1.19331749e-02,
          2.14797147e-02, 2.14797147e-02, 4.77326987e-03, 7.15990458e-03,
          1.43198092e-02, 0., 1.43198092e-02, 2.62529850e-02,
          1.43198092e-02 ]
      - [ 1.98807148e-03, 3.97614297e-03, 6.36182874e-02, 1.19284289e-02,
          3.97614297e-03, 3.97614297e-03, 1.98807148e-03, 3.97614297e-03,
          7.95228593e-03, 1.19284289e-02, 5.96421445e-03, 5.96421445e-03,
          7.95228593e-03, 9.94035788e-03, 1.19284289e-02, 0.,
          1.39164999e-02, 5.96421445e-03, 9.94035788e-03, 7.95228593e-03,
          9.94035788e-03, 0., 0., 5.96421445e-03, 1.78926438e-02,
          1.39164999e-02, 3.97614297e-03, 3.77733596e-02, 1.39164999e-02,
          5.96421445e-03, 0., 1.98807148e-03, 7.95228593e-03,
          1.59045719e-02, 7.95228593e-03, 9.94035788e-03, 3.97614297e-03,
          1.19284289e-02, 5.96421445e-03, 1.98807148e-03, 1.19284289e-02,
          0., 5.96421445e-03, 1.98807148e-03, 3.97614297e-03,
          7.95228593e-03, 2.98210718e-02, 3.97614297e-03, 0.,
          3.97614297e-03, 3.77733596e-02, 9.94035788e-03, 1.98807148e-03,
          5.96421445e-03, 1.98807148e-03, 7.95228593e-03, 3.97614297e-03,
          3.57852876e-02, 0., 5.96421445e-03, 1.98807148e-03,
          1.98807148e-03, 3.97614297e-03, 9.94035788e-03, 3.18091437e-02,
          1.98807148e-03, 3.97614297e-03, 2.58449297e-02, 0.,
          2.38568578e-02, 1.98807148e-03, 7.95228593e-03, 3.97614297e-03,
          1.98807148e-03, 1.19284289e-02, 5.96421445e-03, 0.,
          1.98807148e-03, 1.78926438e-02, 1.98807148e-03, 3.97614315e-02,
          3.97614297e-03, 3.97614297e-03, 2.78329998e-02, 0., 0.,
          1.98807148e-03, 0., 6.16302155e-02, 9.94035788e-03,
          3.97614297e-03, 5.96421445e-03, 1.98807148e-03, 2.18687858e-02,
          0., 5.76540716e-02, 2.58449297e-02, 3.97614297e-03,
          3.97614297e-03, 1.19284289e-02 ]
      - [ 0., 1.28755365e-02, 1.50214592e-02, 0., 0., 4.29184549e-03,
          1.93133056e-02, 2.14592274e-02, 8.58369097e-03, 8.58369097e-03,
          4.29184549e-03, 2.36051492e-02, 1.28755365e-02, 1.28755365e-02,
          2.14592274e-03, 2.14592274e-03, 1.50214592e-02, 2.14592274e-02,
          1.07296137e-02, 1.28755365e-02, 1.50214592e-02, 0.,
          4.29184549e-03, 0., 2.78969966e-02, 1.93133056e-02,
          2.14592274e-03, 0., 2.14592274e-03, 1.50214592e-02,
          2.14592274e-03, 1.28755365e-02, 2.36051492e-02, 1.71673819e-02,
          8.58369097e-03, 2.14592274e-03, 2.14592274e-03, 3.21888402e-02,
          4.29184549e-03, 6.43776823e-03, 1.50214592e-02, 0.,
          1.50214592e-02, 2.14592274e-03, 2.14592274e-03, 1.93133056e-02,
          2.14592274e-02, 2.14592274e-03, 4.29184549e-03, 6.43776823e-03,
          2.14592274e-02, 2.14592274e-03, 1.93133056e-02, 2.14592274e-03,
          2.14592274e-03, 2.14592274e-03, 1.50214592e-02, 2.14592274e-03,
          4.29184549e-03, 1.07296137e-02, 8.58369097e-03, 1.28755365e-02,
          6.43776823e-03, 1.50214592e-02, 2.78969966e-02, 8.58369097e-03,
          4.29184549e-03, 1.28755365e-02, 6.43776823e-03, 1.93133056e-02,
          2.14592274e-03, 1.50214592e-02, 2.14592274e-03, 6.43776823e-03,
          8.58369097e-03, 4.29184549e-03, 8.58369097e-03, 4.29184549e-03,
          4.29184549e-03, 0., 8.58369097e-03, 3.64806876e-02, 0.,
          5.15021458e-02, 2.14592274e-03, 0., 3.64806876e-02,
          6.43776823e-03, 2.14592274e-03, 1.93133056e-02, 4.29184549e-03,
          2.14592274e-03, 0., 1.50214592e-02, 2.14592274e-03,
          8.58369097e-03, 2.57510729e-02, 1.50214592e-02, 2.14592274e-03,
          8.58369097e-03 ]
      - [ 8.47457629e-03, 8.47457629e-03, 1.12994350e-02, 2.82485876e-03,
          2.82485876e-03, 2.82485876e-03, 2.82485876e-03, 1.41242938e-02,
          1.69491526e-02, 1.69491526e-02, 2.82485876e-03, 1.12994350e-02,
          2.82485876e-03, 0., 8.47457629e-03, 2.82485876e-03,
          8.47457629e-03, 8.47457629e-03, 5.64971752e-03, 2.82485876e-03,
          8.47457629e-03, 8.47457629e-03, 2.82485876e-03, 0.,
          3.95480245e-02, 5.64971752e-03, 5.64971752e-03, 1.41242938e-02,
          1.12994350e-02, 2.82485876e-03, 8.47457629e-03, 2.82485876e-03,
          1.12994350e-02, 1.41242938e-02, 5.64971752e-03, 0.,
          2.82485876e-03, 2.82485876e-03, 0., 8.47457629e-03,
          1.97740123e-02, 0., 8.47457629e-03, 5.64971752e-03, 0.,
          8.47457629e-03, 1.41242938e-02, 2.82485876e-03, 1.41242938e-02,
          1.69491526e-02, 8.47457629e-03, 1.97740123e-02, 1.41242938e-02,
          2.82485876e-03, 1.69491526e-02, 5.64971752e-03, 1.41242938e-02,
          1.69491526e-02, 2.82485876e-03, 1.41242938e-02, 8.47457629e-03,
          1.69491526e-02, 1.69491526e-02, 8.47457629e-03, 5.36723174e-02,
          1.12994350e-02, 1.12994350e-02, 2.82485876e-02, 2.82485876e-03,
          5.64971752e-03, 8.47457629e-03, 2.82485876e-03, 1.12994350e-02,
          1.41242938e-02, 1.69491526e-02, 5.64971752e-03, 0.,
          1.12994350e-02, 8.47457629e-03, 0., 3.10734473e-02,
          8.47457629e-03, 0., 6.21468946e-02, 8.47457629e-03,
          2.82485876e-03, 1.69491526e-02, 8.47457629e-03, 2.54237279e-02,
          5.64971752e-03, 0., 5.64971752e-03, 2.82485876e-03,
          1.69491526e-02, 1.12994350e-02, 1.12994350e-02, 1.41242938e-02,
          1.41242938e-02, 2.82485876e-03, 5.64971752e-03 ]
      - [ 1.90023761e-02, 1.18764853e-02, 1.66270789e-02, 4.75059403e-03,
          4.75059403e-03, 2.61282679e-02, 0., 1.42517816e-02,
          1.42517816e-02, 1.42517816e-02, 2.37529702e-03, 1.66270789e-02,
          0., 7.12589081e-03, 4.75059403e-03, 4.75059403e-03,
          2.37529702e-03, 2.37529702e-03, 0., 3.56294550e-02,
          4.75059403e-03, 1.18764853e-02, 7.12589081e-03, 7.12589081e-03,
          4.75059403e-03, 0., 7.12589081e-03, 1.66270789e-02,
          7.12589081e-03, 1.18764853e-02, 0., 9.50118806e-03,
          2.37529702e-03, 4.75059403e-03, 7.12589081e-03, 9.50118806e-03,
          1.66270789e-02, 0., 3.08788605e-02, 1.42517816e-02,
          2.37529702e-03, 2.37529706e-02, 9.50118806e-03, 0.,
          2.37529702e-03, 0., 4.75059403e-03, 1.42517816e-02,
          2.37529706e-02, 2.37529706e-02, 0., 4.75059403e-03,
          4.75059403e-03, 1.90023761e-02, 1.66270789e-02, 1.18764853e-02,
          2.61282679e-02, 1.66270789e-02, 7.12589081e-03, 4.75059403e-03,
          4.75059403e-03, 2.37529706e-02, 7.12589081e-03, 0.,
          4.75059403e-03, 1.18764853e-02, 0., 2.37529702e-03,
          7.12589081e-03, 2.37529702e-03, 1.42517816e-02, 1.66270789e-02,
          1.66270789e-02, 1.66270789e-02, 1.18764853e-02, 1.42517816e-02,
          1.90023761e-02, 2.37529706e-02, 0., 1.90023761e-02, 0.,
          9.50118806e-03, 9.50118806e-03, 0., 9.50118806e-03,
          9.50118806e-03, 1.18764853e-02, 9.50118806e-03, 1.90023761e-02,
          0., 1.18764853e-02, 1.18764853e-02, 7.12589081e-03,
          1.18764853e-02, 0., 2.37529706e-02, 4.75059403e-03,
          7.12589081e-03, 1.90023761e-02, 1.66270789e-02 ]
      - [ 0., 2.13219621e-03, 2.13219621e-03, 6.39658887e-03,
          8.52878485e-03, 6.39658887e-03, 6.39658887e-03, 1.49253737e-02,
          1.91897657e-02, 1.91897657e-02, 2.13219621e-03, 8.52878485e-03,
          1.49253737e-02, 2.13219621e-03, 1.91897657e-02, 1.06609808e-02,
          4.26439242e-03, 2.13219621e-03, 8.52878485e-03, 6.39658887e-03,
          1.49253737e-02, 0., 6.39658887e-03, 0., 1.27931777e-02,
          1.49253737e-02, 1.27931777e-02, 8.52878485e-03, 6.39658887e-03,
          1.49253737e-02, 2.13219621e-03, 2.98507474e-02, 0.,
          1.06609808e-02, 8.52878485e-03, 6.39658887e-03, 4.26439242e-03,
          8.52878485e-03, 8.52878485e-03, 1.27931777e-02, 1.49253737e-02,
          0., 1.06609808e-02, 2.55863555e-02, 6.39658887e-03,
          8.52878485e-03, 6.39658887e-03, 1.06609808e-02, 8.52878485e-03,
          4.26439242e-03, 1.70575697e-02, 2.13219621e-03, 6.39658887e-03,
          1.49253737e-02, 1.70575697e-02, 2.13219621e-03, 1.06609808e-02,
          1.91897657e-02, 6.39658887e-03, 6.39658887e-03, 4.26439242e-03,
          0., 8.52878485e-03, 1.91897657e-02, 2.13219621e-03,
          1.06609808e-02, 8.52878485e-03, 1.49253737e-02, 1.06609808e-02,
          4.26439242e-03, 2.13219621e-03, 1.91897657e-02, 0.,
          2.13219621e-03, 1.06609808e-02, 2.13219621e-03, 2.13219621e-03,
          1.49253737e-02, 6.39658887e-03, 0., 7.24946707e-02,
          6.39658887e-03, 2.13219621e-03, 6.39658887e-03, 4.26439242e-03,
          2.13219621e-03, 6.18336909e-02, 1.06609808e-02, 8.52878485e-03,
          1.06609808e-02, 6.39658887e-03, 6.39658887e-03, 4.26439242e-03,
          1.49253737e-02, 1.70575697e-02, 3.19829434e-02, 1.06609808e-02,
          1.27931777e-02, 6.39658887e-03, 1.49253737e-02 ]
      - [ 0., 3.75939859e-03, 1.50375944e-02, 7.51879718e-03,
          3.75939859e-03, 1.12781953e-02, 3.75939859e-03, 3.38345878e-02,
          1.87969934e-02, 2.25563906e-02, 3.75939859e-03, 7.51879718e-03,
          1.12781953e-02, 4.51127812e-02, 7.51879718e-03, 0.,
          3.75939859e-03, 3.00751887e-02, 7.51879718e-03, 3.75939859e-03,
          2.25563906e-02, 7.51879718e-03, 0., 7.51879718e-03,
          4.88721803e-02, 7.51879718e-03, 3.75939859e-03, 0.,
          3.75939859e-03, 3.75939859e-03, 0., 7.51879718e-03, 0.,
          1.87969934e-02, 1.12781953e-02, 0., 3.75939868e-02,
          1.12781953e-02, 7.51879718e-03, 7.51879718e-03, 1.50375944e-02,
          1.50375944e-02, 1.87969934e-02, 1.87969934e-02, 3.75939859e-03,
          0., 3.75939859e-03, 3.75939859e-03, 3.75939859e-03,
          1.87969934e-02, 1.12781953e-02, 0., 3.75939859e-03,
          1.50375944e-02, 3.75939859e-03, 0., 1.87969934e-02, 0.,
          3.75939859e-03, 0., 0., 3.75939859e-03, 1.87969934e-02,
          3.75939859e-03, 1.12781953e-02, 3.00751887e-02, 1.50375944e-02,
          0., 1.87969934e-02, 5.26315793e-02, 3.75939859e-03,
          3.75939859e-03, 0., 7.51879718e-03, 3.75939859e-03,
          1.87969934e-02, 0., 7.51879718e-03, 1.50375944e-02,
          3.75939859e-03, 3.75939859e-03, 3.38345878e-02, 0.,
          2.63157897e-02, 2.63157897e-02, 3.75939859e-03, 0.,
          7.51879718e-03, 3.75939859e-03, 3.75939868e-02, 1.12781953e-02,
          0., 3.75939859e-03, 0., 0., 3.75939859e-03, 7.51879718e-03,
          7.51879718e-03, 0., 0. ]
      - [ 0., 1.49253728e-02, 1.49253728e-02, 0., 0., 7.46268639e-03,
          1.49253728e-02, 0., 2.98507456e-02, 1.49253728e-02,
          1.49253728e-02, 0., 0., 0., 0., 0., 3.73134315e-02,
          7.46268639e-03, 0., 0., 0., 1.49253728e-02, 7.46268639e-03, 0.,
          1.49253728e-02, 7.46268639e-03, 0., 4.47761193e-02,
          5.22388034e-02, 2.98507456e-02, 0., 0., 0., 1.49253728e-02,
          7.46268639e-03, 2.23880596e-02, 0., 0., 1.49253728e-02, 0., 0.,
          0., 0., 1.49253728e-02, 0., 0., 7.46268639e-03, 0., 0., 0.,
          7.46268639e-03, 0., 0., 0., 0., 1.49253728e-02, 7.46268639e-03,
          2.23880596e-02, 0., 0., 0., 7.46268639e-03, 0., 7.46268639e-03,
          8.95522386e-02, 7.46268639e-03, 4.47761193e-02, 7.46268639e-03,
          0., 0., 2.23880596e-02, 0., 0., 0., 1.49253728e-02,
          1.49253728e-02, 0., 0., 3.73134315e-02, 0., 0., 0.,
          7.46268639e-03, 4.47761193e-02, 0., 2.98507456e-02, 0.,
          7.46268639e-03, 7.46268639e-03, 0., 0., 1.49253728e-02, 0.,
          7.46268639e-03, 0., 1.34328350e-01, 1.49253728e-02,
          7.46268639e-03, 7.46268639e-03, 0. ]
      - [ 0., 0., 0., 0., 0., 8.96861032e-03, 0., 4.48430516e-03,
          4.48430516e-03, 0., 4.48430516e-03, 0., 1.34529155e-02,
          1.34529155e-02, 8.96861032e-03, 0., 0., 4.48430516e-03, 0., 0.,
          4.48430516e-03, 4.48430516e-03, 0., 0., 0., 0., 8.96861032e-03,
          1.21076241e-01, 3.13901380e-02, 3.13901380e-02, 4.48430516e-03,
          4.48430516e-03, 0., 0., 0., 0., 4.48430516e-03, 4.48430516e-03,
          0., 8.96861032e-03, 0., 0., 0., 4.48430516e-03, 0., 0.,
          1.34529155e-02, 0., 4.48430516e-03, 4.48430516e-03,
          2.69058309e-02, 3.13901380e-02, 0., 4.48430516e-03,
          4.48430516e-03, 0., 8.96861032e-03, 5.82959652e-02,
          4.48430516e-03, 4.48430516e-03, 0., 0., 0., 4.48430516e-03,
          8.52017999e-02, 0., 3.13901380e-02, 9.86547172e-02, 0.,
          1.79372206e-02, 2.69058309e-02, 0., 0., 4.48430516e-03, 0.,
          1.34529155e-02, 0., 1.34529155e-02, 8.96861032e-03, 0.,
          5.82959652e-02, 4.48430516e-03, 0., 4.03587446e-02, 0., 0., 0.,
          0., 0., 4.48430516e-03, 0., 0., 0., 0., 0., 6.72645792e-02,
          5.82959652e-02, 0., 0., 0. ]
      - [ 3.72439483e-03, 1.86219742e-03, 0., 9.31098685e-03,
          1.86219742e-03, 0., 1.86219742e-03, 3.35195549e-02,
          1.11731850e-02, 1.11731850e-02, 1.48975793e-02, 5.58659248e-03,
          1.48975793e-02, 1.48975793e-02, 2.97951587e-02, 5.58659248e-03,
          0., 1.30353821e-02, 1.30353821e-02, 1.86219742e-03,
          1.48975793e-02, 1.86219742e-03, 7.44878966e-03, 3.72439483e-03,
          2.04841718e-02, 7.44878966e-03, 2.04841718e-02, 2.23463699e-02,
          7.44878966e-03, 1.30353821e-02, 5.58659248e-03, 3.72439483e-03,
          1.30353821e-02, 5.58659248e-03, 1.11731850e-02, 9.31098685e-03,
          2.04841718e-02, 7.44878966e-03, 1.86219742e-03, 7.44878966e-03,
          1.86219742e-03, 7.44878966e-03, 1.86219737e-02, 0.,
          7.44878966e-03, 1.30353821e-02, 5.58659248e-03, 9.31098685e-03,
          0., 1.86219737e-02, 3.72439483e-03, 1.86219742e-03,
          9.31098685e-03, 2.79329605e-02, 5.58659248e-03, 0.,
          2.04841718e-02, 9.31098685e-03, 1.48975793e-02, 1.86219742e-03,
          1.86219742e-03, 1.86219742e-03, 2.23463699e-02, 5.58659248e-03,
          1.11731850e-02, 1.67597774e-02, 5.58659248e-03, 2.04841718e-02,
          1.67597774e-02, 9.31098685e-03, 1.86219742e-03, 1.11731850e-02,
          5.58659248e-03, 3.72439483e-03, 1.30353821e-02, 1.11731850e-02,
          7.44878966e-03, 7.44878966e-03, 9.31098685e-03, 1.86219742e-03,
          4.84171323e-02, 2.04841718e-02, 1.86219742e-03, 3.91061455e-02,
          1.86219742e-03, 0., 1.30353821e-02, 7.44878966e-03,
          1.86219742e-03, 1.86219737e-02, 3.72439483e-03, 0.,
          5.58659248e-03, 3.72439483e-03, 7.44878966e-03, 2.97951587e-02,
          2.23463699e-02, 1.86219737e-02, 0., 1.86219742e-03 ]
      - [ 1.30208340e-02, 5.20833349e-03, 2.34375000e-02, 0., 0.,
          2.60416679e-02, 2.60416674e-03, 1.04166670e-02, 1.56250000e-02,
          2.34375000e-02, 0., 5.20833349e-03, 1.56250000e-02,
          2.60416674e-03, 7.81250000e-03, 1.04166670e-02, 7.81250000e-03,
          2.60416674e-03, 7.81250000e-03, 1.56250000e-02, 1.04166670e-02,
          7.81250000e-03, 5.20833349e-03, 1.30208340e-02, 1.30208340e-02,
          2.60416674e-03, 5.20833349e-03, 5.20833358e-02, 5.20833349e-03,
          2.08333340e-02, 5.20833349e-03, 0., 7.81250000e-03,
          1.04166670e-02, 7.81250000e-03, 1.82291679e-02, 1.30208340e-02,
          2.60416674e-03, 2.60416674e-03, 1.30208340e-02, 7.81250000e-03,
          2.60416674e-03, 2.60416674e-03, 7.81250000e-03, 7.81250000e-03,
          2.60416674e-03, 2.60416674e-03, 7.81250000e-03, 1.56250000e-02,
          5.20833349e-03, 0., 1.30208340e-02, 2.60416674e-03,
          1.56250000e-02, 1.30208340e-02, 1.04166670e-02, 2.60416674e-03,
          3.38541679e-02, 1.04166670e-02, 5.20833349e-03, 2.60416674e-03,
          2.08333340e-02, 0., 5.20833349e-03, 1.30208340e-02,
          2.60416674e-03, 1.30208340e-02, 2.34375000e-02, 1.04166670e-02,
          7.81250000e-03, 7.81250000e-03, 5.20833349e-03, 1.82291679e-02,
          1.30208340e-02, 0., 1.82291679e-02, 1.82291679e-02,
          2.34375000e-02, 1.04166670e-02, 2.60416674e-03, 2.34375000e-02,
          7.81250000e-03, 1.04166670e-02, 1.56250000e-02, 1.04166670e-02,
          0., 2.60416674e-03, 5.20833349e-03, 1.56250000e-02,
          1.04166670e-02, 1.82291679e-02, 1.04166670e-02, 2.60416674e-03,
          7.81250000e-03, 0., 2.34375000e-02, 1.30208340e-02, 0.,
          1.82291679e-02, 7.81250000e-03 ]
      - [ 9.85221658e-03, 9.85221658e-03, 3.44827585e-02, 9.85221658e-03,
          4.92610829e-03, 4.92610829e-03, 9.85221658e-03, 0.,
          1.97044332e-02, 9.85221658e-03, 9.85221658e-03, 4.92610829e-03,
          9.85221658e-03, 0., 1.47783253e-02, 3.44827585e-02,
          1.47783253e-02, 4.92610829e-03, 4.92610829e-03, 1.47783253e-02,
          4.92610829e-03, 2.46305410e-02, 4.92610829e-03, 0.,
          1.47783253e-02, 4.92610829e-03, 9.85221658e-03, 2.46305410e-02,
          4.92610829e-03, 9.85221658e-03, 4.92610829e-03, 9.85221658e-03,
          4.92610829e-03, 9.85221658e-03, 9.85221658e-03, 0., 0.,
          1.97044332e-02, 2.46305410e-02, 1.47783253e-02, 4.92610829e-03,
          1.47783253e-02, 4.92610829e-03, 9.85221658e-03, 4.92610829e-03,
          9.85221658e-03, 1.47783253e-02, 4.92610829e-03, 9.85221658e-03,
          4.92610829e-03, 9.85221658e-03, 1.97044332e-02, 1.47783253e-02,
          9.85221658e-03, 0., 9.85221658e-03, 4.92610829e-03,
          1.47783253e-02, 0., 4.92610829e-03, 4.92610829e-03,
          9.85221658e-03, 4.92610829e-03, 9.85221658e-03, 0.,
          9.85221658e-03, 4.92610829e-03, 1.97044332e-02, 0.,
          4.92610829e-03, 1.47783253e-02, 4.92610829e-03, 1.97044332e-02,
          0., 9.85221658e-03, 4.92610829e-03, 9.85221658e-03,
          1.97044332e-02, 0., 0., 0., 1.47783253e-02, 9.85221658e-03, 0.,
          1.47783253e-02, 2.46305410e-02, 0., 9.85221658e-03,
          4.43349741e-02, 4.92610829e-03, 9.85221658e-03, 1.47783253e-02,
          1.97044332e-02, 4.92610829e-03, 9.85221658e-03, 2.46305410e-02,
          9.85221658e-03, 9.85221658e-03, 1.97044332e-02, 0. ]
      - [ 2.94117653e-03, 5.88235306e-03, 2.35294122e-02, 1.76470596e-02,
          0., 8.82352982e-03, 0., 5.88235306e-03, 1.17647061e-02,
          1.17647061e-02, 2.94117653e-03, 2.94117653e-03, 5.88235306e-03,
          0., 2.94117648e-02, 2.94117653e-03, 1.17647061e-02,
          2.94117653e-03, 0., 2.94117653e-03, 3.23529430e-02,
          2.94117653e-03, 8.82352982e-03, 1.47058824e-02, 2.05882359e-02,
          1.76470596e-02, 8.82352982e-03, 0., 5.88235306e-03,
          2.64705885e-02, 2.94117653e-03, 5.88235306e-03, 2.35294122e-02,
          8.82352982e-03, 2.35294122e-02, 8.82352982e-03, 2.94117653e-03,
          0., 3.23529430e-02, 2.94117653e-03, 0., 8.82352982e-03,
          4.70588244e-02, 5.88235306e-03, 2.35294122e-02, 1.17647061e-02,
          8.82352982e-03, 2.94117653e-03, 1.17647061e-02, 5.88235306e-03,
          5.88235306e-03, 5.88235306e-03, 1.76470596e-02, 8.82352982e-03,
          3.23529430e-02, 8.82352982e-03, 1.76470596e-02, 2.94117653e-03,
          2.05882359e-02, 0., 8.82352982e-03, 1.17647061e-02,
          8.82352982e-03, 5.88235306e-03, 0., 3.82352956e-02,
          5.88235306e-03, 5.88235306e-03, 2.94117653e-03, 5.88235306e-03,
          8.82352982e-03, 1.47058824e-02, 1.47058824e-02, 1.17647061e-02,
          2.05882359e-02, 2.94117653e-03, 0., 2.05882359e-02,
          2.94117653e-03, 5.88235306e-03, 2.94117653e-03, 8.82352982e-03,
          5.88235306e-03, 2.94117653e-03, 2.94117653e-03, 0.,
          1.17647061e-02, 0., 8.82352982e-03, 1.47058824e-02,
          1.47058824e-02, 5.88235306e-03, 1.17647061e-02, 8.82352982e-03,
          2.94117653e-03, 1.17647061e-02, 5.88235306e-03, 1.47058824e-02,
          8.82352982e-03, 1.17647061e-02 ]
      - [ 1.09890113e-02, 3.66300368e-03, 2.56410260e-02, 0.,
          1.09890113e-02, 1.83150191e-02, 1.46520147e-02, 1.46520147e-02,
          4.02930416e-02, 3.66300368e-03, 0., 1.09890113e-02,
          7.32600736e-03, 0., 0., 1.46520147e-02, 3.66300368e-03, 0., 0.,
          1.83150191e-02, 1.09890113e-02, 1.46520147e-02, 1.09890113e-02,
          7.32600736e-03, 1.09890113e-02, 7.32600736e-03, 3.66300368e-03,
          2.19780225e-02, 0., 1.46520147e-02, 7.32600736e-03,
          1.46520147e-02, 7.32600736e-03, 7.32600736e-03, 1.09890113e-02,
          1.09890113e-02, 3.66300368e-03, 0., 1.83150191e-02,
          1.83150191e-02, 1.46520147e-02, 1.83150191e-02, 1.09890113e-02,
          0., 2.56410260e-02, 3.66300368e-03, 7.32600736e-03,
          3.66300368e-03, 1.83150191e-02, 1.46520147e-02, 0.,
          2.93040294e-02, 0., 1.09890113e-02, 3.66300368e-03,
          1.09890113e-02, 1.46520147e-02, 2.19780225e-02, 1.46520147e-02,
          0., 0., 2.56410260e-02, 0., 1.46520147e-02, 1.83150191e-02,
          1.83150191e-02, 7.32600736e-03, 1.46520147e-02, 3.66300368e-03,
          0., 2.19780225e-02, 7.32600736e-03, 3.66300368e-03,
          3.66300368e-03, 2.93040294e-02, 3.66300368e-03, 2.93040294e-02,
          7.32600736e-03, 3.66300368e-03, 0., 3.66300368e-03, 0.,
          1.46520147e-02, 1.09890113e-02, 0., 0., 1.83150191e-02,
          3.66300368e-03, 1.46520147e-02, 0., 0., 1.09890113e-02, 0.,
          3.66300368e-03, 0., 3.29670347e-02, 3.66300368e-03,
          7.32600736e-03, 3.29670347e-02, 7.32600736e-03 ]
      - [ 2.42718458e-02, 1.45631069e-02, 5.33980578e-02, 1.94174759e-02,
          0., 9.70873795e-03, 0., 0., 1.94174759e-02, 1.45631069e-02, 0.,
          4.85436898e-03, 0., 0., 4.85436898e-03, 2.91262139e-02,
          9.70873795e-03, 4.85436898e-03, 0., 4.36893217e-02, 0., 0.,
          4.85436898e-03, 0., 9.70873795e-03, 1.45631069e-02, 0.,
          3.39805819e-02, 0., 1.45631069e-02, 0., 0., 0., 1.45631069e-02,
          9.70873795e-03, 9.70873795e-03, 4.85436898e-03, 9.70873795e-03,
          2.91262139e-02, 9.70873795e-03, 9.70873795e-03, 0.,
          9.70873795e-03, 1.45631069e-02, 4.85436898e-03, 1.45631069e-02,
          0., 0., 9.70873795e-03, 1.94174759e-02, 0., 1.94174759e-02, 0.,
          9.70873795e-03, 0., 4.85436898e-03, 9.70873795e-03,
          9.70873795e-03, 9.70873795e-03, 4.85436898e-03, 4.85436898e-03,
          4.36893217e-02, 0., 4.85436898e-03, 4.85436898e-03, 0.,
          4.85436898e-03, 0., 0., 0., 2.91262139e-02, 9.70873795e-03,
          4.36893217e-02, 1.45631069e-02, 0., 4.85436898e-03,
          5.82524277e-02, 3.88349518e-02, 1.45631069e-02, 3.88349518e-02,
          0., 4.85436898e-03, 4.85436898e-03, 0., 4.85436898e-03,
          9.70873795e-03, 1.45631069e-02, 0., 2.42718458e-02, 0.,
          1.45631069e-02, 9.70873795e-03, 4.85436898e-03, 0., 0.,
          1.45631069e-02, 0., 0., 9.70873795e-03, 0. ]
      - [ 1.25523005e-02, 0., 4.18410040e-02, 8.36820062e-03, 0.,
          4.18410031e-03, 4.18410031e-03, 4.18410031e-03, 8.36820062e-03,
          8.36820062e-03, 4.18410031e-03, 4.18410031e-03, 8.36820062e-03,
          0., 8.36820062e-03, 4.18410031e-03, 2.09205020e-02, 0.,
          4.18410031e-03, 2.92887017e-02, 4.18410031e-03, 4.18410031e-03,
          2.09205020e-02, 1.25523005e-02, 8.36820062e-03, 1.25523005e-02,
          2.09205020e-02, 5.02092019e-02, 1.67364012e-02, 1.25523005e-02,
          0., 0., 4.18410031e-03, 0., 8.36820062e-03, 1.25523005e-02, 0.,
          0., 1.25523005e-02, 2.51046009e-02, 4.18410031e-03,
          1.25523005e-02, 8.36820062e-03, 0., 4.18410031e-03, 0.,
          1.67364012e-02, 0., 0., 2.09205020e-02, 2.09205020e-02,
          2.51046009e-02, 1.25523005e-02, 8.36820062e-03, 4.18410031e-03,
          1.25523005e-02, 1.25523005e-02, 5.43933026e-02, 1.25523005e-02,
          8.36820062e-03, 8.36820062e-03, 0., 0., 0., 1.25523005e-02,
          8.36820062e-03, 2.92887017e-02, 3.76569033e-02, 0., 0.,
          2.92887017e-02, 2.09205020e-02, 2.51046009e-02, 0.,
          1.25523005e-02, 0., 1.67364012e-02, 0., 2.51046009e-02, 0.,
          1.67364012e-02, 0., 4.18410031e-03, 1.25523005e-02, 0.,
          4.18410031e-03, 0., 4.18410031e-03, 1.67364012e-02, 0.,
          1.25523005e-02, 8.36820062e-03, 0., 2.09205020e-02, 0.,
          1.25523005e-02, 4.18410031e-03, 0., 8.36820062e-03,
          8.36820062e-03 ]
      - [ 0., 7.87401572e-03, 4.72440943e-02, 1.96850393e-02, 0.,
          2.36220472e-02, 3.93700786e-03, 3.93700786e-03, 7.87401572e-03,
          1.96850393e-02, 0., 3.93700786e-03, 3.93700786e-03, 0.,
          1.18110236e-02, 7.87401572e-03, 3.14960629e-02, 3.93700786e-03,
          0., 1.96850393e-02, 0., 1.96850393e-02, 1.96850393e-02,
          3.93700786e-03, 2.75590550e-02, 3.93700786e-03, 1.96850393e-02,
          3.54330689e-02, 1.57480314e-02, 1.18110236e-02, 3.93700786e-03,
          0., 1.96850393e-02, 1.57480314e-02, 1.18110236e-02,
          7.87401572e-03, 0., 3.93700786e-03, 1.18110236e-02,
          1.57480314e-02, 3.93700786e-03, 7.87401572e-03, 1.18110236e-02,
          0., 1.18110236e-02, 1.57480314e-02, 1.18110236e-02, 0.,
          7.87401572e-03, 1.18110236e-02, 3.93700786e-03, 2.36220472e-02,
          3.93700786e-03, 3.93700786e-03, 3.93700786e-03, 3.93700786e-03,
          1.96850393e-02, 2.75590550e-02, 1.18110236e-02, 1.96850393e-02,
          1.18110236e-02, 7.87401572e-03, 3.93700786e-03, 0.,
          3.93700786e-03, 1.96850393e-02, 3.93700786e-03, 0.,
          7.87401572e-03, 0., 1.18110236e-02, 1.57480314e-02,
          2.36220472e-02, 3.93700786e-03, 1.18110236e-02, 3.93700786e-03,
          1.18110236e-02, 2.75590550e-02, 7.87401572e-03, 0.,
          7.87401572e-03, 0., 3.93700786e-03, 1.18110236e-02, 0.,
          7.87401572e-03, 1.18110236e-02, 3.93700786e-03, 1.18110236e-02,
          3.93700786e-03, 3.93700786e-03, 1.57480314e-02, 0.,
          1.57480314e-02, 7.87401572e-03, 3.93700786e-03, 3.93700786e-03,
          7.87401572e-03, 2.36220472e-02, 7.87401572e-03 ]
      - [ 1.35135138e-02, 9.00900923e-03, 3.60360369e-02, 9.00900923e-03,
          4.50450461e-03, 1.35135138e-02, 1.35135138e-02, 4.50450461e-03,
          2.25225240e-02, 0., 0., 3.60360369e-02, 9.00900923e-03, 0.,
          9.00900923e-03, 1.80180185e-02, 1.35135138e-02, 0., 0.,
          3.15315314e-02, 1.80180185e-02, 9.00900923e-03, 4.50450461e-03,
          1.35135138e-02, 2.25225240e-02, 9.00900923e-03, 4.50450461e-03,
          1.80180185e-02, 9.00900923e-03, 1.80180185e-02, 9.00900923e-03,
          9.00900923e-03, 1.35135138e-02, 1.35135138e-02, 1.35135138e-02,
          4.50450461e-03, 0., 4.50450461e-03, 2.25225240e-02,
          1.35135138e-02, 4.50450461e-03, 1.80180185e-02, 4.50450461e-03,
          9.00900923e-03, 0., 9.00900923e-03, 9.00900923e-03,
          1.35135138e-02, 1.80180185e-02, 1.80180185e-02, 0.,
          3.60360369e-02, 9.00900923e-03, 1.80180185e-02, 4.50450461e-03,
          0., 1.35135138e-02, 1.80180185e-02, 0., 9.00900923e-03,
          4.50450461e-03, 1.80180185e-02, 4.50450461e-03, 4.50450461e-03,
          0., 9.00900923e-03, 4.50450461e-03, 0., 0., 0., 4.50450461e-03,
          4.50450461e-03, 9.00900923e-03, 4.50450461e-03, 0.,
          4.50450461e-03, 1.35135138e-02, 1.80180185e-02, 0.,
          4.50450461e-03, 9.00900923e-03, 0., 1.35135138e-02, 0.,
          4.50450461e-03, 0., 9.00900923e-03, 4.50450461e-03,
          2.25225240e-02, 0., 9.00900923e-03, 9.00900923e-03,
          9.00900923e-03, 1.35135138e-02, 0., 5.40540554e-02,
          1.35135138e-02, 4.50450461e-03, 2.70270277e-02, 4.50450461e-03 ]
      - [ 0., 0., 2.25563906e-02, 0., 0., 7.51879718e-03, 0., 0.,
          3.00751887e-02, 7.51879718e-03, 0., 1.50375944e-02,
          7.51879718e-03, 0., 7.51879718e-03, 7.51879718e-03, 0.,
          7.51879718e-03, 0., 7.51879718e-03, 1.50375944e-02,
          7.51879718e-03, 1.50375944e-02, 0., 3.75939868e-02,
          7.51879718e-03, 0., 4.51127812e-02, 1.50375944e-02,
          7.51879718e-03, 1.50375944e-02, 2.25563906e-02, 0., 0., 0.,
          2.25563906e-02, 0., 1.50375944e-02, 2.25563906e-02,
          7.51879718e-03, 0., 0., 0., 0., 0., 0., 3.00751887e-02, 0., 0.,
          0., 2.25563906e-02, 5.26315793e-02, 1.50375944e-02, 0., 0., 0.,
          1.50375944e-02, 6.01503775e-02, 0., 1.50375944e-02, 0.,
          7.51879718e-03, 0., 3.75939868e-02, 7.51879718e-03,
          7.51879718e-03, 1.50375944e-02, 7.51879718e-03, 0.,
          1.50375944e-02, 3.00751887e-02, 0., 3.75939868e-02, 0.,
          1.50375944e-02, 0., 0., 1.50375944e-02, 0., 0., 1.50375944e-02,
          0., 7.51879718e-03, 3.00751887e-02, 0., 0., 2.25563906e-02, 0.,
          2.25563906e-02, 0., 0., 0., 0., 3.00751887e-02, 0.,
          3.00751887e-02, 5.26315793e-02, 7.51879718e-03, 0., 0. ]
      - [ 5.49450563e-03, 0., 1.92307699e-02, 1.37362638e-02,
          2.74725282e-03, 2.47252751e-02, 8.24175868e-03, 3.29670347e-02,
          8.24175868e-03, 8.24175868e-03, 1.37362638e-02, 1.09890113e-02,
          1.37362638e-02, 2.74725282e-03, 1.09890113e-02, 8.24175868e-03,
          8.24175868e-03, 5.49450563e-03, 2.74725282e-03, 5.49450563e-03,
          2.47252751e-02, 2.74725282e-03, 5.49450563e-03, 5.49450563e-03,
          8.24175868e-03, 2.47252751e-02, 1.37362638e-02, 5.49450563e-03,
          1.09890113e-02, 2.19780225e-02, 5.49450563e-03, 0.,
          8.24175868e-03, 2.19780225e-02, 1.37362638e-02, 1.09890113e-02,
          5.49450563e-03, 0., 8.24175868e-03, 1.37362638e-02,
          1.09890113e-02, 8.24175868e-03, 1.92307699e-02, 8.24175868e-03,
          5.49450563e-03, 8.24175868e-03, 8.24175868e-03, 1.37362638e-02,
          1.09890113e-02, 5.49450563e-03, 0., 2.74725282e-03,
          2.19780225e-02, 2.19780225e-02, 2.47252751e-02, 2.74725282e-03,
          2.19780225e-02, 5.49450563e-03, 2.47252751e-02, 8.24175868e-03,
          2.74725282e-03, 8.24175868e-03, 8.24175868e-03, 1.64835174e-02,
          2.74725282e-03, 1.37362638e-02, 2.19780225e-02, 0.,
          5.49450563e-03, 2.74725282e-03, 1.64835174e-02, 1.37362638e-02,
          1.37362638e-02, 2.74725282e-03, 1.92307699e-02, 2.47252751e-02,
          2.74725282e-03, 5.49450563e-03, 1.92307699e-02, 0.,
          2.74725282e-03, 8.24175868e-03, 2.74725282e-03, 5.49450563e-03,
          8.24175868e-03, 5.49450563e-03, 2.74725282e-03, 1.09890113e-02,
          2.74725282e-03, 5.49450563e-03, 8.24175868e-03, 0.,
          1.37362638e-02, 5.49450563e-03, 1.64835174e-02, 8.24175868e-03,
          2.74725282e-03, 3.02197803e-02, 2.74725282e-03, 5.49450563e-03 ]
      - [ 2.36966833e-02, 9.47867334e-03, 1.89573467e-02, 4.73933667e-03,
          4.73933667e-03, 4.73933667e-03, 4.73933667e-03, 9.47867334e-03,
          0., 0., 0., 1.42180100e-02, 4.73933667e-03, 0., 4.73933667e-03,
          9.47867334e-03, 2.36966833e-02, 4.73933667e-03, 0.,
          2.84360200e-02, 4.73933667e-03, 1.89573467e-02, 4.73933667e-03,
          4.26540300e-02, 0., 9.47867334e-03, 9.47867334e-03,
          5.68720400e-02, 9.47867334e-03, 4.73933667e-03, 1.42180100e-02,
          1.42180100e-02, 0., 0., 0., 2.36966833e-02, 9.47867334e-03,
          4.73933667e-03, 4.73933667e-03, 4.73933667e-03, 0.,
          1.42180100e-02, 0., 4.73933667e-03, 0., 0., 1.89573467e-02,
          9.47867334e-03, 1.42180100e-02, 1.42180100e-02, 9.47867334e-03,
          3.31753567e-02, 4.73933667e-03, 0., 0., 9.47867334e-03,
          9.47867334e-03, 3.79146934e-02, 0., 0., 0., 9.47867334e-03, 0.,
          0., 1.42180100e-02, 0., 0., 3.79146934e-02, 4.73933667e-03, 0.,
          3.79146934e-02, 0., 1.42180100e-02, 9.47867334e-03, 0.,
          1.42180100e-02, 0., 9.47867334e-03, 1.89573467e-02,
          9.47867334e-03, 1.42180100e-02, 0., 9.47867334e-03,
          4.73933667e-03, 0., 0., 9.47867334e-03, 1.89573467e-02,
          3.31753567e-02, 0., 4.73933667e-03, 3.31753567e-02,
          4.73933667e-03, 2.36966833e-02, 4.73933667e-03, 2.36966833e-02,
          1.42180100e-02, 4.73933667e-03, 2.84360200e-02, 0. ]
      - [ 1.57728717e-02, 1.26182968e-02, 1.89274456e-02, 3.15457419e-03,
          1.26182968e-02, 1.57728717e-02, 6.30914839e-03, 6.30914839e-03,
          9.46372282e-03, 3.15457419e-03, 0., 1.89274456e-02,
          6.30914839e-03, 3.15457419e-03, 1.57728717e-02, 9.46372282e-03,
          2.52365936e-02, 0., 3.15457419e-03, 9.46372282e-03,
          1.57728717e-02, 6.30914839e-03, 3.15457419e-03, 1.26182968e-02,
          1.26182968e-02, 1.26182968e-02, 0., 1.57728717e-02,
          1.57728717e-02, 2.83911675e-02, 3.15457419e-03, 6.30914839e-03,
          3.15457419e-03, 2.83911675e-02, 9.46372282e-03, 2.52365936e-02,
          3.15457419e-03, 0., 2.20820196e-02, 2.20820196e-02,
          9.46372282e-03, 0., 0., 6.30914839e-03, 1.26182968e-02,
          6.30914839e-03, 0., 3.15457419e-03, 1.26182968e-02,
          6.30914839e-03, 0., 2.20820196e-02, 9.46372282e-03,
          9.46372282e-03, 6.30914839e-03, 0., 3.15457419e-03,
          9.46372282e-03, 0., 0., 3.15457419e-03, 1.89274456e-02,
          9.46372282e-03, 2.83911675e-02, 1.26182968e-02, 2.52365936e-02,
          6.30914839e-03, 1.26182968e-02, 3.15457419e-03, 1.26182968e-02,
          4.41640392e-02, 6.30914839e-03, 4.10094634e-02, 0.,
          1.57728717e-02, 9.46372282e-03, 6.30914839e-03, 1.89274456e-02,
          1.26182968e-02, 0., 6.30914839e-03, 6.30914839e-03,
          1.26182968e-02, 3.15457419e-03, 3.15457419e-03, 9.46372282e-03,
          6.30914839e-03, 9.46372282e-03, 1.26182968e-02, 9.46372282e-03,
          9.46372282e-03, 3.15457419e-03, 3.15457419e-03, 0.,
          6.30914839e-03, 2.52365936e-02, 0., 6.30914839e-03,
          9.46372282e-03, 1.26182968e-02 ]
      - [ 2.90697673e-03, 5.81395347e-03, 2.03488376e-02, 1.45348832e-02,
          0., 1.45348832e-02, 5.81395347e-03, 8.72093067e-03,
          8.72093067e-03, 5.81395347e-03, 5.81395347e-03, 8.72093067e-03,
          5.81395347e-03, 2.90697673e-03, 1.45348832e-02, 1.45348832e-02,
          1.45348832e-02, 1.74418613e-02, 5.81395347e-03, 1.45348832e-02,
          2.90697673e-03, 8.72093067e-03, 8.72093067e-03, 1.74418613e-02,
          1.16279069e-02, 1.45348832e-02, 5.81395347e-03, 2.90697664e-02,
          1.16279069e-02, 2.32558139e-02, 2.90697673e-03, 1.45348832e-02,
          8.72093067e-03, 2.03488376e-02, 8.72093067e-03, 1.16279069e-02,
          2.90697673e-03, 5.81395347e-03, 1.16279069e-02, 2.90697664e-02,
          5.81395347e-03, 5.81395347e-03, 1.16279069e-02, 2.90697673e-03,
          0., 8.72093067e-03, 1.45348832e-02, 1.16279069e-02,
          1.16279069e-02, 2.90697673e-03, 0., 2.32558139e-02,
          8.72093067e-03, 2.03488376e-02, 8.72093067e-03, 1.16279069e-02,
          5.81395347e-03, 2.32558139e-02, 0., 2.90697673e-03,
          2.90697673e-03, 5.81395347e-03, 0., 5.81395347e-03,
          1.74418613e-02, 8.72093067e-03, 5.81395347e-03, 5.81395347e-03,
          2.90697673e-03, 0., 8.72093067e-03, 1.16279069e-02,
          1.16279069e-02, 5.81395347e-03, 1.16279069e-02, 1.74418613e-02,
          5.81395347e-03, 1.74418613e-02, 8.72093067e-03, 0.,
          2.61627901e-02, 8.72093067e-03, 5.81395347e-03, 5.81395347e-03,
          0., 5.81395347e-03, 1.16279069e-02, 1.45348832e-02,
          1.74418613e-02, 8.72093067e-03, 1.45348832e-02, 5.81395347e-03,
          2.90697673e-03, 8.72093067e-03, 8.72093067e-03, 1.74418613e-02,
          1.74418613e-02, 8.72093067e-03, 1.45348832e-02, 2.03488376e-02 ]
      - [ 3.23624606e-03, 9.70873795e-03, 5.17799370e-02, 1.29449842e-02,
          3.23624606e-03, 0., 0., 3.55987065e-02, 1.61812305e-02,
          1.61812305e-02, 1.94174759e-02, 3.23624606e-03, 6.47249212e-03,
          0., 2.58899685e-02, 6.47249212e-03, 6.47249212e-03,
          3.23624606e-03, 0., 1.94174759e-02, 1.29449842e-02,
          1.94174759e-02, 9.70873795e-03, 3.23624606e-03, 2.58899685e-02,
          1.94174759e-02, 0., 1.61812305e-02, 0., 9.70873795e-03,
          1.29449842e-02, 0., 9.70873795e-03, 1.94174759e-02,
          6.47249212e-03, 6.47249212e-03, 3.23624606e-03, 0.,
          2.91262139e-02, 1.61812305e-02, 6.47249212e-03, 6.47249212e-03,
          1.61812305e-02, 3.23624606e-03, 1.29449842e-02, 0., 0., 0.,
          3.23624606e-03, 2.58899685e-02, 0., 9.70873795e-03,
          3.23624606e-03, 2.26537231e-02, 2.26537231e-02, 4.85436916e-02,
          6.47249212e-03, 9.70873795e-03, 0., 9.70873795e-03, 0.,
          1.61812305e-02, 1.94174759e-02, 6.47249212e-03, 3.23624606e-03,
          3.23624606e-03, 9.70873795e-03, 3.23624606e-03, 9.70873795e-03,
          0., 1.61812305e-02, 1.94174759e-02, 9.70873795e-03, 0.,
          1.94174759e-02, 1.61812305e-02, 3.23624606e-03, 1.61812305e-02,
          6.47249212e-03, 6.47249212e-03, 3.23624606e-03, 0.,
          9.70873795e-03, 6.47249212e-03, 0., 3.23624606e-03,
          9.70873795e-03, 0., 2.58899685e-02, 3.23624606e-03,
          3.23624606e-03, 9.70873795e-03, 1.29449842e-02, 0.,
          6.47249212e-03, 6.47249212e-03, 3.23624606e-03, 1.61812305e-02,
          1.94174759e-02, 9.70873795e-03 ]
      - [ 3.12500005e-03, 3.12500005e-03, 5.31250015e-02, 2.50000004e-02,
          3.12500005e-03, 9.37500037e-03, 9.37500037e-03, 1.56250000e-02,
          3.12500005e-03, 9.37500037e-03, 6.25000009e-03, 0.,
          1.56250000e-02, 3.12500005e-03, 2.18749996e-02, 9.37500037e-03,
          1.25000002e-02, 6.25000009e-03, 3.12500005e-03, 1.56250000e-02,
          3.12500005e-03, 3.12500005e-03, 6.25000009e-03, 6.25000009e-03,
          1.56250000e-02, 6.25000009e-03, 1.87500007e-02, 0.,
          6.25000009e-03, 2.18749996e-02, 9.37500037e-03, 3.12500005e-03,
          1.56250000e-02, 9.37500037e-03, 1.87500007e-02, 6.25000009e-03,
          1.25000002e-02, 0., 3.12500000e-02, 2.50000004e-02,
          6.25000009e-03, 6.25000009e-03, 2.50000004e-02, 6.25000009e-03,
          6.25000009e-03, 6.25000009e-03, 9.37500037e-03, 3.12500005e-03,
          1.25000002e-02, 9.37500037e-03, 0., 9.37500037e-03,
          9.37500037e-03, 2.50000004e-02, 3.12500000e-02, 6.25000009e-03,
          9.37500037e-03, 1.25000002e-02, 6.25000009e-03, 3.12500005e-03,
          6.25000009e-03, 0., 9.37500037e-03, 1.25000002e-02,
          6.25000009e-03, 1.56250000e-02, 2.18749996e-02, 3.12500005e-03,
          3.12500005e-03, 3.12500005e-03, 1.25000002e-02, 3.43750007e-02,
          1.25000002e-02, 9.37500037e-03, 2.18749996e-02, 1.25000002e-02,
          3.12500005e-03, 9.37500037e-03, 6.25000009e-03, 0.,
          6.25000009e-03, 6.25000009e-03, 3.12500005e-03, 0.,
          6.25000009e-03, 6.25000009e-03, 3.12500005e-03, 1.25000002e-02,
          1.87500007e-02, 0., 1.56250000e-02, 6.25000009e-03,
          6.25000009e-03, 3.12500005e-03, 9.37500037e-03, 1.87500007e-02,
          3.12500005e-03, 6.25000009e-03, 1.25000002e-02, 3.12500005e-03 ]
      - [ 5.98802418e-03, 5.98802418e-03, 7.78443143e-02, 1.79640725e-02,
          0., 1.79640725e-02, 5.98802418e-03, 0., 5.98802418e-03,
          5.98802418e-03, 0., 5.98802418e-03, 0., 0., 1.79640725e-02,
          3.59281451e-02, 0., 1.19760484e-02, 2.99401209e-02,
          5.98802418e-03, 5.98802418e-03, 1.79640725e-02, 5.98802418e-03,
          1.19760484e-02, 1.19760484e-02, 0., 0., 4.19161692e-02,
          5.98802418e-03, 1.79640725e-02, 5.98802418e-03, 5.98802418e-03,
          0., 5.98802418e-03, 0., 2.99401209e-02, 2.39520967e-02,
          2.39520967e-02, 1.19760484e-02, 1.19760484e-02, 0., 0., 0., 0.,
          0., 0., 5.98802418e-03, 0., 1.79640725e-02, 5.98802418e-03,
          5.98802418e-03, 1.19760484e-02, 0., 0., 5.98802418e-03, 0.,
          5.98802418e-03, 2.39520967e-02, 5.98802418e-03, 0., 0.,
          1.19760484e-02, 0., 5.98802418e-03, 2.39520967e-02, 0.,
          1.19760484e-02, 1.79640725e-02, 0., 0., 1.79640725e-02,
          5.98802418e-03, 2.39520967e-02, 0., 0., 5.98802418e-03,
          1.79640725e-02, 2.39520967e-02, 0., 0., 1.79640725e-02, 0., 0.,
          2.99401209e-02, 5.98802418e-03, 5.98802418e-03, 1.19760484e-02,
          5.98802418e-03, 2.39520967e-02, 5.98802418e-03, 5.98802418e-03,
          5.98802418e-03, 1.19760484e-02, 5.98802418e-03, 0.,
          5.98802418e-02, 1.79640725e-02, 0., 1.79640725e-02,
          1.79640725e-02 ]
      - [ 4.87804879e-03, 2.19512191e-02, 4.87804879e-03, 4.87804879e-03,
          9.75609757e-03, 2.43902439e-03, 1.46341464e-02, 1.70731712e-02,
          1.21951215e-02, 1.95121951e-02, 0., 1.46341464e-02,
          9.75609757e-03, 7.31707318e-03, 1.21951215e-02, 4.87804879e-03,
          1.95121951e-02, 7.31707318e-03, 9.75609757e-03, 9.75609757e-03,
          1.21951215e-02, 0., 2.43902439e-03, 4.87804879e-03,
          7.31707318e-03, 2.19512191e-02, 4.87804879e-03, 9.75609757e-03,
          2.43902439e-03, 9.75609757e-03, 2.19512191e-02, 1.21951215e-02,
          4.87804879e-03, 1.70731712e-02, 1.21951215e-02, 2.43902439e-03,
          7.31707318e-03, 5.60975596e-02, 4.87804879e-03, 7.31707318e-03,
          2.19512191e-02, 4.87804879e-03, 0., 2.43902430e-02,
          1.46341464e-02, 2.68292688e-02, 4.87804879e-03, 1.95121951e-02,
          1.95121951e-02, 7.31707318e-03, 1.46341464e-02, 2.43902439e-03,
          1.21951215e-02, 1.21951215e-02, 2.43902439e-03, 1.46341464e-02,
          9.75609757e-03, 4.87804879e-03, 1.46341464e-02, 4.87804879e-03,
          2.43902439e-03, 7.31707318e-03, 1.21951215e-02, 1.21951215e-02,
          9.75609757e-03, 1.46341464e-02, 4.87804879e-03, 7.31707318e-03,
          9.75609757e-03, 7.31707318e-03, 2.43902439e-03, 4.87804879e-03,
          2.43902439e-03, 0., 7.31707318e-03, 7.31707318e-03,
          7.31707318e-03, 2.43902439e-03, 1.21951215e-02, 2.43902439e-03,
          2.43902439e-03, 1.21951215e-02, 4.87804879e-03, 2.19512191e-02,
          9.75609757e-03, 0., 2.43902439e-03, 7.31707318e-03,
          1.95121951e-02, 7.31707318e-03, 2.43902430e-02, 0.,
          2.43902439e-03, 2.43902439e-03, 7.31707318e-03, 0.,
          4.87804860e-02, 1.70731712e-02, 0., 7.31707318e-03 ]
      - [ 0., 1.32743362e-02, 2.50737462e-02, 1.03244837e-02,
          2.94985250e-03, 2.65486725e-02, 1.47492625e-03, 8.84955749e-03,
          1.62241887e-02, 1.91740412e-02, 8.84955749e-03, 1.47492625e-03,
          7.37463124e-03, 5.89970499e-03, 2.35988200e-02, 2.94985250e-03,
          5.89970499e-03, 1.17994100e-02, 1.47492625e-03, 1.17994100e-02,
          4.42477874e-03, 1.17994100e-02, 1.47492625e-03, 2.06489675e-02,
          5.89970499e-03, 1.32743362e-02, 5.89970499e-03, 2.35988200e-02,
          0., 2.80235987e-02, 7.37463124e-03, 2.94985250e-03,
          5.89970499e-03, 4.42477874e-03, 1.03244837e-02, 4.42477874e-03,
          1.91740412e-02, 2.94985250e-03, 1.91740412e-02, 1.47492625e-02,
          5.89970499e-03, 1.17994100e-02, 1.32743362e-02, 7.37463124e-03,
          1.32743362e-02, 7.37463124e-03, 5.89970499e-03, 7.37463124e-03,
          1.47492625e-02, 1.47492625e-03, 1.47492625e-03, 2.94985250e-03,
          2.94985250e-03, 1.76991150e-02, 2.94985250e-03, 1.03244837e-02,
          1.03244837e-02, 1.62241887e-02, 1.32743362e-02, 1.47492625e-03,
          4.42477874e-03, 1.03244837e-02, 3.39233056e-02, 1.32743362e-02,
          7.37463124e-03, 8.84955749e-03, 8.84955749e-03, 0.,
          1.03244837e-02, 2.65486725e-02, 1.47492625e-02, 5.89970499e-03,
          3.53982300e-02, 0., 5.89970499e-03, 7.37463124e-03,
          1.32743362e-02, 1.17994100e-02, 1.03244837e-02, 0.,
          4.42477874e-03, 1.32743362e-02, 1.47492625e-03, 1.76991150e-02,
          4.42477874e-03, 4.42477874e-03, 4.42477874e-03, 1.76991150e-02,
          4.42477874e-03, 2.21238937e-02, 5.89970499e-03, 7.37463124e-03,
          2.94985250e-03, 2.94985250e-03, 8.84955749e-03, 2.50737462e-02,
          0., 1.91740412e-02, 2.35988200e-02, 1.47492625e-03 ]
      - [ 0., 1.04438644e-02, 1.30548310e-02, 0., 2.61096610e-03,
          2.61096610e-03, 3.13315913e-02, 7.83289783e-03, 1.04438644e-02,
          1.30548310e-02, 1.30548310e-02, 7.83289783e-03, 1.04438644e-02,
          7.83289783e-03, 0., 5.22193220e-03, 1.56657957e-02,
          1.04438644e-02, 4.69973907e-02, 0., 1.82767622e-02,
          1.04438644e-02, 2.61096610e-03, 2.61096610e-03, 7.83289783e-03,
          1.82767622e-02, 7.83289783e-03, 0., 5.22193220e-03,
          5.22193220e-03, 1.82767622e-02, 0., 1.82767622e-02,
          2.34986953e-02, 1.56657957e-02, 2.61096610e-03, 1.56657957e-02,
          3.65535244e-02, 2.61096610e-03, 2.61096610e-03, 2.08877288e-02,
          5.22193220e-03, 2.61096610e-03, 0., 0., 5.22193220e-03,
          4.69973907e-02, 2.34986953e-02, 7.83289783e-03, 7.83289783e-03,
          0., 0., 5.22193220e-03, 7.83289783e-03, 2.61096610e-03,
          2.61096610e-03, 1.04438644e-02, 2.61096610e-03, 1.56657957e-02,
          1.04438644e-02, 2.61096610e-03, 1.04438644e-02, 5.22193220e-03,
          3.13315913e-02, 5.22193220e-03, 1.04438644e-02, 1.04438644e-02,
          5.22193220e-03, 2.61096610e-03, 2.34986953e-02, 5.22193220e-03,
          1.82767622e-02, 1.56657957e-02, 0., 5.22193220e-03,
          7.83289783e-03, 0., 1.30548310e-02, 2.61096619e-02, 0.,
          2.61096610e-03, 2.61096619e-02, 2.61096610e-03, 1.56657957e-02,
          2.61096610e-03, 5.22193220e-03, 1.30548310e-02, 2.61096610e-03,
          1.04438644e-02, 2.61096619e-02, 1.04438644e-02, 2.61096610e-03,
          1.04438644e-02, 5.22193220e-03, 5.22193220e-03, 2.61096610e-03,
          2.87206266e-02, 1.56657957e-02, 2.61096610e-03, 1.04438644e-02 ]
      - [ 1.59999989e-02, 2.66666664e-03, 1.06666666e-02, 5.33333328e-03,
          0., 5.33333328e-03, 0., 2.66666664e-03, 0., 1.06666666e-02,
          5.33333328e-03, 0., 5.33333328e-03, 0., 5.33333328e-03,
          2.66666664e-03, 0., 0., 0., 1.17333330e-01, 0., 5.33333328e-03,
          2.66666664e-03, 1.59999989e-02, 2.66666664e-03, 0., 0.,
          1.33333337e-02, 1.59999989e-02, 2.66666664e-03, 2.66666664e-03,
          0., 0., 0., 7.99999945e-03, 2.66666664e-03, 0., 0.,
          2.66666673e-02, 7.99999945e-03, 0., 2.93333326e-02,
          5.33333328e-03, 0., 5.33333328e-03, 0., 0., 0., 0.,
          2.13333331e-02, 0., 2.66666664e-03, 0., 1.59999989e-02,
          5.33333328e-03, 2.40000002e-02, 1.06666666e-02, 2.66666664e-03,
          0., 5.33333328e-03, 0., 7.99999945e-03, 0., 0., 0., 0.,
          5.33333328e-03, 0., 1.06666666e-02, 0., 5.33333328e-03,
          1.06666666e-02, 2.93333326e-02, 1.33333337e-02, 1.59999989e-02,
          5.33333328e-03, 2.08000004e-01, 7.99999945e-03, 0.,
          2.93333326e-02, 0., 0., 5.33333328e-03, 0., 0., 2.13333331e-02,
          0., 0., 1.06666666e-02, 0., 0., 1.33333337e-02, 0., 0.,
          5.33333328e-03, 3.99999991e-02, 0., 0., 1.14666663e-01,
          1.59999989e-02 ]
      - [ 1.62601620e-02, 1.62601620e-02, 0., 0., 0., 0., 1.62601620e-02,
          1.62601620e-02, 0., 1.62601620e-02, 8.13008100e-03,
          8.13008100e-03, 0., 0., 8.13008100e-03, 8.13008100e-03, 0.,
          2.43902430e-02, 0., 0., 8.13008100e-03, 0., 1.62601620e-02,
          8.13008100e-03, 2.43902430e-02, 8.13008100e-03, 0., 0., 0.,
          8.13008100e-03, 0., 8.13008100e-03, 0., 3.25203240e-02,
          3.25203240e-02, 0., 0., 1.05691053e-01, 8.13008100e-03,
          8.13008100e-03, 0., 1.62601620e-02, 2.43902430e-02, 0.,
          8.13008100e-03, 6.50406480e-02, 0., 8.13008100e-03,
          3.25203240e-02, 1.62601620e-02, 0., 0., 8.13008100e-03,
          5.69105670e-02, 8.13008100e-03, 3.25203240e-02, 8.13008100e-03,
          0., 0., 0., 0., 4.06504050e-02, 3.25203240e-02, 8.13008100e-03,
          0., 2.43902430e-02, 0., 0., 2.43902430e-02, 0., 0.,
