%YAML:1.0
---
opencv_ml_svm:
   format: 3
   svmType: C_SVC
   kernel:
      type: CHI2
      gamma: 1.
   C: 100.
   term_criteria: { iterations:100 }
   var_count: 100
   class_count: 2
   class_labels: !!opencv-matrix
      rows: 2
      cols: 1
      dt: i
      data: [ 0, 1 ]
   sv_total: 23
   support_vectors:
      - [ 3.92156877e-02, 0., 9.80392192e-03, 0., 0., 0., 1.96078438e-02,
          0., 9.80392192e-03, 0., 0., 0., 0., 9.80392192e-03,
          9.80392192e-03, 0., 1.96078438e-02, 0., 0., 9.80392192e-03,
          2.94117667e-02, 1.96078438e-02, 0., 3.92156877e-02, 0., 0.,
          9.80392192e-03, 0., 0., 1.96078438e-02, 0., 0., 5.88235334e-02,
          0., 9.80392192e-03, 9.80392192e-03, 0., 0., 9.80392192e-03,
          9.80392192e-03, 0., 0., 0., 9.80392192e-03, 0., 0.,
          4.90196086e-02, 0., 0., 9.80392192e-03, 0., 0., 0.,
          1.96078438e-02, 1.96078438e-02, 0., 2.94117667e-02, 0.,
          9.80392192e-03, 2.94117667e-02, 9.80392192e-03, 9.80392192e-03,
          9.80392192e-03, 0., 2.94117667e-02, 1.96078438e-02, 0.,
          3.92156877e-02, 8.82352963e-02, 0., 9.80392192e-03, 0.,
          9.80392192e-03, 4.90196086e-02, 9.80392192e-03, 9.80392192e-03,
          0., 9.80392192e-03, 0., 1.96078438e-02, 0., 9.80392192e-03, 0.,
          1.96078438e-02, 1.96078438e-02, 9.80392192e-03, 1.96078438e-02,
          0., 9.80392192e-03, 9.80392192e-03, 0., 0., 9.80392192e-03, 0.,
          0., 0., 0., 9.80392192e-03, 9.80392192e-03, 2.94117667e-02 ]
      - [ 1.63934417e-02, 0., 1.63934417e-02, 0., 0., 1.63934417e-02, 0.,
          1.63934417e-02, 3.27868834e-02, 1.63934417e-02, 0., 0.,
          1.63934417e-02, 0., 0., 1.63934417e-02, 0., 1.63934417e-02,
          3.27868834e-02, 0., 0., 0., 0., 3.27868834e-02, 0., 0., 0., 0.,
          0., 3.27868834e-02, 1.63934417e-02, 0., 0., 3.27868834e-02,
          3.27868834e-02, 0., 0., 1.63934417e-02, 1.63934417e-02, 0., 0.,
          0., 0., 0., 0., 3.27868834e-02, 1.63934417e-02, 0., 0.,
          1.63934417e-02, 0., 0., 0., 3.27868834e-02, 0., 0.,
          1.63934417e-02, 0., 1.63934417e-02, 0., 0., 0., 0.,
          1.63934417e-02, 0., 0., 3.27868834e-02, 1.63934417e-02,
          8.19672048e-02, 0., 1.63934417e-02, 0., 1.63934417e-02,
          9.83606502e-02, 0., 0., 0., 1.63934417e-02, 0., 1.63934417e-02,
          0., 0., 0., 3.27868834e-02, 0., 4.91803251e-02, 0.,
          1.63934417e-02, 4.91803251e-02, 0., 0., 0., 1.63934417e-02, 0.,
          1.63934417e-02, 0., 0., 0., 0., 0. ]
      - [ 0., 0., 1.88679248e-02, 0., 1.88679248e-02, 1.88679248e-02, 0.,
          9.43396240e-03, 0., 0., 9.43396240e-03, 9.43396240e-03,
          1.88679248e-02, 1.88679248e-02, 0., 0., 1.88679248e-02,
          1.88679248e-02, 9.43396240e-03, 0., 0., 0., 1.88679248e-02,
          9.43396240e-03, 1.88679248e-02, 0., 0., 9.43396240e-03,
          9.43396240e-03, 9.43396240e-03, 0., 9.43396240e-03,
          9.43396240e-03, 1.88679248e-02, 9.43396240e-03, 9.43396240e-03,
          2.83018872e-02, 1.88679248e-02, 1.88679248e-02, 0.,
          9.43396240e-03, 0., 0., 9.43396240e-03, 0., 1.88679248e-02,
          3.77358496e-02, 0., 9.43396240e-03, 0., 1.88679248e-02, 0.,
          2.83018872e-02, 0., 9.43396240e-03, 0., 6.60377368e-02,
          9.43396240e-03, 2.83018872e-02, 9.43396240e-03, 0.,
          9.43396240e-03, 0., 0., 2.83018872e-02, 9.43396240e-03,
          1.88679248e-02, 0., 0., 9.43396240e-03, 0., 0., 0.,
          3.77358496e-02, 0., 0., 9.43396240e-03, 3.77358496e-02,
          9.43396240e-03, 1.88679248e-02, 9.43396240e-03, 0., 0., 0.,
          9.43396240e-03, 0., 0., 9.43396240e-03, 6.60377368e-02,
          9.43396240e-03, 0., 0., 0., 0., 9.43396240e-03, 2.83018872e-02,
          1.88679248e-02, 0., 2.83018872e-02, 0. ]
      - [ 2.29885057e-02, 0., 0., 0., 5.74712642e-03, 5.74712642e-02, 0.,
          0., 0., 5.74712642e-03, 1.72413792e-02, 0., 1.14942528e-02, 0.,
          1.14942528e-02, 5.74712642e-03, 5.74712642e-03, 1.14942528e-02,
          5.74712642e-03, 5.74712642e-03, 0., 5.74712642e-03,
          2.29885057e-02, 1.14942528e-02, 0., 0., 1.14942528e-02,
          1.14942528e-02, 1.14942528e-02, 0., 0., 0., 1.72413792e-02,
          1.72413792e-02, 1.72413792e-02, 5.74712642e-03, 5.74712642e-03,
          0., 0., 5.74712642e-03, 8.62068981e-02, 5.74712642e-03, 0.,
          2.29885057e-02, 0., 0., 1.14942528e-02, 0., 1.72413792e-02,
          5.74712642e-03, 1.72413792e-02, 5.74712642e-03, 6.89655170e-02,
          9.77011472e-02, 0., 0., 0., 1.72413792e-02, 0., 2.29885057e-02,
          0., 0., 1.14942528e-02, 0., 2.29885057e-02, 0., 0.,
          1.72413792e-02, 1.14942528e-02, 1.72413792e-02, 3.44827585e-02,
          1.72413792e-02, 0., 2.29885057e-02, 5.74712642e-03,
          5.74712642e-03, 0., 0., 0., 5.74712642e-03, 5.74712642e-03, 0.,
          1.14942528e-02, 0., 1.14942528e-02, 2.29885057e-02,
          1.14942528e-02, 1.14942528e-02, 0., 0., 0., 2.29885057e-02,
          1.72413792e-02, 0., 0., 5.74712642e-03, 5.74712642e-03,
          5.74712642e-03, 5.74712642e-03, 0. ]
      - [ 2.41935477e-02, 1.20967738e-02, 0., 8.06451589e-03,
          1.61290318e-02, 4.03225794e-02, 8.06451589e-03, 4.03225794e-03,
          0., 1.20967738e-02, 4.03225794e-03, 0., 1.61290318e-02,
          2.01612897e-02, 4.03225794e-03, 1.20967738e-02, 8.06451589e-03,
          1.20967738e-02, 0., 4.03225794e-03, 4.03225794e-03,
          1.61290318e-02, 2.41935477e-02, 4.03225794e-03, 0.,
          1.61290318e-02, 1.20967738e-02, 1.20967738e-02, 1.20967738e-02,
          8.06451589e-03, 4.03225794e-03, 8.06451589e-03, 1.61290318e-02,
          0., 2.41935477e-02, 0., 8.06451589e-03, 4.03225794e-03,
          4.03225794e-03, 4.03225794e-03, 5.24193533e-02, 4.03225794e-03,
          1.61290318e-02, 2.01612897e-02, 4.03225794e-03, 1.20967738e-02,
          4.03225794e-03, 8.06451589e-03, 1.20967738e-02, 4.03225794e-03,
          2.41935477e-02, 2.01612897e-02, 4.03225794e-03, 5.24193533e-02,
          8.06451589e-03, 4.03225794e-03, 8.06451589e-03, 2.01612897e-02,
          0., 4.03225794e-03, 0., 4.03225794e-03, 1.20967738e-02,
          4.03225794e-03, 8.06451589e-03, 0., 2.01612897e-02,
          4.03225794e-03, 4.03225794e-03, 1.20967738e-02, 1.20967738e-02,
          3.22580636e-02, 8.06451589e-03, 2.01612897e-02, 4.03225794e-03,
          1.20967738e-02, 8.06451589e-03, 4.03225794e-03, 1.20967738e-02,
          4.03225794e-03, 4.03225794e-03, 4.03225794e-03, 8.06451589e-03,
          2.01612897e-02, 0., 1.20967738e-02, 4.03225794e-03,
          1.61290318e-02, 0., 0., 4.03225794e-03, 1.61290318e-02,
          8.06451589e-03, 2.01612897e-02, 1.20967738e-02, 4.03225794e-03,
          8.06451589e-03, 0., 0., 4.03225794e-03 ]
      - [ 1.29870130e-02, 0., 1.29870130e-02, 0., 1.29870130e-02,
          2.59740259e-02, 2.59740259e-02, 0., 1.29870130e-02, 0., 0., 0.,
          1.29870130e-02, 2.59740259e-02, 0., 0., 0., 1.29870130e-02, 0.,
          0., 1.29870130e-02, 1.29870130e-02, 2.59740259e-02,
          2.59740259e-02, 3.89610380e-02, 0., 0., 5.19480519e-02, 0., 0.,
          0., 0., 0., 0., 0., 0., 1.29870130e-02, 0., 1.29870130e-02,
          3.89610380e-02, 0., 0., 2.59740259e-02, 0., 0., 0.,
          1.03896104e-01, 2.59740259e-02, 1.29870130e-02, 0., 0., 0.,
          6.49350658e-02, 2.59740259e-02, 0., 0., 1.29870130e-02,
          1.29870130e-02, 0., 2.59740259e-02, 0., 1.29870130e-02,
          1.29870130e-02, 2.59740259e-02, 0., 2.59740259e-02, 0., 0., 0.,
          1.29870130e-02, 0., 0., 0., 3.89610380e-02, 0., 0., 0.,
          1.29870130e-02, 0., 1.29870130e-02, 0., 0., 0., 2.59740259e-02,
          1.29870130e-02, 1.29870130e-02, 0., 2.59740259e-02,
          1.29870130e-02, 1.29870130e-02, 0., 0., 0., 1.29870130e-02, 0.,
          1.29870130e-02, 0., 0., 1.29870130e-02, 0. ]
      - [ 2.83687934e-02, 7.09219836e-03, 1.41843967e-02, 0., 0.,
          2.12765951e-02, 0., 0., 0., 7.09219836e-03, 7.09219836e-03, 0.,
          0., 0., 1.41843967e-02, 7.09219836e-03, 2.12765951e-02, 0., 0.,
          7.09219836e-03, 0., 0., 0., 0., 0., 1.41843967e-02, 0.,
          7.09219836e-03, 7.09219836e-03, 0., 0., 0., 2.83687934e-02,
          2.12765951e-02, 3.54609936e-02, 1.41843967e-02, 2.83687934e-02,
          0., 0., 7.09219836e-03, 8.51063803e-02, 7.09219836e-03,
          2.12765951e-02, 0., 0., 0., 3.54609936e-02, 1.41843967e-02,
          7.09219836e-03, 7.09219836e-03, 2.12765951e-02, 1.41843967e-02,
          0., 1.98581547e-01, 7.09219836e-03, 0., 7.09219836e-03,
          1.41843967e-02, 0., 0., 0., 0., 0., 0., 0., 0., 0.,
          7.09219836e-03, 2.83687934e-02, 7.09219836e-03, 1.41843967e-02,
          0., 7.09219836e-03, 2.83687934e-02, 0., 0., 1.41843967e-02,
          7.09219836e-03, 7.09219836e-03, 7.09219836e-03, 0., 0., 0.,
          1.41843967e-02, 0., 2.12765951e-02, 7.09219836e-03,
          1.41843967e-02, 0., 7.09219836e-03, 7.09219836e-03,
          7.09219836e-03, 7.09219836e-03, 7.09219836e-03, 7.09219836e-03,
          0., 7.09219836e-03, 7.09219836e-03, 2.12765951e-02, 0. ]
      - [ 7.38007426e-02, 3.69003695e-03, 3.69003695e-03, 3.69003695e-03,
          7.38007389e-03, 7.38007389e-03, 0., 3.69003695e-03,
          3.69003695e-03, 1.51291519e-01, 3.69003695e-03, 1.10701108e-02,
          7.38007389e-03, 1.47601478e-02, 1.10701108e-02, 3.69003695e-03,
          1.10701108e-02, 7.38007389e-03, 0., 0., 3.69003695e-03, 0.,
          1.84501857e-02, 0., 0., 0., 2.21402217e-02, 3.69003695e-03,
          1.47601478e-02, 1.47601478e-02, 0., 1.10701108e-02,
          2.58302577e-02, 0., 1.47601478e-02, 0., 2.58302577e-02,
          3.69003695e-03, 7.38007389e-03, 3.69003695e-03, 3.32103334e-02,
          7.38007389e-03, 7.38007389e-03, 1.10701108e-02, 0.,
          7.38007389e-03, 2.58302577e-02, 3.69003695e-03, 0.,
          1.10701108e-02, 2.95202956e-02, 3.69003695e-03, 0.,
          3.32103334e-02, 0., 3.69003695e-03, 2.21402217e-02,
          3.69003695e-03, 1.10701108e-02, 3.69003695e-03, 0.,
          7.38007389e-03, 0., 3.69003695e-03, 3.69003695e-03,
          3.69003695e-03, 3.69003695e-03, 1.84501857e-02, 1.84501857e-02,
          1.10701108e-02, 2.58302577e-02, 0., 1.10701108e-02,
          3.32103334e-02, 1.10701108e-02, 7.38007389e-03, 0.,
          7.38007389e-03, 0., 1.47601478e-02, 3.69003695e-03,
          1.47601478e-02, 0., 3.69003695e-03, 0., 3.69003695e-03,
          7.38007389e-03, 3.69003695e-03, 1.84501857e-02, 3.69003695e-03,
          0., 0., 0., 7.38007389e-03, 0., 7.38007389e-03, 7.38007389e-03,
          1.10701108e-02, 1.10701108e-02, 0. ]
      - [ 2.23214291e-02, 0., 4.46428591e-03, 0., 4.46428591e-03,
          1.33928582e-02, 8.92857183e-03, 0., 0., 8.92857183e-03,
          4.46428591e-03, 4.46428591e-03, 4.46428591e-03, 1.33928582e-02,
          1.78571437e-02, 1.33928582e-02, 4.46428591e-03, 4.46428591e-03,
          2.23214291e-02, 8.92857183e-03, 0., 4.46428591e-03,
          2.23214291e-02, 8.92857183e-03, 0., 8.92857183e-03,
          2.23214291e-02, 0., 4.46428591e-03, 2.23214291e-02,
          4.46428591e-03, 0., 3.57142873e-02, 1.78571437e-02,
          5.80357164e-02, 4.46428591e-03, 4.46428591e-03, 1.33928582e-02,
          4.01785746e-02, 4.46428591e-03, 1.33928582e-02, 0., 0.,
          1.78571437e-02, 8.92857183e-03, 4.46428591e-03, 3.12500000e-02,
          1.78571437e-02, 8.92857183e-03, 8.92857183e-03, 2.67857164e-02,
          4.46428591e-03, 4.46428591e-03, 1.78571437e-02, 1.33928582e-02,
          0., 4.46428591e-03, 8.92857183e-03, 4.46428591e-03,
          1.33928582e-02, 0., 8.92857183e-03, 0., 0., 8.92857183e-03,
          4.46428591e-03, 8.92857183e-03, 2.23214291e-02, 7.14285746e-02,
          4.46428591e-03, 3.57142873e-02, 8.92857183e-03, 0.,
          1.33928582e-02, 0., 8.92857183e-03, 0., 0., 8.92857183e-03,
          4.46428591e-03, 4.46428591e-03, 4.46428591e-03, 0.,
          1.33928582e-02, 0., 8.92857183e-03, 4.46428591e-03, 0., 0.,
          2.23214291e-02, 4.46428591e-03, 1.33928582e-02, 0.,
          1.33928582e-02, 0., 0., 0., 1.33928582e-02, 3.57142873e-02,
          4.46428591e-03 ]
      - [ 4.10958901e-02, 0., 0., 1.36986300e-02, 0., 9.13241971e-03,
          4.56620986e-03, 1.36986300e-02, 4.56620986e-03, 4.56620986e-03,
          0., 1.36986300e-02, 1.82648394e-02, 9.13241971e-03,
          9.13241971e-03, 9.13241971e-03, 4.56620986e-03, 1.82648394e-02,
          0., 1.82648394e-02, 9.13241971e-03, 9.13241971e-03,
          2.28310488e-02, 9.13241971e-03, 9.13241971e-03, 1.82648394e-02,
          0., 1.36986300e-02, 0., 9.13241971e-03, 4.56620986e-03, 0.,
          2.73972601e-02, 1.36986300e-02, 1.36986300e-02, 0., 0.,
          9.13241971e-03, 4.56620986e-03, 1.36986300e-02, 5.02283089e-02,
          4.56620986e-03, 3.65296789e-02, 9.13241971e-03, 1.36986300e-02,
          0., 9.13241971e-03, 1.36986300e-02, 4.56620986e-03,
          1.36986300e-02, 5.02283089e-02, 9.13241971e-03, 1.82648394e-02,
          4.56620986e-03, 4.56620986e-03, 1.36986300e-02, 0.,
          1.82648394e-02, 4.56620986e-03, 1.36986300e-02, 4.56620986e-03,
          1.36986300e-02, 4.56620986e-03, 4.56620986e-03, 9.13241971e-03,
          4.56620986e-03, 9.13241971e-03, 4.56620986e-03, 4.56620986e-03,
          1.82648394e-02, 6.39269352e-02, 4.56620986e-03, 4.56620986e-03,
          3.19634676e-02, 0., 4.56620986e-03, 0., 4.56620986e-03,
          4.56620986e-03, 9.13241971e-03, 0., 0., 4.56620986e-03,
          9.13241971e-03, 4.56620986e-03, 9.13241971e-03, 4.56620986e-03,
          9.13241971e-03, 0., 9.13241971e-03, 9.13241971e-03,
          1.82648394e-02, 1.36986300e-02, 1.82648394e-02, 0., 0., 0.,
          9.13241971e-03, 0., 4.56620986e-03 ]
      - [ 0., 2.66666673e-02, 1.33333337e-02, 0., 1.33333337e-02, 0., 0.,
          1.33333337e-02, 1.33333337e-02, 0., 0., 0., 0., 0., 0., 0.,
          1.33333337e-02, 0., 0., 0., 1.33333337e-02, 0., 0.,
          1.33333337e-02, 1.33333337e-02, 1.33333337e-02, 0., 0., 0., 0.,
          0., 0., 1.33333337e-02, 0., 1.33333337e-02, 3.99999991e-02,
          1.33333337e-02, 2.66666673e-02, 1.33333337e-02, 0., 0.,
          1.33333337e-02, 1.33333337e-02, 0., 1.33333337e-02,
          1.33333337e-02, 3.99999991e-02, 1.33333337e-02, 5.33333346e-02,
          0., 0., 2.66666673e-02, 0., 1.33333337e-02, 0., 0.,
          2.66666673e-02, 0., 0., 2.66666673e-02, 0., 3.99999991e-02,
          3.99999991e-02, 1.33333337e-02, 0., 2.66666673e-02,
          1.33333337e-02, 1.33333337e-02, 1.33333337e-02, 1.33333337e-02,
          0., 0., 1.33333337e-02, 7.99999982e-02, 0., 0., 0., 0.,
          2.66666673e-02, 1.33333337e-02, 0., 0., 0., 1.33333337e-02, 0.,
          1.33333337e-02, 1.33333337e-02, 2.66666673e-02, 2.66666673e-02,
          0., 1.33333337e-02, 1.33333337e-02, 1.33333337e-02, 0., 0.,
          2.66666673e-02, 0., 1.33333337e-02, 0., 0. ]
      - [ 1.80722885e-02, 0., 6.02409616e-03, 4.21686731e-02, 0.,
          6.02409616e-03, 6.02409616e-03, 0., 0., 0., 0., 1.20481923e-02,
          0., 6.02409616e-03, 0., 1.80722885e-02, 2.40963846e-02, 0.,
          1.80722885e-02, 0., 6.02409616e-03, 0., 6.02409616e-03,
          6.02409616e-03, 0., 0., 1.80722885e-02, 0., 0., 6.02409616e-03,
          6.02409616e-03, 0., 2.40963846e-02, 6.02409616e-03,
          1.20481923e-02, 1.20481923e-02, 1.20481923e-02, 1.20481923e-02,
          1.80722885e-02, 6.02409616e-03, 1.20481923e-02, 6.02409616e-03,
          0., 6.02409616e-03, 0., 2.40963846e-02, 2.40963846e-02,
          1.80722885e-02, 6.02409616e-03, 0., 6.02409616e-03, 0.,
          4.81927693e-02, 6.02409616e-02, 0., 6.02409616e-03,
          1.80722885e-02, 6.02409616e-03, 1.80722885e-02, 6.02409616e-03,
          0., 1.20481923e-02, 6.02409616e-03, 0., 2.40963846e-02,
          6.02409616e-03, 1.20481923e-02, 1.80722885e-02, 3.01204808e-02,
          2.40963846e-02, 0., 0., 0., 7.83132464e-02, 1.20481923e-02,
          1.20481923e-02, 6.02409616e-03, 1.20481923e-02, 0.,
          2.40963846e-02, 6.02409616e-03, 6.02409616e-03, 6.02409616e-03,
          6.02409616e-03, 0., 6.02409616e-03, 3.01204808e-02,
          6.02409616e-03, 1.20481923e-02, 1.20481923e-02, 0., 0., 0.,
          6.02409616e-03, 0., 2.40963846e-02, 0., 6.02409616e-03,
          2.40963846e-02, 0. ]
      - [ 8.33333377e-03, 2.08333340e-02, 4.16666688e-03, 4.16666688e-03,
          0., 1.25000011e-02, 8.33333377e-03, 1.25000011e-02,
          2.50000022e-02, 1.25000011e-02, 0., 1.66666675e-02,
          4.16666688e-03, 1.66666675e-02, 2.91666687e-02, 0.,
          8.33333377e-03, 8.33333377e-03, 3.75000015e-02, 4.16666688e-03,
          4.16666688e-03, 1.66666675e-02, 8.33333377e-03, 2.08333340e-02,
          1.25000011e-02, 4.16666688e-03, 4.16666688e-03, 1.66666675e-02,
          4.16666688e-03, 0., 4.16666688e-03, 1.66666675e-02, 0., 0., 0.,
          2.91666687e-02, 4.16666688e-03, 2.50000022e-02, 1.66666675e-02,
          1.25000011e-02, 8.33333377e-03, 1.66666675e-02, 0.,
          2.08333340e-02, 0., 2.08333340e-02, 4.16666688e-03,
          2.50000022e-02, 4.16666688e-03, 1.25000011e-02, 0., 0.,
          8.33333377e-03, 4.16666688e-03, 8.33333377e-03, 0.,
          2.50000022e-02, 8.33333377e-03, 1.25000011e-02, 1.66666675e-02,
          4.16666688e-03, 1.66666675e-02, 1.25000011e-02, 4.16666688e-03,
          1.66666675e-02, 8.33333377e-03, 8.33333377e-03, 1.66666675e-02,
          2.08333340e-02, 4.16666688e-03, 0., 0., 3.33333351e-02,
          2.08333340e-02, 0., 0., 1.25000011e-02, 8.33333377e-03,
          8.33333377e-03, 8.33333377e-03, 1.66666675e-02, 4.16666688e-03,
          1.66666675e-02, 0., 8.33333377e-03, 4.16666688e-03,
          4.16666688e-03, 8.33333377e-03, 1.66666675e-02, 4.16666688e-03,
          2.08333340e-02, 0., 4.16666688e-03, 4.16666688e-03, 0.,
          4.16666688e-03, 2.50000022e-02, 4.16666688e-03, 8.33333377e-03,
          1.25000011e-02 ]
      - [ 5.79150580e-03, 1.15830116e-02, 1.93050189e-03, 9.65250935e-03,
          5.79150580e-03, 5.79150580e-03, 9.65250935e-03, 3.86100379e-03,
          5.79150580e-03, 5.79150580e-03, 7.72200758e-03, 5.79150580e-03,
          1.35135129e-02, 1.15830116e-02, 1.93050187e-02, 3.86100379e-03,
          7.72200758e-03, 1.73745174e-02, 1.15830116e-02, 7.72200758e-03,
          2.31660232e-02, 7.72200758e-03, 1.15830116e-02, 7.72200758e-03,
          5.79150580e-03, 9.65250935e-03, 7.72200758e-03, 1.54440152e-02,
          7.72200758e-03, 7.72200758e-03, 1.54440152e-02, 5.79150580e-03,
          9.65250935e-03, 1.93050187e-02, 5.79150580e-03, 1.35135129e-02,
          9.65250935e-03, 5.79150580e-03, 7.72200758e-03, 1.35135129e-02,
          1.35135129e-02, 1.93050189e-03, 9.65250935e-03, 9.65250935e-03,
          1.35135129e-02, 9.65250935e-03, 3.86100379e-03, 2.12355200e-02,
          3.86100379e-03, 1.15830116e-02, 1.54440152e-02, 1.93050187e-02,
          5.79150580e-03, 1.15830116e-02, 1.15830116e-02, 2.50965245e-02,
          1.15830116e-02, 1.35135129e-02, 1.15830116e-02, 1.35135129e-02,
          3.86100379e-03, 1.54440152e-02, 7.72200758e-03, 0.,
          1.35135129e-02, 1.93050189e-03, 9.65250935e-03, 1.93050189e-03,
          5.79150580e-03, 2.12355200e-02, 9.65250935e-03, 2.12355200e-02,
          3.86100379e-03, 1.35135129e-02, 7.72200758e-03, 1.15830116e-02,
          5.79150580e-03, 1.54440152e-02, 9.65250935e-03, 1.35135129e-02,
          5.79150580e-03, 3.86100379e-03, 1.15830116e-02, 1.15830116e-02,
          7.72200758e-03, 9.65250935e-03, 1.93050187e-02, 2.70270258e-02,
          7.72200758e-03, 7.72200758e-03, 1.93050189e-03, 5.79150580e-03,
          1.35135129e-02, 7.72200758e-03, 1.93050189e-03, 9.65250935e-03,
          9.65250935e-03, 1.93050187e-02, 0., 5.79150580e-03 ]
      - [ 1.06951874e-02, 0., 3.56506230e-03, 3.56506230e-03,
          3.56506230e-03, 1.24777183e-02, 8.91265552e-03, 1.78253115e-03,
          3.56506230e-03, 3.92156839e-02, 8.91265552e-03, 1.42602492e-02,
          1.24777183e-02, 1.06951874e-02, 5.34759369e-03, 1.42602492e-02,
          1.78253115e-03, 1.42602492e-02, 1.42602492e-02, 3.56506230e-03,
          0., 7.13012461e-03, 1.06951874e-02, 1.78253115e-03,
          8.91265552e-03, 7.13012461e-03, 0., 1.06951874e-02,
          3.56506230e-03, 1.06951874e-02, 1.06951874e-02, 1.42602492e-02,
          7.13012461e-03, 5.34759369e-03, 1.42602492e-02, 1.78253110e-02,
          1.06951874e-02, 1.78253115e-03, 1.24777183e-02, 3.56506230e-03,
          1.78253110e-02, 1.78253110e-02, 8.91265552e-03, 1.96078420e-02,
          1.78253115e-03, 1.42602492e-02, 5.34759369e-03, 3.56506230e-03,
          3.56506230e-03, 3.56506230e-03, 8.91265552e-03, 2.13903747e-02,
          8.91265552e-03, 1.55080214e-01, 5.34759369e-03, 7.13012461e-03,
          5.34759369e-03, 3.56506230e-03, 5.34759369e-03, 7.13012461e-03,
          5.34759369e-03, 5.34759369e-03, 5.34759369e-03, 0.,
          3.56506230e-03, 7.13012461e-03, 1.24777183e-02, 3.56506230e-03,
          1.24777183e-02, 3.56506230e-03, 1.78253115e-03, 1.42602492e-02,
          3.56506230e-03, 2.13903747e-02, 1.24777183e-02, 3.56506230e-03,
          1.06951874e-02, 3.56506230e-03, 7.13012461e-03, 8.91265552e-03,
          1.78253115e-03, 1.42602492e-02, 1.24777183e-02, 5.34759369e-03,
          3.56506230e-03, 8.91265552e-03, 0., 5.34759369e-03,
          3.56506230e-03, 5.70409968e-02, 1.06951874e-02, 5.34759369e-03,
          0., 8.91265552e-03, 5.34759369e-03, 8.91265552e-03,
          8.91265552e-03, 5.34759369e-03, 1.24777183e-02, 5.34759369e-03 ]
      - [ 7.51879718e-03, 0., 3.75939859e-03, 3.75939859e-03,
          1.12781953e-02, 3.75939859e-03, 3.75939859e-03, 7.51879718e-03,
          1.87969934e-02, 7.51879718e-03, 7.51879718e-03, 1.50375944e-02,
          1.50375944e-02, 2.25563906e-02, 1.12781953e-02, 1.12781953e-02,
          3.75939859e-03, 1.50375944e-02, 1.87969934e-02, 0.,
          1.87969934e-02, 3.75939859e-03, 1.87969934e-02, 1.50375944e-02,
          1.87969934e-02, 3.75939859e-03, 0., 1.50375944e-02,
          7.51879718e-03, 7.51879718e-03, 7.51879718e-03, 7.51879718e-03,
          1.50375944e-02, 3.75939859e-03, 0., 3.75939859e-03,
          1.87969934e-02, 7.51879718e-03, 7.51879718e-03, 7.51879718e-03,
          1.87969934e-02, 7.51879718e-03, 7.51879718e-03, 1.12781953e-02,
          7.51879718e-03, 2.63157897e-02, 7.51879718e-03, 1.50375944e-02,
          2.25563906e-02, 2.25563906e-02, 7.51879718e-03, 7.51879718e-03,
          0., 7.51879718e-03, 7.51879718e-03, 3.75939859e-03,
          7.51879718e-03, 1.12781953e-02, 1.12781953e-02, 1.12781953e-02,
          1.12781953e-02, 1.12781953e-02, 7.51879718e-03, 7.51879718e-03,
          1.12781953e-02, 3.75939859e-03, 1.50375944e-02, 0., 0.,
          3.75939859e-03, 7.51879718e-03, 1.50375944e-02, 1.12781953e-02,
          1.87969934e-02, 2.25563906e-02, 1.12781953e-02, 7.51879718e-03,
          1.12781953e-02, 1.87969934e-02, 1.50375944e-02, 3.75939859e-03,
          7.51879718e-03, 1.50375944e-02, 1.12781953e-02, 7.51879718e-03,
          1.87969934e-02, 3.75939859e-03, 1.12781953e-02, 3.75939859e-03,
          1.12781953e-02, 0., 7.51879718e-03, 0., 3.75939859e-03, 0.,
          1.50375944e-02, 1.50375944e-02, 1.12781953e-02, 3.38345878e-02,
          1.12781953e-02 ]
      - [ 5.43478271e-03, 1.63043477e-02, 1.35869570e-02, 2.44565215e-02,
          2.71739135e-03, 2.71739135e-03, 1.90217402e-02, 1.08695654e-02,
          1.35869570e-02, 8.15217383e-03, 8.15217383e-03, 1.35869570e-02,
          1.08695654e-02, 1.08695654e-02, 1.35869570e-02, 8.15217383e-03,
          1.08695654e-02, 2.71739135e-03, 1.90217402e-02, 5.43478271e-03,
          8.15217383e-03, 1.35869570e-02, 1.08695654e-02, 2.17391308e-02,
          8.15217383e-03, 2.71739135e-03, 0., 0., 0., 5.43478271e-03,
          5.43478271e-03, 1.08695654e-02, 2.71739135e-03, 0., 0.,
          3.80434804e-02, 8.15217383e-03, 5.43478271e-03, 2.71739135e-03,
          8.15217383e-03, 0., 1.63043477e-02, 0., 1.63043477e-02,
          2.71739135e-03, 5.43478271e-03, 2.71739140e-02, 8.15217383e-03,
          2.71739135e-03, 8.15217383e-03, 2.71739135e-03, 5.43478271e-03,
          2.44565215e-02, 1.22282609e-01, 0., 2.71739135e-03,
          1.63043477e-02, 5.43478271e-03, 1.90217402e-02, 1.08695654e-02,
          5.43478271e-03, 5.43478271e-03, 1.08695654e-02, 5.43478271e-03,
          1.08695654e-02, 1.08695654e-02, 8.15217383e-03, 1.35869570e-02,
          2.71739135e-03, 2.71739135e-03, 0., 0., 1.35869570e-02,
          2.17391308e-02, 1.63043477e-02, 2.71739135e-03, 5.43478271e-03,
          1.35869570e-02, 8.15217383e-03, 1.35869570e-02, 8.15217383e-03,
          1.63043477e-02, 1.90217402e-02, 1.08695654e-02, 5.43478271e-03,
          5.43478271e-03, 8.15217383e-03, 0., 1.63043477e-02,
          8.15217383e-03, 1.63043477e-02, 0., 5.43478271e-03,
          5.43478271e-03, 5.43478271e-03, 2.71739135e-03, 5.43478271e-03,
          0., 1.08695654e-02, 1.08695654e-02 ]
      - [ 9.52380989e-03, 0., 1.42857153e-02, 9.52380989e-03,
          4.76190494e-03, 2.38095247e-03, 4.76190494e-03, 4.76190494e-03,
          4.76190494e-03, 2.38095247e-03, 4.76190494e-03, 4.76190494e-03,
          1.90476198e-02, 9.52380989e-03, 4.76190494e-03, 9.52380989e-03,
          7.14285765e-03, 9.52380989e-03, 1.90476198e-02, 0.,
          1.90476198e-02, 7.14285765e-03, 1.19047621e-02, 1.19047621e-02,
          4.76190494e-03, 0., 2.61904765e-02, 9.52380989e-03,
          9.52380989e-03, 9.52380989e-03, 4.76190494e-03, 4.76190494e-03,
          1.42857153e-02, 1.19047621e-02, 2.38095247e-03, 1.42857153e-02,
          3.09523828e-02, 4.76190494e-03, 1.90476198e-02, 4.76190494e-03,
          9.52380989e-03, 4.76190494e-03, 1.42857153e-02, 2.38095247e-03,
          4.76190494e-03, 1.42857153e-02, 9.52380989e-03, 2.14285720e-02,
          4.76190494e-03, 4.76190494e-03, 1.90476198e-02, 2.14285720e-02,
          9.52380989e-03, 4.28571440e-02, 7.14285765e-03, 9.52380989e-03,
          2.38095247e-03, 2.38095243e-02, 4.76190494e-03, 2.38095247e-03,
          4.76190494e-03, 2.14285720e-02, 1.19047621e-02, 7.14285765e-03,
          7.14285765e-03, 2.38095247e-03, 7.14285765e-03, 2.38095247e-03,
          1.42857153e-02, 4.76190494e-03, 1.66666675e-02, 2.85714306e-02,
          2.38095247e-03, 1.66666675e-02, 2.85714306e-02, 1.19047621e-02,
          7.14285765e-03, 7.14285765e-03, 0., 2.38095247e-03,
          1.42857153e-02, 2.14285720e-02, 4.76190494e-03, 1.42857153e-02,
          7.14285765e-03, 4.76190494e-03, 1.90476198e-02, 2.38095243e-02,
          7.14285765e-03, 4.76190494e-03, 2.38095247e-03, 1.42857153e-02,
          1.19047621e-02, 2.38095247e-03, 4.76190494e-03, 9.52380989e-03,
          1.19047621e-02, 7.14285765e-03, 9.52380989e-03, 0. ]
      - [ 1.24223605e-02, 1.55279506e-02, 9.31677036e-03, 1.86335407e-02,
          3.10559012e-03, 6.21118024e-03, 1.24223605e-02, 0.,
          3.10559012e-03, 3.10559012e-03, 1.86335407e-02, 1.24223605e-02,
          0., 9.31677036e-03, 3.10559012e-03, 2.48447210e-02,
          1.24223605e-02, 1.24223605e-02, 9.31677036e-03, 9.31677036e-03,
          1.24223605e-02, 1.55279506e-02, 1.24223605e-02, 6.21118024e-03,
          6.21118024e-03, 1.24223605e-02, 6.21118024e-03, 9.31677036e-03,
          1.86335407e-02, 3.10559012e-03, 1.24223605e-02, 1.24223605e-02,
          6.21118024e-03, 6.21118024e-03, 1.55279506e-02, 6.21118024e-03,
          9.31677036e-03, 1.86335407e-02, 6.21118024e-03, 6.21118024e-03,
          2.48447210e-02, 3.10559012e-03, 1.86335407e-02, 0.,
          2.17391308e-02, 3.10559012e-03, 6.21118024e-03, 6.21118024e-03,
          1.55279506e-02, 9.31677036e-03, 3.10559012e-02, 9.31677036e-03,
          1.86335407e-02, 1.24223605e-02, 1.86335407e-02, 6.21118024e-03,
          9.31677036e-03, 3.10559012e-03, 1.24223605e-02, 6.21118024e-03,
          0., 9.31677036e-03, 9.31677036e-03, 3.10559012e-03,
          3.10559012e-03, 6.21118024e-03, 6.21118024e-03, 3.10559012e-03,
          3.10559012e-03, 3.10559012e-03, 1.86335407e-02, 1.86335407e-02,
          3.10559012e-03, 6.21118024e-03, 1.24223605e-02, 2.17391308e-02,
          9.31677036e-03, 1.55279506e-02, 3.10559012e-03, 9.31677036e-03,
          1.24223605e-02, 9.31677036e-03, 6.21118024e-03, 2.17391308e-02,
          9.31677036e-03, 9.31677036e-03, 1.24223605e-02, 1.86335407e-02,
          1.24223605e-02, 3.10559012e-03, 0., 1.24223605e-02,
          3.10559012e-03, 1.24223605e-02, 6.21118024e-03, 6.21118024e-03,
          6.21118024e-03, 1.55279506e-02, 1.24223605e-02, 1.24223605e-02 ]
      - [ 1.58415847e-02, 5.94059424e-03, 0., 2.17821784e-02,
          3.96039616e-03, 1.98019808e-03, 9.90099087e-03, 1.18811885e-02,
          1.38613861e-02, 9.90099087e-03, 9.90099087e-03, 1.18811885e-02,
          1.18811885e-02, 5.94059424e-03, 1.38613861e-02, 2.77227722e-02,
          1.18811885e-02, 1.38613861e-02, 9.90099087e-03, 1.98019808e-03,
          7.92079233e-03, 1.38613861e-02, 1.18811885e-02, 7.92079233e-03,
          3.96039616e-03, 5.94059424e-03, 9.90099087e-03, 3.96039616e-03,
          5.94059424e-03, 1.38613861e-02, 3.96039616e-03, 5.94059424e-03,
          1.38613861e-02, 3.96039616e-03, 1.38613861e-02, 2.57425755e-02,
          7.92079233e-03, 3.96039616e-03, 1.98019808e-03, 5.94059424e-03,
          1.98019817e-02, 1.78217832e-02, 2.17821784e-02, 3.96039616e-03,
          3.96039616e-03, 1.98019808e-03, 1.58415847e-02, 3.96039616e-03,
          1.98019808e-03, 2.37623770e-02, 3.36633660e-02, 7.92079233e-03,
          5.94059424e-03, 3.36633660e-02, 1.18811885e-02, 1.98019808e-03,
          9.90099087e-03, 7.92079233e-03, 5.94059424e-03, 1.18811885e-02,
          5.94059424e-03, 7.92079233e-03, 3.96039616e-03, 7.92079233e-03,
          5.94059424e-03, 7.92079233e-03, 1.18811885e-02, 4.75247540e-02,
          3.36633660e-02, 5.94059424e-03, 1.38613861e-02, 1.18811885e-02,
          1.18811885e-02, 2.37623770e-02, 1.78217832e-02, 3.96039616e-03,
          1.98019808e-03, 1.98019808e-03, 1.98019808e-03, 7.92079233e-03,
          1.98019808e-03, 1.38613861e-02, 3.96039616e-03, 9.90099087e-03,
          5.94059424e-03, 7.92079233e-03, 9.90099087e-03, 1.98019808e-03,
          1.38613861e-02, 7.92079233e-03, 3.96039616e-03, 3.96039616e-03,
          1.98019808e-03, 7.92079233e-03, 5.94059424e-03, 1.98019808e-03,
          1.98019808e-03, 7.92079233e-03, 1.38613861e-02, 5.94059424e-03 ]
      - [ 5.58659201e-03, 0., 8.37988779e-03, 5.58659201e-03,
          1.67597756e-02, 2.79329601e-03, 1.39664803e-02, 5.58659201e-03,
          3.91061455e-02, 5.58659201e-03, 2.79329601e-03, 8.37988779e-03,
          1.11731840e-02, 2.79329601e-03, 1.39664803e-02, 1.67597756e-02,
          1.11731840e-02, 2.79329601e-03, 1.95530728e-02, 5.58659201e-03,
          8.37988779e-03, 1.11731840e-02, 8.37988779e-03, 1.67597756e-02,
          1.67597756e-02, 1.39664803e-02, 0., 2.79329601e-03,
          2.79329601e-03, 1.95530728e-02, 1.11731840e-02, 1.39664803e-02,
          5.58659201e-03, 2.79329601e-03, 1.11731840e-02, 1.95530728e-02,
          0., 8.37988779e-03, 8.37988779e-03, 1.67597756e-02, 0.,
          1.39664803e-02, 0., 1.95530728e-02, 8.37988779e-03,
          8.37988779e-03, 2.51396634e-02, 8.37988779e-03, 1.39664803e-02,
          0., 8.37988779e-03, 1.11731840e-02, 2.23463681e-02, 0.,
          5.58659201e-03, 1.67597756e-02, 1.11731840e-02, 5.58659201e-03,
          1.11731840e-02, 1.67597756e-02, 5.58659201e-03, 1.67597756e-02,
          1.11731840e-02, 1.95530728e-02, 1.39664803e-02, 2.23463681e-02,
          1.11731840e-02, 2.79329601e-03, 3.07262558e-02, 8.37988779e-03,
          0., 5.58659201e-03, 8.37988779e-03, 3.07262558e-02,
          5.58659201e-03, 2.79329601e-03, 2.79329601e-03, 0.,
          1.11731840e-02, 1.67597756e-02, 5.58659201e-03, 0.,
          1.39664803e-02, 2.79329601e-03, 0., 1.11731840e-02,
          1.39664803e-02, 1.11731840e-02, 2.79329601e-03, 1.11731840e-02,
          1.95530728e-02, 0., 0., 1.95530728e-02, 1.11731840e-02, 0.,
          5.58659201e-03, 1.11731840e-02, 2.51396634e-02, 5.58659201e-03 ]
      - [ 2.98507465e-03, 0., 5.97014930e-03, 2.98507465e-03,
          2.08955221e-02, 1.79104470e-02, 8.95522349e-03, 1.49253737e-02,
          8.95522349e-03, 5.97014930e-03, 8.95522349e-03, 8.95522349e-03,
          8.95522349e-03, 8.95522349e-03, 8.95522349e-03, 2.98507465e-03,
          1.79104470e-02, 1.19402986e-02, 2.08955221e-02, 0.,
          2.08955221e-02, 1.49253737e-02, 1.19402986e-02, 2.68656723e-02,
          1.19402986e-02, 5.97014930e-03, 2.98507465e-03, 2.08955221e-02,
          8.95522349e-03, 1.49253737e-02, 1.19402986e-02, 8.95522349e-03,
          1.19402986e-02, 2.98507465e-03, 0., 2.68656723e-02,
          5.97014930e-03, 1.79104470e-02, 1.49253737e-02, 8.95522349e-03,
          2.98507465e-03, 8.95522349e-03, 2.98507465e-03, 1.19402986e-02,
          8.95522349e-03, 8.95522349e-03, 1.49253737e-02, 8.95522349e-03,
          1.19402986e-02, 2.68656723e-02, 5.97014930e-03, 8.95522349e-03,
          1.19402986e-02, 5.97014930e-03, 2.98507465e-03, 5.97014930e-03,
          2.08955221e-02, 2.98507465e-03, 2.38805972e-02, 8.95522349e-03,
          0., 1.79104470e-02, 2.98507465e-03, 1.19402986e-02,
          2.98507474e-02, 1.19402986e-02, 1.19402986e-02, 0.,
          1.19402986e-02, 1.19402986e-02, 5.97014930e-03, 8.95522349e-03,
          5.97014930e-03, 1.79104470e-02, 5.97014930e-03, 5.97014930e-03,
          5.97014930e-03, 1.79104470e-02, 1.79104470e-02, 1.19402986e-02,
          8.95522349e-03, 2.98507465e-03, 0., 5.97014930e-03,
          8.95522349e-03, 5.97014930e-03, 2.98507465e-03, 1.19402986e-02,
          1.49253737e-02, 2.98507465e-03, 5.97014930e-03, 8.95522349e-03,
          5.97014930e-03, 2.98507465e-03, 1.19402986e-02, 1.19402986e-02,
          2.98507465e-03, 8.95522349e-03, 0., 1.49253737e-02 ]
      - [ 0., 8.10810830e-03, 5.40540554e-03, 0., 5.40540554e-03,
          2.70270277e-03, 5.40540554e-03, 8.10810830e-03, 1.08108111e-02,
          1.62162166e-02, 8.10810830e-03, 5.40540554e-03, 8.10810830e-03,
          2.70270277e-03, 8.10810830e-03, 0., 8.10810830e-03,
          5.40540554e-03, 8.10810830e-03, 2.70270277e-03, 8.10810830e-03,
          1.35135138e-02, 5.40540554e-03, 1.62162166e-02, 2.70270277e-03,
          0., 1.08108111e-02, 8.10810830e-03, 5.40540554e-03,
          4.32432443e-02, 8.10810830e-03, 0., 3.51351351e-02,
          2.16216221e-02, 1.35135138e-02, 2.70270277e-03, 1.08108111e-02,
          5.40540554e-03, 1.08108111e-02, 5.40540554e-03, 8.37837830e-02,
          0., 1.08108111e-02, 1.08108111e-02, 5.40540554e-03,
          1.08108111e-02, 5.40540554e-03, 1.35135138e-02, 5.40540554e-03,
          2.16216221e-02, 1.89189203e-02, 2.70270277e-03, 0.,
          4.05405425e-02, 8.10810830e-03, 1.08108111e-02, 1.62162166e-02,
          1.62162166e-02, 1.08108111e-02, 5.40540554e-03, 5.40540554e-03,
          2.70270277e-03, 2.70270277e-03, 0., 1.08108111e-02,
          8.10810830e-03, 8.10810830e-03, 0., 1.62162166e-02, 0.,
          3.78378406e-02, 1.62162166e-02, 5.40540554e-03, 2.97297314e-02,
          2.70270277e-03, 2.70270277e-03, 2.70270277e-03, 5.40540554e-03,
          8.10810830e-03, 1.08108111e-02, 0., 2.70270277e-03,
          2.70270277e-03, 1.08108111e-02, 5.40540554e-03, 8.10810830e-03,
          1.89189203e-02, 5.40540554e-03, 1.35135138e-02, 8.10810830e-03,
          5.40540554e-03, 2.97297314e-02, 1.08108111e-02, 1.35135138e-02,
          1.89189203e-02, 8.10810830e-03, 2.70270277e-03, 1.35135138e-02,
          0., 2.70270277e-03 ]
   decision_functions:
      -
         sv_count: 23
         rho: -9.1458554692456961e-01
         alpha: [ 9.5831954704608524e-01, 1.5643359870290761e+00,
             9.6671569203918195e-01, 2.1122263839832818e+00,
             1.4424193615935870e+00, 1.0179999434963871e+00,
             3.5117967889410656e-01, 2.6887103211810753e-01,
             3.0914777535482378e+00, 1.5437694392318305e-01,
             1.3223935639355411e+00, 4.5934151674894752e-01,
             -2.9369756072266049e+00, -5.7566837812186789e-01,
             -1.5062331258567818e+00, -1.6784115616071735e+00,
             -1.8368590582834632e+00, -1.3456839148395408e+00,
             -3.2879560606967972e-01, -3.9141204771341942e-01,
             -1.6459889780912109e+00, -2.4503256884196994e-01,
             -1.2185965577040085e+00 ]
         index: [ 0, 11, 10, 9, 8, 7, 6, 5, 4, 3, 2, 1, 22, 21, 20, 19,
             18, 17, 16, 15, 14, 13, 12 ]
