%YAML:1.0
---
opencv_ml_svm:
   format: 3
   svmType: C_SVC
   kernel:
      type: CHI2
      gamma: 1.
   C: 100.
   term_criteria: { iterations:100 }
   var_count: 100
   class_count: 5
   class_labels: !!opencv-matrix
      rows: 5
      cols: 1
      dt: i
      data: [ 0, 1, 2, 3, 4 ]
   sv_total: 72
   support_vectors:
      - [ 0., 4.46428574e-04, 2.90178577e-03, 0., 0., 1.20535716e-02,
          2.23214287e-04, 9.04017873e-03, 7.08705336e-02, 0.,
          2.79017864e-03, 0., 0., 5.24553563e-03, 1.10491076e-02, 0.,
          3.83928567e-02, 2.62276791e-02, 0., 0., 3.57142859e-03,
          5.13392873e-02, 0., 1.45089289e-03, 1.80803575e-02,
          1.17187500e-02, 1.01562496e-02, 7.81250012e-04, 4.87723202e-02,
          0., 0., 2.76785716e-02, 0., 4.31919657e-02, 7.00892881e-02,
          1.02008931e-01, 1.33928573e-02, 0., 8.37053545e-03, 0., 0.,
          1.77455358e-02, 0., 2.67857150e-03, 1.60714295e-02,
          1.17187500e-02, 2.12053582e-03, 4.46428574e-04, 8.70535709e-03,
          0., 0., 0., 0., 5.46874991e-03, 0., 6.14955351e-02,
          1.02678575e-02, 3.89508940e-02, 0., 6.69642875e-04,
          4.11830358e-02, 0., 0., 5.13392873e-03, 3.68303582e-02, 0.,
          8.37053545e-03, 0., 6.91964291e-03, 0., 0., 0., 6.69642875e-04,
          9.04017873e-03, 2.64508929e-02, 6.40624985e-02, 0., 0.,
          5.58035739e-04, 0., 0., 0., 0., 0., 0., 0., 0., 2.44419649e-02,
          1.56250002e-03, 0., 7.03124981e-03, 6.69642875e-04, 0., 0.,
          2.23214287e-04, 0., 0., 0., 0., 6.69642875e-04 ]
      - [ 6.74005831e-04, 2.78252095e-01, 5.61671564e-04, 0., 0.,
          2.04448439e-02, 2.51628850e-02, 2.47135479e-03, 3.28016169e-02,
          3.70703219e-03, 1.32554490e-02, 1.12334313e-03, 0.,
          3.26892845e-02, 1.01100875e-03, 1.68501469e-03, 6.41428903e-02,
          3.37002939e-03, 0., 8.98674480e-04, 2.46012136e-02,
          2.80835782e-03, 1.46034604e-03, 0., 3.37002915e-04,
          1.12334310e-04, 1.70748159e-02, 3.03302635e-03, 0., 0., 0.,
          1.90968323e-03, 0., 1.42664574e-02, 3.87553386e-02,
          2.69602332e-03, 1.12334310e-04, 5.61671564e-03, 3.14536062e-03,
          0., 9.32374783e-03, 8.40260610e-02, 0., 6.74005831e-04,
          1.46034604e-03, 0., 1.62884742e-02, 2.13435199e-03,
          5.27971238e-03, 0., 6.74005831e-04, 0., 2.24668626e-02, 0., 0.,
          4.17883620e-02, 3.37002939e-03, 3.28016169e-02, 0.,
          1.23567740e-03, 2.62862276e-02, 0., 0., 5.84138418e-03,
          1.20197712e-02, 0., 1.57268031e-03, 0., 0., 2.80835782e-03, 0.,
          0., 2.02201749e-03, 9.77308489e-03, 2.79712435e-02,
          5.16737811e-03, 2.35902052e-03, 0., 4.83037531e-03, 0., 0.,
          1.57268031e-03, 1.01100875e-03, 0., 0., 5.27971238e-03, 0.,
          2.35902052e-02, 1.94338355e-02, 3.37002915e-04, 1.01100877e-02,
          6.17838698e-03, 0., 0., 3.37002939e-03, 2.13435199e-03,
          6.74005831e-04, 0., 3.70703219e-03, 2.24668626e-03 ]
      - [ 0., 2.10432038e-01, 0., 0., 0., 2.52897781e-03, 1.78082194e-02,
          1.19072711e-02, 3.46680731e-02, 1.47523708e-03, 2.10748156e-04,
          0., 0., 4.21496294e-03, 2.21285573e-03, 0., 2.60273982e-02,
          1.49631193e-02, 0., 0., 0., 4.00421508e-02, 1.28556378e-02,
          8.42992624e-04, 4.95258160e-03, 0., 8.21917783e-03,
          3.58271855e-03, 4.04636450e-02, 0., 0., 1.18018966e-02, 0.,
          4.96311896e-02, 6.25922009e-02, 9.18861926e-02, 7.69230770e-03,
          0., 6.53319294e-03, 0., 0., 1.27081141e-01, 0., 5.26870368e-03,
          0., 0., 1.05374078e-04, 0., 2.52897781e-03, 0., 0., 0., 0., 0.,
          0., 0., 5.16332965e-03, 1.22233927e-02, 0., 0., 7.37618539e-04,
          0., 0., 0., 1.86512116e-02, 0., 1.26448891e-03, 0., 0., 0., 0.,
          0., 0., 6.32244453e-04, 3.47734466e-02, 6.97576404e-02, 0., 0.,
          1.47523708e-03, 0., 0., 0., 0., 0., 0., 6.32244488e-03, 0., 0.,
          3.67755517e-02, 0., 1.79135927e-03, 7.90305622e-03, 0., 0., 0.,
          0., 0., 0., 0., 0. ]
      - [ 5.40190144e-04, 3.99740711e-02, 0., 2.16076063e-04,
          1.54494382e-02, 1.39369061e-02, 4.32152115e-03, 3.99740739e-03,
          6.28781319e-02, 1.04796886e-02, 3.88936908e-03, 4.53759730e-03,
          0., 1.72860851e-03, 6.69835787e-03, 0., 1.18841836e-03,
          1.27484873e-02, 3.78133100e-03, 2.05272250e-03, 9.72342270e-04,
          8.15687105e-02, 3.99740739e-03, 4.53759730e-03, 2.70095072e-03,
          6.48228219e-04, 6.26620604e-03, 4.96974960e-03, 2.88461540e-02,
          0., 2.16076063e-04, 4.64563537e-03, 0., 4.74286973e-02,
          5.71521185e-02, 6.20138310e-02, 2.59291288e-03, 0.,
          1.18841836e-03, 0., 1.45851346e-02, 9.01037157e-02, 0.,
          1.28565254e-02, 1.17761455e-02, 1.42610203e-02, 0.,
          5.50993951e-03, 2.27960255e-02, 0., 0., 0., 1.78262759e-02, 0.,
          1.04796886e-02, 5.61797759e-03, 2.16076063e-04, 2.60371659e-02,
          1.19922217e-02, 0., 3.56525509e-03, 0., 0., 1.51253247e-03,
          3.42480578e-02, 1.83664658e-03, 4.64563537e-03, 4.21348307e-03,
          1.31806396e-02, 0., 2.52809003e-02, 0., 2.48487480e-03,
          9.07519460e-03, 1.73941236e-02, 6.08254112e-02, 0., 0.,
          2.37683672e-03, 0., 0., 4.32152126e-04, 0., 0., 0., 0.,
          1.29645644e-03, 2.71175466e-02, 9.83146112e-03, 0.,
          2.04191878e-02, 1.36127919e-02, 0., 0., 2.05272250e-03, 0., 0.,
          0., 2.16076057e-03, 2.16076063e-04 ]
      - [ 0., 1.71136912e-02, 0., 3.00240179e-04, 0., 3.20256199e-03,
          4.20336239e-03, 1.01080863e-02, 7.19575658e-02, 1.07085668e-02,
          1.08086467e-02, 7.00560445e-03, 0., 1.86148919e-02,
          1.17093669e-02, 1.20096072e-03, 2.50200159e-03, 1.90152123e-03,
          1.90152123e-03, 1.80144107e-03, 1.00080064e-03, 1.17994390e-01,
          9.00720537e-04, 3.00240179e-04, 8.80704541e-03, 2.30184151e-03,
          0., 1.00080064e-03, 6.55524433e-02, 0., 0., 1.70136113e-02, 0.,
          9.48759019e-02, 3.71297039e-02, 6.04483560e-02, 1.30104076e-03,
          0., 1.60128099e-03, 0., 0., 1.03082461e-02, 0., 1.78142507e-02,
          8.60688556e-03, 3.60288215e-03, 0., 4.00320248e-04,
          5.20416303e-03, 0., 2.00160124e-04, 5.00400318e-04, 0., 0., 0.,
          6.00480358e-04, 0., 4.91393097e-02, 0., 3.00240179e-04,
          2.80224183e-03, 0., 1.00080062e-04, 1.28102480e-02,
          1.60128099e-03, 7.10568437e-03, 2.30184151e-03, 5.20416303e-03,
          6.50520390e-03, 1.18094478e-02, 0., 0., 1.40112091e-03, 0.,
          2.62209754e-02, 1.66132897e-01, 0., 0., 2.33186539e-02, 0., 0.,
          0., 0., 0., 0., 1.00080062e-04, 5.10408310e-03, 2.14171335e-02,
          6.30504405e-03, 0., 2.50200159e-03, 7.30584469e-03, 0., 0.,
          4.40352270e-03, 0., 1.50120095e-03, 0., 2.10168120e-03, 0. ]
      - [ 0., 3.46420348e-01, 0., 0., 0., 0., 4.99200597e-02,
          4.26363479e-03, 0., 1.33238593e-03, 0., 1.51003734e-03,
          1.47450706e-02, 4.08598362e-03, 3.10890051e-03, 0.,
          5.68484664e-02, 1.59886312e-02, 8.88257273e-05, 1.51003734e-03,
          0., 0., 0., 3.90833197e-03, 1.99857894e-02, 0., 0.,
          8.88257273e-05, 7.10605818e-04, 1.15473440e-03, 0.,
          1.09255649e-02, 1.45674190e-02, 0., 3.10890051e-03,
          2.66477175e-04, 1.15473440e-03, 0., 3.90833197e-03, 0., 0.,
          2.54041582e-01, 0., 3.90833197e-03, 0., 0., 3.55302915e-03, 0.,
          0., 0., 5.68484655e-03, 7.10605830e-03, 0., 5.24071790e-03, 0.,
          4.57452498e-02, 0., 1.15473440e-03, 0., 0., 2.66477186e-02, 0.,
          5.32954349e-04, 0., 0., 1.77651455e-04, 0., 1.13696931e-02, 0.,
          2.50488557e-02, 0., 0., 0., 0., 7.10605818e-04, 2.22064322e-03,
          0., 9.77082993e-04, 2.08740458e-02, 0., 0., 9.77082993e-04, 0.,
          0., 0., 3.02007468e-03, 0., 0., 5.68484655e-03, 0.,
          2.04299181e-03, 8.97139870e-03, 0., 0., 0., 1.51003734e-03, 0.,
          1.86534028e-03, 1.33238593e-03, 0. ]
      - [ 0., 4.01450396e-02, 0., 0., 1.81300174e-02, 1.29500128e-04,
          7.77000794e-04, 3.88500397e-04, 5.54260537e-02, 1.10075111e-02,
          6.47500623e-04, 0., 0., 9.19450913e-03, 4.66200477e-03, 0.,
          7.16135725e-02, 0., 0., 4.27350402e-03, 2.71950266e-03,
          2.74540279e-02, 1.28205130e-02, 0., 0., 0., 1.64465159e-02,
          2.20150221e-03, 6.65630624e-02, 0., 0., 4.27350402e-03, 0.,
          3.69075350e-02, 7.88655803e-02, 5.85340559e-02, 0., 0.,
          2.59000255e-04, 0., 1.46335140e-02, 8.24915841e-02, 0.,
          1.81300181e-03, 1.46335140e-02, 1.41155142e-02, 1.89070180e-02,
          3.10800318e-03, 5.18000498e-03, 0., 0., 0., 1.38565134e-02, 0.,
          5.69800567e-03, 2.12380216e-02, 0., 4.66200449e-02,
          1.32090133e-02, 0., 1.55400159e-03, 0., 0., 3.88500397e-04,
          6.99300691e-03, 0., 4.53250436e-03, 0., 1.21730119e-02, 0.,
          3.47060338e-02, 0., 3.88500397e-04, 0., 2.92670280e-02,
          3.40585336e-02, 0., 0., 9.06500907e-04, 1.03600102e-03, 0., 0.,
          0., 0., 0., 1.42450142e-03, 0., 2.47345250e-02, 3.67780365e-02,
          0., 1.45040145e-02, 1.76120177e-02, 0., 0., 0., 0., 0., 0., 0.,
          0. ]
      - [ 0., 8.19672123e-02, 0., 0., 1.15169119e-02, 4.25399467e-03, 0.,
          3.11267882e-04, 3.06080095e-02, 1.63934417e-02, 4.56526224e-03,
          0., 0., 2.08549481e-02, 2.09587049e-02, 0., 3.92197557e-02,
          2.51089428e-02, 2.80141109e-03, 7.67794112e-03, 1.30732516e-02,
          7.88545329e-03, 7.36667356e-03, 0., 1.67047102e-02,
          3.32019082e-03, 1.18281795e-02, 5.18779829e-03, 1.50446147e-02,
          0., 0., 1.45258347e-03, 0., 1.66009534e-02, 5.98671921e-02,
          2.50051878e-02, 2.07511926e-04, 1.03755963e-04, 5.49906585e-03,
          0., 1.58746615e-02, 1.57501549e-01, 0., 5.81033388e-03,
          1.12056443e-02, 4.15023853e-04, 1.37995435e-02, 4.35775053e-03,
          1.95061211e-02, 0., 0., 1.45258347e-03, 1.00643281e-02,
          9.02676862e-03, 6.74413750e-03, 1.44220786e-02, 1.14131556e-03,
          4.79352549e-02, 7.98920915e-03, 2.59389915e-03, 6.84789335e-03,
          0., 0., 9.75306053e-03, 3.79746817e-02, 1.66009541e-03,
          3.32019082e-03, 3.11267882e-04, 6.22535765e-04, 4.15023853e-04,
          2.47976761e-02, 0., 2.28263112e-03, 1.13094002e-02,
          4.27474566e-02, 1.02718407e-02, 0., 4.15023853e-04, 0.,
          2.07511926e-04, 0., 0., 2.07511918e-03, 0., 0., 0., 0.,
          2.49014311e-02, 1.06868641e-02, 0., 1.19319353e-02,
          6.84789335e-03, 0., 0., 1.14131556e-03, 0., 0., 0.,
          4.25399467e-03, 0. ]
      - [ 0., 0., 2.12068623e-03, 0., 4.81974159e-04, 1.06034316e-02,
          7.51879718e-03, 9.73587856e-03, 1.28205135e-01, 1.83150184e-03,
          5.30171581e-03, 0., 0., 2.79545020e-02, 3.27742426e-03, 0.,
          5.78369014e-04, 2.24599969e-02, 9.63948332e-05, 8.67553521e-04,
          0., 1.50183156e-01, 1.49411988e-02, 3.95218795e-03,
          3.61480638e-02, 1.83150184e-03, 3.66300368e-03, 2.60266056e-03,
          1.47484094e-02, 0., 0., 3.75939859e-03, 0., 5.88008501e-02,
          8.38635042e-02, 1.10082902e-01, 6.74763811e-04, 0.,
          4.81974147e-03, 0., 7.71158666e-04, 5.63909784e-02, 0.,
          5.10892598e-03, 0., 0., 2.89184507e-04, 0., 9.44669358e-03, 0.,
          0., 9.63948332e-05, 1.63871213e-03, 0., 2.89184507e-04, 0.,
          1.92789664e-03, 3.33526134e-02, 0., 9.63948332e-05,
          2.89184507e-03, 0., 0., 0., 2.98823975e-03, 0., 4.72334679e-03,
          0., 0., 1.44592253e-03, 0., 0., 6.74763811e-04, 2.40987074e-03,
          2.40023136e-02, 9.45633277e-02, 0., 0., 1.15673803e-03,
          2.98823975e-03, 0., 0., 2.31347606e-03, 0., 0., 1.92789666e-04,
          2.89184507e-04, 0., 1.68690961e-02, 0., 1.90861765e-02,
          3.85579333e-04, 0., 0., 0., 0., 0., 0., 8.67553521e-04,
          1.63871213e-03 ]
      - [ 6.43110555e-03, 6.63808361e-02, 5.91366028e-04, 6.20934321e-03,
          5.83973946e-03, 1.84801891e-02, 3.94736826e-02, 1.99586041e-02,
          4.21348307e-03, 1.70756932e-02, 2.27675922e-02, 1.47841507e-04,
          0., 1.03489058e-02, 1.67800114e-02, 6.65286789e-04,
          7.68775819e-03, 1.31578939e-02, 9.16617364e-03, 8.72264896e-03,
          8.27912427e-03, 3.33382599e-02, 5.32229431e-03, 2.18066219e-02,
          1.14577170e-02, 1.32318148e-02, 6.94855070e-03, 1.29361320e-02,
          3.43731493e-02, 0., 3.17859231e-03, 6.20195121e-02,
          6.72678836e-03, 3.67386155e-02, 0., 3.03075090e-02,
          2.80898856e-03, 0., 4.95269056e-03, 0., 5.32229431e-03,
          8.56002346e-02, 8.13128310e-04, 9.31401458e-03, 5.17445290e-03,
          5.91366028e-04, 3.03075090e-03, 5.91366040e-03, 1.47841510e-03,
          1.47841507e-04, 1.33057358e-03, 2.28415132e-02, 1.26404492e-02,
          0., 4.06564167e-03, 0., 6.65286789e-03, 5.76581899e-03,
          1.01271430e-02, 8.87049013e-04, 2.95683014e-04, 0., 0.,
          8.72264896e-03, 0., 6.87463023e-03, 6.06150180e-03,
          9.90538113e-03, 2.29154341e-03, 2.17327010e-02, 3.10467165e-02,
          0., 1.07924296e-02, 0., 2.73506786e-03, 4.33175601e-02,
          1.03489053e-03, 3.99172073e-03, 3.27468924e-02, 3.91779980e-03,
          1.62625662e-03, 4.43524506e-04, 1.47841510e-03, 0.,
          1.18273206e-03, 5.10053197e-03, 2.21762253e-04, 1.92193966e-02,
          1.25665283e-02, 8.87049013e-04, 6.06150180e-03, 4.95269056e-03,
          1.18273206e-03, 0., 1.62625662e-03, 4.43524541e-03,
          2.43938481e-03, 3.69603775e-04, 0., 5.17445267e-04 ]
      - [ 0., 2.43414119e-02, 0., 0., 5.05795563e-03, 4.21496294e-03, 0.,
          4.21496294e-03, 7.63962045e-02, 2.95047415e-03, 9.27291904e-03,
          0., 0., 3.89884086e-03, 1.39093781e-02, 0., 1.11696525e-02,
          2.93993670e-02, 0., 2.10748156e-04, 1.00105377e-02,
          1.47523716e-01, 0., 1.05374078e-04, 3.78292948e-02,
          6.32244453e-04, 2.21285573e-03, 6.53319294e-03, 6.95468904e-03,
          0., 0., 1.05374074e-02, 0., 5.98524772e-02, 3.89884086e-03,
          8.40885118e-02, 1.05374078e-04, 0., 1.26448891e-03, 0.,
          1.01159113e-02, 6.42781891e-03, 0., 2.44467854e-02,
          9.79978964e-03, 1.58061122e-03, 3.16122227e-04, 0.,
          5.16332965e-03, 0., 0., 0., 8.00842978e-03, 0., 0.,
          2.21285573e-03, 5.55321388e-02, 3.31928357e-02, 0., 0.,
          5.32139093e-02, 0., 0., 8.85142293e-03, 2.13909373e-02, 0.,
          4.63645952e-03, 4.21496312e-04, 3.26659647e-03, 5.79557428e-03,
          0., 0., 0., 1.05374078e-04, 2.05479451e-02, 1.25922024e-01, 0.,
          0., 3.58271855e-03, 6.32244453e-04, 0., 0., 9.48366709e-04, 0.,
          0., 1.15911488e-03, 0., 2.38145422e-02, 7.69230770e-03, 0.,
          3.16122227e-04, 2.95047415e-03, 0., 0., 0., 0., 0.,
          1.36986305e-03, 0., 0. ]
      - [ 0., 2.63257939e-02, 3.80155863e-04, 2.85116897e-04,
          3.32636386e-03, 1.78673249e-02, 3.25983651e-02, 4.94202599e-03,
          7.12792249e-03, 0., 2.84166504e-02, 0., 0., 3.70651972e-03,
          1.36856111e-02, 0., 9.50389658e-05, 2.02433001e-02,
          4.08667559e-03, 1.96730662e-02, 1.39707280e-02, 6.19654059e-02,
          0., 3.13628581e-03, 3.97262871e-02, 5.70233795e-04,
          8.45846813e-03, 3.80155863e-04, 7.70765990e-02, 0., 0.,
          2.15738453e-02, 3.80155863e-04, 3.13628577e-02, 6.74776640e-03,
          1.74871702e-02, 7.60311726e-03, 0., 1.11195594e-02, 0.,
          5.41722123e-03, 5.47424443e-02, 0., 4.00114059e-02,
          3.70651972e-03, 0., 1.80574041e-03, 0., 6.65272761e-04, 0., 0.,
          0., 1.50161562e-02, 0., 1.14046759e-03, 1.88177153e-02,
          4.84698731e-03, 4.77095619e-02, 2.56605214e-03, 2.37597409e-03,
          2.99372748e-02, 0., 0., 9.50389635e-03, 3.80155863e-04,
          2.85116897e-04, 7.69815641e-03, 6.46264944e-03, 6.65272761e-04,
          2.67059486e-02, 7.31800031e-03, 0., 0., 3.80155863e-04,
          1.12145981e-02, 7.85972252e-02, 2.85116897e-04, 1.90077932e-03,
          5.45523651e-02, 0., 0., 0., 0., 0., 0., 1.97681040e-02,
          2.75612995e-03, 2.10986510e-02, 9.21877939e-03, 0.,
          5.41722123e-03, 1.33054554e-02, 0., 0., 4.75194817e-03,
          1.90077932e-04, 0., 4.46683122e-03, 0., 0. ]
      - [ 0., 1.42664358e-01, 0., 3.85579333e-04, 4.04858310e-03,
          1.18565643e-02, 7.75014460e-02, 1.92789666e-04, 7.22961267e-03,
          1.77366491e-02, 3.72084044e-02, 2.89184507e-03, 0.,
          3.89435142e-02, 8.96471925e-03, 9.63948332e-05, 7.04646260e-02,
          7.61519186e-03, 1.83150184e-03, 2.89184507e-04, 6.55484851e-03,
          2.42914986e-02, 7.71158654e-03, 7.90437590e-03, 2.17852332e-02,
          4.72334679e-03, 1.30133023e-02, 9.73587856e-03, 3.41237709e-02,
          0., 4.81974159e-04, 1.04106423e-02, 0., 2.36167349e-02,
          2.12068623e-03, 2.11104676e-02, 4.43416229e-03, 9.63948332e-05,
          6.74763834e-03, 0., 4.33776760e-03, 3.07499524e-02, 0.,
          9.25390422e-03, 8.96471925e-03, 4.33776760e-03, 5.49450563e-03,
          5.78369014e-04, 1.33024873e-02, 0., 1.54231733e-03,
          4.53055697e-03, 5.78369014e-03, 9.63948332e-05, 0.,
          2.54482366e-02, 3.85579333e-04, 1.73510704e-02, 0.,
          1.73510704e-03, 9.44669358e-03, 0., 2.89184507e-04,
          6.55484851e-03, 7.22961267e-03, 9.63948332e-05, 1.09890113e-02,
          4.72334679e-03, 3.66300368e-03, 2.78581064e-02, 0., 0.,
          5.78369014e-04, 4.81974147e-03, 1.52303837e-02, 1.54231731e-02,
          0., 0., 5.20532094e-02, 1.19529590e-02, 0., 1.44592253e-03, 0.,
          0., 0., 1.28205130e-02, 3.95218795e-03, 1.98573358e-02,
          1.66763067e-02, 0., 3.75939859e-03, 2.89184507e-03, 0., 0., 0.,
          4.81974159e-04, 0., 2.02429155e-03, 1.34952762e-03,
          1.15673803e-03 ]
      - [ 0., 4.33847070e-01, 0., 6.40512398e-03, 0., 1.23098474e-02,
          5.50440326e-02, 0., 1.10088068e-03, 2.60208151e-03,
          1.40112091e-03, 0., 0., 9.20736603e-03, 4.00320254e-03, 0.,
          1.18194550e-01, 2.62209754e-02, 0., 3.70296231e-03, 0.,
          1.00080062e-04, 2.80224183e-03, 1.40112091e-03, 2.13170536e-02,
          0., 0., 5.80464350e-03, 1.00080062e-04, 0., 0., 0.,
          3.30264214e-03, 2.54203361e-02, 2.00160127e-03, 0.,
          1.80144107e-03, 0., 7.00560445e-03, 0., 0., 4.69375476e-02, 0.,
          1.41112888e-02, 0., 0., 5.30424342e-03, 0., 1.90152123e-03, 0.,
          0., 0., 0., 5.70456358e-03, 0., 4.88390699e-02, 1.00080064e-03,
          1.10088068e-03, 0., 0., 4.24339473e-02, 0., 0., 0.,
          7.20576430e-03, 0., 2.00160124e-04, 2.10168120e-03, 0.,
          1.21096876e-02, 0., 0., 2.00160124e-04, 3.30264214e-03, 0.,
          3.00240179e-04, 0., 1.00080062e-04, 3.25260200e-02, 0.,
          1.00080062e-04, 0., 0., 0., 0., 1.22097675e-02, 4.00320248e-04,
          7.00560457e-04, 5.30424342e-03, 0., 2.00160124e-04,
          8.90712533e-03, 0., 0., 4.00320248e-04, 0., 0., 1.00080064e-03,
          3.00240179e-04, 0. ]
      - [ 0., 3.63043606e-01, 1.98446447e-04, 1.70096959e-04,
          1.16232922e-03, 1.94477513e-02, 3.64857949e-02, 8.07960518e-03,
          6.80387835e-04, 7.93785788e-04, 7.20077101e-03, 0., 0.,
          7.65436271e-04, 2.94834725e-03, 0., 1.57339685e-02, 0., 0.,
          1.23603782e-02, 4.79106419e-03, 8.47649854e-03, 6.91727595e-03,
          3.98877338e-02, 0., 8.07960518e-03, 7.08737294e-04,
          1.16232922e-03, 2.21976526e-02, 0., 0., 1.33185908e-01, 0.,
          2.55995914e-02, 5.66989838e-05, 3.08442470e-02, 1.36077567e-03,
          3.40193918e-04, 1.33809606e-02, 0., 5.66989824e-04,
          5.55933528e-02, 0., 1.05460109e-02, 0., 0., 1.89941598e-03,
          3.11844400e-04, 5.66989838e-05, 0., 0., 7.93785788e-04,
          7.39921723e-03, 0., 0., 1.33242616e-02, 1.48267839e-02,
          2.23960984e-03, 0., 5.86834503e-03, 1.21335825e-02, 0., 0.,
          9.92232235e-04, 2.83494919e-05, 8.50484794e-05, 3.28854099e-03,
          0., 0., 3.40193918e-04, 5.58484998e-03, 0., 4.25242382e-04,
          1.70096959e-04, 5.10290847e-04, 2.63933763e-02, 0., 0.,
          3.19782272e-02, 8.50484794e-05, 0., 0., 0., 0., 0.,
          1.20768836e-02, 6.23688800e-04, 4.81941365e-03, 8.30640085e-03,
          0., 2.09786231e-03, 8.75999313e-03, 8.50484794e-05, 0.,
          8.22135247e-04, 0., 0., 0., 0., 9.07183741e-04 ]
      - [ 0., 1.71959182e-04, 0., 3.43918364e-04, 0., 1.46165304e-02,
          1.94887072e-02, 4.63716611e-02, 3.55382310e-03, 5.73197285e-05,
          4.45374288e-02, 0., 0., 1.54763262e-03, 4.26458791e-02, 0.,
          1.83996335e-02, 2.29278914e-04, 1.31835381e-03, 7.85280298e-03,
          0., 8.76991823e-03, 3.84042179e-03, 1.51324086e-02,
          2.52206810e-03, 1.72532387e-02, 1.14639457e-04, 1.31835381e-03,
          2.12656200e-01, 0., 0., 6.64908886e-02, 0., 1.71385985e-02,
          3.90347354e-02, 2.47621220e-02, 2.30425317e-02, 0.,
          2.53353193e-02, 0., 0., 4.48813476e-02, 3.43918364e-04,
          4.70021777e-02, 0., 0., 4.70021786e-03, 0., 0., 0., 0., 0., 0.,
          0., 0., 9.17115656e-04, 0., 7.27960560e-03, 0., 0.,
          1.77691155e-03, 0., 0., 0., 0., 1.85715929e-02, 1.20371429e-03,
          0., 0., 5.15877560e-04, 0., 0., 2.86598643e-03, 0.,
          2.63670762e-03, 7.13630617e-02, 0., 0., 3.15258503e-02, 0., 0.,
          0., 0., 0., 0., 1.46738505e-02, 4.98681655e-03, 0.,
          3.53089534e-02, 0., 1.89728308e-02, 3.16978097e-02, 0., 0.,
          2.29278914e-04, 0., 0., 0., 0., 0. ]
      - [ 0., 7.73504283e-03, 5.55555569e-04, 2.69230758e-03, 0.,
          3.87179479e-02, 1.38034187e-02, 1.49572652e-03, 4.18803422e-03,
          2.05982905e-02, 1.25641022e-02, 0., 0., 1.06410254e-02,
          3.99572663e-02, 0., 1.94017086e-02, 1.55128203e-02,
          3.07692308e-03, 1.27777774e-02, 4.27350424e-05, 7.47863250e-03,
          1.23076923e-02, 1.76495723e-02, 1.12820510e-02, 3.14102545e-02,
          5.34188049e-03, 3.35042737e-02, 2.16623932e-01, 0.,
          3.41880339e-04, 7.39316223e-03, 4.27350424e-05, 2.41880342e-02,
          3.11111100e-02, 7.05128210e-03, 2.77777785e-03, 0.,
          9.87179484e-03, 0., 0., 1.05769232e-01, 2.99145293e-04,
          2.26068366e-02, 0., 0., 3.07692308e-03, 4.95726475e-03,
          1.75213665e-02, 4.27350424e-05, 0., 2.64957268e-03,
          6.02564076e-03, 4.70085477e-04, 0., 1.14957262e-02,
          2.41880342e-02, 7.00854696e-03, 0., 8.11965787e-04,
          2.26923078e-02, 0., 6.83760678e-04, 2.26495718e-03,
          3.63247865e-03, 2.52991449e-02, 3.97435902e-03, 4.27350431e-04,
          0., 3.97435902e-03, 1.49572652e-03, 0., 4.35897429e-03,
          1.66666671e-03, 1.02991452e-02, 3.63247865e-03, 0., 0.,
          2.60256417e-02, 0., 0., 0., 4.27350431e-04, 0., 0.,
          1.73076913e-02, 1.28205123e-04, 1.06837600e-03, 1.02136750e-02,
          0., 1.17094014e-02, 1.49572650e-02, 0., 0., 2.94871791e-03, 0.,
          1.28205123e-04, 0., 3.41880339e-04, 1.28205132e-03 ]
      - [ 1.16684549e-02, 1.41273245e-01, 0., 8.18133075e-03, 0.,
          1.11766811e-03, 3.45582999e-02, 6.61659520e-03, 0.,
          3.26359086e-03, 1.85085833e-02, 1.17221035e-01, 3.35300434e-03,
          0., 2.58851945e-02, 1.08190272e-02, 2.14592274e-02,
          6.25894172e-03, 1.98944919e-02, 1.10425614e-02, 0., 0.,
          4.47067250e-05, 6.48247497e-03, 1.27414167e-02, 7.06366263e-03,
          6.70600857e-04, 0., 4.65844087e-02, 0., 1.20708160e-03,
          1.50661664e-02, 3.08476412e-03, 9.83548001e-04, 1.56473543e-03,
          3.08476412e-03, 9.38841200e-04, 1.78826900e-04, 2.12804005e-02,
          0., 0., 5.39610162e-02, 4.02360503e-03, 1.57814734e-02, 0., 0.,
          2.54828343e-03, 5.18597988e-03, 5.81187429e-04, 2.05650926e-03,
          3.97889875e-03, 3.12947086e-04, 2.86123040e-03, 7.33190309e-03,
          1.34120171e-04, 1.96709600e-03, 0., 5.36480686e-04,
          1.92238914e-03, 3.57653800e-04, 2.14592274e-03, 2.10121600e-03,
          4.69420617e-03, 8.94134515e-04, 5.67775406e-03, 2.72263959e-02,
          0., 9.92489327e-03, 0., 8.00250378e-03, 9.07546561e-03,
          1.57367680e-02, 5.05186012e-03, 0., 3.57653800e-04,
          4.06831177e-03, 0., 8.94134515e-04, 1.80615168e-02, 0.,
          1.83297577e-03, 7.63143823e-02, 0., 3.78218889e-02, 0.,
          2.43204590e-02, 0., 4.02360514e-04, 5.67775406e-03,
          7.42131658e-03, 8.09191726e-03, 3.16076539e-02, 0.,
          1.83297577e-03, 9.16487817e-03, 8.04721005e-03, 7.55543634e-03,
          0., 3.57653800e-04, 0. ]
      - [ 1.30151166e-02, 4.19274926e-01, 3.13617275e-05, 5.77055803e-03,
          0., 1.91306532e-03, 2.95741092e-02, 4.01430111e-03, 0.,
          8.65583681e-03, 9.09490138e-03, 3.32434326e-02, 0.,
          3.23025789e-03, 1.52731612e-02, 2.38349126e-03, 4.74502929e-02,
          2.00715056e-03, 3.24907489e-02, 9.75349732e-03, 2.32076785e-03,
          1.59944815e-03, 4.23383340e-03, 1.09766051e-03, 1.28583086e-03,
          2.97936401e-03, 4.01430111e-03, 3.32434312e-03, 2.32390407e-02,
          0., 1.00357528e-03, 3.07344925e-03, 3.95157747e-03,
          7.96587858e-03, 2.28940602e-03, 1.69039704e-02, 1.16038392e-03,
          1.75625668e-03, 5.01787663e-03, 0., 1.41127768e-03,
          3.77595201e-02, 2.44621467e-03, 6.83685672e-03, 4.70425904e-04,
          0., 8.34221952e-03, 1.16038392e-03, 3.76340724e-03,
          1.09766051e-03, 2.60302331e-03, 1.16038392e-03, 6.42915396e-03,
          0., 6.89957989e-04, 1.05689019e-02, 8.12268723e-03,
          5.01787639e-04, 7.21319753e-04, 1.31719257e-03, 8.18541087e-03,
          0., 9.34579503e-03, 3.35570495e-03, 6.27234549e-05,
          1.50222676e-02, 2.00715056e-03, 5.95872803e-03, 9.40851809e-04,
          8.56175181e-03, 4.92379116e-03, 0., 4.29655658e-03,
          6.89957989e-04, 6.27234549e-05, 6.71140989e-03, 9.40851824e-05,
          7.84043164e-04, 1.29210316e-02, 7.84043164e-04, 1.31719257e-03,
          1.01925610e-02, 9.72213573e-04, 1.53672462e-03, 7.21319753e-04,
          1.03493696e-02, 3.35570495e-03, 3.70068382e-03, 1.47400117e-02,
          5.61374938e-03, 7.52681447e-03, 1.38618834e-02, 7.52681459e-04,
          0., 1.05689019e-02, 2.50893831e-03, 5.80191938e-03, 0.,
          5.64511109e-04, 1.41127768e-03 ]
      - [ 2.85164337e-04, 2.52655596e-01, 0., 7.94895552e-03,
          6.73700729e-03, 3.35781015e-02, 3.70000713e-02, 1.06936626e-04,
          3.20809870e-03, 8.12718365e-03, 8.51928443e-03, 6.77265285e-04,
          0., 1.27254585e-02, 3.17245326e-03, 1.71098602e-03,
          1.22264214e-02, 1.98902134e-02, 5.27554005e-03, 8.94703064e-03,
          7.37862708e-03, 4.84779384e-03, 3.63584538e-03, 3.66436169e-02,
          5.38247684e-03, 1.20125478e-02, 5.70328673e-04, 6.16667885e-03,
          6.05974207e-03, 0., 0., 4.70164716e-02, 5.34683140e-03,
          2.41676774e-02, 3.56455421e-05, 2.27775015e-02, 0.,
          9.62429622e-04, 1.16560925e-02, 3.56455421e-04, 2.56647915e-03,
          2.64846385e-02, 8.91138567e-04, 1.75732523e-02, 3.60019971e-03,
          1.96050480e-03, 7.12910842e-04, 4.20617405e-03, 6.73700729e-03,
          2.81599793e-03, 2.49518780e-04, 1.28680402e-02, 1.35453057e-03,
          1.87139101e-02, 5.02602151e-03, 3.19740511e-02, 8.80444888e-03,
          7.94895552e-03, 5.02602151e-03, 3.20809870e-03, 2.81956233e-02,
          0., 5.77457761e-03, 5.56070451e-03, 1.95694026e-02,
          4.99037607e-03, 6.09538751e-03, 2.92293448e-03, 5.88151440e-03,
          1.14422189e-02, 1.88564919e-02, 0., 1.35453057e-03,
          1.16560925e-02, 1.14065735e-03, 8.09153821e-03, 0.,
          8.12718365e-03, 2.18863636e-02, 3.56455421e-05, 7.12910842e-05,
          0., 1.06936623e-03, 0., 0., 1.44364443e-02, 2.13873253e-04,
          1.35453064e-02, 5.27554005e-03, 6.77265285e-04, 0.,
          6.05974207e-03, 3.31503549e-03, 0., 2.81599793e-03,
          1.17630290e-03, 3.92100948e-04, 0., 5.20424917e-03,
          3.63584538e-03 ]
      - [ 9.58482828e-03, 0., 2.10148655e-03, 1.67093799e-02,
          8.20092275e-04, 9.84110683e-03, 0., 0., 3.74167110e-03,
          1.05074318e-02, 2.15786789e-02, 2.67555099e-02, 6.04818063e-03,
          5.74064581e-03, 2.88057420e-02, 1.00461300e-02, 0.,
          3.79292667e-02, 2.26037931e-02, 1.23526398e-02, 3.84418247e-03,
          3.99794988e-03, 3.28036910e-03, 3.87493595e-02, 1.88108664e-02,
          1.09174782e-02, 7.38083059e-03, 2.65504867e-02, 3.02409031e-03,
          5.12557672e-05, 4.14146595e-02, 7.53459800e-03, 1.99897494e-03,
          5.68939000e-03, 0., 6.04818063e-03, 4.86929808e-03,
          3.22911330e-03, 1.13275247e-02, 4.61301912e-04, 0., 0.,
          5.61763197e-02, 2.61916965e-02, 7.07329577e-03, 1.53767306e-03,
          8.20092275e-04, 3.89543828e-03, 2.76781153e-03, 3.28036910e-03,
          1.05586881e-02, 6.66324981e-04, 0., 2.35776533e-03,
          6.66324981e-04, 0., 0., 6.91952836e-03, 5.12557672e-05,
          2.81906710e-03, 2.20399792e-03, 0., 1.74269604e-03,
          3.02409027e-02, 1.94771914e-03, 1.21476166e-02, 1.14812916e-02,
          1.78370066e-02, 3.58790369e-03, 1.50691960e-02, 0.,
          2.68067662e-02, 1.87083557e-02, 1.43516145e-03, 1.02511537e-03,
          1.35315228e-02, 8.66222475e-03, 1.02511537e-03, 8.71348020e-04,
          0., 2.51665823e-02, 1.29164532e-02, 1.02511534e-04,
          2.88569964e-02, 4.22860086e-02, 2.61404412e-03, 2.61916965e-02,
          1.69144031e-02, 2.05023069e-04, 1.61455665e-02, 2.51153251e-03,
          1.98872369e-02, 2.68580224e-02, 5.12557686e-04, 7.17580738e-03,
          2.02972833e-02, 1.66068692e-02, 1.37365460e-02, 8.71348020e-04,
          1.69144035e-03 ]
      - [ 0., 1.67062681e-03, 2.89575313e-03, 5.23463031e-03,
          3.04425322e-03, 2.11241469e-02, 5.19750523e-04, 8.24175868e-03,
          8.94713402e-03, 1.29937632e-02, 5.25690541e-02, 0., 0.,
          1.10261366e-02, 4.72601764e-02, 3.71250389e-05, 1.11746369e-02,
          1.09518869e-02, 2.71012774e-03, 6.38550660e-03, 1.48500156e-04,
          1.41075151e-02, 6.53400691e-03, 1.15830123e-01, 8.98425933e-03,
          7.21710771e-02, 1.74116436e-02, 1.43302651e-02, 4.84110489e-02,
          0., 3.71250389e-05, 9.32952240e-02, 3.41550354e-03,
          1.41446395e-02, 1.47757651e-02, 9.05850995e-03, 1.53326411e-02,
          4.52925498e-03, 2.05301456e-02, 1.96762709e-03, 2.11612717e-03,
          2.89204046e-02, 4.23225434e-03, 3.91669162e-02, 3.71250382e-04,
          0., 5.82863111e-03, 1.70775177e-03, 7.87050836e-03,
          1.78200193e-03, 0., 1.22512633e-03, 8.50163400e-03,
          2.00475217e-03, 3.86100402e-03, 5.56875579e-03, 6.08850643e-03,
          6.08850643e-03, 4.82625503e-04, 6.16275659e-03, 6.42263191e-03,
          0., 0., 7.42500764e-04, 1.54440161e-02, 2.04187706e-02,
          2.08271462e-02, 5.82863111e-03, 0., 9.13275965e-03, 0., 0.,
          1.17315119e-02, 4.52925498e-03, 5.38313063e-03, 2.13097725e-02,
          1.96762709e-03, 2.41312757e-03, 5.23463031e-03, 3.41550354e-03,
          5.19750523e-04, 0., 8.91000964e-03, 0., 0., 5.23463031e-03,
          5.97713143e-03, 0., 7.27650756e-03, 1.52212661e-03,
          3.30412854e-03, 7.75913335e-03, 3.22987838e-03, 0.,
          1.63350173e-03, 3.71250389e-05, 7.05375744e-04, 3.34125361e-04,
          1.74487685e-03, 3.22987838e-03 ]
      - [ 2.95831133e-02, 5.67829311e-02, 3.13989562e-03, 1.32405234e-03,
          2.26980410e-04, 1.19543020e-02, 0., 3.06423544e-03,
          2.11848388e-03, 1.57751385e-02, 5.37186954e-03, 3.86623293e-02,
          0., 2.26980410e-04, 8.84845331e-02, 1.18786413e-02,
          2.24710610e-02, 1.56994779e-02, 7.04017580e-02, 4.53960802e-03,
          1.89150334e-04, 1.15003409e-02, 6.16630120e-03, 4.21048664e-02,
          1.58886285e-03, 5.52697293e-02, 2.19414406e-03, 1.38079748e-02,
          5.33403968e-03, 0., 3.70734674e-03, 3.12854648e-02,
          2.64810486e-04, 1.00627979e-02, 3.78300683e-05, 2.34546419e-03,
          3.89649696e-03, 4.50177817e-03, 5.10705914e-03, 1.36188243e-03,
          5.33403968e-03, 6.16630120e-03, 2.48543546e-02, 2.30006818e-02,
          1.47537270e-03, 0., 2.19414406e-03, 4.19913745e-03,
          1.26730725e-02, 1.00627979e-02, 0., 0., 2.15631397e-03,
          6.16630120e-03, 1.18408110e-02, 7.56601366e-05, 6.80941215e-04,
          2.45895446e-03, 1.17273210e-03, 8.47393554e-03, 3.55602638e-03,
          0., 4.27479763e-03, 1.07059097e-02, 2.23197392e-03,
          8.25830400e-02, 1.49050467e-02, 1.19543020e-02, 6.05281093e-04,
          0., 0., 0., 1.10085495e-02, 3.55602638e-03, 1.01006282e-02,
          2.79942504e-03, 3.02640535e-03, 2.64810468e-03, 0.,
          3.02640547e-04, 6.43111160e-03, 6.09064102e-03, 1.21056219e-03,
          7.56601337e-04, 2.38329428e-03, 6.80941215e-04, 1.71370208e-02,
          1.36188243e-03, 9.00355633e-03, 5.44752972e-03, 1.48672173e-02,
          4.16130759e-04, 3.06423544e-03, 0., 4.23696749e-02,
          1.62669295e-03, 4.80441889e-03, 0., 5.06922929e-03,
          7.60384370e-03 ]
      - [ 2.03754585e-02, 9.07610953e-02, 2.46743998e-03, 8.52157176e-03,
          1.20828254e-02, 1.02258855e-02, 7.68213300e-03, 1.06837612e-03,
          3.91737884e-03, 1.41687021e-02, 1.05820112e-02, 3.37047242e-02,
          3.56125354e-04, 1.00223850e-02, 2.96855941e-02, 7.83475768e-03,
          7.50407018e-03, 1.27187632e-02, 4.22262922e-02, 4.70594224e-03,
          1.11925113e-03, 2.64550280e-03, 1.52879534e-02, 1.25152627e-02,
          4.17175423e-03, 1.22608878e-02, 1.05056986e-02, 2.26139612e-02,
          6.74603209e-02, 1.27187639e-04, 2.54375263e-05, 5.01119271e-02,
          7.91107025e-03, 3.89194163e-03, 8.19088332e-03, 6.56288164e-03,
          7.12250709e-04, 2.84900283e-03, 7.91107025e-03, 3.28144082e-03,
          6.51200674e-03, 5.05698025e-02, 2.79812794e-03, 6.43569417e-03,
          8.85225926e-03, 2.87444051e-03, 1.77808311e-02, 1.01241358e-02,
          1.88746452e-02, 4.07000422e-04, 3.56125354e-04, 7.32600782e-03,
          5.82519360e-03, 4.62962966e-03, 2.84900283e-03, 3.79019137e-03,
          4.07000422e-04, 2.03500222e-03, 6.81725703e-03, 6.28306903e-03,
          2.46743998e-03, 0., 2.59462767e-03, 6.28306903e-03,
          2.64550280e-02, 2.17236467e-02, 1.48300780e-02, 9.38644726e-03,
          6.18131878e-03, 3.17969080e-03, 9.79344733e-03, 2.03500211e-04,
          6.46113185e-03, 1.05565730e-02, 9.92063526e-03, 4.17175423e-03,
          9.15750978e-04, 6.99531985e-03, 2.39112740e-03, 8.80138390e-03,
          4.07000422e-04, 7.02075707e-03, 6.13044389e-03, 2.54375255e-03,
          0., 2.62006512e-03, 6.86813204e-04, 7.98738282e-03,
          2.00193338e-02, 4.17175423e-03, 1.13705741e-02, 1.09635741e-02,
          1.70431426e-03, 0., 1.61019545e-02, 1.83150196e-03,
          7.19881989e-03, 1.55168911e-03, 3.30687850e-03, 4.75681759e-03 ]
      - [ 2.14606663e-03, 2.77211457e-01, 0., 2.21313117e-03, 0.,
          5.86815085e-03, 2.90054325e-02, 5.96874766e-03, 6.37113524e-04,
          6.40466763e-03, 2.44115088e-02, 1.40835624e-03, 0.,
          4.92924685e-03, 5.81785254e-02, 0., 7.00154230e-02,
          3.35322926e-04, 3.17215472e-02, 1.31111257e-02, 1.64308224e-03,
          2.34726048e-03, 9.72436450e-04, 2.32378785e-02, 2.51492183e-03,
          2.54845414e-02, 1.87780824e-03, 1.07303332e-03, 1.92810670e-02,
          0., 0., 2.10247468e-02, 0., 5.63342497e-03, 1.02944132e-02,
          1.46200787e-02, 2.01193747e-04, 0., 1.80739053e-02, 0., 0.,
          7.50788003e-02, 0., 1.83756948e-02, 0., 0., 2.04546982e-03,
          3.05143860e-03, 0., 0., 6.37113524e-04, 1.30775932e-03,
          4.15800419e-03, 0., 0., 1.15686404e-02, 3.88974580e-03,
          5.56636043e-03, 0., 0., 7.74595933e-03, 0., 0., 2.54845410e-03,
          5.36516658e-04, 6.93447813e-02, 7.47770071e-03, 1.20716251e-03,
          0., 6.33760309e-03, 3.95681057e-03, 0., 3.68855195e-04, 0., 0.,
          1.01938164e-02, 0., 0., 1.76044535e-02, 1.67661463e-04, 0., 0.,
          1.64308224e-03, 0., 0., 7.77949160e-03, 6.70645823e-05,
          5.36516681e-03, 1.21722221e-02, 2.51492183e-03, 7.34357163e-03,
          1.27087384e-02, 0., 0., 1.48548046e-02, 0., 0., 2.68258329e-04,
          2.34726031e-04, 3.35322911e-05 ]
      - [ 4.38963203e-03, 1.47157192e-01, 8.36120453e-04, 4.45930893e-03,
          2.12513935e-03, 1.54333897e-02, 2.70693991e-02, 1.37959868e-02,
          4.59866226e-03, 1.20889079e-02, 8.32636561e-03, 1.35869568e-03,
          0., 5.78316627e-03, 1.60256419e-02, 1.91610935e-03,
          4.57079150e-02, 3.30964336e-03, 5.74832782e-03, 1.97533444e-02,
          3.23996670e-03, 6.02703495e-03, 2.96125980e-03, 1.15663325e-02,
          7.97798205e-03, 1.02076372e-02, 4.70317760e-03, 1.22630997e-02,
          2.65816618e-02, 0., 4.87736921e-04, 1.20540699e-02,
          4.14576381e-03, 1.20889079e-02, 1.47714606e-02, 6.34058006e-03,
          7.17670051e-03, 2.85674469e-03, 1.22282607e-02, 1.39353404e-04,
          2.78706802e-03, 1.76769793e-01, 2.61287624e-03, 1.24372914e-02,
          3.86705692e-03, 1.14966556e-03, 1.40050175e-02, 6.02703495e-03,
          6.27090316e-03, 7.31605396e-04, 6.27090340e-04, 4.07608692e-03,
          6.58444827e-03, 0., 1.95094768e-03, 1.05211819e-02,
          1.16360094e-02, 1.01727983e-02, 8.36120453e-04, 4.14576381e-03,
          1.59211271e-02, 0., 8.70958786e-04, 6.20122626e-03,
          5.29542938e-03, 9.71989986e-03, 9.26700141e-03, 3.23996670e-03,
          4.11092537e-03, 1.00682834e-02, 8.60507227e-03, 0.,
          6.61928672e-03, 3.48383503e-04, 1.70707924e-03, 1.15314946e-02,
          0., 4.70317760e-03, 2.38991082e-02, 0., 2.78706808e-04,
          1.11482723e-03, 1.21934223e-03, 3.48383510e-05, 0.,
          9.30183940e-03, 4.80769249e-03, 8.95345584e-03, 1.89172253e-02,
          1.84643257e-03, 8.88377987e-03, 2.67210156e-02, 3.83221870e-03,
          0., 5.57413604e-03, 2.36900779e-03, 1.11482723e-03,
          3.48383503e-04, 4.04124893e-03, 3.62318847e-03 ]
      - [ 8.83190893e-03, 3.90218437e-01, 1.89933533e-04, 1.89933530e-03,
          1.48781273e-03, 1.48781273e-03, 1.19974678e-02, 6.33111777e-05,
          2.53244711e-04, 9.24343150e-03, 9.49667674e-03, 4.09306772e-02,
          3.45045910e-03, 8.32542032e-03, 8.51535331e-03, 1.58594493e-02,
          2.07027551e-02, 3.16555891e-03, 7.97720812e-03, 4.43178229e-04,
          1.26622355e-04, 0., 1.76638179e-02, 0., 1.07629003e-03,
          4.33681579e-03, 9.18012112e-03, 3.19721457e-03, 1.58277951e-04,
          0., 0., 9.49667665e-05, 0., 4.93827183e-03, 1.77904405e-02,
          1.26622355e-04, 0., 1.28205139e-02, 6.33111777e-05,
          6.29946217e-03, 9.81323305e-04, 5.44476137e-02, 4.74833825e-04,
          2.21589115e-04, 1.51946826e-03, 4.43178229e-04, 2.41532139e-02,
          1.45299155e-02, 1.14276679e-02, 6.33111777e-05, 0.,
          8.54700920e-04, 4.11522662e-04, 2.53244711e-04, 9.49667650e-04,
          6.83760736e-03, 0., 0., 6.33111806e-04, 9.18012054e-04,
          3.10224760e-03, 2.43748026e-03, 1.26938913e-02, 1.17125676e-03,
          2.18423568e-02, 9.81323305e-04, 9.05349851e-03, 3.13390326e-03,
          6.33111806e-04, 6.17284002e-03, 1.58277951e-04, 1.55112389e-02,
          1.26622355e-04, 2.90598311e-02, 0., 0., 2.69072503e-03,
          7.91389728e-04, 6.17284002e-03, 9.62329935e-03, 0.,
          3.10857873e-02, 9.05349851e-03, 6.07787305e-03, 0.,
          2.53244711e-04, 0., 1.13960123e-03, 2.50395704e-02,
          5.57138352e-03, 1.47515042e-02, 6.80595171e-03, 2.43748026e-03,
          1.51946826e-03, 6.55270694e-03, 2.53244711e-04, 6.04621740e-03,
          0., 9.55998804e-03, 6.96422951e-03 ]
      - [ 7.27650756e-03, 6.35580644e-02, 5.23463031e-03, 1.18800125e-03,
          4.15800419e-03, 1.16572622e-02, 1.97876450e-02, 1.82283949e-02,
          4.30650450e-03, 1.64835174e-02, 5.42025547e-03, 8.46450869e-03,
          0., 1.41075149e-03, 1.50727658e-02, 2.15325225e-03,
          5.98826893e-02, 3.11850337e-03, 1.88966449e-02, 7.49925803e-03,
          3.60112870e-03, 8.79863463e-03, 2.59875273e-03, 9.42976028e-03,
          1.03950105e-03, 1.22141382e-02, 9.72675998e-03, 5.97713143e-03,
          1.26076639e-01, 0., 0., 1.29306510e-01, 7.05375744e-04,
          7.72200804e-03, 4.26937966e-03, 2.38713995e-02, 1.31793888e-02,
          1.96762709e-03, 1.35135138e-02, 0., 4.52925498e-03,
          6.06994368e-02, 2.22750241e-04, 1.80056430e-02, 1.18800125e-03,
          0., 1.11003863e-02, 1.01722609e-02, 3.67537886e-03,
          4.45500482e-04, 0., 2.07900209e-03, 1.11003863e-02,
          1.11375120e-03, 3.89812910e-03, 5.23463031e-03, 4.00950434e-03,
          3.52687878e-03, 1.52212661e-03, 1.40703898e-02, 4.82625514e-03,
          0., 2.67300289e-03, 3.52687878e-03, 8.39025900e-03,
          1.84882693e-02, 8.65013432e-03, 1.33650145e-03, 1.74487685e-03,
          3.97237903e-03, 5.75438095e-03, 0., 5.68013079e-03,
          1.78200193e-03, 5.94000623e-04, 5.71725611e-03, 7.42500764e-04,
          4.82625503e-04, 2.47995257e-02, 3.89812910e-03, 5.94000623e-04,
          2.59875273e-03, 5.56875579e-03, 1.18800125e-03, 0.,
          1.16943875e-02, 2.56162765e-03, 5.08613046e-03, 1.95648950e-02,
          1.33650145e-03, 1.06548863e-02, 7.35075772e-03, 2.22750241e-04,
          0., 1.84140187e-02, 0., 1.81912689e-03, 0., 1.89337693e-03,
          2.00475217e-03 ]
      - [ 1.03024095e-02, 0., 3.12660169e-03, 2.30650953e-03,
          1.33264996e-03, 2.93695554e-02, 1.38390576e-03, 5.33059984e-03,
          8.86724796e-03, 2.53716055e-02, 4.06458229e-02, 1.34290112e-02,
          0., 4.25422890e-03, 1.41619682e-01, 1.64018455e-03,
          7.17580726e-04, 1.37365460e-02, 1.33264996e-02, 1.28139416e-03,
          1.02511534e-04, 1.51717067e-02, 3.33162490e-03, 2.53716055e-02,
          3.53664788e-03, 9.17478204e-02, 8.20092298e-03, 4.36699130e-02,
          1.77857503e-02, 0., 0., 5.06919548e-02, 1.74269604e-03,
          1.07637113e-02, 8.35468993e-03, 3.43413651e-03, 8.14966671e-03,
          4.04920569e-03, 2.09123529e-02, 3.69041529e-03, 5.63813432e-04,
          1.31214764e-02, 1.53767294e-04, 3.42901088e-02, 2.25525373e-03,
          2.05023069e-04, 2.56278843e-04, 9.73859569e-04, 2.21424922e-02,
          4.10046137e-04, 1.07637106e-03, 1.02511537e-03, 1.43516145e-03,
          1.58892875e-03, 1.02511534e-04, 1.02511537e-03, 3.07534612e-03,
          6.20194804e-03, 0., 1.09174782e-02, 1.07637106e-03, 0.,
          5.22808824e-03, 1.79395184e-03, 1.23013845e-02, 6.75550997e-02,
          1.61968227e-02, 6.45822659e-03, 4.61301912e-04, 6.20194804e-03,
          0., 1.41978478e-02, 9.07227118e-03, 2.25525373e-03,
          7.79087655e-03, 2.85494626e-02, 3.12660169e-03, 8.71348020e-04,
          5.27934404e-03, 0., 5.12557672e-05, 3.53664788e-03,
          1.64018455e-03, 3.38288071e-03, 1.53767294e-04, 6.25320338e-03,
          2.05023075e-03, 0., 7.79087655e-03, 5.79190161e-03,
          9.43106133e-03, 5.68939000e-03, 6.45822659e-03, 0.,
          1.21988729e-02, 1.02511534e-04, 2.20399792e-03, 0.,
          1.33264996e-03, 3.94669408e-03 ]
      - [ 1.36725220e-03, 1.30924761e-01, 2.07159435e-04, 2.02601925e-02,
          1.69456415e-02, 1.89343709e-02, 2.21246276e-02, 1.74013921e-03,
          0., 2.19174679e-02, 1.19738150e-02, 2.48591299e-04, 0.,
          6.09048735e-03, 2.86294334e-02, 3.31455085e-04, 1.94729865e-02,
          6.50480622e-03, 2.79665235e-02, 1.13523370e-02, 4.97182598e-04,
          1.16009277e-03, 9.52933391e-04, 2.12545581e-02, 6.04905514e-03,
          2.32018568e-02, 8.12064949e-03, 1.16837919e-02, 3.65429223e-02,
          0., 1.03579718e-03, 3.43470350e-02, 1.42940003e-02,
          2.81736813e-03, 2.03016237e-03, 2.48591299e-04, 4.22605220e-03,
          2.77593639e-03, 1.41282734e-02, 0., 4.51607537e-03,
          1.40454089e-02, 5.59330452e-03, 1.07308580e-02, 8.53496883e-03,
          4.88896249e-03, 4.26748442e-03, 2.27875379e-03, 1.90586678e-03,
          3.02452757e-03, 3.89459729e-03, 1.32996356e-02, 0.,
          5.34471311e-03, 1.42525686e-02, 1.70285050e-02, 0.,
          8.28637742e-04, 1.13109052e-02, 1.36725223e-02, 8.78355931e-03,
          0., 4.22605220e-03, 1.81471668e-02, 2.40304926e-03,
          2.41962206e-02, 2.35747434e-02, 8.41067266e-03, 2.11302619e-02,
          9.69506148e-03, 2.82565467e-02, 0., 7.58203492e-03,
          9.94365197e-04, 9.52933391e-04, 1.07308580e-02, 4.14318856e-05,
          2.02601925e-02, 6.54623797e-03, 0., 2.32018554e-03, 0.,
          1.32582034e-03, 0., 7.45773956e-04, 1.88100766e-02,
          4.76466678e-03, 2.37819031e-02, 1.46668879e-02, 1.20152463e-03,
          2.56877695e-03, 2.21246276e-02, 4.30891616e-03, 0.,
          1.16009284e-02, 2.48591322e-03, 8.70069605e-04, 3.23168701e-03,
          1.03579713e-02, 7.12628430e-03 ]
      - [ 1.26935774e-04, 3.72894973e-01, 7.53152231e-03, 3.85038508e-03,
          4.23119236e-05, 8.63163266e-03, 1.71786416e-02, 2.45409161e-02,
          2.11559614e-04, 2.15790817e-03, 1.25666410e-02, 2.11559614e-04,
          0., 4.23119229e-04, 3.46957776e-03, 0., 3.55420150e-02,
          3.93500878e-03, 1.65016507e-03, 2.31869332e-02, 3.21570621e-03,
          2.32715579e-03, 1.14242197e-03, 9.77405440e-03, 4.31581633e-03,
          2.36946763e-03, 1.76863838e-02, 3.17339436e-03, 3.02107129e-02,
          0., 3.00414651e-03, 3.49496491e-02, 1.26935774e-03,
          6.72759581e-03, 1.60785310e-03, 6.38910057e-03, 8.92781559e-03,
          3.51188960e-03, 2.06482187e-02, 0., 8.88550421e-04,
          1.16230853e-01, 1.69247694e-04, 3.97732062e-03, 0., 0.,
          1.06202932e-02, 1.14242197e-03, 0., 2.41177971e-03, 0., 0.,
          8.37776065e-03, 0., 6.34678872e-04, 9.01243929e-03,
          2.07328424e-03, 8.46238472e-05, 4.23119236e-05, 1.43860537e-03,
          8.97012744e-03, 0., 0., 1.77710084e-03, 3.46957776e-03,
          4.27350448e-03, 1.82364397e-02, 2.87721073e-03, 0.,
          2.53871549e-04, 6.72759581e-03, 0., 7.19302683e-04, 0., 0.,
          7.10840337e-03, 4.31581633e-03, 2.11559614e-04, 1.81518160e-02,
          1.90403662e-03, 3.38495383e-03, 0., 5.50054992e-03, 0., 0.,
          6.05060486e-03, 4.90818312e-03, 2.75027496e-03, 1.30320722e-02,
          8.46238458e-04, 2.15790817e-03, 3.57112624e-02, 4.65431163e-04,
          0., 4.31581633e-03, 1.77710084e-03, 3.38495389e-04, 0.,
          2.96183454e-04, 2.96183466e-03 ]
      - [ 3.36733647e-02, 2.56948054e-01, 0., 3.26845013e-02,
          4.84022079e-03, 8.32726131e-04, 3.10190488e-02, 0., 0.,
          9.05589666e-03, 0., 5.87592386e-02, 6.50567282e-03,
          1.00968042e-02, 5.41271968e-03, 1.03049856e-02, 2.13386063e-02,
          4.78817523e-03, 4.43947129e-02, 8.43135174e-03, 0., 0.,
          3.64317675e-04, 4.16363066e-04, 2.34204228e-03, 0.,
          1.82158838e-03, 2.23795138e-03, 0., 3.12272285e-04, 0., 0.,
          1.83199756e-02, 0., 0., 0., 0., 4.47590277e-03, 5.20453832e-05,
          2.49817828e-03, 1.97772449e-03, 4.26772144e-03, 2.96658673e-03,
          0., 1.35317992e-03, 2.08181539e-03, 4.47590277e-03,
          1.19704381e-03, 2.34204228e-03, 8.69157910e-03, 9.00385156e-03,
          9.31612402e-03, 0., 2.13386072e-03, 8.89976043e-03,
          7.33839907e-03, 0., 0., 9.42021422e-03, 5.62090147e-03,
          6.34953659e-03, 2.02456545e-02, 2.05579270e-02, 4.89226589e-03,
          1.66545226e-03, 4.16363077e-03, 4.52794833e-03, 1.30633907e-02,
          1.47288432e-02, 2.20151972e-02, 3.04985940e-02, 6.55771839e-03,
          2.08181533e-04, 3.64317675e-04, 0., 0., 9.88862244e-04,
          1.95690636e-02, 1.33756632e-02, 1.87363382e-03, 9.36816912e-04,
          2.92495061e-02, 5.20453847e-04, 2.16508787e-02, 0.,
          4.26772144e-03, 1.04090766e-04, 1.20224832e-02, 1.85802020e-02,
          1.05131678e-02, 4.16363066e-04, 2.75840540e-03, 4.89226589e-03,
          0., 1.83720198e-02, 1.30113456e-02, 1.16581656e-02,
          5.20453847e-04, 5.30862901e-03, 6.55771839e-03 ]
      - [ 0., 1.07049167e-01, 0., 3.97732062e-03, 1.81941269e-03,
          1.60785310e-03, 3.32994834e-02, 2.83913016e-02, 4.23119229e-04,
          3.38495389e-04, 2.45409156e-03, 0., 0., 8.37776065e-03, 0., 0.,
          2.30599977e-02, 2.11559614e-04, 0., 2.42447332e-02,
          1.82364397e-02, 0., 1.21435225e-02, 1.18473382e-03, 0., 0.,
          1.97173562e-02, 0., 3.61343831e-01, 0., 0., 1.90826766e-02,
          4.23119236e-05, 1.19319623e-02, 8.92781559e-03, 3.65998149e-02,
          5.75442147e-03, 0., 0., 0., 2.83489889e-03, 1.73902009e-02, 0.,
          8.46238472e-05, 1.10011001e-03, 0., 4.23119236e-05,
          2.45409156e-03, 0., 0., 0., 7.82770570e-03, 3.19455005e-02, 0.,
          8.46238458e-04, 2.06059068e-02, 2.93644741e-02, 2.07328424e-03,
          6.76990778e-04, 7.19302683e-04, 2.12828983e-02, 0., 0.,
          6.76990766e-03, 8.42007250e-03, 0., 6.76990766e-03, 0.,
          4.23119229e-04, 8.84319190e-03, 1.49784209e-02, 0.,
          4.65431163e-04, 0., 0., 3.08877043e-03, 0., 2.53871549e-04,
          2.58948971e-02, 8.46238434e-03, 0., 0., 5.88135747e-03, 0., 0.,
          6.43141242e-03, 8.03926552e-04, 1.76440720e-02, 4.56968788e-03,
          0., 4.90818312e-03, 4.31581633e-03, 0., 0., 0., 0., 0.,
          1.10011001e-03, 3.80807323e-04, 1.26935774e-04 ]
      - [ 0., 5.00999331e-01, 1.36276911e-04, 6.45044027e-03,
          7.44980434e-03, 2.95266649e-03, 2.45752688e-02, 2.27128179e-03,
          1.49904599e-03, 1.36276917e-03, 1.22649223e-03, 0., 0.,
          4.27000970e-03, 1.36276911e-04, 6.35958917e-04, 3.64313610e-02,
          1.18106650e-03, 1.36276911e-04, 2.88907047e-02, 3.27973105e-02,
          0., 5.90533298e-03, 7.26810191e-04, 4.54256369e-05,
          4.54256369e-05, 9.44853202e-03, 3.27064586e-03, 2.54383567e-03,
          0., 3.17979458e-04, 8.17661465e-04, 5.95075823e-03,
          1.18106660e-02, 0., 2.13500485e-03, 1.36276911e-04,
          7.26810191e-04, 9.53938346e-04, 0., 5.45107666e-03,
          1.94875989e-02, 3.08894319e-03, 8.17661465e-04, 4.95139463e-03,
          1.72617426e-03, 4.22458444e-03, 4.72426601e-03, 2.86181504e-03,
          3.63405095e-04, 0., 7.67693250e-03, 3.09802853e-02, 0.,
          3.81575339e-03, 1.16289631e-02, 7.13182520e-03, 0.,
          3.27064586e-03, 6.31416356e-03, 9.67566110e-03, 0., 0.,
          7.35895336e-03, 8.81257374e-03, 0., 6.04160968e-03,
          2.72553822e-04, 5.13309706e-03, 6.35958917e-04, 2.54837815e-02,
          0., 3.17979458e-04, 4.49713785e-03, 0., 4.54256369e-05, 0.,
          6.63214317e-03, 3.10711358e-02, 1.01299174e-02, 9.08512739e-04,
          0., 6.13246113e-03, 0., 0., 4.17915871e-03, 4.31543542e-03,
          3.05260271e-02, 5.49650192e-03, 1.81702548e-04, 2.49840994e-03,
          4.22458444e-03, 1.68074854e-03, 0., 1.68074854e-03,
          8.17661465e-04, 0., 0., 7.72235799e-04, 3.72490217e-03 ]
      - [ 0., 3.37848783e-01, 2.70026998e-04, 0., 2.83528352e-03, 0.,
          7.51575176e-03, 3.12331244e-02, 9.00090017e-05, 2.20522052e-03,
          2.29522958e-03, 0., 0., 2.25022508e-04, 0., 0., 5.33303320e-02,
          1.21512148e-03, 0., 6.16561668e-03, 1.03510357e-03,
          5.40053996e-04, 3.91539140e-03, 0., 0., 0., 1.03960400e-02, 0.,
          1.62151217e-01, 0., 0., 1.98469851e-02, 9.00090017e-05,
          6.30063005e-04, 2.06120610e-02, 1.67866796e-02, 1.88118815e-02,
          0., 0., 0., 5.44554461e-03, 1.45724580e-01, 4.05040511e-04, 0.,
          4.50045009e-05, 1.39513949e-03, 4.68046824e-03, 8.55085498e-04,
          7.65076512e-03, 0., 0., 0., 1.19261928e-02, 3.69036896e-03,
          4.99549974e-03, 4.68046824e-03, 0., 8.37083720e-03,
          4.50045009e-05, 0., 0., 0., 0., 1.80018003e-04, 4.09540953e-03,
          0., 0., 0., 3.15031502e-04, 2.25022508e-04, 3.46534653e-03, 0.,
          0., 6.70567062e-03, 0., 1.86318625e-02, 0., 1.44014403e-03,
          1.21512148e-03, 8.10081023e-04, 0., 0., 2.65526562e-03, 0., 0.,
          0., 0., 2.29522958e-03, 3.30333039e-02, 0., 7.02070212e-03,
          1.64716467e-02, 0., 0., 0., 0., 0., 1.48514856e-03, 0., 0. ]
      - [ 1.16504857e-03, 2.35048547e-01, 3.30097089e-03, 2.42718449e-03,
          3.44660203e-03, 1.26213592e-03, 2.60194186e-02, 2.13592239e-02,
          4.61165048e-03, 4.27184487e-03, 1.99029129e-03, 2.91262142e-04,
          0., 1.01941754e-03, 2.91262142e-04, 4.17475728e-03,
          8.69417489e-02, 1.21359224e-03, 1.21359224e-03, 2.15048548e-02,
          1.31067960e-03, 1.99029129e-03, 7.33009726e-03, 3.68932053e-03,
          0., 1.45631071e-04, 3.76213603e-02, 3.64077673e-03,
          1.46601945e-02, 0., 4.85436904e-04, 8.68932065e-03,
          1.79611659e-03, 1.20388353e-02, 2.98058260e-02, 3.59223317e-03,
          1.46116512e-02, 6.06796145e-03, 3.15533997e-03, 4.36893199e-03,
          2.42718449e-03, 8.23301002e-02, 1.94174761e-04, 4.07767016e-03,
          9.70873807e-05, 0., 2.01456323e-02, 8.30097124e-03,
          7.03883497e-03, 4.85436904e-04, 0., 3.05825239e-03,
          2.69902926e-02, 4.85436904e-05, 1.99029129e-03, 1.46116512e-02,
          2.11650487e-02, 8.73786397e-04, 0., 8.98058247e-03,
          1.65048540e-02, 0., 2.13592243e-03, 1.84466026e-03,
          4.07767016e-03, 1.45631071e-04, 1.36407772e-02, 9.70873807e-04,
          4.36893199e-04, 1.84466026e-03, 5.09708747e-03, 0.,
          1.69902912e-03, 3.93203879e-03, 2.42718452e-04, 1.94174761e-03,
          7.76699046e-04, 3.88349523e-03, 1.78640783e-02, 1.92718450e-02,
          4.85436904e-04, 4.36893199e-04, 1.71359219e-02, 0., 0.,
          8.30097124e-03, 6.79611648e-03, 2.33009714e-03, 3.84466015e-02,
          2.91262142e-04, 9.51456372e-03, 1.89805832e-02, 1.55339809e-03,
          0., 3.59223317e-03, 7.76699046e-04, 1.31067960e-03, 0.,
          5.04854368e-03, 9.32038855e-03 ]
      - [ 1.22488971e-04, 4.99142557e-02, 3.06222413e-04, 2.57226848e-03,
          1.37187652e-02, 0., 1.04728071e-02, 3.67466913e-04,
          7.59431627e-03, 3.18471319e-03, 5.08329226e-03, 1.22488971e-04,
          0., 5.38951484e-03, 2.14355695e-03, 0., 1.95982344e-02,
          1.84345897e-02, 3.12346872e-03, 1.51273878e-02, 2.20480142e-03,
          8.57422827e-04, 4.10338072e-03, 1.75159220e-02, 0.,
          1.22488971e-04, 4.53209179e-03, 1.22488971e-04, 4.77094539e-02,
          0., 2.20480142e-03, 4.10338072e-03, 1.89857907e-03,
          3.06222425e-03, 4.05438505e-02, 7.34933827e-04, 3.79715813e-03,
          2.38853483e-03, 2.75600189e-03, 0., 6.43067108e-03,
          3.15102875e-01, 0., 1.22488965e-03, 8.57422780e-03, 0.,
          2.49265060e-02, 1.46374321e-02, 3.61342472e-03, 0.,
          1.95982354e-03, 1.40249869e-02, 3.00097978e-03, 1.91082787e-02,
          4.28711390e-03, 2.80499738e-02, 3.98089178e-03, 8.57422827e-04,
          9.12542827e-03, 1.06565403e-02, 2.46202834e-02, 0., 0.,
          1.29225869e-02, 2.41303276e-02, 1.34737871e-03, 6.67564897e-03,
          2.38853483e-03, 6.12444856e-05, 4.28711390e-03, 8.14551674e-03,
          0., 3.42969131e-03, 8.14551674e-03, 1.34737871e-03, 0., 0., 0.,
          1.02890739e-02, 2.95198429e-02, 1.16364518e-03, 0.,
          5.14453696e-03, 0., 4.89955884e-04, 8.51298310e-03,
          4.22586966e-03, 4.77706967e-03, 2.24154815e-02, 0.,
          2.29054373e-02, 2.29666829e-02, 3.06222413e-04, 0.,
          4.28711413e-04, 9.18667298e-04, 0., 0., 2.32729036e-03,
          6.12444826e-04 ]
      - [ 0., 0., 8.30815732e-03, 7.08807819e-03, 0., 1.51638398e-02,
          2.20776210e-03, 4.00302112e-02, 7.49477139e-03, 4.88031609e-03,
          1.53962355e-02, 0., 0., 2.96304910e-03, 7.90146459e-03, 0., 0.,
          6.85568200e-03, 5.80990018e-05, 2.02765521e-02, 1.23750875e-02,
          2.68998370e-02, 9.12154373e-03, 4.04369049e-02, 3.77643504e-03,
          1.76620968e-02, 2.90495008e-02, 1.39437607e-02, 1.47164777e-01,
          0., 0., 9.05763432e-02, 5.80989989e-04, 3.71833593e-02,
          1.95793640e-02, 2.67255399e-02, 2.22519170e-02, 3.02114803e-03,
          1.89402737e-02, 0., 6.91378117e-03, 1.26074832e-02,
          4.06693027e-04, 1.37113640e-02, 7.55287008e-04, 0.,
          1.68487104e-03, 6.62328629e-03, 9.29584028e-04, 3.48594011e-04,
          0., 1.39437604e-03, 2.60864515e-02, 0., 4.58982121e-03,
          5.63560333e-03, 3.31745297e-02, 1.27817807e-03, 0.,
          7.20427604e-03, 1.66163146e-02, 0., 0., 5.75180119e-03,
          1.08645130e-02, 5.22891001e-04, 2.50406694e-02, 3.89263313e-03,
          8.71485041e-04, 2.26586103e-03, 0., 0., 8.36625602e-03,
          2.09156401e-03, 3.25354422e-03, 1.69649087e-02, 7.55287008e-04,
          2.90494994e-04, 4.86288629e-02, 2.03346508e-03, 0., 0.,
          8.65675136e-03, 0., 0., 6.27469225e-03, 1.80687904e-02,
          4.82221693e-03, 1.06321173e-02, 0., 1.02835232e-02,
          4.47362335e-03, 0., 0., 2.03346508e-03, 0., 0., 0., 0.,
          5.28700929e-03 ]
      - [ 2.75600189e-03, 2.37506121e-01, 1.22488970e-02, 6.18569320e-03,
          1.71484565e-03, 1.05340518e-02, 0., 1.83733457e-04,
          4.22586966e-03, 9.24791768e-03, 2.64576171e-02, 1.22488971e-04,
          0., 5.32827014e-03, 1.99657027e-02, 4.28711413e-04,
          7.53307156e-03, 9.43165086e-03, 7.34933838e-03, 2.57226848e-03,
          7.96178298e-04, 9.79911722e-03, 4.34835861e-03, 5.74473292e-02,
          3.67466913e-04, 3.92577164e-02, 1.34125426e-02, 1.50661431e-02,
          1.41474763e-02, 0., 0., 5.19965701e-02, 3.12346872e-03,
          3.73591366e-03, 1.77609008e-02, 5.02204802e-03, 2.20480142e-03,
          7.59431627e-03, 1.91082787e-02, 2.20480142e-03, 3.98089178e-03,
          1.88020580e-02, 2.87849084e-03, 2.27829479e-02, 3.06222413e-04,
          0., 3.08672208e-02, 1.59235671e-02, 4.53209179e-03, 0.,
          6.12444856e-05, 5.63449273e-03, 5.57324803e-03, 1.77609012e-03,
          6.12444850e-03, 0., 1.83733457e-04, 2.26604589e-03, 0.,
          1.79446340e-02, 0., 0., 0., 1.16364518e-03, 6.18569320e-03,
          2.64576171e-02, 1.84345897e-02, 7.96178298e-04, 0.,
          9.18667298e-04, 0., 0., 7.16560474e-03, 9.06418357e-03,
          3.73591366e-03, 4.33610976e-02, 1.77609012e-03, 3.73591366e-03,
          3.06222413e-04, 1.88633017e-02, 0., 0., 1.56173436e-02, 0., 0.,
          6.24693744e-03, 1.10240071e-03, 0., 1.78833902e-02,
          6.12444856e-05, 1.47599215e-02, 6.24693744e-03, 4.28711413e-04,
          0., 1.57398321e-02, 0., 1.83733457e-04, 6.12444856e-05,
          4.34835861e-03, 4.53209179e-03 ]
      - [ 3.26882844e-04, 4.43253145e-02, 5.88389114e-04, 0., 0.,
          3.33420490e-03, 2.26202924e-02, 1.92860868e-02, 0.,
          4.24947683e-03, 9.80648492e-03, 0., 0., 0., 1.85669456e-02, 0.,
          3.81799154e-02, 0., 2.22280319e-03, 1.47097278e-02, 0.,
          9.15271929e-04, 0., 5.55700809e-03, 0., 4.05334728e-03,
          4.31485334e-03, 6.34152722e-03, 1.10617153e-01, 0., 0.,
          2.20319033e-02, 0., 1.96129712e-03, 2.04628650e-02,
          7.12604588e-03, 1.54288700e-02, 0., 2.00052299e-02, 0., 0.,
          4.72476453e-01, 0., 4.24947683e-03, 0., 0., 1.24215474e-02,
          6.66840980e-03, 2.09205016e-03, 0., 0., 1.96129695e-04, 0., 0.,
          1.37290789e-03, 1.30753135e-04, 2.87656905e-03, 2.81119230e-03,
          0., 1.30753135e-04, 1.43828453e-03, 0., 0., 0., 0.,
          8.10669456e-03, 0., 0., 0., 0., 3.92259390e-04, 0.,
          1.17677823e-03, 0., 0., 1.32714435e-02, 0., 1.56903756e-03,
          1.70632843e-02, 0., 2.61506269e-04, 0., 2.02667364e-03, 0., 0.,
          1.01333680e-02, 7.77981151e-03, 0., 1.19639123e-02, 0.,
          2.74581579e-03, 1.91553347e-02, 1.96129695e-04, 0.,
          2.61506269e-04, 0., 0., 0., 0., 0. ]
      - [ 2.83725513e-03, 3.13232958e-01, 0., 2.37572826e-02, 0.,
          5.14488947e-03, 3.23447101e-02, 0., 0., 4.16130759e-03,
          8.39827489e-03, 1.79692823e-02, 2.69728396e-02, 6.99856272e-03,
          1.97472963e-02, 9.19270702e-03, 2.25845501e-02, 1.39971254e-02,
          8.85223597e-03, 5.82583062e-03, 0., 4.72875871e-03, 0.,
          1.01762880e-02, 9.11704637e-03, 2.10335180e-02, 1.02141185e-03,
          3.17772571e-03, 1.89150334e-04, 1.11598698e-02, 2.30763410e-03,
          8.58742557e-03, 2.39464324e-02, 2.57244473e-03, 5.67451003e-04,
          0., 0., 0., 6.69592200e-03, 0., 0., 7.07422290e-03,
          6.27979124e-03, 7.90648442e-03, 0., 5.67451003e-04,
          9.57100745e-03, 1.05924194e-03, 9.07921640e-04, 2.61027482e-03,
          2.27737017e-02, 5.29620971e-04, 0., 2.76159495e-03,
          1.02141185e-03, 1.62290987e-02, 3.02640547e-04, 1.58886285e-03,
          5.18271932e-03, 3.78300669e-04, 1.01762880e-02, 1.61156096e-02,
          4.46394784e-03, 3.17772571e-03, 1.89150334e-04, 1.76288113e-02,
          3.02640547e-04, 1.36188250e-02, 4.61526820e-03, 1.92933343e-02,
          1.66830607e-02, 9.76015721e-03, 1.47537263e-02, 1.28622237e-03,
          7.41469348e-03, 4.04781708e-03, 0., 8.43610521e-03,
          5.78800030e-03, 0., 2.53461464e-03, 2.46273745e-02,
          4.53960820e-04, 1.51320273e-04, 1.74018310e-03, 9.38185677e-03,
          0., 9.07921605e-03, 1.33161843e-02, 4.42611799e-03,
          6.65809214e-03, 7.45252334e-03, 1.51320273e-04, 1.92933343e-03,
          5.52318990e-03, 2.79185902e-02, 1.11220405e-02, 0.,
          1.02141185e-03, 7.18771305e-04 ]
      - [ 0., 0., 3.75058595e-03, 1.46507262e-03, 1.52367551e-03,
          5.80168748e-03, 0., 1.95733700e-02, 6.85653975e-03,
          1.40646973e-03, 2.26793252e-02, 0., 0., 7.55977491e-03,
          9.68120024e-02, 0., 0., 2.05110176e-03, 3.51617433e-04,
          5.27426135e-04, 0., 2.16830755e-03, 4.06118147e-02,
          1.94561649e-02, 6.44631975e-04, 3.27004194e-02, 3.14697586e-02,
          2.98874825e-03, 2.65471153e-02, 0., 0., 1.98663846e-02,
          4.68823244e-04, 9.14205331e-03, 2.39685886e-02, 1.81082971e-02,
          2.11556498e-02, 1.65846217e-02, 3.58063765e-02, 2.28551333e-03,
          3.51617433e-04, 7.19643682e-02, 0., 3.39310840e-02,
          4.68823244e-04, 0., 3.83263007e-02, 5.39146736e-03, 0., 0.,
          5.86029055e-05, 3.51617433e-04, 5.86029055e-05, 3.45757138e-03,
          1.00796996e-02, 0., 3.27590257e-02, 0., 7.44256889e-03,
          1.15447724e-02, 0., 0., 0., 2.10384429e-02, 2.33825594e-02,
          6.97960630e-02, 2.61368956e-02, 3.51617433e-04, 0.,
          1.05485227e-03, 0., 0., 4.68823221e-03, 0., 1.17205811e-04,
          6.50492264e-03, 4.39521810e-03, 3.28176282e-03, 0.,
          5.86029026e-04, 5.86029055e-05, 0., 3.51617433e-04, 0., 0.,
          4.74683521e-03, 0., 0., 3.33450548e-02, 0., 1.57641824e-02,
          4.83473986e-02, 6.91514276e-03, 0., 4.27801209e-03, 0., 0.,
          1.91045478e-02, 7.61837757e-04, 1.44749172e-02 ]
      - [ 0., 2.76268590e-02, 1.64018455e-03, 1.20451050e-02,
          6.66324981e-04, 1.86058432e-02, 1.23013835e-03, 3.89543828e-03,
          4.97180922e-03, 6.61199400e-03, 3.44951302e-02, 7.17580726e-04,
          0., 1.78882629e-02, 1.26089184e-02, 5.12557672e-05,
          2.30650953e-03, 2.04510503e-02, 3.43413651e-03, 2.00922601e-02,
          4.76678647e-03, 7.84213282e-03, 1.66068692e-02, 5.58687858e-02,
          2.61404412e-03, 2.70117894e-02, 9.63608455e-03, 2.43464895e-02,
          9.28754508e-02, 0., 2.05023069e-04, 1.12198874e-01,
          3.53664788e-03, 2.52178367e-02, 2.02972833e-02, 7.43208639e-03,
          1.24038961e-02, 0., 2.77293697e-02, 0., 3.94669408e-03,
          4.23885211e-02, 4.35674004e-03, 1.78370066e-02, 4.71553067e-03,
          0., 5.99692483e-03, 5.17683243e-03, 1.33264996e-03, 0.,
          1.53767306e-03, 1.69144035e-03, 2.97283451e-03, 3.58790369e-03,
          8.25217832e-03, 1.58892875e-03, 7.58585334e-03, 6.97078416e-03,
          5.12557672e-05, 3.12660169e-03, 9.02101491e-03, 0., 0.,
          8.71348009e-03, 1.94259360e-02, 1.35315228e-02, 1.50179397e-02,
          3.99794988e-03, 1.17888267e-03, 6.30445918e-03, 1.12762686e-03,
          0., 7.58585334e-03, 7.58585334e-03, 1.57867763e-02,
          1.93746798e-02, 0., 2.97283451e-03, 1.10712461e-02,
          9.99487471e-03, 0., 0., 7.73962075e-03, 0., 0., 1.37878014e-02,
          7.84213282e-03, 5.12557663e-03, 1.56842656e-02, 1.02511537e-03,
          1.18400818e-02, 1.57867763e-02, 0., 0., 2.97283451e-03,
          1.28139416e-03, 1.02511534e-04, 0., 7.17580726e-04,
          3.58790363e-04 ]
      - [ 1.73909161e-02, 0., 0., 5.76716755e-03, 0., 2.32474972e-03,
          4.47067250e-05, 2.98640914e-02, 1.83297577e-03, 5.23068663e-03,
          1.98944919e-02, 4.72550094e-02, 4.73444201e-02, 0.,
          9.47782584e-03, 2.05650944e-02, 1.20708160e-03, 0.,
          1.39932046e-02, 5.36480686e-04, 0., 4.02360514e-04, 0.,
          3.71959955e-02, 0., 3.62124480e-02, 4.47067250e-05,
          5.49892709e-03, 2.64663808e-02, 3.71512882e-02, 7.15307600e-04,
          1.23390563e-01, 5.81187429e-04, 0., 2.30239630e-02, 0.,
          1.48873394e-02, 8.71781167e-03, 1.44402720e-02, 2.90593714e-03,
          0., 0., 5.09656686e-03, 7.28719635e-03, 0., 0., 3.12947086e-04,
          1.69885550e-02, 1.74356229e-03, 4.02360514e-04, 7.82367680e-03,
          8.94134500e-05, 8.04721029e-04, 0., 0., 0., 0., 0., 0.,
          4.73891292e-03, 0., 4.83726747e-02, 1.14449216e-02,
          1.78826900e-04, 7.91309029e-03, 3.29041481e-02, 6.79542217e-03,
          6.66130194e-03, 0., 1.47532194e-03, 0., 2.97299717e-02,
          1.07743209e-02, 2.14592274e-03, 0., 3.35300434e-03,
          3.62124480e-03, 4.47067257e-04, 0., 0., 9.38841200e-04,
          3.03111598e-02, 4.47067257e-04, 4.11748923e-02, 0.,
          1.52002869e-03, 1.34120171e-04, 0., 1.57367680e-02,
          3.29488553e-02, 1.40379118e-02, 1.54238204e-02, 2.23533629e-04,
          3.80007154e-03, 2.42310446e-02, 1.35908443e-02, 3.08923479e-02,
          0., 1.07296137e-03, 8.04721005e-03 ]
      - [ 0., 1.48265352e-02, 2.40271911e-03, 0., 7.61837757e-04,
          6.15330506e-03, 3.68612260e-02, 1.34786684e-02, 2.31481474e-02,
          1.17205811e-04, 8.84903874e-03, 0., 0., 0., 5.80168748e-03, 0.,
          5.54969497e-02, 2.87154247e-03, 0., 9.90389101e-03, 0.,
          2.76605710e-02, 7.32536335e-03, 1.05485227e-02, 2.93014513e-04,
          4.51242365e-03, 5.74308494e-03, 4.10220353e-04, 6.52836338e-02,
          0., 1.17205811e-04, 2.48476323e-02, 0., 4.98710722e-02,
          5.57899661e-02, 9.13033262e-02, 7.55977491e-03, 1.23066106e-03,
          1.40646975e-02, 0., 2.34411622e-04, 9.96835455e-02, 0.,
          1.74636655e-02, 0., 0., 1.99249876e-03, 5.27426135e-04, 0., 0.,
          0., 0., 4.57102666e-03, 0., 1.40646973e-03, 5.87787144e-02,
          4.35419604e-02, 9.66947898e-03, 0., 1.75808716e-04,
          4.85818088e-02, 0., 0., 0., 7.32536335e-03, 0., 5.91889350e-03,
          0., 0., 2.69573368e-03, 3.10595403e-03, 0., 7.03234866e-04, 0.,
          7.79418647e-03, 5.98335676e-02, 6.44631975e-04, 9.37646488e-04,
          5.19221760e-02, 0., 0., 0., 9.37646488e-04, 0., 0.,
          7.32536335e-03, 2.28551333e-03, 0., 4.80543822e-03, 0.,
          1.52367551e-03, 7.20815733e-03, 0., 0., 2.93014513e-04, 0., 0.,
          4.68823244e-04, 0., 4.10220353e-04 ]
      - [ 8.49742163e-03, 1.41350210e-01, 1.34786684e-03, 6.44631975e-04,
          0., 1.84599161e-02, 3.80918896e-03, 1.40646973e-03,
          2.93014525e-03, 1.74050629e-02, 5.68448193e-03, 2.87154247e-03,
          0., 1.80496946e-02, 6.56938553e-02, 1.11345516e-03,
          5.03984988e-02, 1.85185187e-02, 2.85982173e-02, 3.45757138e-03,
          0., 1.06071262e-02, 3.75058595e-03, 2.32067499e-02,
          1.85185187e-02, 1.89287383e-02, 5.86029055e-05, 2.66057197e-02,
          1.25410222e-02, 0., 4.10220353e-04, 8.49742163e-03, 0.,
          2.09212378e-02, 3.98499751e-03, 9.20065586e-03, 2.81293946e-03,
          1.93389587e-03, 2.84224097e-02, 0., 0., 5.35630547e-02,
          3.51617433e-04, 3.10595408e-02, 0., 0., 0., 4.62962966e-03,
          1.74050629e-02, 3.51617439e-03, 0., 4.92264424e-03,
          3.51617433e-04, 1.17205811e-04, 0., 2.32067499e-02,
          2.93014513e-04, 2.77777780e-02, 0., 4.98124678e-03,
          1.37130795e-02, 0., 5.09845279e-03, 0., 2.05110176e-03,
          9.16549414e-02, 2.63713067e-03, 1.18377870e-02, 0.,
          1.99249876e-03, 1.17205811e-04, 0., 5.27426135e-03,
          1.81669008e-03, 3.43999043e-02, 8.43881816e-03, 2.34411622e-04,
          5.27426135e-04, 8.38021562e-03, 0., 2.93014513e-04,
          2.93014513e-04, 0., 0., 0., 8.61462671e-03, 2.10970454e-03,
          5.86029055e-05, 8.38021562e-03, 1.46507262e-03, 3.57477716e-03,
          3.51617433e-04, 1.17205811e-04, 0., 2.81879976e-02, 0.,
          7.61837757e-04, 0., 3.57477716e-03, 1.23066106e-03 ]
      - [ 0., 1.70475855e-01, 1.17205810e-02, 1.75808716e-04, 0.,
          9.37646441e-03, 4.39521810e-03, 5.33286436e-03, 3.62751968e-02,
          3.16455681e-03, 1.61744021e-02, 0., 0., 2.51992489e-03,
          4.57102666e-03, 0., 4.58274707e-02, 7.55977491e-03, 0.,
          1.36544770e-02, 1.11345516e-03, 4.13150489e-02, 2.34411610e-03,
          2.16830745e-02, 1.81669008e-03, 1.93389587e-03, 1.91045478e-02,
          5.80168748e-03, 5.63173927e-02, 0., 2.10970454e-03,
          5.01054823e-02, 0., 4.55344580e-02, 1.12517579e-02,
          3.34036574e-02, 1.95147675e-02, 1.99249876e-03, 1.37130795e-02,
          0., 0., 6.36427552e-02, 9.96249379e-04, 3.28176282e-03,
          1.17205811e-04, 0., 1.17205810e-02, 4.68823221e-03,
          2.93014513e-04, 0., 5.86029055e-05, 5.86029055e-05,
          1.27754332e-02, 0., 5.86029055e-05, 3.58063765e-02,
          2.33239569e-02, 1.18377870e-02, 0., 2.34411622e-04,
          2.80707926e-02, 0., 0., 2.75433646e-03, 1.16619784e-02,
          5.86029055e-05, 1.26582272e-02, 0., 0., 2.46132212e-03,
          1.75808716e-04, 0., 1.69948430e-03, 0., 1.23652127e-02,
          3.74472551e-02, 4.21940908e-03, 0., 1.13689639e-02, 0.,
          9.37646488e-04, 0., 2.16830755e-03, 0., 1.81669008e-03,
          8.20440706e-03, 1.07243313e-02, 5.86029055e-05, 4.39521810e-03,
          0., 1.87529298e-03, 1.51781524e-02, 0., 0., 0., 2.34411622e-04,
          0., 0., 2.93014513e-04, 0. ]
      - [ 5.27426135e-04, 4.92264424e-03, 1.35372709e-02, 1.17205811e-04,
          0., 6.15330506e-03, 4.27801209e-03, 1.94561649e-02,
          1.26582272e-02, 8.43881816e-03, 2.75433646e-03, 2.34411622e-04,
          0., 1.95147675e-02, 3.04735103e-03, 5.27426135e-04,
          3.51617448e-02, 1.89287383e-02, 3.39896861e-03, 8.26300960e-03,
          0., 6.62212819e-03, 1.17205805e-03, 8.67323019e-03,
          1.64088141e-02, 1.17205811e-04, 1.00796996e-02, 6.03609905e-03,
          1.42229259e-01, 0., 0., 6.53422400e-02, 0., 9.84528847e-03,
          3.77988741e-02, 1.77566800e-02, 3.43413018e-02, 3.69198294e-03,
          1.45335207e-02, 1.75808716e-04, 1.99249876e-03, 1.61802620e-01,
          0., 7.44256889e-03, 0., 0., 7.61837757e-04, 1.34786684e-03,
          9.02484730e-03, 2.93014513e-04, 9.37646488e-04, 2.87154247e-03,
          4.33661509e-03, 3.80918896e-03, 2.93014513e-04, 4.42451946e-02,
          1.17205810e-02, 1.60571970e-02, 0., 3.04735103e-03,
          3.34036574e-02, 0., 0., 1.17205811e-04, 1.48851378e-02,
          2.75433646e-03, 1.09587433e-02, 3.22315982e-03, 0.,
          1.75808719e-03, 4.45382064e-03, 0., 3.45757138e-03,
          6.03609905e-03, 2.39685886e-02, 2.04524137e-02, 4.16080607e-03,
          2.34411622e-04, 1.40646973e-03, 0., 0., 1.75808716e-04,
          4.27801209e-03, 0., 0., 6.38771662e-03, 1.04313176e-02, 0.,
          4.16080607e-03, 0., 7.03234866e-04, 2.16830745e-02,
          3.22315982e-03, 0., 1.87529298e-03, 2.93014513e-04,
          4.10220353e-04, 0., 5.80168748e-03, 2.57852790e-03 ]
      - [ 0., 5.46179079e-02, 6.79793721e-03, 0., 0., 8.96624476e-03,
          3.57477739e-02, 9.02484730e-03, 1.46507267e-02, 0.,
          4.21940908e-03, 0., 0., 1.87529298e-03, 2.46132212e-03, 0.,
          1.70182839e-01, 6.85653975e-03, 0., 1.46507262e-03,
          7.61837757e-04, 1.48265352e-02, 6.62212819e-03, 7.38396589e-03,
          3.51617439e-03, 6.44631975e-04, 9.37646488e-04, 1.69948430e-03,
          4.72339429e-02, 0., 0., 9.66947898e-03, 0., 4.53000441e-02,
          5.09845279e-02, 7.62423798e-02, 3.16455681e-03, 2.34411622e-04,
          6.85653975e-03, 0., 5.27426135e-04, 1.01265818e-01, 0.,
          4.74683521e-03, 0., 0., 3.51617433e-04, 1.17205811e-04, 0., 0.,
          0., 4.10220353e-04, 1.23066106e-03, 2.34411610e-03,
          6.44631975e-04, 6.91514313e-02, 4.17252705e-02, 7.61837792e-03,
          0., 1.05485227e-03, 5.41490838e-02, 0., 0., 4.10220353e-04,
          5.68448193e-03, 0., 8.96624476e-03, 0., 0., 1.99249876e-03, 0.,
          0., 1.23066106e-03, 0., 1.05485227e-03, 1.67018287e-02, 0., 0.,
          5.41490838e-02, 0., 0., 0., 1.28926395e-03, 0., 0.,
          4.80543822e-03, 1.03727141e-02, 7.61837757e-04, 5.27426135e-03,
          0., 2.57852790e-03, 5.56727592e-03, 0., 0., 1.17205811e-04, 0.,
          0., 0., 1.75808716e-04, 5.86029026e-04 ]
      - [ 0., 5.74308494e-03, 4.57102666e-03, 5.27426135e-04, 0.,
          1.05485227e-02, 1.59985926e-02, 1.01383030e-02, 3.99671830e-02,
          4.51242365e-03, 9.08345077e-03, 0., 0., 2.80121882e-02,
          2.18002815e-02, 0., 3.72714475e-02, 2.00421941e-02,
          1.17205805e-03, 4.57102666e-03, 2.93014513e-04, 3.70370373e-02,
          2.91842464e-02, 5.86029049e-03, 9.72808246e-03, 1.05485227e-02,
          8.49742163e-03, 5.56727592e-03, 6.31153286e-02, 0., 0.,
          1.27168307e-02, 0., 3.43413018e-02, 4.66479138e-02,
          4.81715873e-02, 1.38302855e-02, 6.56352565e-03, 1.07243313e-02,
          0., 0., 1.01441629e-01, 5.86029055e-05, 9.49367043e-03, 0., 0.,
          3.75058595e-03, 4.21940908e-03, 5.56727592e-03, 1.23066106e-03,
          0., 1.64088141e-03, 1.75808719e-03, 3.28176282e-03, 0.,
          2.39685886e-02, 3.03563047e-02, 2.66643222e-02, 1.75808716e-04,
          4.86404123e-03, 2.47304253e-02, 0., 0., 1.23066106e-03,
          2.05110162e-02, 4.92264424e-03, 1.28340367e-02, 7.03234866e-04,
          0., 8.96624476e-03, 5.86029055e-05, 0., 2.98874825e-03,
          6.44631963e-03, 2.89498344e-02, 3.02977022e-02, 3.39896861e-03,
          0., 1.54711669e-02, 1.69948430e-03, 0., 0., 1.99249876e-03, 0.,
          0., 3.39896861e-03, 4.62962966e-03, 1.23066106e-03,
          1.54125644e-02, 0., 1.69948433e-02, 7.91139249e-03,
          5.27426135e-04, 0., 3.57477716e-03, 0., 0., 0., 8.79043597e-04,
          4.98124678e-03 ]
      - [ 3.98499751e-03, 2.60196906e-02, 7.61837757e-04, 3.16455681e-03,
          0., 3.94983590e-02, 0., 7.44256889e-03, 1.59399901e-02,
          2.40857936e-02, 7.32536335e-03, 6.50492264e-03, 0.,
          1.49437413e-02, 4.17252705e-02, 1.05485227e-03, 3.24660093e-02,
          8.43881816e-03, 1.25996247e-02, 4.10220353e-04, 0.,
          2.44374108e-02, 3.51617439e-03, 1.42405061e-02, 1.14861699e-02,
          2.63127051e-02, 3.04735103e-03, 1.55883729e-02, 3.19385827e-02,
          0., 9.96249379e-04, 1.06657287e-02, 0., 4.43037972e-02,
          9.37646488e-04, 1.23652127e-02, 9.96249379e-04, 2.22691032e-03,
          1.72878578e-02, 0., 0., 1.90342233e-01, 4.10220353e-03,
          1.78738870e-02, 3.04735103e-03, 1.52367551e-03, 7.03234866e-04,
          6.62212819e-03, 4.04360052e-03, 1.75808716e-04, 4.10220353e-04,
          4.10220353e-04, 4.10220353e-04, 0., 0., 3.48687284e-02,
          1.10759493e-02, 1.42405061e-02, 0., 1.24824187e-02,
          2.43788082e-02, 0., 5.27426135e-04, 3.10595403e-03,
          3.75058595e-03, 3.16455700e-02, 3.92639451e-03, 7.44256889e-03,
          2.63713067e-03, 6.68073120e-03, 0., 0., 8.84903874e-03,
          2.05110176e-03, 2.52578519e-02, 5.10431305e-02, 4.10220353e-04,
          9.96249379e-04, 8.20440706e-03, 4.68823244e-04, 6.44631975e-04,
          3.86779173e-03, 1.75808716e-04, 1.40646973e-03, 0.,
          7.85278901e-03, 2.57852790e-03, 3.51617433e-04, 5.80168748e-03,
          1.69948430e-03, 4.04360052e-03, 1.05485227e-03, 1.05485227e-03,
          0., 7.73558347e-03, 0., 2.75433646e-03, 1.81669008e-03,
          3.45757138e-03, 3.28176282e-03 ]
      - [ 0., 8.26300960e-03, 4.68823244e-04, 0., 0., 1.45335207e-02,
          9.37646488e-04, 5.09845279e-03, 3.15283649e-02, 1.17205810e-02,
          3.75058595e-03, 0., 0., 9.72808246e-03, 7.61837792e-03, 0.,
          7.06164986e-02, 1.34786684e-03, 3.51617433e-04, 3.51617439e-03,
          1.28926395e-03, 3.70956399e-02, 9.02484730e-03, 1.00210970e-02,
          2.93014525e-03, 5.74308494e-03, 5.56727592e-03, 4.27801209e-03,
          3.17627750e-02, 0., 5.86029055e-05, 2.42030006e-02, 0.,
          2.68401299e-02, 2.19174866e-02, 5.18635698e-02, 8.32161214e-03,
          3.16455681e-03, 4.86404123e-03, 0., 3.28176282e-03,
          3.24718714e-01, 2.93014525e-03, 6.03609905e-03, 2.10970454e-03,
          1.75808716e-04, 0., 4.68823221e-03, 8.90764128e-03, 0.,
          4.10220353e-04, 2.28551333e-03, 3.51617433e-04, 1.23066106e-03,
          1.34786684e-03, 3.05321142e-02, 1.61744021e-02, 7.50117190e-03,
          0., 1.69948430e-03, 1.85185187e-02, 0., 7.03234866e-04,
          6.56352565e-03, 7.96999503e-03, 1.17205811e-04, 9.90389101e-03,
          2.28551333e-03, 2.28551333e-03, 5.50867291e-03, 0., 0.,
          1.75808716e-04, 5.86029049e-03, 1.07829347e-02, 4.62962948e-02,
          5.27426135e-04, 7.03234866e-04, 4.57102666e-03, 0.,
          2.69573368e-03, 0., 1.46507262e-03, 0., 0., 1.52367551e-03,
          7.20815733e-03, 5.91889350e-03, 5.03984978e-03, 0.,
          3.57477716e-03, 5.09845279e-03, 1.58227840e-03, 0.,
          2.87154247e-03, 0., 0., 4.10220353e-04, 2.69573368e-03,
          4.33661509e-03 ]
      - [ 0., 5.71964346e-02, 5.45007037e-03, 0., 6.44631975e-04,
          7.96999503e-03, 6.27051108e-03, 8.96624476e-03, 5.90131246e-02,
          9.08345077e-03, 3.22315982e-03, 0., 0., 1.58227850e-02,
          9.66947898e-03, 1.75808716e-04, 1.05250821e-01, 1.33614624e-02,
          1.23066106e-03, 1.05485227e-03, 0., 6.46390021e-02,
          1.20721981e-02, 6.79793721e-03, 1.30684478e-02, 2.10970454e-03,
          4.86404123e-03, 6.27051108e-03, 3.15869674e-02, 0.,
          1.69948430e-03, 9.90389101e-03, 0., 4.06704172e-02,
          5.94233461e-02, 5.45593053e-02, 1.00796996e-02, 3.51617433e-04,
          9.84528847e-03, 1.17205811e-04, 2.10970454e-03, 4.69409265e-02,
          1.93389587e-03, 1.06657287e-02, 4.10220353e-04, 0., 0.,
          8.32161214e-03, 5.27426135e-03, 4.68823244e-04, 0.,
          3.86779173e-03, 4.51242365e-03, 1.11345516e-03, 1.81669008e-03,
          2.56680734e-02, 1.41233001e-02, 3.95569615e-02, 5.86029055e-05,
          3.98499751e-03, 1.52367558e-02, 0., 0., 5.86029026e-04,
          1.73464604e-02, 1.28926395e-03, 8.14580359e-03, 4.16080607e-03,
          0., 8.14580359e-03, 1.75808716e-04, 0., 4.51242365e-03,
          4.21940908e-03, 3.78574766e-02, 9.20065586e-03, 2.40271911e-03,
          0., 9.78668500e-03, 0., 3.51617433e-04, 0., 1.58227840e-03, 0.,
          1.58227840e-03, 4.57102666e-03, 4.10220353e-03, 1.17205811e-04,
          1.31270513e-02, 0., 3.11181433e-02, 3.69198294e-03,
          2.57852790e-03, 0., 3.98499751e-03, 0., 0., 3.51617433e-04,
          1.99249876e-03, 4.51242365e-03 ]
      - [ 1.20721981e-02, 1.27754332e-02, 1.17205811e-04, 3.51617433e-04,
          0., 2.06282232e-02, 5.86029055e-05, 9.14205331e-03,
          2.15658695e-02, 2.78949831e-02, 2.50820443e-02, 3.63338017e-03,
          0., 1.61157995e-02, 4.87576164e-02, 0., 7.67698064e-02,
          1.65260192e-02, 3.40482891e-02, 1.75808716e-04, 0.,
          1.50609463e-02, 1.19549930e-02, 3.91467400e-02, 1.19549930e-02,
          2.73675565e-02, 7.61837757e-04, 1.24824187e-02, 2.39685886e-02,
          0., 2.34411622e-04, 7.32536335e-03, 0., 2.26793252e-02,
          3.22315982e-03, 2.95358635e-02, 4.74683521e-03, 9.37646488e-04,
          2.84810122e-02, 0., 0., 1.16150960e-01, 0., 2.53164545e-02, 0.,
          0., 0., 8.67323019e-03, 2.05110176e-03, 1.17205805e-03, 0.,
          2.28551333e-03, 0., 2.10970454e-03, 0., 2.03938112e-02,
          7.26676034e-03, 1.74050629e-02, 0., 6.32911362e-03,
          1.20135956e-02, 0., 0., 9.96249379e-04, 3.04735103e-03,
          6.44045919e-02, 5.68448193e-03, 7.32536335e-03, 0.,
          1.52367551e-03, 0., 0., 7.44256889e-03, 2.93014513e-04,
          2.56094690e-02, 1.86357237e-02, 0., 0., 5.68448193e-03, 0., 0.,
          0., 0., 0., 0., 1.26582272e-02, 9.37646488e-04, 0.,
          9.20065586e-03, 1.58227840e-03, 8.90764128e-03, 4.68823244e-04,
          4.10220353e-04, 0., 3.02390996e-02, 5.86029026e-04,
          8.79043597e-04, 0., 2.93014525e-03, 3.80918896e-03 ]
      - [ 1.75808716e-04, 7.73558347e-03, 1.46507262e-03, 5.86029055e-05,
          0., 1.05485227e-02, 6.97374577e-03, 1.15447724e-02,
          4.54758555e-02, 1.19549930e-02, 2.19760891e-02, 2.40271911e-03,
          0., 2.05696207e-02, 1.50023438e-02, 5.86029055e-05,
          4.33075465e-02, 1.39474915e-02, 2.34411610e-03, 3.16455681e-03,
          0., 2.82466002e-02, 1.32442564e-02, 2.87154247e-03,
          2.23277062e-02, 2.98874825e-03, 3.75058595e-03, 1.75222680e-02,
          7.64767900e-02, 0., 0., 5.83098903e-02, 0., 3.33450548e-02,
          1.05485227e-02, 6.72175363e-02, 1.04899202e-02, 5.27426135e-04,
          9.31786187e-03, 0., 2.34411622e-04, 1.00972809e-01, 0.,
          1.24824187e-02, 0., 0., 1.64088141e-03, 4.16080607e-03,
          1.10759493e-02, 0., 5.86029026e-04, 4.04360052e-03,
          1.17205805e-03, 0., 1.75808716e-04, 1.00210970e-02,
          1.16619784e-02, 2.81293951e-02, 0., 7.61837757e-04,
          1.58813875e-02, 0., 2.93014513e-04, 0., 2.04524137e-02,
          3.45757138e-03, 1.99249876e-03, 3.92639451e-03, 0.,
          6.44631963e-03, 0., 0., 1.34786684e-03, 8.20440706e-04,
          3.55719626e-02, 4.10806350e-02, 0., 5.86029055e-05,
          2.34411620e-02, 0., 0., 8.20440706e-04, 2.51992489e-03, 0., 0.,
          5.03984978e-03, 1.05485227e-03, 0., 4.20768857e-02, 0.,
          9.37646441e-03, 7.79418647e-03, 0., 0., 9.96249379e-04, 0., 0.,
          6.38771662e-03, 5.45007037e-03, 7.03234866e-04 ]
      - [ 0., 1.50609463e-02, 6.91514276e-03, 2.34411622e-04, 0.,
          7.85278901e-03, 1.38302855e-02, 2.78363805e-02, 4.03774008e-02,
          1.75808716e-04, 3.51617433e-04, 0., 0., 7.61837757e-04,
          4.80543822e-03, 0., 5.74308485e-02, 7.38396589e-03, 0.,
          3.51617433e-04, 0., 4.34247516e-02, 4.68823221e-03,
          3.92639451e-03, 4.74683521e-03, 0., 1.48851378e-02,
          5.74308494e-03, 8.46225992e-02, 0., 0., 3.00046876e-02, 0.,
          3.18799801e-02, 5.70206270e-02, 7.17885569e-02, 3.22902016e-02,
          4.10220353e-04, 6.56352565e-03, 0., 5.86029055e-05,
          1.38068452e-01, 0., 1.99249876e-03, 7.03234866e-04, 0.,
          7.79418647e-03, 3.16455681e-03, 1.75808719e-03, 0., 0.,
          1.05485227e-03, 2.05110176e-03, 1.52367551e-03, 0.,
          5.16877621e-02, 4.13736515e-02, 2.75433646e-03, 0.,
          5.27426135e-04, 4.85232063e-02, 0., 0., 2.16830755e-03,
          1.77566800e-02, 0., 1.10759493e-02, 0., 4.68823244e-04,
          5.27426135e-04, 0., 0., 0., 0., 2.46132212e-03, 2.64299102e-02,
          0., 0., 2.08626352e-02, 6.44631975e-04, 0., 0., 1.58227840e-03,
          0., 0., 1.81669008e-03, 7.03234866e-04, 1.40646973e-03,
          1.82841066e-02, 0., 1.09001407e-02, 3.34036560e-03, 0., 0., 0.,
          0., 0., 0., 1.17205811e-04, 1.05485227e-03 ]
      - [ 5.86029026e-04, 5.64932004e-02, 5.33286436e-03, 0.,
          7.61837757e-04, 1.55297704e-02, 1.78152826e-02, 2.75433646e-03,
          2.42030006e-02, 1.47093292e-02, 1.78738870e-02, 0., 0.,
          1.85185187e-02, 3.89123298e-02, 0., 6.07712120e-02,
          9.96249379e-04, 1.93389587e-03, 1.17205810e-02, 0.,
          2.29137354e-02, 7.96999503e-03, 3.33450548e-02, 9.14205331e-03,
          2.59610880e-02, 7.03234866e-04, 8.90764128e-03, 2.61368956e-02,
          0., 1.11345516e-03, 3.37552726e-02, 0., 4.48898263e-02,
          3.75058595e-03, 2.93014534e-02, 9.61087644e-03, 2.46132212e-03,
          2.40271911e-02, 0., 4.10220353e-04, 1.31094694e-01,
          7.61837757e-04, 3.08251288e-02, 0., 0., 5.91889350e-03,
          7.73558347e-03, 3.39896861e-03, 2.93014513e-04, 7.61837757e-04,
          2.10970454e-03, 5.86029026e-04, 0., 1.17205811e-04,
          2.26793252e-02, 2.34411622e-04, 3.36380675e-02, 7.61837757e-04,
          5.45007037e-03, 1.20135956e-02, 0., 0., 3.63338017e-03,
          1.64088141e-03, 1.74636655e-02, 7.50117190e-03, 6.44631975e-04,
          0., 1.07829347e-02, 1.28926395e-03, 0., 3.86779173e-03,
          5.86029026e-04, 1.96905769e-02, 1.48851378e-02, 5.86029026e-04,
          0., 2.42616031e-02, 0., 1.28926395e-03, 0., 2.93014513e-04, 0.,
          8.20440706e-04, 1.11345518e-02, 2.93014525e-03, 1.75808719e-03,
          1.18377870e-02, 1.17205811e-04, 5.45007037e-03, 1.59985926e-02,
          0., 0., 3.80918896e-03, 1.23066106e-03, 4.10220353e-04, 0.,
          1.40646973e-03, 2.98874825e-03 ]
      - [ 9.53540299e-03, 4.05761821e-04, 4.36193962e-03, 7.60803418e-03,
          2.23169010e-03, 1.22742951e-02, 8.06451589e-03, 2.84033269e-03,
          3.44897551e-03, 1.66362338e-02, 1.71434376e-02, 1.37451813e-02,
          5.07202276e-05, 6.59362972e-03, 7.50659360e-03, 4.46338020e-03,
          1.47088664e-03, 1.19192535e-02, 8.21667723e-03, 2.94684526e-02,
          3.60113606e-02, 2.18096981e-03, 2.04909723e-02, 3.23087834e-02,
          4.51410003e-03, 1.66362338e-02, 2.06938535e-02, 7.70947477e-03,
          1.48610268e-02, 0., 1.52160675e-04, 2.48529110e-02,
          5.57922525e-03, 1.87664833e-02, 2.01359298e-02, 1.06005277e-02,
          2.58673169e-03, 7.76019460e-03, 1.22742951e-02, 1.01440455e-04,
          6.89795101e-03, 5.21911159e-02, 5.22418367e-03, 1.07019683e-02,
          3.95617774e-03, 0., 1.07019683e-02, 1.47595862e-02,
          4.26049903e-03, 3.49969580e-03, 0., 7.50659360e-03,
          2.92148516e-02, 2.48529110e-03, 3.55041586e-03, 8.62243876e-04,
          5.18867932e-02, 1.36944617e-03, 0., 5.68066537e-03,
          2.61716377e-02, 0., 1.82592822e-03, 6.99939160e-03,
          2.34834645e-02, 1.58754308e-02, 1.32887000e-02, 9.58612282e-03,
          2.63745175e-03, 5.73138567e-03, 9.12964111e-04, 3.44897551e-03,
          1.15134921e-02, 3.29681486e-03, 1.77520793e-03, 2.89105298e-03,
          5.02130250e-03, 7.86163565e-03, 6.60377368e-02, 1.36944617e-03,
          6.59362937e-04, 7.30371289e-03, 8.01379606e-03, 5.37634408e-03,
          0., 1.04483673e-02, 1.30350981e-02, 2.08460130e-02,
          1.39480624e-02, 2.73889233e-03, 1.29336584e-02, 1.39987832e-02,
          7.20227230e-03, 0., 9.02820006e-03, 4.76770150e-03,
          5.83282625e-03, 0., 7.70947477e-03, 5.47778467e-03 ]
      - [ 2.07952922e-03, 3.25116664e-02, 1.49117466e-02, 1.36944617e-03,
          0., 1.02454862e-02, 1.06512476e-03, 1.31872594e-02,
          2.13024952e-03, 7.05011142e-03, 2.26719417e-02, 1.04483673e-02,
          5.07202290e-04, 0., 3.91560160e-02, 3.85473738e-03,
          2.53093932e-02, 4.31121932e-03, 1.15134921e-02, 1.28322178e-02,
          0., 1.62304728e-03, 0., 1.27307773e-02, 1.15642119e-02,
          3.44897551e-03, 1.27307773e-02, 1.12091703e-02, 4.84885387e-02,
          0., 0., 3.81416120e-02, 5.07202276e-05, 1.67376746e-03,
          2.62730774e-02, 5.07202276e-05, 1.74477585e-02, 4.20977874e-03,
          2.18604188e-02, 0., 0., 3.34499896e-01, 0., 2.62223575e-02, 0.,
          0., 1.97808892e-02, 9.63684346e-04, 9.02820006e-03, 0., 0., 0.,
          1.01440458e-03, 0., 0., 1.18178129e-02, 0., 8.67315847e-03, 0.,
          1.26800570e-03, 8.97748023e-03, 0., 2.53601139e-03, 0.,
          1.92736869e-03, 1.32887000e-02, 1.02962060e-02, 8.82531982e-03,
          0., 5.57922525e-04, 1.52160675e-04, 0., 5.98498667e-03,
          2.13024952e-03, 9.12964111e-04, 9.18036141e-03, 4.97058220e-03,
          0., 1.06512476e-03, 0., 0., 6.08642725e-03, 3.39825521e-03, 0.,
          0., 6.08642725e-03, 1.14627713e-02, 0., 2.17589773e-02, 0.,
          6.79651042e-03, 2.43457090e-02, 0., 0., 2.99249333e-03, 0.,
          1.52160675e-04, 0., 4.61554062e-03, 1.57232711e-03 ]
      - [ 3.93398069e-02, 3.28679621e-01, 2.36154459e-02, 0., 0.,
          2.89050746e-03, 3.17955826e-04, 1.15620298e-03, 1.24291820e-03,
          1.56954564e-02, 2.51474162e-03, 3.71141173e-02, 0.,
          1.44525373e-04, 7.60203460e-03, 1.58977918e-02, 8.55590217e-03,
          0., 1.82680078e-02, 1.38744363e-03, 2.60145683e-03, 0.,
          2.08116532e-03, 3.29517853e-03, 0., 5.34743909e-03,
          1.90484449e-02, 1.20245116e-02, 0., 0., 3.61313438e-03,
          1.35853852e-03, 0., 0., 7.77546503e-03, 0., 8.87385756e-03,
          2.86738351e-02, 2.08116532e-03, 5.60758449e-03, 2.97722267e-03,
          2.31818706e-02, 0., 5.78101492e-04, 3.46860907e-04, 0.,
          4.49184850e-02, 1.45392530e-02, 1.11573590e-02, 7.05283834e-03,
          0., 0., 1.10995490e-02, 0., 1.93664001e-03, 0., 0.,
          1.56087405e-03, 0., 4.07561567e-03, 0., 0., 7.48641463e-03,
          1.04058266e-03, 6.79269247e-03, 9.04728845e-03, 3.61891538e-02,
          2.31240600e-04, 0., 0., 0., 0., 0., 4.71152738e-03, 0., 0.,
          1.93085894e-02, 4.91386279e-04, 0., 6.56145206e-03,
          1.09839288e-03, 5.66539448e-03, 6.67707250e-03, 4.36466653e-03,
          0., 0., 3.43970396e-03, 0., 2.25748643e-02, 1.66493226e-02,
          1.20245116e-02, 2.28639152e-02, 9.39414930e-03, 0.,
          2.86160242e-02, 8.67152237e-04, 8.81604757e-03, 0.,
          7.97780044e-03, 2.68817190e-02 ]
      - [ 1.06626051e-02, 7.78539386e-03, 1.26935774e-02, 0., 0.,
          1.43860537e-03, 3.42726591e-03, 9.39324684e-03, 5.92366909e-04,
          1.27358893e-02, 1.14665311e-02, 1.09587880e-02, 0., 0.,
          6.81221951e-03, 4.82355943e-03, 2.44986042e-02, 0.,
          3.38495383e-03, 1.82787515e-02, 3.79537940e-02, 1.26935774e-04,
          1.63747147e-02, 5.07743098e-04, 4.65431163e-04, 6.64297212e-03,
          2.25099437e-02, 5.28899068e-03, 2.96183466e-03, 0.,
          3.80807323e-04, 1.05779804e-03, 1.69247694e-04, 2.15790817e-03,
          3.93924005e-02, 2.20022001e-03, 5.07743098e-04, 2.14944575e-02,
          1.69247692e-03, 1.61631554e-02, 0., 1.68782264e-01,
          6.89684367e-03, 3.04645859e-03, 2.11559609e-03, 0.,
          4.36235927e-02, 1.09164761e-02, 5.92366932e-03, 7.19302706e-03,
          3.80807323e-04, 0., 5.72480336e-02, 0., 0., 1.63324028e-02,
          3.78268585e-02, 1.81941269e-03, 0., 8.88550421e-04,
          1.87018700e-02, 0., 2.83489889e-03, 0., 8.80088005e-03,
          5.62748592e-03, 2.47524753e-02, 1.86172465e-03, 0., 0.,
          7.57383415e-03, 1.90403662e-03, 5.07743098e-04, 3.25801806e-03,
          0., 8.46238472e-05, 3.00414655e-02, 3.80807323e-04,
          4.86164019e-02, 2.62333918e-03, 8.46238472e-05, 4.35812818e-03,
          5.75442147e-03, 9.30862327e-04, 0., 8.88550421e-04,
          4.65431163e-04, 1.95481088e-02, 1.67978331e-02, 1.48514854e-02,
          1.51899802e-02, 2.72488780e-02, 2.43293568e-02, 0.,
          1.16357794e-02, 8.46238472e-05, 3.97732062e-03, 0.,
          6.05060486e-03, 1.02394857e-02 ]
      - [ 7.08580250e-03, 2.78871417e-01, 5.15331085e-05, 3.81344999e-03,
          3.76191689e-03, 7.42076756e-03, 1.14661166e-02, 1.28832777e-04,
          9.22442600e-03, 1.40170055e-02, 6.18397316e-04, 4.84411232e-03,
          0., 1.75212568e-03, 3.37541872e-03, 2.13862397e-03,
          2.82143764e-02, 1.72893573e-02, 1.18783815e-02, 6.46740524e-03,
          1.82942534e-03, 0., 1.33213084e-02, 6.98273629e-03,
          6.59623789e-03, 2.16439064e-03, 5.05024474e-03, 1.85519189e-03,
          1.75212568e-03, 0., 1.78304557e-02, 3.09198652e-03,
          2.16439064e-03, 9.27595946e-04, 1.45065701e-02, 2.57665542e-05,
          7.85879884e-03, 4.38031420e-04, 3.60731757e-03, 1.03066217e-04,
          2.93738721e-03, 4.29013111e-02, 5.82324108e-03, 4.89564554e-04,
          1.29348105e-02, 0., 3.44756506e-02, 3.65885068e-03,
          3.71038378e-03, 1.01004895e-02, 2.88585410e-03, 2.67972169e-03,
          3.09198658e-04, 9.40479245e-03, 9.53362498e-04, 2.07163095e-02,
          2.19015707e-03, 5.51404245e-03, 4.35454771e-03, 2.29322328e-03,
          1.16980160e-02, 0., 7.65266642e-03, 1.64390616e-02,
          1.10280849e-02, 8.01339839e-03, 2.49935570e-03, 2.78278789e-03,
          3.45271826e-03, 6.44163834e-03, 1.47127025e-02, 1.58464313e-02,
          6.54470455e-03, 5.15331085e-05, 2.19015707e-03, 5.15331085e-05,
          1.28832777e-04, 3.16928606e-03, 2.31898986e-04, 2.06132434e-04,
          1.27544440e-02, 9.01829393e-04, 0., 2.47616582e-02,
          2.64364854e-02, 6.54470455e-03, 1.59752637e-03, 7.88456574e-03,
          7.52383377e-03, 7.42076756e-03, 3.68461735e-03, 4.08657566e-02,
          1.31409429e-03, 0., 1.32440086e-02, 1.79077554e-02,
          2.01236792e-02, 1.40685383e-02, 7.16310227e-03, 1.80365879e-03 ]
      - [ 9.80776851e-04, 2.22876087e-01, 2.61540466e-04, 1.46898571e-02,
          3.48720641e-04, 2.83335510e-04, 1.68475658e-02, 1.61283300e-03,
          0., 8.50006589e-04, 2.85515026e-03, 1.50385778e-03, 0.,
          2.85515026e-03, 1.15513708e-03, 8.28211545e-04, 1.29898442e-02,
          6.90902770e-03, 1.03308493e-02, 1.89180952e-02, 1.74360321e-04,
          2.17950401e-05, 0., 9.85135790e-03, 4.62054834e-03,
          2.61540478e-03, 9.58981749e-04, 1.26411230e-03, 1.13334204e-03,
          0., 3.37823108e-02, 2.61540466e-04, 6.51671691e-03,
          1.30770233e-04, 9.80776851e-04, 0., 4.88208886e-03,
          4.46798326e-03, 4.68593370e-03, 0., 8.71801603e-05,
          2.55001962e-01, 3.58310454e-02, 5.29619493e-03, 4.35900802e-05,
          0., 3.03386953e-02, 3.70515685e-04, 1.08975204e-04,
          8.84878635e-03, 3.05130566e-03, 2.22309399e-03, 1.62591003e-02,
          0., 6.53851195e-04, 4.33721300e-03, 0., 1.17693213e-03,
          3.48720641e-04, 3.83592700e-03, 2.65899487e-03, 0.,
          8.71801603e-05, 1.44937020e-02, 0., 9.85135790e-03,
          8.71801603e-05, 1.21834278e-02, 6.75646239e-04, 8.34750012e-03,
          6.58210227e-03, 1.46026770e-03, 1.02436692e-02, 0.,
          4.22823755e-03, 1.08975204e-04, 2.22309399e-03, 6.03722595e-03,
          4.64234361e-03, 0., 2.47155763e-02, 6.75646239e-04, 0.,
          9.98212863e-03, 3.22784558e-02, 6.66928245e-03, 9.72058810e-03,
          2.74617504e-03, 1.06359795e-02, 2.31027417e-03, 2.24488904e-03,
          2.73309797e-02, 9.37186705e-04, 0., 8.71801563e-03,
          7.32313329e-03, 8.12955014e-03, 6.53851166e-05, 1.08975204e-04,
          2.39745437e-04 ]
      - [ 9.11470037e-03, 4.28661657e-03, 5.82077401e-03, 2.57196999e-03,
          1.66952435e-03, 1.94025808e-03, 8.16713274e-03, 6.45248592e-03,
          0., 8.16713274e-03, 4.82808379e-03, 3.39319557e-02,
          8.84396676e-03, 1.17317925e-03, 6.99395360e-03, 1.24086272e-02,
          6.94883103e-03, 1.39879074e-03, 6.49760850e-03, 5.32442890e-03,
          0., 6.76834199e-04, 2.70733668e-04, 1.18220374e-02,
          5.41467336e-04, 7.94152170e-03, 1.40330289e-02, 3.15855956e-04,
          4.32722680e-02, 2.75245914e-03, 9.47567867e-04, 1.27244834e-02,
          1.71464670e-03, 5.41467336e-04, 2.35989522e-02, 1.35366834e-04,
          1.05586136e-02, 5.32442890e-03, 1.82294007e-02, 4.51222819e-04,
          4.06100531e-04, 1.41097367e-01, 1.24086272e-02, 8.34762212e-03,
          4.96345107e-04, 0., 1.09647140e-02, 1.33561948e-02,
          1.08293467e-03, 1.39879074e-03, 7.49029871e-03, 2.25611409e-04,
          0., 0., 1.66952435e-03, 0., 0., 5.41467336e-04, 1.80489122e-04,
          4.51222804e-05, 0., 1.08293467e-03, 3.60978255e-03,
          1.48903520e-03, 2.39148084e-03, 2.46818867e-02, 4.37686127e-03,
          3.02319275e-03, 2.70733668e-04, 5.36955148e-03, 0.,
          7.24212602e-02, 7.89639913e-03, 1.80489122e-04, 1.08293467e-03,
          1.26342382e-03, 3.06831510e-03, 1.66952435e-03, 1.39879074e-03,
          0., 3.20368190e-03, 4.15576212e-02, 1.35366834e-04,
          2.89233811e-02, 9.02445609e-05, 1.23183830e-02, 1.66952435e-03,
          0., 1.35366842e-02, 1.64245106e-02, 2.39148084e-03,
          1.01525132e-02, 2.21099169e-03, 2.10224703e-01, 7.89639913e-03,
          6.94883103e-03, 1.05134910e-02, 0., 1.17317925e-03,
          3.24880425e-03 ]
      - [ 2.64762715e-02, 2.18663201e-01, 3.38123413e-03, 6.24924526e-03,
          6.97379559e-03, 9.05687702e-05, 1.30419033e-02, 0.,
          2.71706318e-04, 3.16990702e-03, 5.28317830e-03, 2.49667913e-02,
          0., 6.46057259e-03, 8.30213726e-03, 3.16990702e-03,
          2.54800152e-02, 2.86801113e-03, 2.18270738e-02, 5.49450563e-03,
          1.59702934e-02, 0., 5.82659105e-03, 3.32085503e-04, 0.,
          5.16242022e-03, 2.16459371e-02, 3.20009654e-03, 0., 0.,
          2.56611523e-03, 1.11701491e-03, 5.22279926e-03, 4.13597375e-03,
          2.03477833e-02, 0., 3.62275081e-04, 1.41287288e-02,
          1.20758358e-03, 7.09455367e-03, 1.08682523e-02, 5.83262891e-02,
          0., 1.81137540e-04, 4.61900746e-03, 1.41891080e-03,
          2.91631445e-02, 1.09286318e-02, 2.71706318e-04, 1.35249365e-02,
          0., 6.15867646e-03, 9.17763542e-03, 2.89820065e-03,
          6.24924526e-03, 1.16833718e-02, 8.90592951e-03, 1.20758363e-04,
          5.16242022e-03, 2.32459838e-03, 1.00833233e-02, 0.,
          2.35478813e-03, 7.09455367e-03, 8.30213726e-03, 5.55488467e-03,
          2.22497284e-02, 3.01895907e-05, 1.87175465e-03, 4.40768013e-03,
          1.22569734e-02, 2.20384006e-03, 6.64171006e-04, 1.23777322e-03,
          0., 0., 1.11399591e-02, 4.16616350e-03, 9.11725685e-03,
          1.34343682e-02, 1.02644612e-03, 8.24175868e-03, 1.48834679e-02,
          2.91631445e-02, 4.22654266e-04, 3.16990702e-03, 2.41516726e-04,
          1.45211928e-02, 1.83552708e-02, 1.92307699e-02, 1.79929957e-02,
          1.79628059e-02, 1.50344158e-02, 0., 2.68989261e-02,
          1.02644612e-03, 6.12848671e-03, 0., 2.02270248e-03,
          1.50344158e-02 ]
      - [ 1.53330276e-02, 9.49501321e-02, 1.94600485e-02, 4.15568054e-03,
          4.01238119e-03, 4.06970084e-03, 8.97053722e-03, 1.49031291e-02,
          4.87217680e-04, 8.62661935e-03, 1.22377621e-02, 2.26699524e-02,
          1.51897280e-03, 8.59795909e-05, 5.33073489e-03, 9.05651692e-03,
          1.72245782e-02, 3.35320411e-03, 1.63647830e-02, 1.12346672e-02,
          1.01169320e-02, 4.29897977e-04, 1.43299316e-04, 1.14926053e-02,
          3.15258512e-04, 4.21300018e-03, 2.14089192e-02, 1.77691155e-03,
          1.79124158e-02, 0., 3.29588447e-03, 1.06614698e-02,
          5.73197285e-05, 5.47403423e-03, 9.62971430e-03, 3.15258512e-03,
          1.65654011e-02, 1.47311706e-02, 1.15785850e-02, 6.36248989e-03,
          4.70021786e-03, 1.38713747e-01, 1.05468305e-02, 4.49959887e-03,
          4.81485715e-03, 5.15877560e-04, 3.04081161e-02, 7.13630626e-03,
          3.38186393e-03, 2.57938774e-03, 1.66227215e-03, 1.71959191e-03,
          1.92021094e-02, 1.66227215e-03, 4.47093882e-03, 2.57938780e-04,
          1.49031298e-03, 1.28969387e-03, 8.31136073e-04, 4.67155781e-03,
          2.09217006e-03, 1.83423131e-03, 1.11200269e-02, 6.33382984e-03,
          5.18743554e-03, 1.01455916e-02, 3.08093540e-02, 3.55382310e-03,
          1.74825173e-03, 2.40742858e-03, 2.14948971e-03, 1.36994151e-02,
          4.06970084e-03, 3.95506108e-03, 3.43918364e-04, 3.06660542e-03,
          1.51897278e-02, 1.89155107e-03, 1.09480685e-02, 1.03175512e-03,
          4.47093882e-03, 1.34701366e-02, 3.09526525e-03, 1.44445719e-02,
          1.77691155e-03, 6.62042852e-03, 1.50177693e-02, 2.37876875e-03,
          1.43299317e-02, 9.88765340e-03, 1.04035307e-02, 4.02957685e-02,
          9.28579643e-03, 0., 1.38427140e-02, 7.36558530e-03,
          1.83709729e-02, 0., 2.03485042e-03, 1.34128164e-02 ]
      - [ 6.30517025e-04, 3.93499941e-01, 2.60804757e-03, 2.92330608e-03,
          0., 1.15212658e-02, 1.65654011e-02, 1.83423131e-03,
          4.01238096e-04, 1.08907488e-03, 2.32144892e-02, 0., 0., 0.,
          4.37349528e-02, 0., 2.75994502e-02, 6.01857144e-04,
          9.22847632e-03, 2.69402731e-02, 2.57938780e-04, 1.49031298e-03,
          0., 2.61951163e-02, 2.49340828e-03, 1.83996335e-02,
