%YAML:1.0
---
opencv_ml_svm:
   format: 3
   svmType: C_SVC
   kernel:
      type: CHI2
      gamma: 1.
   C: 100.
   term_criteria: { iterations:100 }
   var_count: 200
   class_count: 2
   class_labels: !!opencv-matrix
      rows: 2
      cols: 1
      dt: i
      data: [ 0, 1 ]
   sv_total: 69
   support_vectors:
      - [ 0., 0., 1.08695654e-02, 3.26086953e-02, 2.17391308e-02, 0., 0.,
          0., 0., 0., 0., 0., 0., 2.17391308e-02, 0., 0., 0., 0., 0., 0.,
          0., 0., 0., 0., 0., 0., 1.08695654e-02, 0., 0., 0., 0., 0.,
          1.08695654e-02, 0., 1.08695654e-02, 0., 0., 1.08695654e-02, 0.,
          0., 0., 0., 0., 2.17391308e-02, 0., 0., 0., 0., 0., 0.,
          3.26086953e-02, 1.08695654e-02, 0., 0., 0., 0., 0.,
          1.08695654e-02, 0., 0., 0., 0., 1.08695654e-02, 2.17391308e-02,
          0., 1.08695654e-02, 0., 0., 4.34782617e-02, 0., 1.08695654e-02,
          0., 0., 3.26086953e-02, 1.08695654e-02, 0., 2.17391308e-02,
          2.17391308e-02, 0., 2.17391308e-02, 0., 0., 0., 0., 0., 0.,
          2.17391308e-02, 2.17391308e-02, 2.17391308e-02, 0., 0., 0., 0.,
          0., 1.08695654e-02, 0., 1.08695654e-02, 0., 0., 0.,
          2.17391308e-02, 0., 0., 0., 0., 0., 0., 0., 0., 0.,
          1.08695654e-02, 0., 0., 0., 0., 0., 0., 3.26086953e-02, 0., 0.,
          0., 0., 0., 2.17391308e-02, 0., 0., 0., 0., 0., 4.34782617e-02,
          0., 0., 1.08695654e-02, 4.34782617e-02, 2.17391308e-02, 0., 0.,
          0., 1.08695654e-02, 2.17391308e-02, 0., 1.08695654e-02, 0., 0.,
          0., 0., 0., 0., 0., 0., 2.17391308e-02, 0., 0., 1.08695654e-02,
          0., 0., 0., 1.08695654e-02, 0., 1.08695654e-02, 0., 0., 0., 0.,
          0., 0., 0., 0., 2.17391308e-02, 1.08695654e-02, 2.17391308e-02,
          0., 0., 2.17391308e-02, 0., 2.17391308e-02, 1.08695654e-02, 0.,
          0., 0., 1.08695654e-02, 0., 0., 0., 0., 0., 1.08695654e-02,
          1.08695654e-02, 0., 0., 0., 0., 1.08695654e-02, 0.,
          2.17391308e-02, 0., 0., 0., 1.08695654e-02, 1.08695654e-02 ]
      - [ 0., 9.52380989e-03, 9.52380989e-03, 0., 0., 0., 9.52380989e-03,
          0., 0., 1.90476198e-02, 0., 0., 0., 0., 0., 0., 9.52380989e-03,
          0., 0., 0., 0., 9.52380989e-03, 0., 0., 0., 0., 0.,
          2.85714306e-02, 0., 0., 9.52380989e-03, 0., 0., 0., 0.,
          9.52380989e-03, 0., 0., 2.85714306e-02, 1.90476198e-02,
          2.85714306e-02, 0., 0., 1.90476198e-02, 0., 0., 0., 0., 0., 0.,
          0., 0., 0., 0., 3.80952395e-02, 0., 0., 0., 0., 0., 0., 0., 0.,
          0., 0., 9.52380989e-03, 0., 0., 0., 0., 0., 0., 0., 0., 0., 0.,
          0., 0., 9.52380989e-03, 0., 0., 1.90476198e-02, 9.52380989e-03,
          2.85714306e-02, 0., 9.52380989e-03, 9.52380989e-03,
          4.76190485e-02, 0., 0., 0., 2.85714306e-02, 0., 9.52380989e-03,
          0., 1.90476198e-02, 0., 2.85714306e-02, 9.52380989e-03, 0., 0.,
          0., 0., 0., 1.90476198e-02, 2.85714306e-02, 9.52380989e-03,
          4.76190485e-02, 9.52380989e-03, 0., 0., 0., 0., 0.,
          9.52380989e-03, 0., 0., 0., 0., 1.90476198e-02, 0., 0.,
          9.52380989e-03, 0., 2.85714306e-02, 0., 0., 0., 0., 0., 0.,
          1.90476198e-02, 0., 1.90476198e-02, 0., 1.90476198e-02,
          2.85714306e-02, 1.90476198e-02, 9.52380989e-03, 0.,
          9.52380989e-03, 0., 0., 0., 0., 0., 9.52380989e-03,
          9.52380989e-03, 9.52380989e-03, 0., 0., 0., 0., 0., 0., 0.,
          9.52380989e-03, 0., 2.85714306e-02, 0., 0., 0., 0.,
          9.52380989e-03, 0., 0., 9.52380989e-03, 9.52380989e-03,
          1.90476198e-02, 0., 1.90476198e-02, 0., 0., 0., 0., 0.,
          9.52380989e-03, 0., 0., 0., 9.52380989e-03, 0., 0., 0.,
          9.52380989e-03, 0., 0., 9.52380989e-03, 9.52380989e-03, 0., 0.,
          0., 0., 0., 9.52380989e-03, 1.90476198e-02, 0., 0., 0., 0. ]
      - [ 0., 0., 0., 0., 0., 0., 4.46428582e-02, 0., 1.78571437e-02, 0.,
          0., 0., 0., 0., 0., 8.92857183e-03, 0., 1.78571437e-02,
          8.92857183e-03, 0., 0., 0., 0., 8.92857183e-03, 5.35714328e-02,
          8.92857183e-03, 0., 0., 0., 0., 0., 0., 8.92857183e-03, 0., 0.,
          0., 0., 0., 6.25000000e-02, 2.67857164e-02, 0., 0., 0., 0., 0.,
          0., 0., 0., 0., 0., 8.92857183e-03, 1.78571437e-02, 0., 0.,
          8.92857183e-03, 0., 0., 8.03571492e-02, 0., 0., 0., 0., 0.,
          8.92857183e-03, 8.92857183e-03, 0., 0., 0., 8.92857183e-03, 0.,
          6.25000000e-02, 0., 0., 0., 8.92857183e-03, 0., 2.67857164e-02,
          0., 0., 0., 0., 0., 0., 0., 0., 0., 1.78571437e-02, 0.,
          8.92857183e-03, 8.92857183e-03, 0., 0., 1.78571437e-02,
          8.92857183e-03, 8.92857183e-03, 0., 8.92857183e-03,
          8.92857183e-03, 0., 0., 0., 0., 1.78571437e-02, 0., 0., 0., 0.,
          0., 1.78571437e-02, 0., 2.67857164e-02, 0., 0., 0., 0.,
          4.46428582e-02, 8.92857183e-03, 0., 0., 2.67857164e-02, 0., 0.,
          0., 0., 0., 0., 2.67857164e-02, 0., 0., 2.67857164e-02, 0., 0.,
          8.92857183e-03, 2.67857164e-02, 8.92857183e-03, 8.92857183e-03,
          0., 0., 0., 0., 0., 8.92857183e-03, 0., 0., 0., 0., 0., 0.,
          8.92857183e-03, 0., 0., 0., 8.92857183e-03, 0., 0., 0., 0., 0.,
          0., 0., 0., 8.92857183e-03, 0., 0., 0., 0., 8.92857183e-03,
          4.46428582e-02, 0., 0., 8.92857183e-03, 8.92857183e-03, 0., 0.,
          0., 0., 8.92857183e-03, 0., 8.92857183e-03, 0., 8.92857183e-03,
          0., 0., 0., 0., 0., 0., 0., 0., 0., 0., 0., 0., 0., 0.,
          8.92857183e-03, 0., 0., 8.92857183e-03, 0. ]
      - [ 0., 0., 0., 0., 0., 0., 5.95238106e-03, 0., 5.95238106e-03,
          1.01190478e-01, 0., 0., 1.19047621e-02, 0., 0., 0., 0., 0., 0.,
          1.78571437e-02, 5.95238106e-03, 0., 1.19047621e-02, 0.,
          1.19047621e-02, 0., 0., 5.95238106e-03, 0., 4.16666679e-02, 0.,
          5.95238106e-03, 1.78571437e-02, 0., 0., 5.95238106e-03, 0., 0.,
          0., 0., 0., 0., 0., 0., 5.95238106e-03, 1.19047621e-02, 0.,
          1.19047621e-02, 5.95238106e-03, 1.78571437e-02, 0.,
          1.78571437e-02, 5.95238106e-03, 5.95238106e-03, 0.,
          5.95238106e-03, 0., 5.95238106e-03, 0., 5.95238106e-03, 0., 0.,
          0., 0., 1.19047621e-02, 2.38095243e-02, 0., 0., 0., 0.,
          1.19047621e-02, 0., 0., 0., 0., 1.78571437e-02, 0., 0.,
          2.38095243e-02, 0., 1.19047621e-02, 0., 0., 4.16666679e-02,
          5.95238106e-03, 0., 0., 2.97619049e-02, 0., 0., 5.95238106e-03,
          5.95238106e-03, 0., 2.97619049e-02, 0., 1.19047621e-02, 0.,
          2.38095243e-02, 0., 0., 5.95238106e-03, 0., 1.19047621e-02, 0.,
          0., 1.78571437e-02, 0., 1.78571437e-02, 0., 0., 0., 0., 0.,
          5.95238106e-03, 0., 0., 0., 5.95238106e-03, 0., 0., 0.,
          5.95238106e-03, 0., 0., 3.57142873e-02, 0., 0., 0., 0., 0., 0.,
          4.16666679e-02, 0., 0., 0., 2.97619049e-02, 0., 0.,
          1.19047621e-02, 5.95238106e-03, 0., 0., 0., 0., 0., 0., 0., 0.,
          0., 0., 5.95238106e-03, 0., 0., 0., 5.95238106e-03, 0.,
          1.78571437e-02, 0., 5.95238106e-03, 5.95238106e-03, 0., 0., 0.,
          0., 1.78571437e-02, 5.95238106e-03, 0., 5.95238106e-03,
          1.19047621e-02, 0., 1.19047621e-02, 0., 0., 0., 0., 0., 0., 0.,
          5.95238106e-03, 1.78571437e-02, 5.95238106e-03, 0., 0., 0., 0.,
          0., 5.95238106e-03, 0., 4.16666679e-02, 0., 5.95238106e-03, 0.,
          0., 0., 0., 1.19047621e-02, 5.95238106e-03, 0., 0., 0. ]
      - [ 1.49253728e-02, 4.97512426e-03, 0., 0., 0., 0., 0.,
          9.95024852e-03, 9.95024852e-03, 2.98507456e-02, 0., 0., 0., 0.,
          0., 0., 0., 0., 0., 1.49253728e-02, 0., 2.48756222e-02, 0., 0.,
          0., 0., 0., 9.95024852e-03, 2.98507456e-02, 0., 0.,
          4.97512426e-03, 9.95024852e-03, 0., 4.97512426e-03,
          6.96517378e-02, 4.97512426e-03, 0., 0., 0., 4.97512426e-03, 0.,
          0., 1.49253728e-02, 0., 4.97512426e-03, 0., 9.95024852e-03, 0.,
          1.99004970e-02, 0., 9.95024852e-03, 4.97512426e-03, 0.,
          1.49253728e-02, 0., 4.97512426e-03, 0., 4.97512426e-03, 0., 0.,
          0., 0., 4.97512426e-03, 1.49253728e-02, 0., 0., 0.,
          1.99004970e-02, 0., 4.97512426e-03, 4.97512426e-03, 0.,
          4.97512426e-03, 0., 1.49253728e-02, 4.97512426e-03, 0.,
          1.49253728e-02, 0., 0., 0., 0., 4.97512426e-03, 0.,
          4.97512426e-03, 0., 4.97512426e-03, 0., 4.97512426e-03,
          9.95024852e-03, 0., 4.97512426e-03, 4.97512426e-03, 0.,
          1.49253728e-02, 0., 0., 4.97512426e-03, 0., 9.95024852e-03, 0.,
          0., 4.97512426e-03, 2.48756222e-02, 4.97512445e-02,
          4.97512426e-03, 4.97512426e-03, 4.97512426e-03, 0.,
          4.97512426e-03, 4.97512426e-03, 4.97512426e-03, 9.95024852e-03,
          0., 0., 0., 0., 4.97512426e-03, 4.97512426e-03, 0.,
          1.49253728e-02, 0., 0., 4.97512426e-03, 0., 0., 0., 0., 0.,
          1.49253728e-02, 2.48756222e-02, 0., 9.95024852e-03,
          4.97512426e-03, 1.49253728e-02, 0., 0., 2.48756222e-02,
          4.97512426e-03, 1.49253728e-02, 1.49253728e-02, 0., 0.,
          4.97512426e-03, 0., 4.97512426e-03, 0., 9.95024852e-03, 0.,
          4.97512426e-03, 0., 9.95024852e-03, 9.95024852e-03,
          1.49253728e-02, 0., 4.97512426e-03, 0., 4.97512426e-03,
          4.97512426e-03, 0., 4.97512426e-03, 4.97512426e-03,
          9.95024852e-03, 0., 2.48756222e-02, 4.97512426e-03, 0.,
          4.97512426e-03, 0., 0., 0., 9.95024852e-03, 4.97512426e-03, 0.,
          9.95024852e-03, 4.97512426e-03, 0., 0., 0., 1.99004970e-02, 0.,
          4.97512426e-03, 0., 4.97512426e-03, 1.49253728e-02, 0., 0.,
          9.95024852e-03, 0., 0., 0., 4.97512426e-03, 0., 0., 0., 0., 0.,
          4.97512426e-03, 0. ]
      - [ 0., 0., 0., 8.06451589e-03, 0., 0., 1.61290318e-02, 0., 0.,
          2.41935477e-02, 0., 0., 0., 0., 0., 8.06451589e-03,
          1.61290318e-02, 0., 0., 8.06451589e-03, 2.41935477e-02,
          1.61290318e-02, 2.41935477e-02, 0., 8.06451589e-03, 0., 0., 0.,
          0., 0., 0., 0., 0., 0., 0., 0., 8.06451589e-03, 8.06451589e-03,
          1.61290318e-02, 0., 0., 8.06451589e-03, 0., 0., 0., 0., 0.,
          8.06451589e-03, 0., 0., 8.06451589e-03, 0., 0., 0.,
          1.61290318e-02, 0., 0., 2.41935477e-02, 1.61290318e-02, 0., 0.,
          0., 8.06451589e-03, 8.06451589e-03, 0., 2.41935477e-02,
          8.06451589e-03, 0., 8.06451589e-03, 0., 6.45161271e-02, 0., 0.,
          2.41935477e-02, 5.64516112e-02, 0., 1.61290318e-02,
          8.06451589e-03, 8.06451589e-03, 0., 0., 0., 0., 8.06451589e-03,
          0., 0., 8.06451589e-03, 2.41935477e-02, 0., 0., 1.61290318e-02,
          0., 0., 8.06451589e-03, 8.06451589e-03, 0., 0., 8.06451589e-03,
          0., 8.06451589e-03, 0., 0., 8.06451589e-03, 0., 8.06451589e-03,
          0., 0., 8.06451589e-03, 8.06451589e-03, 0., 2.41935477e-02, 0.,
          8.06451589e-03, 0., 0., 8.06451589e-03, 0., 0., 0., 0.,
          1.61290318e-02, 0., 0., 0., 8.06451589e-03, 0., 8.06451589e-03,
          1.61290318e-02, 0., 0., 0., 1.61290318e-02, 0., 6.45161271e-02,
          8.06451589e-03, 0., 8.06451589e-03, 0., 0., 0., 0.,
          1.61290318e-02, 0., 0., 0., 0., 0., 8.06451589e-03, 0., 0.,
          8.06451589e-03, 0., 0., 8.06451589e-03, 0., 0., 8.06451589e-03,
          8.06451589e-03, 0., 0., 0., 0., 0., 0., 0., 8.06451589e-03, 0.,
          8.06451589e-03, 8.06451589e-03, 0., 1.61290318e-02,
          8.06451589e-03, 0., 0., 0., 0., 8.06451589e-03, 0., 0., 0., 0.,
          0., 8.06451589e-03, 0., 0., 0., 0., 0., 0., 0., 0.,
          8.06451589e-03, 0., 0., 8.06451589e-03, 4.83870953e-02, 0.,
          8.06451589e-03, 0., 0. ]
      - [ 6.28930796e-03, 0., 1.25786159e-02, 6.28930796e-03, 0., 0., 0.,
          6.28930796e-03, 6.28930796e-03, 2.51572318e-02, 0., 0., 0., 0.,
          0., 6.28930796e-03, 0., 0., 6.28930796e-03, 6.28930796e-03,
          6.28930796e-03, 1.88679248e-02, 6.28930796e-03, 0., 0., 0.,
          6.28930796e-03, 0., 1.25786159e-02, 0., 6.28930796e-03,
          2.51572318e-02, 0., 0., 0., 1.88679248e-02, 6.28930796e-03,
          1.88679248e-02, 0., 0., 0., 0., 0., 6.28930796e-03, 0.,
          6.28930796e-03, 0., 6.28930796e-03, 6.28930796e-03, 0.,
          1.25786159e-02, 0., 1.25786159e-02, 0., 1.25786159e-02,
          6.28930796e-03, 0., 6.28930796e-03, 0., 6.28930796e-03, 0.,
          6.28930796e-03, 1.25786159e-02, 0., 6.28930796e-03,
          1.88679248e-02, 0., 6.28930796e-03, 1.25786159e-02,
          1.25786159e-02, 6.28930796e-03, 0., 0., 0., 0., 6.28930796e-03,
          3.77358496e-02, 6.28930796e-03, 1.25786159e-02, 6.28930796e-03,
          0., 0., 0., 1.88679248e-02, 6.28930796e-03, 0., 0.,
          1.25786159e-02, 0., 0., 0., 1.25786159e-02, 0., 0., 0.,
          6.28930796e-03, 0., 1.25786159e-02, 6.28930796e-03, 0.,
          1.25786159e-02, 0., 1.88679248e-02, 1.25786159e-02,
          6.28930796e-03, 0., 0., 1.88679248e-02, 0., 0., 1.88679248e-02,
          6.28930796e-03, 0., 1.25786159e-02, 0., 0., 0., 0.,
          6.28930796e-03, 0., 0., 0., 0., 6.28930796e-03, 0., 0.,
          6.28930796e-03, 0., 0., 6.28930796e-03, 0., 3.77358496e-02, 0.,
          1.25786159e-02, 6.28930796e-03, 1.25786159e-02, 0., 0.,
          6.28930796e-03, 1.25786159e-02, 6.28930796e-03, 6.28930796e-03,
          0., 0., 0., 0., 0., 0., 6.28930796e-03, 0., 0., 0.,
          1.25786159e-02, 0., 1.25786159e-02, 0., 0., 0., 0.,
          1.88679248e-02, 0., 0., 0., 0., 6.28930796e-03, 0., 0., 0.,
          3.14465389e-02, 0., 1.88679248e-02, 0., 0., 1.88679248e-02, 0.,
          6.28930796e-03, 0., 0., 0., 1.25786159e-02, 0., 0., 0., 0.,
          2.51572318e-02, 0., 0., 0., 0., 1.25786159e-02, 1.25786159e-02,
          0., 1.88679248e-02, 0., 6.28930796e-03, 1.25786159e-02,
          6.28930796e-03, 0., 6.28930796e-03, 6.28930796e-03 ]
      - [ 6.66666683e-03, 0., 0., 0., 1.33333337e-02, 0., 0., 0.,
          6.66666683e-03, 3.99999991e-02, 0., 0., 0., 6.66666683e-03, 0.,
          0., 6.66666683e-03, 0., 0., 1.99999996e-02, 0., 1.33333337e-02,
          0., 6.66666683e-03, 0., 6.66666683e-03, 0., 1.33333337e-02, 0.,
          0., 0., 1.99999996e-02, 0., 1.33333337e-02, 6.66666683e-03,
          1.99999996e-02, 0., 0., 1.33333337e-02, 6.66666683e-03,
          6.66666683e-03, 0., 0., 3.33333351e-02, 0., 0., 0., 0.,
          1.33333337e-02, 0., 0., 1.33333337e-02, 0., 0., 0., 0.,
          6.66666683e-03, 0., 1.33333337e-02, 0., 0., 6.66666683e-03, 0.,
          0., 0., 1.99999996e-02, 6.66666683e-03, 0., 1.99999996e-02, 0.,
          6.66666683e-03, 6.66666683e-03, 6.66666683e-03, 0.,
          6.66666683e-03, 2.66666673e-02, 0., 6.66666683e-03,
          1.33333337e-02, 0., 0., 0., 6.66666683e-03, 0., 0.,
          6.66666683e-03, 6.66666683e-03, 1.33333337e-02, 0.,
          6.66666683e-03, 6.66666683e-03, 6.66666683e-03, 0., 0., 0.,
          1.33333337e-02, 0., 0., 0., 0., 2.66666673e-02, 0.,
          6.66666683e-03, 0., 1.99999996e-02, 0., 6.66666683e-03,
          6.66666683e-03, 0., 6.66666683e-03, 6.66666683e-03, 0., 0.,
          1.33333337e-02, 0., 0., 0., 6.66666683e-03, 6.66666683e-03, 0.,
          6.66666683e-03, 0., 0., 0., 6.66666683e-03, 6.66666683e-03, 0.,
          0., 0., 0., 0., 1.33333337e-02, 0., 6.66666683e-03, 0.,
          3.99999991e-02, 1.33333337e-02, 0., 2.66666673e-02, 0.,
          6.66666683e-03, 0., 0., 0., 6.66666683e-03, 0., 6.66666683e-03,
          0., 6.66666683e-03, 0., 6.66666683e-03, 0., 3.99999991e-02, 0.,
          2.66666673e-02, 0., 1.33333337e-02, 0., 0., 0., 0., 0.,
          6.66666683e-03, 6.66666683e-03, 6.66666683e-03, 0., 0., 0.,
          1.33333337e-02, 0., 0., 0., 6.66666683e-03, 0., 6.66666683e-03,
          0., 0., 6.66666683e-03, 0., 6.66666683e-03, 0., 0.,
          6.66666683e-03, 0., 0., 1.33333337e-02, 0., 6.66666683e-03,
          1.99999996e-02, 1.99999996e-02, 0., 1.33333337e-02, 0., 0., 0.,
          1.33333337e-02, 6.66666683e-03, 0., 0., 0. ]
      - [ 1.01010101e-02, 0., 0., 0., 0., 0., 0., 0., 1.01010101e-02,
          1.01010101e-02, 0., 0., 0., 0., 0., 0., 0., 0., 0.,
          1.01010101e-02, 0., 2.02020202e-02, 0., 0., 1.01010101e-02, 0.,
          0., 0., 0., 1.01010101e-02, 0., 2.02020202e-02, 0., 0., 0.,
          2.02020202e-02, 0., 0., 1.01010101e-02, 0., 0., 0., 0.,
          3.03030312e-02, 0., 0., 0., 1.01010101e-02, 0., 1.01010101e-02,
          0., 0., 0., 2.02020202e-02, 2.02020202e-02, 0., 0.,
          1.01010101e-02, 0., 3.03030312e-02, 0., 0., 1.01010101e-02, 0.,
          1.01010101e-02, 0., 0., 0., 0., 0., 0., 0., 1.01010101e-02, 0.,
          0., 4.04040404e-02, 0., 0., 2.02020202e-02, 0., 0., 0., 0.,
          8.08080807e-02, 0., 1.01010101e-02, 0., 0., 1.01010101e-02, 0.,
          0., 1.01010101e-02, 0., 1.01010101e-02, 0., 4.04040404e-02, 0.,
          0., 0., 0., 1.01010101e-02, 0., 0., 0., 6.06060624e-02,
          2.02020202e-02, 0., 3.03030312e-02, 0., 0., 0., 0., 0.,
          2.02020202e-02, 0., 0., 1.01010101e-02, 0., 0., 0., 0., 0.,
          1.01010101e-02, 0., 1.01010101e-02, 0., 0., 0., 0., 0., 0., 0.,
          0., 0., 0., 4.04040404e-02, 3.03030312e-02, 0., 0., 0., 0., 0.,
          0., 1.01010101e-02, 0., 0., 0., 1.01010101e-02, 0., 0., 0., 0.,
          2.02020202e-02, 0., 0., 1.01010101e-02, 1.01010101e-02, 0., 0.,
          0., 0., 0., 0., 2.02020202e-02, 0., 0., 0., 0., 1.01010101e-02,
          0., 2.02020202e-02, 0., 0., 3.03030312e-02, 0., 0., 0., 0.,
          1.01010101e-02, 0., 0., 0., 0., 0., 4.04040404e-02, 0., 0., 0.,
          0., 1.01010101e-02, 0., 0., 0., 0., 0., 3.03030312e-02, 0., 0.,
          1.01010101e-02, 0. ]
      - [ 0., 1.09890113e-02, 1.09890113e-02, 1.09890113e-02, 0., 0., 0.,
          0., 1.09890113e-02, 1.09890113e-02, 0., 0., 0., 1.09890113e-02,
          0., 0., 0., 1.09890113e-02, 0., 0., 0., 2.19780225e-02,
          1.09890113e-02, 0., 3.29670347e-02, 0., 0., 0., 1.09890113e-02,
          0., 1.09890113e-02, 2.19780225e-02, 1.09890113e-02, 0.,
          1.09890113e-02, 2.19780225e-02, 0., 0., 1.09890113e-02, 0., 0.,
          0., 0., 1.09890113e-02, 0., 1.09890113e-02, 0., 1.09890113e-02,
          0., 0., 3.29670347e-02, 0., 0., 0., 0., 1.09890113e-02, 0., 0.,
          0., 0., 0., 1.09890113e-02, 0., 0., 0., 1.09890113e-02, 0., 0.,
          0., 0., 3.29670347e-02, 0., 0., 2.19780225e-02, 0., 0., 0., 0.,
          0., 2.19780225e-02, 0., 0., 2.19780225e-02, 4.39560451e-02, 0.,
          0., 0., 2.19780225e-02, 0., 0., 0., 0., 0., 0., 0., 0., 0.,
          1.09890113e-02, 3.29670347e-02, 0., 1.09890113e-02, 0.,
          2.19780225e-02, 0., 3.29670347e-02, 0., 0., 0., 0.,
          1.09890113e-02, 2.19780225e-02, 0., 0., 0., 0., 0., 0., 0., 0.,
          0., 0., 0., 0., 0., 0., 0., 0., 0., 0., 1.09890113e-02, 0.,
          1.09890113e-02, 0., 0., 0., 0., 3.29670347e-02, 0., 0., 0., 0.,
          2.19780225e-02, 0., 0., 0., 0., 0., 0., 0., 0., 0., 0.,
          3.29670347e-02, 2.19780225e-02, 1.09890113e-02, 0., 0., 0.,
          1.09890113e-02, 0., 0., 0., 0., 0., 0., 0., 0., 0., 0.,
          1.09890113e-02, 0., 0., 1.09890113e-02, 0., 0., 0., 0.,
          1.09890113e-02, 0., 1.09890113e-02, 0., 0., 2.19780225e-02, 0.,
          1.09890113e-02, 1.09890113e-02, 0., 0., 4.39560451e-02, 0., 0.,
          0., 1.09890113e-02, 0., 0., 4.39560451e-02, 1.09890113e-02, 0.,
          0., 0. ]
      - [ 1.13636367e-02, 0., 0., 1.13636367e-02, 0., 0., 1.13636367e-02,
          1.13636367e-02, 0., 0., 0., 0., 0., 0., 0., 3.40909101e-02, 0.,
          2.27272734e-02, 0., 0., 1.13636367e-02, 3.40909101e-02, 0., 0.,
          0., 1.13636367e-02, 0., 0., 0., 0., 0., 0., 2.27272734e-02,
          1.13636367e-02, 0., 0., 0., 0., 0., 0., 0., 0., 0.,
          1.13636367e-02, 0., 0., 0., 0., 0., 4.54545468e-02,
          2.27272734e-02, 0., 0., 0., 1.13636367e-02, 0., 0.,
          1.13636367e-02, 0., 0., 0., 0., 0., 0., 3.40909101e-02,
          2.27272734e-02, 0., 0., 0., 1.13636367e-02, 3.40909101e-02, 0.,
          0., 1.13636367e-02, 1.13636367e-02, 0., 0., 0., 7.95454532e-02,
          0., 0., 0., 0., 0., 0., 0., 0., 0., 0., 0., 0., 1.13636367e-02,
          0., 5.68181835e-02, 0., 0., 0., 0., 0., 0., 0., 0., 0.,
          1.13636367e-02, 0., 0., 0., 0., 0., 0., 4.54545468e-02, 0., 0.,
          0., 0., 2.27272734e-02, 0., 1.13636367e-02, 0., 1.13636367e-02,
          0., 0., 0., 0., 2.27272734e-02, 0., 0., 0., 1.13636367e-02,
          2.27272734e-02, 0., 0., 0., 3.40909101e-02, 1.13636367e-02,
          1.13636367e-02, 3.40909101e-02, 0., 0., 0., 0., 0.,
          1.13636367e-02, 0., 0., 0., 0., 0., 0., 0., 0., 0., 0., 0., 0.,
          0., 1.13636367e-02, 0., 0., 1.13636367e-02, 0., 0.,
          1.13636367e-02, 0., 0., 0., 1.13636367e-02, 0., 0., 0., 0., 0.,
          0., 0., 0., 0., 0., 0., 0., 1.13636367e-02, 0., 0., 0., 0., 0.,
          0., 0., 1.13636367e-02, 1.13636367e-02, 0., 2.27272734e-02, 0.,
          0., 0., 0., 3.40909101e-02, 0., 0., 3.40909101e-02, 0. ]
      - [ 4.99999989e-03, 4.99999989e-03, 4.99999989e-03, 0.,
          4.99999989e-03, 4.99999989e-03, 4.99999989e-03, 1.49999997e-02,
          0., 1.49999997e-02, 0., 4.99999989e-03, 0., 0., 4.99999989e-03,
          2.49999985e-02, 4.99999989e-03, 9.99999978e-03, 0., 0.,
          4.99999989e-03, 4.99999989e-03, 1.49999997e-02, 4.99999989e-03,
          0., 0., 0., 4.99999989e-03, 0., 0., 4.99999989e-03,
          9.99999978e-03, 4.99999989e-03, 2.49999985e-02, 4.99999989e-03,
          0., 0., 4.99999989e-03, 4.99999989e-03, 4.99999989e-03, 0., 0.,
          0., 0., 0., 9.99999978e-03, 0., 4.99999989e-03, 9.99999978e-03,
          4.99999989e-03, 0., 4.99999989e-03, 4.99999989e-03, 0.,
          1.99999996e-02, 0., 0., 0., 0., 0., 0., 0., 9.99999978e-03,
          4.99999989e-03, 0., 0., 9.99999978e-03, 0., 9.99999978e-03, 0.,
          0., 1.49999997e-02, 0., 0., 4.99999989e-03, 9.99999978e-03,
          1.99999996e-02, 0., 9.99999978e-03, 2.99999993e-02,
          4.99999989e-03, 4.99999989e-03, 4.99999989e-03, 4.99999989e-03,
          0., 9.99999978e-03, 0., 4.99999989e-03, 4.99999989e-03,
          4.99999989e-03, 4.99999989e-03, 1.49999997e-02, 4.99999989e-03,
          4.99999989e-03, 0., 2.49999985e-02, 0., 4.99999989e-03, 0., 0.,
          0., 0., 4.99999989e-03, 0., 4.99999989e-03, 0., 0.,
          1.49999997e-02, 9.99999978e-03, 1.99999996e-02, 0.,
          4.99999989e-03, 0., 4.99999989e-03, 4.99999989e-03,
          4.99999989e-03, 4.99999989e-03, 0., 9.99999978e-03,
          9.99999978e-03, 0., 0., 0., 9.99999978e-03, 4.99999989e-03, 0.,
          1.49999997e-02, 0., 0., 9.99999978e-03, 4.99999989e-03,
          9.99999978e-03, 0., 1.49999997e-02, 0., 4.99999989e-03,
          1.49999997e-02, 4.99999989e-03, 0., 9.99999978e-03,
          4.99999989e-03, 9.99999978e-03, 0., 0., 0., 0., 0., 0.,
          1.49999997e-02, 0., 4.99999989e-03, 0., 4.99999989e-03, 0.,
          4.99999989e-03, 4.99999989e-03, 4.99999989e-03, 0., 0.,
          1.49999997e-02, 4.99999989e-03, 0., 1.49999997e-02,
          1.49999997e-02, 0., 1.49999997e-02, 0., 1.99999996e-02,
          9.99999978e-03, 4.99999989e-03, 0., 2.99999993e-02,
          4.99999989e-03, 4.99999989e-03, 4.99999989e-03, 4.99999989e-03,
          0., 0., 0., 0., 0., 0., 0., 0., 0., 1.99999996e-02, 0.,
          9.99999978e-03, 0., 0., 4.99999989e-03, 4.99999989e-03,
          4.99999989e-03, 0., 0., 1.49999997e-02, 0., 0., 2.99999993e-02,
          0. ]
      - [ 5.81395347e-03, 0., 1.16279069e-02, 0., 0., 5.81395347e-03,
          1.16279069e-02, 0., 1.74418613e-02, 0., 0., 0., 0., 0., 0., 0.,
          1.74418613e-02, 5.81395347e-03, 5.81395347e-03, 5.81395347e-03,
          1.16279069e-02, 1.16279069e-02, 0., 0., 0., 0., 0.,
          1.16279069e-02, 0., 1.16279069e-02, 1.74418613e-02,
          1.74418613e-02, 5.81395347e-03, 5.81395347e-03, 1.16279069e-02,
          1.74418613e-02, 0., 0., 5.81395347e-03, 0., 0., 0., 0.,
          1.16279069e-02, 0., 0., 5.81395347e-03, 5.81395347e-03,
          5.81395347e-03, 5.81395347e-03, 0., 5.81395347e-03, 0., 0.,
          1.74418613e-02, 0., 0., 1.74418613e-02, 0., 0., 0., 0., 0.,
          1.16279069e-02, 0., 2.32558139e-02, 0., 0., 1.16279069e-02, 0.,
          0., 0., 0., 0., 0., 0., 0., 0., 1.74418613e-02, 0., 0.,
          1.74418613e-02, 1.74418613e-02, 1.74418613e-02, 0.,
          5.81395347e-03, 0., 2.32558139e-02, 0., 5.81395347e-03,
          5.81395347e-03, 5.81395347e-03, 0., 1.74418613e-02, 0.,
          1.74418613e-02, 0., 5.81395347e-03, 5.81395347e-03, 0.,
          1.74418613e-02, 0., 5.81395347e-03, 5.81395347e-03, 0.,
          5.81395347e-03, 5.81395347e-03, 4.65116277e-02, 0., 0.,
          1.16279069e-02, 0., 0., 2.90697664e-02, 0., 1.16279069e-02, 0.,
          5.81395347e-03, 5.81395347e-03, 0., 0., 0., 0., 0.,
          5.81395347e-03, 0., 0., 0., 5.81395347e-03, 0., 0.,
          1.74418613e-02, 5.81395347e-03, 5.81395347e-03, 1.16279069e-02,
          5.81395347e-03, 2.90697664e-02, 0., 2.90697664e-02, 0., 0., 0.,
          5.81395347e-03, 0., 0., 0., 0., 5.81395347e-03, 0., 0., 0., 0.,
          1.16279069e-02, 5.81395347e-03, 1.16279069e-02, 0.,
          1.74418613e-02, 0., 5.81395347e-03, 1.74418613e-02,
          5.81395347e-03, 0., 0., 5.81395347e-03, 0., 1.74418613e-02, 0.,
          0., 1.16279069e-02, 5.81395347e-03, 1.74418613e-02,
          5.81395347e-03, 0., 5.81395347e-03, 0., 0., 0., 0.,
          1.16279069e-02, 0., 0., 0., 0., 5.81395347e-03, 1.16279069e-02,
          0., 0., 0., 0., 1.16279069e-02, 0., 0., 1.16279069e-02, 0., 0.,
          1.16279069e-02, 0., 0., 1.16279069e-02, 0. ]
      - [ 0., 0., 0., 4.48430516e-03, 2.24215258e-02, 0., 1.34529155e-02,
          0., 8.96861032e-03, 8.96861032e-03, 0., 0., 0., 0., 0., 0., 0.,
          8.96861032e-03, 0., 4.48430516e-03, 0., 4.48430516e-03, 0.,
          8.96861032e-03, 8.96861032e-03, 0., 8.96861032e-03,
          4.48430516e-03, 4.48430516e-03, 0., 4.48430516e-03,
          4.48430516e-03, 8.96861032e-03, 4.48430516e-03, 8.96861032e-03,
          4.48430516e-03, 0., 0., 1.34529155e-02, 0., 0., 4.48430516e-03,
          0., 0., 0., 4.48430516e-03, 0., 0., 1.34529155e-02, 0., 0.,
          4.48430516e-03, 0., 8.96861032e-03, 4.48430516e-03, 0.,
          4.48430516e-03, 8.96861032e-03, 4.48430516e-03, 0., 0.,
          8.96861032e-03, 0., 4.48430516e-03, 4.48430516e-03,
          4.48430516e-03, 1.79372206e-02, 0., 1.79372206e-02, 0.,
          2.24215258e-02, 4.48430516e-03, 8.96861032e-03, 1.34529155e-02,
          8.96861032e-03, 1.34529155e-02, 2.69058309e-02, 0., 0.,
          4.48430516e-03, 4.48430516e-03, 4.48430516e-03, 4.48430516e-03,
          4.48430516e-03, 4.48430516e-03, 0., 3.58744413e-02,
          4.48430516e-03, 0., 4.48430516e-03, 0., 0., 2.69058309e-02,
          1.79372206e-02, 0., 4.48430516e-03, 0., 0., 8.96861032e-03, 0.,
          0., 0., 1.34529155e-02, 4.48430516e-03, 0., 0., 0., 0.,
          4.48430516e-03, 8.96861032e-03, 2.24215258e-02, 1.34529155e-02,
          1.34529155e-02, 1.34529155e-02, 4.48430516e-03, 2.24215258e-02,
          4.48430516e-03, 0., 0., 4.48430516e-03, 4.48430516e-03, 0., 0.,
          8.96861032e-03, 2.69058309e-02, 0., 8.96861032e-03, 0.,
          4.48430516e-03, 0., 0., 0., 0., 2.24215258e-02, 8.96861032e-03,
          0., 0., 0., 4.48430516e-03, 8.96861032e-03, 0., 4.48430516e-03,
          4.48430516e-03, 0., 4.48430516e-03, 0., 4.48430516e-03, 0.,
          8.96861032e-03, 0., 4.48430516e-03, 0., 4.48430516e-03,
          8.96861032e-03, 4.48430516e-03, 0., 1.79372206e-02, 0.,
          8.96861032e-03, 0., 0., 0., 1.79372206e-02, 0., 0.,
          4.48430516e-03, 0., 8.96861032e-03, 4.48430516e-03, 0., 0.,
          2.24215258e-02, 1.34529155e-02, 1.34529155e-02, 4.48430516e-03,
          0., 4.48430516e-03, 0., 4.48430516e-03, 0., 0., 0., 0.,
          4.48430516e-03, 1.34529155e-02, 4.48430516e-03, 4.48430516e-03,
          1.34529155e-02, 0., 1.34529155e-02, 4.48430516e-03, 0., 0., 0.,
          0., 8.96861032e-03, 0., 0., 1.34529155e-02, 8.96861032e-03 ]
      - [ 0., 0., 7.81250000e-03, 2.34375000e-02, 1.56250000e-02,
          7.81250000e-03, 0., 0., 0., 2.34375000e-02, 0., 0., 0.,
          7.81250000e-03, 0., 0., 7.81250000e-03, 0., 1.56250000e-02,
          5.46875000e-02, 7.81250000e-03, 7.81250000e-03, 0., 0., 0., 0.,
          0., 0., 2.34375000e-02, 0., 0., 1.56250000e-02, 1.56250000e-02,
          0., 0., 0., 1.56250000e-02, 7.81250000e-03, 0., 0.,
          1.56250000e-02, 0., 0., 0., 0., 0., 7.81250000e-03,
          7.81250000e-03, 7.81250000e-03, 7.81250000e-03, 1.56250000e-02,
          7.81250000e-03, 0., 0., 0., 0., 0., 0., 3.12500000e-02, 0., 0.,
          7.81250000e-03, 0., 0., 0., 0., 0., 0., 0., 0., 0., 0.,
          7.81250000e-03, 1.56250000e-02, 0., 0., 0., 7.81250000e-03,
          7.81250000e-03, 0., 7.81250000e-03, 0., 1.56250000e-02, 0.,
          7.81250000e-03, 7.81250000e-03, 0., 2.34375000e-02, 0.,
          7.81250000e-03, 1.56250000e-02, 1.56250000e-02, 0., 0., 0.,
          7.81250000e-03, 0., 7.81250000e-03, 0., 0., 0., 0., 0., 0.,
          7.81250000e-03, 1.56250000e-02, 0., 3.12500000e-02, 0.,
          1.56250000e-02, 0., 0., 7.81250000e-03, 2.34375000e-02, 0., 0.,
          7.81250000e-03, 7.81250000e-03, 0., 0., 0., 0., 0.,
          7.81250000e-03, 0., 7.81250000e-03, 7.81250000e-03, 0., 0., 0.,
          1.56250000e-02, 4.68750000e-02, 0., 0., 0., 1.56250000e-02, 0.,
          0., 0., 0., 7.81250000e-03, 1.56250000e-02, 0., 0., 0., 0.,
          7.81250000e-03, 0., 0., 0., 0., 0., 7.81250000e-03, 0., 0., 0.,
          7.81250000e-03, 0., 0., 1.56250000e-02, 0., 0., 7.81250000e-03,
          2.34375000e-02, 0., 1.56250000e-02, 0., 1.56250000e-02,
          3.12500000e-02, 0., 7.81250000e-03, 7.81250000e-03,
          7.81250000e-03, 0., 0., 0., 7.81250000e-03, 0., 0.,
          7.81250000e-03, 7.81250000e-03, 0., 0., 0., 0., 0.,
          7.81250000e-03, 0., 0., 0., 0., 0., 0., 0., 0., 3.12500000e-02,
          1.56250000e-02, 0., 0., 0. ]
      - [ 0., 0., 0., 0., 0., 0., 7.29927002e-03, 7.29927002e-03,
          1.45985400e-02, 2.18978096e-02, 0., 0., 0., 0., 0., 0., 0.,
          7.29927002e-03, 0., 2.18978096e-02, 0., 3.64963487e-02,
          7.29927002e-03, 0., 0., 0., 0., 1.45985400e-02, 7.29927002e-03,
          0., 0., 2.18978096e-02, 2.18978096e-02, 0., 0., 2.91970801e-02,
          0., 1.45985400e-02, 7.29927002e-03, 0., 0., 7.29927002e-03, 0.,
          0., 0., 7.29927002e-03, 0., 1.45985400e-02, 7.29927002e-03,
          2.91970801e-02, 0., 7.29927002e-03, 0., 0., 7.29927002e-03, 0.,
          0., 7.29927002e-03, 1.45985400e-02, 0., 0., 0., 7.29927002e-03,
          0., 0., 1.45985400e-02, 0., 0., 1.45985400e-02, 0., 0., 0.,
          7.29927002e-03, 0., 0., 0., 7.29927002e-03, 0., 2.91970801e-02,
          7.29927002e-03, 1.45985400e-02, 0., 2.18978096e-02,
          1.45985400e-02, 0., 1.45985400e-02, 0., 1.45985400e-02, 0., 0.,
          0., 0., 0., 0., 0., 0., 0., 2.18978096e-02, 0., 0.,
          1.45985400e-02, 0., 0., 0., 2.18978096e-02, 7.29927002e-03,
          1.45985400e-02, 1.45985400e-02, 0., 0., 0., 7.29927002e-03, 0.,
          0., 0., 0., 7.29927002e-03, 0., 7.29927002e-03, 0., 0., 0., 0.,
          0., 0., 0., 0., 0., 0., 1.45985400e-02, 0., 1.45985400e-02, 0.,
          2.91970801e-02, 0., 1.45985400e-02, 0., 2.18978096e-02, 0., 0.,
          7.29927002e-03, 7.29927002e-03, 0., 0., 0., 0., 0., 0.,
          7.29927002e-03, 0., 0., 0., 0., 0., 2.18978096e-02, 0.,
          3.64963487e-02, 0., 1.45985400e-02, 2.18978096e-02, 0., 0.,
          7.29927002e-03, 0., 0., 1.45985400e-02, 7.29927002e-03, 0.,
          7.29927002e-03, 0., 1.45985400e-02, 1.45985400e-02, 0., 0., 0.,
          0., 0., 0., 7.29927002e-03, 0., 0., 0., 0., 0., 7.29927002e-03,
          0., 0., 7.29927002e-03, 0., 7.29927002e-03, 0., 3.64963487e-02,
          0., 0., 0., 2.91970801e-02, 0., 0., 0., 0. ]
      - [ 5.74712642e-03, 5.74712642e-03, 1.14942528e-02, 5.74712642e-03,
          0., 5.74712642e-03, 2.87356321e-02, 0., 0., 5.74712642e-03, 0.,
          5.74712642e-03, 5.74712642e-03, 0., 0., 0., 0., 0., 0.,
          5.74712642e-03, 0., 1.14942528e-02, 5.74712642e-03, 0.,
          5.74712642e-03, 0., 0., 0., 5.74712642e-03, 0., 5.74712642e-03,
          5.74712642e-03, 5.74712642e-03, 0., 1.14942528e-02, 0., 0.,
          5.74712642e-03, 0., 1.14942528e-02, 0., 0., 0., 0.,
          5.74712642e-03, 0., 0., 5.74712642e-03, 0., 1.14942528e-02, 0.,
          5.74712642e-03, 0., 5.74712642e-03, 1.14942528e-02, 0.,
          1.14942528e-02, 2.87356321e-02, 0., 0., 0., 0., 0.,
          1.14942528e-02, 5.74712642e-03, 1.14942528e-02, 0.,
          5.74712642e-03, 1.72413792e-02, 0., 0., 0., 0., 0., 0.,
          1.14942528e-02, 1.14942528e-02, 5.74712642e-03, 2.29885057e-02,
          0., 0., 0., 0., 1.14942528e-02, 0., 5.74712642e-03,
          1.14942528e-02, 2.29885057e-02, 0., 5.74712642e-03,
          5.74712642e-03, 0., 5.74712642e-03, 0., 0., 4.02298868e-02,
          5.74712642e-03, 5.74712642e-03, 1.14942528e-02, 0., 0., 0.,
          1.14942528e-02, 0., 0., 5.74712642e-03, 0., 1.14942528e-02, 0.,
          3.44827585e-02, 1.72413792e-02, 0., 5.74712642e-03,
          2.29885057e-02, 5.74712642e-03, 1.14942528e-02, 0.,
          5.74712642e-03, 0., 5.74712642e-03, 0., 0., 0., 5.74712642e-03,
          2.29885057e-02, 0., 0., 5.74712642e-03, 0., 5.74712642e-03,
          5.74712642e-03, 0., 5.74712642e-03, 2.29885057e-02,
          5.74712642e-03, 5.74712642e-03, 0., 0., 0., 1.14942528e-02, 0.,
          0., 0., 0., 0., 0., 5.74712642e-03, 0., 1.14942528e-02, 0., 0.,
          0., 0., 0., 1.14942528e-02, 0., 1.72413792e-02, 5.74712642e-03,
          1.72413792e-02, 0., 0., 5.74712642e-03, 0., 1.72413792e-02,
          5.74712642e-03, 2.29885057e-02, 0., 5.74712642e-03,
          1.14942528e-02, 1.14942528e-02, 5.74712642e-03, 0., 0., 0.,
          5.74712642e-03, 0., 0., 1.14942528e-02, 0., 0., 0., 0.,
          1.14942528e-02, 0., 1.14942528e-02, 5.74712642e-03, 0., 0., 0.,
          0., 1.14942528e-02, 5.74712642e-03, 5.74712642e-03, 0.,
          5.74712642e-03, 2.29885057e-02, 5.74712642e-03, 0.,
          2.29885057e-02, 0. ]
      - [ 3.07692308e-02, 0., 0., 0., 7.69230770e-03, 0., 0.,
          1.53846154e-02, 7.69230770e-03, 0., 0., 0., 0., 7.69230770e-03,
          0., 0., 0., 1.53846154e-02, 0., 7.69230770e-03, 1.53846154e-02,
          1.53846154e-02, 7.69230770e-03, 0., 0., 7.69230770e-03, 0.,
          1.53846154e-02, 7.69230770e-03, 7.69230770e-03, 7.69230770e-03,
          0., 4.61538471e-02, 7.69230770e-03, 7.69230770e-03,
          7.69230770e-03, 0., 0., 7.69230770e-03, 0., 0., 0., 0., 0., 0.,
          1.53846154e-02, 0., 0., 0., 7.69230770e-03, 7.69230770e-03, 0.,
          0., 0., 7.69230770e-03, 0., 0., 1.53846154e-02, 0., 0., 0.,
          7.69230770e-03, 3.07692308e-02, 7.69230770e-03, 2.30769236e-02,
          0., 7.69230770e-03, 1.53846154e-02, 0., 0., 0., 7.69230770e-03,
          0., 0., 7.69230770e-03, 0., 0., 0., 1.53846154e-02,
          7.69230770e-03, 0., 1.53846154e-02, 1.53846154e-02, 0.,
          2.30769236e-02, 7.69230770e-03, 0., 0., 1.53846154e-02, 0.,
          7.69230770e-03, 2.30769236e-02, 7.69230770e-03, 5.38461544e-02,
          0., 7.69230770e-03, 7.69230770e-03, 2.30769236e-02, 0.,
          2.30769236e-02, 1.53846154e-02, 0., 0., 0., 0., 0., 0., 0., 0.,
          7.69230770e-03, 0., 0., 0., 7.69230770e-03, 7.69230770e-03,
          1.53846154e-02, 0., 1.53846154e-02, 7.69230770e-03, 0., 0., 0.,
          7.69230770e-03, 0., 7.69230770e-03, 0., 0., 0., 0., 0., 0.,
          7.69230770e-03, 0., 2.30769236e-02, 0., 0., 7.69230770e-03, 0.,
          0., 0., 0., 7.69230770e-03, 1.53846154e-02, 0., 0., 0., 0., 0.,
          0., 0., 0., 0., 0., 1.53846154e-02, 7.69230770e-03, 0.,
          7.69230770e-03, 0., 0., 7.69230770e-03, 0., 0., 0.,
          7.69230770e-03, 0., 0., 0., 0., 7.69230770e-03, 0., 0.,
          7.69230770e-03, 0., 2.30769236e-02, 0., 0., 0., 7.69230770e-03,
          0., 7.69230770e-03, 0., 0., 0., 7.69230770e-03, 0., 0.,
          7.69230770e-03, 7.69230770e-03, 0., 0., 0., 0., 0., 0., 0.,
          1.53846154e-02, 0., 0., 3.84615399e-02, 0. ]
      - [ 0., 0., 0., 0., 2.32558139e-02, 0., 0., 0., 0., 0., 0., 0.,
          1.16279069e-02, 2.32558139e-02, 0., 0., 1.16279069e-02, 0., 0.,
          0., 0., 1.16279069e-02, 1.16279069e-02, 0., 0., 0., 0., 0., 0.,
          0., 1.16279069e-02, 5.81395328e-02, 1.16279069e-02, 0., 0., 0.,
          0., 1.16279069e-02, 0., 0., 0., 1.16279069e-02, 0.,
          1.16279069e-02, 0., 1.16279069e-02, 1.16279069e-02, 0.,
          1.16279069e-02, 0., 0., 2.32558139e-02, 0., 0., 0.,
          1.16279069e-02, 0., 2.32558139e-02, 1.16279069e-02, 0., 0., 0.,
          0., 0., 0., 2.32558139e-02, 1.16279069e-02, 1.16279069e-02,
          2.32558139e-02, 0., 1.16279069e-02, 0., 1.16279069e-02, 0., 0.,
          1.16279069e-02, 1.16279069e-02, 0., 0., 1.16279069e-02, 0., 0.,
          1.16279069e-02, 2.32558139e-02, 0., 1.16279069e-02, 0.,
          1.16279069e-02, 0., 1.16279069e-02, 0., 0., 0., 0., 0., 0., 0.,
          0., 0., 0., 0., 0., 1.16279069e-02, 3.48837227e-02, 0.,
          1.16279069e-02, 0., 0., 0., 0., 3.48837227e-02, 0., 0.,
          1.16279069e-02, 0., 0., 0., 0., 0., 2.32558139e-02, 0., 0., 0.,
          0., 0., 0., 0., 0., 0., 1.16279069e-02, 0., 8.13953504e-02, 0.,
          0., 0., 2.32558139e-02, 0., 0., 0., 0., 0., 3.48837227e-02, 0.,
          0., 0., 0., 0., 0., 1.16279069e-02, 0., 0., 0., 0., 0., 0., 0.,
          0., 0., 0., 1.16279069e-02, 0., 0., 0., 0., 0., 0.,
          1.16279069e-02, 3.48837227e-02, 0., 0., 0., 0., 0., 0.,
          2.32558139e-02, 2.32558139e-02, 0., 0., 0., 0., 0., 0.,
          1.16279069e-02, 0., 1.16279069e-02, 0., 0., 2.32558139e-02, 0.,
          0., 0., 0., 0., 0., 0., 1.16279069e-02, 2.32558139e-02, 0., 0.,
          1.16279069e-02 ]
      - [ 1.39860138e-02, 6.99300691e-03, 2.09790207e-02, 1.39860138e-02,
          6.99300691e-03, 0., 0., 6.99300691e-03, 1.39860138e-02,
          6.99300691e-03, 6.99300691e-03, 0., 6.99300691e-03, 0., 0., 0.,
          0., 0., 0., 6.99300691e-03, 6.99300691e-03, 6.99300691e-03, 0.,
          6.99300691e-03, 0., 0., 0., 6.99300691e-03, 1.39860138e-02,
          6.99300691e-03, 0., 6.99300691e-03, 0., 1.39860138e-02, 0.,
          4.89510484e-02, 0., 6.99300691e-03, 6.99300691e-03, 0., 0., 0.,
          0., 6.99300691e-03, 0., 0., 0., 0., 0., 2.09790207e-02,
          6.99300691e-03, 2.09790207e-02, 0., 0., 0., 0., 0.,
          1.39860138e-02, 6.99300691e-03, 1.39860138e-02, 0., 0., 0.,
          6.99300691e-03, 0., 6.99300691e-03, 0., 0., 6.99300691e-03, 0.,
          6.99300691e-03, 6.99300691e-03, 6.99300691e-03, 0., 0.,
          6.99300691e-03, 0., 0., 6.99300691e-03, 0., 1.39860138e-02,
          6.99300691e-03, 1.39860138e-02, 1.39860138e-02, 0.,
          6.99300691e-03, 0., 0., 0., 1.39860138e-02, 6.99300691e-03,
          6.99300691e-03, 0., 0., 0., 0., 6.99300691e-03, 6.99300691e-03,
          6.99300691e-03, 0., 1.39860138e-02, 0., 0., 0., 2.79720277e-02,
          3.49650346e-02, 6.99300691e-03, 2.09790207e-02, 0.,
          6.99300691e-03, 2.09790207e-02, 0., 0., 6.99300691e-03, 0., 0.,
          0., 0., 0., 0., 0., 6.99300691e-03, 0., 0., 0., 0., 0., 0.,
          6.99300691e-03, 6.99300691e-03, 0., 2.09790207e-02,
          1.39860138e-02, 0., 2.09790207e-02, 2.09790207e-02,
          1.39860138e-02, 0., 6.99300691e-03, 6.99300691e-03, 0.,
          1.39860138e-02, 0., 0., 0., 0., 6.99300691e-03, 0.,
          6.99300691e-03, 0., 0., 0., 0., 6.99300691e-03, 1.39860138e-02,
          0., 0., 0., 0., 0., 0., 0., 0., 1.39860138e-02, 6.99300691e-03,
          0., 0., 6.99300691e-03, 1.39860138e-02, 0., 6.99300691e-03, 0.,
          6.99300691e-03, 0., 0., 0., 6.99300691e-03, 0., 0.,
          1.39860138e-02, 6.99300691e-03, 0., 0., 0., 1.39860138e-02, 0.,
          0., 0., 2.79720277e-02, 0., 6.99300691e-03, 0., 2.09790207e-02,
          0., 0., 2.09790207e-02, 0., 6.99300691e-03, 6.99300691e-03, 0. ]
      - [ 0., 0., 0., 1.14942528e-02, 0., 0., 0., 0., 0., 3.44827585e-02,
          0., 0., 0., 0., 0., 0., 0., 0., 1.14942528e-02, 1.14942528e-02,
          1.14942528e-02, 0., 0., 0., 1.14942528e-02, 0., 0., 0.,
          1.14942528e-02, 0., 0., 2.29885057e-02, 0., 0., 0.,
          4.59770113e-02, 1.14942528e-02, 0., 0., 1.14942528e-02, 0., 0.,
          0., 1.14942528e-02, 0., 0., 0., 2.29885057e-02, 0., 0., 0.,
          1.14942528e-02, 0., 0., 0., 0., 0., 0., 0., 2.29885057e-02, 0.,
          0., 0., 0., 0., 0., 0., 0., 0., 0., 2.29885057e-02, 0., 0.,
          1.14942528e-02, 0., 1.14942528e-02, 0., 0., 2.29885057e-02, 0.,
          0., 0., 0., 0., 0., 0., 0., 0., 0., 1.14942528e-02, 0., 0.,
          1.14942528e-02, 0., 0., 0., 2.29885057e-02, 1.14942528e-02, 0.,
          0., 0., 0., 0., 0., 0., 6.89655170e-02, 2.29885057e-02, 0., 0.,
          0., 0., 1.14942528e-02, 0., 2.29885057e-02, 0., 0., 0.,
          1.14942528e-02, 0., 0., 0., 0., 0., 1.14942528e-02, 0., 0., 0.,
          0., 0., 0., 0., 1.14942528e-02, 1.14942528e-02, 0., 0.,
          6.89655170e-02, 1.14942528e-02, 0., 2.29885057e-02, 0., 0.,
          1.14942528e-02, 0., 0., 1.14942528e-02, 0., 0., 0., 0., 0., 0.,
          0., 0., 3.44827585e-02, 0., 0., 0., 0., 1.14942528e-02,
          1.14942528e-02, 0., 0., 0., 0., 1.14942528e-02, 0., 0.,
          3.44827585e-02, 2.29885057e-02, 0., 1.14942528e-02,
          1.14942528e-02, 0., 0., 1.14942528e-02, 2.29885057e-02, 0., 0.,
          1.14942528e-02, 0., 0., 0., 0., 0., 1.14942528e-02, 0., 0., 0.,
          6.89655170e-02, 0., 0., 0., 1.14942528e-02, 0., 0.,
          1.14942528e-02, 1.14942528e-02, 0., 0., 0. ]
      - [ 0., 0., 0., 0., 0., 1.25000002e-02, 0., 1.25000002e-02,
          1.25000002e-02, 0., 0., 0., 0., 0., 0., 0., 0., 1.25000002e-02,
          0., 1.25000002e-02, 0., 1.25000002e-02, 0., 0., 2.50000004e-02,
          0., 0., 2.50000004e-02, 1.25000002e-02, 0., 0., 3.75000015e-02,
          0., 0., 1.25000002e-02, 1.25000002e-02, 0., 1.25000002e-02, 0.,
          1.25000002e-02, 1.25000002e-02, 2.50000004e-02, 0., 0., 0., 0.,
          0., 1.25000002e-02, 0., 0., 0., 1.25000002e-02, 0., 0., 0., 0.,
          0., 5.00000007e-02, 0., 0., 1.25000002e-02, 0., 0.,
          3.75000015e-02, 0., 0., 0., 0., 0., 0., 0., 0., 2.50000004e-02,
          0., 0., 0., 0., 0., 0., 1.25000002e-02, 1.25000002e-02, 0., 0.,
          0., 0., 0., 0., 0., 0., 0., 1.25000002e-02, 0., 0., 0., 0.,
          1.25000002e-02, 2.50000004e-02, 0., 2.50000004e-02, 0.,
          2.50000004e-02, 0., 2.50000004e-02, 0., 5.00000007e-02,
          1.25000002e-02, 2.50000004e-02, 1.25000002e-02, 0., 0., 0., 0.,
          0., 0., 1.25000002e-02, 0., 0., 0., 0., 1.25000002e-02, 0., 0.,
          0., 0., 0., 0., 0., 0., 0., 1.25000002e-02, 0., 0., 0., 0., 0.,
          1.25000002e-02, 0., 0., 1.25000002e-02, 1.25000002e-02, 0.,
          2.50000004e-02, 0., 0., 1.25000002e-02, 0., 1.25000002e-02,
          1.25000002e-02, 2.50000004e-02, 0., 1.25000002e-02, 0.,
          1.25000002e-02, 0., 0., 0., 0., 1.25000002e-02, 1.25000002e-02,
          0., 0., 0., 0., 0., 1.25000002e-02, 0., 0., 0., 0., 0.,
          1.25000002e-02, 0., 0., 0., 0., 3.75000015e-02, 0., 0., 0., 0.,
          0., 0., 2.50000004e-02, 0., 3.75000015e-02, 0., 0., 0., 0., 0.,
          0., 0., 0., 0., 0., 0., 0., 0., 0., 0. ]
      - [ 0., 4.60829493e-03, 9.21658985e-03, 0., 4.60829493e-03, 0., 0.,
          0., 0., 4.14746553e-02, 0., 4.60829493e-03, 0., 9.21658985e-03,
          0., 4.60829493e-03, 4.60829493e-03, 0., 0., 9.21658985e-03, 0.,
          4.60829493e-03, 0., 0., 9.21658985e-03, 0., 0., 0., 0., 0.,
          4.60829493e-03, 1.38248848e-02, 0., 4.60829493e-03,
          9.21658985e-03, 0., 3.22580636e-02, 9.21658985e-03,
          4.60829493e-03, 4.60829493e-03, 1.84331797e-02, 0., 0., 0., 0.,
          0., 4.60829493e-03, 0., 9.21658985e-03, 4.60829493e-03,
          4.60829493e-03, 4.60829493e-03, 0., 9.21658985e-03,
          4.60829493e-03, 9.21658985e-03, 4.60829493e-03, 9.21658985e-03,
          9.21658985e-03, 0., 0., 0., 0., 4.60829493e-03, 0.,
          2.30414756e-02, 0., 0., 0., 0., 2.30414756e-02, 0.,
          9.21658985e-03, 4.60829493e-03, 4.60829493e-03, 0.,
          1.38248848e-02, 4.60829493e-03, 4.60829493e-03, 4.60829493e-03,
          0., 0., 9.21658985e-03, 1.84331797e-02, 0., 4.60829493e-03,
          4.60829493e-03, 1.84331797e-02, 0., 4.60829493e-03,
          4.60829493e-03, 4.60829493e-03, 9.21658985e-03, 4.60829493e-03,
          0., 4.60829493e-03, 0., 4.60829493e-03, 0., 0., 1.38248848e-02,
          0., 9.21658985e-03, 0., 4.60829493e-03, 0., 9.21658985e-03,
          4.60829493e-03, 0., 1.38248848e-02, 1.38248848e-02, 0.,
          4.60829493e-03, 4.60829493e-03, 0., 0., 0., 9.21658985e-03,
          4.60829493e-03, 4.60829493e-03, 4.60829493e-03, 9.21658985e-03,
          0., 4.60829493e-03, 4.60829493e-03, 0., 1.38248848e-02, 0., 0.,
          0., 4.60829493e-03, 4.60829493e-03, 4.60829493e-03,
          9.21658985e-03, 4.60829493e-03, 0., 1.38248848e-02, 0.,
          4.60829493e-03, 9.21658985e-03, 9.21658985e-03, 1.84331797e-02,
          4.60829493e-03, 0., 4.60829493e-03, 0., 0., 0., 0., 0.,
          4.60829493e-03, 0., 9.21658985e-03, 4.60829493e-03, 0., 0.,
          4.60829493e-03, 0., 0., 4.60829493e-03, 0., 2.30414756e-02,
          4.60829493e-03, 4.60829493e-03, 0., 0., 9.21658985e-03,
          4.60829493e-03, 5.99078350e-02, 0., 1.38248848e-02, 0.,
          4.60829493e-03, 0., 0., 9.21658985e-03, 0., 0., 0.,
          9.21658985e-03, 9.21658985e-03, 0., 0., 4.60829493e-03,
          1.38248848e-02, 0., 0., 4.60829493e-03, 4.60829493e-03,
          9.21658985e-03, 4.60829493e-03, 0., 1.38248848e-02, 0., 0.,
          1.84331797e-02, 1.38248848e-02, 0., 1.38248848e-02,
          2.30414756e-02 ]
      - [ 0., 8.62068962e-03, 0., 6.03448264e-02, 8.62068962e-03, 0., 0.,
          0., 1.72413792e-02, 1.72413792e-02, 0., 0., 0., 3.44827585e-02,
          0., 0., 0., 0., 0., 8.62068962e-03, 0., 0., 0., 0.,
          8.62068962e-03, 0., 0., 0., 8.62068962e-03, 0., 8.62068962e-03,
          8.62068962e-03, 1.72413792e-02, 3.44827585e-02, 8.62068962e-03,
          0., 0., 0., 0., 8.62068962e-03, 0., 0., 0., 0., 0., 0., 0., 0.,
          0., 0., 8.62068962e-03, 0., 0., 0., 0., 0., 0., 0., 0., 0., 0.,
          0., 1.72413792e-02, 0., 8.62068962e-03, 1.72413792e-02, 0., 0.,
          2.58620679e-02, 0., 8.62068962e-03, 0., 0., 0., 0., 0.,
          8.62068962e-03, 1.72413792e-02, 8.62068962e-03, 0., 0., 0., 0.,
          0., 1.72413792e-02, 5.17241359e-02, 0., 2.58620679e-02, 0.,
          2.58620679e-02, 1.72413792e-02, 2.58620679e-02, 8.62068962e-03,
          0., 0., 8.62068962e-03, 0., 8.62068962e-03, 8.62068962e-03, 0.,
          2.58620679e-02, 0., 8.62068962e-03, 0., 8.62068962e-03,
          1.72413792e-02, 0., 0., 0., 0., 2.58620679e-02, 0.,
          8.62068962e-03, 0., 8.62068962e-03, 0., 0., 0., 0.,
          8.62068962e-03, 1.72413792e-02, 8.62068962e-03, 0., 0., 0.,
          8.62068962e-03, 0., 0., 0., 8.62068962e-03, 0., 8.62068962e-03,
          0., 0., 8.62068962e-03, 8.62068962e-03, 8.62068962e-03, 0.,
          1.72413792e-02, 0., 0., 0., 0., 0., 8.62068962e-03, 0.,
          8.62068962e-03, 0., 0., 0., 8.62068962e-03, 0., 0.,
          8.62068962e-03, 1.72413792e-02, 0., 8.62068962e-03, 0.,
          8.62068962e-03, 0., 0., 0., 0., 1.72413792e-02, 0., 0.,
          1.72413792e-02, 0., 0., 0., 1.72413792e-02, 8.62068962e-03,
          8.62068962e-03, 0., 0., 8.62068962e-03, 0., 8.62068962e-03,
          8.62068962e-03, 0., 8.62068962e-03, 0., 0., 8.62068962e-03, 0.,
          8.62068962e-03, 1.72413792e-02, 0., 0., 0., 8.62068962e-03, 0.,
          0., 0., 0., 0., 0., 0., 0., 0. ]
      - [ 2.18978096e-02, 7.29927002e-03, 7.29927002e-03, 0., 0., 0., 0.,
          0., 7.29927002e-03, 7.29927002e-03, 7.29927002e-03, 0., 0.,
          7.29927002e-03, 0., 0., 0., 7.29927002e-03, 0., 0.,
          2.18978096e-02, 0., 0., 0., 1.45985400e-02, 0., 0., 0., 0., 0.,
          7.29927002e-03, 4.37956192e-02, 0., 7.29927002e-03, 0.,
          3.64963487e-02, 4.37956192e-02, 0., 7.29927002e-03, 0.,
          7.29927002e-03, 1.45985400e-02, 0., 0., 0., 0., 7.29927002e-03,
          0., 7.29927002e-03, 7.29927002e-03, 7.29927002e-03,
          2.18978096e-02, 3.64963487e-02, 2.18978096e-02, 0., 0., 0.,
          1.45985400e-02, 0., 0., 0., 0., 0., 0., 0., 1.45985400e-02, 0.,
          0., 7.29927002e-03, 7.29927002e-03, 4.37956192e-02,
          1.45985400e-02, 0., 7.29927002e-03, 0., 7.29927002e-03,
          7.29927002e-03, 0., 1.45985400e-02, 0., 0., 0., 7.29927002e-03,
          1.45985400e-02, 1.45985400e-02, 7.29927002e-03, 0., 0., 0., 0.,
          0., 3.64963487e-02, 0., 0., 0., 0., 0., 0., 0., 7.29927002e-03,
          7.29927002e-03, 0., 0., 0., 0., 7.29927002e-03, 7.29927002e-03,
          1.45985400e-02, 0., 0., 2.18978096e-02, 7.29927002e-03,
          7.29927002e-03, 0., 0., 0., 0., 1.45985400e-02, 0., 0., 0.,
          1.45985400e-02, 0., 0., 7.29927002e-03, 7.29927002e-03,
          1.45985400e-02, 0., 0., 7.29927002e-03, 0., 0., 0., 0.,
          1.45985400e-02, 1.45985400e-02, 0., 7.29927002e-03,
          7.29927002e-03, 7.29927002e-03, 0., 7.29927002e-03, 0., 0., 0.,
          0., 0., 0., 0., 0., 7.29927002e-03, 0., 1.45985400e-02, 0.,
          7.29927002e-03, 0., 0., 0., 0., 0., 0., 0., 0., 0., 0.,
          2.18978096e-02, 0., 0., 2.91970801e-02, 7.29927002e-03,
          7.29927002e-03, 0., 0., 0., 0., 0., 1.45985400e-02, 0.,
          2.18978096e-02, 0., 7.29927002e-03, 0., 0., 0., 1.45985400e-02,
          0., 0., 0., 0., 0., 7.29927002e-03, 0., 0., 0., 0., 0.,
          7.29927002e-03, 0., 1.45985400e-02, 7.29927002e-03 ]
      - [ 0., 4.73933667e-03, 9.47867334e-03, 1.42180100e-02,
          4.73933667e-03, 0., 4.73933667e-03, 4.73933667e-03, 0.,
          4.73933667e-03, 0., 0., 0., 0., 0., 0., 0., 0., 9.47867334e-03,
          1.42180100e-02, 0., 0., 0., 1.42180100e-02, 1.89573467e-02,
          4.73933667e-03, 0., 1.42180100e-02, 9.47867334e-03,
          4.73933667e-03, 4.73933667e-03, 1.42180100e-02, 4.73933667e-03,
          0., 1.42180100e-02, 9.47867334e-03, 0., 0., 0., 1.42180100e-02,
          9.47867334e-03, 0., 0., 4.73933667e-03, 4.73933667e-03,
          9.47867334e-03, 0., 4.73933667e-03, 4.73933667e-03,
          9.47867334e-03, 9.47867334e-03, 4.73933667e-03, 0.,
          4.73933667e-03, 0., 0., 2.36966833e-02, 0., 4.73933667e-03, 0.,
          0., 1.42180100e-02, 0., 9.47867334e-03, 0., 1.42180100e-02,
          9.47867334e-03, 0., 4.73933667e-03, 0., 9.47867334e-03,
          4.73933667e-03, 0., 4.73933667e-03, 9.47867334e-03, 0.,
          4.73933667e-03, 2.84360200e-02, 4.73933667e-03, 0.,
          4.73933667e-03, 0., 0., 1.42180100e-02, 0., 9.47867334e-03,
          9.47867334e-03, 0., 1.89573467e-02, 4.73933667e-03,
          9.47867334e-03, 0., 0., 4.73933667e-03, 0., 1.89573467e-02,
          4.73933667e-03, 4.73933667e-03, 4.73933667e-03, 0.,
          9.47867334e-03, 0., 9.47867334e-03, 0., 4.73933667e-03, 0.,
          1.42180100e-02, 0., 1.89573467e-02, 0., 4.73933667e-03,
          9.47867334e-03, 0., 4.73933667e-03, 0., 4.73933667e-03, 0.,
          4.73933667e-03, 0., 0., 0., 9.47867334e-03, 4.73933667e-03, 0.,
          9.47867334e-03, 9.47867334e-03, 1.42180100e-02, 0.,
          4.73933667e-03, 4.73933667e-03, 9.47867334e-03, 0.,
          1.42180100e-02, 0., 4.73933667e-03, 0., 4.73933667e-03, 0.,
          4.73933667e-03, 0., 4.73933667e-03, 0., 4.73933667e-03, 0.,
          4.73933667e-03, 0., 1.42180100e-02, 9.47867334e-03, 0., 0., 0.,
          0., 0., 9.47867334e-03, 0., 0., 1.42180100e-02, 4.73933667e-03,
          0., 4.73933667e-03, 0., 0., 9.47867334e-03, 1.42180100e-02,
          4.73933667e-03, 0., 0., 4.73933667e-03, 2.36966833e-02,
          4.73933667e-03, 4.73933667e-03, 0., 4.73933667e-03, 0.,
          9.47867334e-03, 4.73933667e-03, 9.47867334e-03, 0.,
          4.73933667e-03, 4.73933667e-03, 4.73933667e-03, 0.,
          4.73933667e-03, 4.73933667e-03, 9.47867334e-03, 9.47867334e-03,
          4.73933667e-03, 0., 4.73933667e-03, 2.84360200e-02,
          1.42180100e-02, 4.73933667e-03, 9.47867334e-03, 0.,
          4.73933667e-03, 4.73933667e-03, 4.73933667e-03, 0.,
          4.73933667e-03, 4.73933667e-03 ]
      - [ 0., 0., 0., 0., 0., 0., 0., 0., 0., 0., 0., 0., 0., 0., 0.,
          1.20481923e-02, 0., 0., 0., 0., 4.81927693e-02, 2.40963846e-02,
          0., 0., 2.40963846e-02, 4.81927693e-02, 0., 0., 0., 0.,
          1.20481923e-02, 0., 0., 0., 0., 0., 0., 0., 2.40963846e-02, 0.,
          0., 0., 0., 0., 0., 0., 0., 2.40963846e-02, 0., 1.20481923e-02,
          0., 0., 0., 0., 2.40963846e-02, 6.02409616e-02, 0.,
          2.40963846e-02, 1.20481923e-02, 0., 0., 0., 1.20481923e-02, 0.,
          1.20481923e-02, 4.81927693e-02, 0., 0., 1.20481923e-02, 0.,
          2.40963846e-02, 0., 0., 0., 0., 0., 0., 0., 0., 2.40963846e-02,
          0., 0., 1.20481923e-02, 1.20481923e-02, 0., 0., 2.40963846e-02,
          0., 0., 0., 0., 0., 0., 0., 1.20481923e-02, 0., 0.,
          1.20481923e-02, 0., 0., 0., 0., 0., 0., 0., 0., 0., 0., 0., 0.,
          6.02409616e-02, 0., 0., 0., 0., 6.02409616e-02, 0., 0.,
          1.20481923e-02, 1.20481923e-02, 0., 0., 0., 1.20481923e-02,
          2.40963846e-02, 0., 2.40963846e-02, 1.20481923e-02, 0., 0., 0.,
          0., 0., 6.02409616e-02, 2.40963846e-02, 0., 0., 0., 0., 0., 0.,
          0., 0., 0., 0., 0., 0., 0., 0., 0., 0., 0., 0., 0.,
          1.20481923e-02, 0., 1.20481923e-02, 0., 0., 0., 0., 0., 0., 0.,
          0., 0., 0., 1.20481923e-02, 0., 0., 0., 1.20481923e-02,
          1.20481923e-02, 0., 0., 0., 0., 0., 0., 1.20481923e-02, 0., 0.,
          0., 0., 0., 0., 0., 1.20481923e-02, 0., 0., 0., 0., 0., 0., 0.,
          1.20481923e-02, 0., 0., 1.20481923e-02, 3.61445770e-02 ]
      - [ 1.03626940e-02, 0., 0., 1.03626940e-02, 0., 5.18134702e-03,
          1.03626940e-02, 0., 2.07253881e-02, 2.59067342e-02, 0., 0., 0.,
          1.55440411e-02, 0., 0., 0., 0., 5.18134702e-03, 1.03626940e-02,
          5.18134702e-03, 0., 0., 0., 0., 1.03626940e-02, 0., 0.,
          5.18134702e-03, 0., 0., 0., 5.18134702e-03, 5.18134702e-03, 0.,
          3.10880821e-02, 5.18134702e-03, 0., 5.18134702e-03,
          1.03626940e-02, 5.18134702e-03, 5.18134702e-03, 0.,
          5.18134702e-03, 1.03626940e-02, 0., 0., 0., 0., 5.18134702e-03,
          1.03626940e-02, 1.03626940e-02, 0., 0., 1.55440411e-02, 0., 0.,
          5.18134702e-03, 0., 0., 0., 1.03626940e-02, 5.18134702e-03, 0.,
          0., 5.18134702e-03, 0., 0., 1.55440411e-02, 5.18134702e-03,
          1.03626940e-02, 1.03626940e-02, 5.18134702e-03, 1.03626940e-02,
          0., 5.18134702e-03, 0., 0., 1.03626940e-02, 0., 0., 0., 0.,
          3.62694301e-02, 5.18134702e-03, 5.18134702e-03, 0.,
          3.10880821e-02, 5.18134702e-03, 0., 1.03626940e-02,
          2.07253881e-02, 0., 1.03626940e-02, 0., 0., 5.18134702e-03, 0.,
          1.03626940e-02, 0., 1.55440411e-02, 0., 0., 0., 1.55440411e-02,
          2.07253881e-02, 0., 1.55440411e-02, 0., 0., 1.03626940e-02,
          5.18134702e-03, 0., 2.07253881e-02, 0., 0., 0., 0., 0., 0., 0.,
          0., 0., 0., 0., 0., 1.03626940e-02, 0., 0., 0., 0.,
          2.07253881e-02, 0., 0., 2.07253881e-02, 1.55440411e-02,
          1.03626940e-02, 0., 2.59067342e-02, 5.18134702e-03, 0.,
          1.03626940e-02, 0., 0., 1.03626940e-02, 0., 5.18134702e-03, 0.,
          0., 0., 0., 0., 2.07253881e-02, 2.07253881e-02, 5.18134702e-03,
          5.18134702e-03, 1.03626940e-02, 0., 0., 0., 0., 0., 0.,
          2.59067342e-02, 0., 5.18134702e-03, 1.03626940e-02, 0.,
          1.55440411e-02, 5.18134702e-03, 3.62694301e-02, 0., 0., 0., 0.,
          0., 5.18134702e-03, 0., 5.18134702e-03, 0., 0., 0., 0.,
          5.18134702e-03, 1.03626940e-02, 5.18134702e-03, 0.,
          1.03626940e-02, 1.03626940e-02, 1.03626940e-02, 0., 0., 0., 0.,
          0., 2.07253881e-02, 1.03626940e-02, 0., 5.18134702e-03, 0. ]
      - [ 0., 1.19047621e-02, 1.19047621e-02, 0., 0., 0., 0.,
          1.19047621e-02, 2.38095243e-02, 2.38095243e-02, 0., 0., 0.,
          1.19047621e-02, 0., 0., 0., 0., 0., 0., 0., 0., 1.19047621e-02,
          0., 0., 0., 0., 0., 1.19047621e-02, 0., 0., 0., 0., 0., 0.,
          5.95238097e-02, 0., 0., 0., 0., 1.19047621e-02, 0., 0.,
          1.19047621e-02, 1.19047621e-02, 1.19047621e-02, 0., 0.,
          2.38095243e-02, 0., 0., 0., 0., 0., 0., 0., 1.19047621e-02,
          1.19047621e-02, 0., 1.19047621e-02, 0., 1.19047621e-02,
          2.38095243e-02, 0., 0., 2.38095243e-02, 0., 0., 2.38095243e-02,
          0., 0., 0., 0., 0., 0., 2.38095243e-02, 0., 2.38095243e-02,
          1.19047621e-02, 1.19047621e-02, 4.76190485e-02, 0., 0.,
          2.38095243e-02, 0., 0., 0., 0., 0., 0., 0., 0., 0., 0., 0.,
          1.19047621e-02, 0., 0., 0., 0., 3.57142873e-02, 0., 0.,
          1.19047621e-02, 4.76190485e-02, 1.19047621e-02, 0., 0., 0., 0.,
          2.38095243e-02, 0., 0., 1.19047621e-02, 0., 0., 0., 0.,
          2.38095243e-02, 0., 1.19047621e-02, 0., 0., 0., 1.19047621e-02,
          0., 0., 0., 0., 0., 0., 1.19047621e-02, 1.19047621e-02, 0., 0.,
          0., 0., 0., 0., 0., 0., 3.57142873e-02, 0., 0., 0., 0.,
          1.19047621e-02, 1.19047621e-02, 0., 0., 0., 2.38095243e-02, 0.,
          0., 0., 0., 0., 0., 1.19047621e-02, 0., 0., 0., 0.,
          1.19047621e-02, 1.19047621e-02, 0., 0., 1.19047621e-02,
          1.19047621e-02, 0., 1.19047621e-02, 0., 0., 0., 0., 0.,
          1.19047621e-02, 1.19047621e-02, 0., 0., 0., 0., 0., 0.,
          1.19047621e-02, 0., 0., 0., 0., 0., 0., 1.19047621e-02,
          2.38095243e-02, 0., 0., 2.38095243e-02, 0., 0., 0.,
          1.19047621e-02 ]
      - [ 0., 7.63358781e-03, 0., 7.63358781e-03, 0., 0., 7.63358781e-03,
          1.52671756e-02, 7.63358781e-03, 7.63358781e-03, 0., 0., 0.,
          7.63358781e-03, 0., 0., 7.63358781e-03, 0., 0., 7.63358781e-03,
          0., 1.52671756e-02, 0., 7.63358781e-03, 7.63358781e-03, 0., 0.,
          7.63358781e-03, 0., 7.63358781e-03, 0., 3.81679386e-02,
          2.29007639e-02, 0., 0., 1.52671756e-02, 0., 0., 7.63358781e-03,
          0., 0., 7.63358781e-03, 0., 0., 0., 2.29007639e-02, 0.,
          7.63358781e-03, 0., 2.29007639e-02, 0., 0., 0., 0.,
          7.63358781e-03, 0., 0., 1.52671756e-02, 0., 0., 0., 0.,
          7.63358781e-03, 0., 7.63358781e-03, 1.52671756e-02, 0., 0.,
          7.63358781e-03, 0., 0., 0., 0., 0., 0., 0., 0., 0.,
          3.05343512e-02, 0., 0., 0., 0., 1.52671756e-02, 0.,
          1.52671756e-02, 0., 2.29007639e-02, 7.63358781e-03, 0., 0., 0.,
          7.63358781e-03, 2.29007639e-02, 0., 0., 0., 1.52671756e-02,
          7.63358781e-03, 0., 7.63358781e-03, 0., 0., 0., 1.52671756e-02,
          4.58015278e-02, 0., 2.29007639e-02, 0., 0., 7.63358781e-03, 0.,
          0., 0., 0., 1.52671756e-02, 0., 0., 0., 0., 7.63358781e-03, 0.,
          7.63358781e-03, 0., 7.63358781e-03, 2.29007639e-02, 0., 0., 0.,
          0., 7.63358781e-03, 0., 0., 0., 1.52671756e-02, 0.,
          1.52671756e-02, 2.29007639e-02, 0., 0., 0., 0., 0., 0., 0., 0.,
          0., 0., 0., 0., 0., 7.63358781e-03, 7.63358781e-03, 0.,
          1.52671756e-02, 0., 2.29007639e-02, 7.63358781e-03, 0.,
          1.52671756e-02, 0., 0., 0., 0., 0., 7.63358781e-03,
          7.63358781e-03, 7.63358781e-03, 0., 2.29007639e-02,
          7.63358781e-03, 2.29007639e-02, 7.63358781e-03, 7.63358781e-03,
          1.52671756e-02, 7.63358781e-03, 0., 0., 0., 0., 0., 0., 0., 0.,
          2.29007639e-02, 0., 7.63358781e-03, 7.63358781e-03,
          1.52671756e-02, 0., 0., 0., 1.52671756e-02, 0., 0.,
          7.63358781e-03, 0., 0., 1.52671756e-02, 2.29007639e-02 ]
      - [ 0., 0., 0., 0., 0., 0., 1.08695654e-02, 2.17391308e-02, 0.,
          1.08695654e-02, 0., 0., 0., 0., 1.08695654e-02, 0.,
          1.08695654e-02, 0., 1.08695654e-02, 5.43478280e-02,
          3.26086953e-02, 0., 0., 0., 1.08695654e-02, 0., 0.,
          4.34782617e-02, 1.08695654e-02, 0., 3.26086953e-02,
          1.08695654e-02, 1.08695654e-02, 1.08695654e-02, 1.08695654e-02,
          0., 0., 0., 2.17391308e-02, 0., 0., 0., 0., 0., 0.,
          2.17391308e-02, 0., 2.17391308e-02, 1.08695654e-02, 0., 0.,
          3.26086953e-02, 0., 0., 0., 0., 0., 1.08695654e-02, 0., 0.,
          1.08695654e-02, 0., 1.08695654e-02, 0., 1.08695654e-02, 0., 0.,
          0., 0., 0., 1.08695654e-02, 0., 0., 1.08695654e-02, 0., 0., 0.,
          0., 1.08695654e-02, 0., 0., 0., 0., 0., 0., 1.08695654e-02,
          1.08695654e-02, 0., 1.08695654e-02, 0., 1.08695654e-02, 0.,
          2.17391308e-02, 0., 0., 5.43478280e-02, 0., 0., 2.17391308e-02,
          0., 0., 0., 0., 0., 0., 1.08695654e-02, 0., 0., 0., 0.,
          2.17391308e-02, 0., 0., 2.17391308e-02, 0., 0., 2.17391308e-02,
          0., 1.08695654e-02, 0., 0., 0., 0., 0., 0., 0., 0.,
          1.08695654e-02, 0., 1.08695654e-02, 0., 0., 0., 0., 0., 0., 0.,
          0., 0., 0., 1.08695654e-02, 1.08695654e-02, 0., 0.,
          2.17391308e-02, 0., 0., 0., 0., 0., 0., 0., 0., 2.17391308e-02,
          0., 0., 0., 0., 3.26086953e-02, 1.08695654e-02, 0., 0., 0., 0.,
          0., 0., 0., 1.08695654e-02, 1.08695654e-02, 0., 0., 0.,
          1.08695654e-02, 0., 1.08695654e-02, 1.08695654e-02,
          3.26086953e-02, 0., 0., 0., 0., 0., 0., 0., 0., 0., 0.,
          1.08695654e-02, 0., 0., 0., 0., 3.26086953e-02, 0., 0.,
          1.08695654e-02, 1.08695654e-02, 0., 0., 0. ]
      - [ 0., 0., 0., 1.03092780e-02, 0., 1.03092780e-02, 1.03092780e-02,
          0., 1.03092780e-02, 0., 0., 0., 0., 0., 0., 1.03092780e-02,
          1.03092780e-02, 1.03092780e-02, 0., 0., 1.03092780e-02,
          1.03092780e-02, 1.03092780e-02, 0., 4.12371121e-02,
          2.06185561e-02, 0., 0., 0., 0., 0., 0., 0., 0., 0., 0.,
          1.03092780e-02, 0., 4.12371121e-02, 0., 0., 1.03092780e-02, 0.,
          0., 0., 0., 0., 0., 0., 1.03092780e-02, 1.03092780e-02,
          2.06185561e-02, 0., 0., 2.06185561e-02, 5.15463911e-02, 0., 0.,
          0., 0., 1.03092780e-02, 0., 0., 0., 1.03092780e-02, 0., 0., 0.,
          1.03092780e-02, 0., 8.24742243e-02, 0., 0., 0., 0., 0., 0., 0.,
          0., 1.03092780e-02, 0., 0., 1.03092780e-02, 0., 0., 0., 0.,
          2.06185561e-02, 0., 3.09278332e-02, 0., 0., 0., 1.03092780e-02,
          2.06185561e-02, 0., 0., 0., 0., 0., 0., 0., 0., 1.03092780e-02,
          3.09278332e-02, 0., 0., 0., 0., 0., 3.09278332e-02, 0., 0., 0.,
          0., 0., 0., 0., 2.06185561e-02, 0., 0., 0., 0., 0.,
          1.03092780e-02, 0., 0., 0., 0., 0., 0., 2.06185561e-02, 0.,
          2.06185561e-02, 6.18556663e-02, 0., 2.06185561e-02, 0., 0., 0.,
          0., 1.03092780e-02, 0., 0., 0., 0., 0., 0., 0., 0., 0.,
          1.03092780e-02, 0., 1.03092780e-02, 0., 0., 0., 0., 0.,
          1.03092780e-02, 2.06185561e-02, 0., 0., 0., 0., 0., 0.,
          2.06185561e-02, 0., 0., 0., 1.03092780e-02, 0., 3.09278332e-02,
          0., 0., 0., 0., 0., 1.03092780e-02, 0., 0., 0., 0.,
          1.03092780e-02, 0., 0., 0., 2.06185561e-02, 0., 0., 0., 0., 0.,
          0., 1.03092780e-02, 1.03092780e-02, 0., 3.09278332e-02, 0. ]
      - [ 0., 0., 0., 0., 0., 0., 0., 0., 0., 4.47761193e-02, 0., 0., 0.,
          1.49253728e-02, 0., 1.49253728e-02, 1.49253728e-02, 0., 0., 0.,
          0., 1.49253728e-02, 0., 0., 1.49253728e-02, 0., 0., 0., 0., 0.,
          1.49253728e-02, 7.46268630e-02, 1.49253728e-02, 0., 0., 0., 0.,
          0., 1.49253728e-02, 1.49253728e-02, 0., 0., 0., 0., 0., 0., 0.,
          1.49253728e-02, 0., 0., 0., 0., 0., 0., 0., 0., 0.,
          4.47761193e-02, 0., 0., 0., 0., 0., 0., 0., 2.98507456e-02, 0.,
          1.49253728e-02, 1.49253728e-02, 0., 0., 0., 0., 0., 0., 0., 0.,
          0., 0., 0., 0., 0., 2.98507456e-02, 0., 0., 0., 2.98507456e-02,
          0., 0., 0., 0., 0., 0., 0., 0., 0., 0., 1.49253728e-02,
          1.49253728e-02, 0., 0., 0., 1.49253728e-02, 0., 7.46268630e-02,
          0., 2.98507456e-02, 2.98507456e-02, 0., 0., 0., 0., 0., 0., 0.,
          0., 0., 0., 0., 1.49253728e-02, 0., 0., 0., 1.49253728e-02, 0.,
          0., 0., 0., 0., 7.46268630e-02, 0., 2.98507456e-02,
          1.49253728e-02, 1.49253728e-02, 0., 0., 0., 0., 0., 0., 0., 0.,
          2.98507456e-02, 0., 0., 0., 0., 0., 0., 0., 0., 0., 0., 0.,
          2.98507456e-02, 0., 1.49253728e-02, 0., 0., 2.98507456e-02, 0.,
          0., 0., 1.49253728e-02, 0., 1.49253728e-02, 0., 0., 0., 0., 0.,
          0., 1.49253728e-02, 0., 0., 0., 0., 1.49253728e-02, 0., 0., 0.,
          0., 0., 0., 0., 1.49253728e-02, 0., 0., 0., 0., 1.49253728e-02,
          0., 1.49253728e-02, 0., 0., 1.49253728e-02, 0., 0., 0., 0. ]
      - [ 0., 0., 0., 0., 1.78571437e-02, 0., 0., 0., 0., 0., 0., 0.,
          1.78571437e-02, 0., 0., 0., 0., 0., 0., 1.78571437e-02, 0., 0.,
          0., 0., 0., 0., 0., 0., 1.78571437e-02, 0., 0., 1.78571437e-02,
          0., 0., 0., 0., 3.57142873e-02, 0., 0., 1.78571437e-02, 0., 0.,
          0., 0., 0., 0., 0., 0., 0., 7.14285746e-02, 0., 1.78571437e-02,
          1.78571437e-02, 0., 0., 3.57142873e-02, 0., 1.78571437e-02, 0.,
          1.78571437e-02, 1.78571437e-02, 0., 0., 0., 0., 0., 0., 0.,
          1.78571437e-02, 0., 1.78571437e-02, 0., 0., 1.78571437e-02, 0.,
          0., 1.78571437e-02, 0., 7.14285746e-02, 0., 0., 0., 0., 0., 0.,
          0., 0., 1.78571437e-02, 0., 0., 0., 0., 0., 0., 0., 0., 0., 0.,
          0., 0., 1.78571437e-02, 0., 0., 0., 0., 0., 0., 0., 0., 0.,
          1.78571437e-02, 0., 0., 1.78571437e-02, 0., 0., 0., 0., 0., 0.,
          0., 0., 0., 0., 1.78571437e-02, 0., 0., 0., 0., 0., 0., 0., 0.,
          3.57142873e-02, 0., 0., 0., 0., 1.78571437e-02, 0., 0.,
          1.78571437e-02, 0., 0., 0., 0., 1.78571437e-02, 0.,
          1.78571437e-02, 0., 0., 0., 0., 0., 3.57142873e-02, 0.,
          1.78571437e-02, 0., 0., 0., 0., 0., 0., 1.78571437e-02, 0.,
          1.78571437e-02, 0., 0., 0., 0., 1.78571437e-02, 0., 0.,
          1.78571437e-02, 1.78571437e-02, 0., 0., 0., 0., 0., 0., 0., 0.,
          0., 1.78571437e-02, 0., 0., 0., 3.57142873e-02, 1.78571437e-02,
          0., 0., 1.78571437e-02, 0., 3.57142873e-02, 0., 3.57142873e-02,
          0., 1.78571437e-02, 0. ]
      - [ 0., 7.09219836e-03, 1.41843967e-02, 1.41843967e-02, 0., 0.,
          7.09219836e-03, 7.09219836e-03, 2.12765951e-02, 7.09219836e-03,
          0., 0., 0., 0., 0., 2.12765951e-02, 7.09219836e-03,
          1.41843967e-02, 0., 0., 0., 1.41843967e-02, 0., 7.09219836e-03,
          0., 0., 0., 1.41843967e-02, 2.12765951e-02, 7.09219836e-03,
          1.41843967e-02, 0., 7.09219836e-03, 0., 0., 1.41843967e-02, 0.,
          2.12765951e-02, 0., 7.09219836e-03, 7.09219836e-03, 0., 0.,
          7.09219836e-03, 0., 0., 0., 0., 0., 0., 7.09219836e-03,
          1.41843967e-02, 0., 7.09219836e-03, 7.09219836e-03,
          7.09219836e-03, 0., 2.12765951e-02, 7.09219836e-03, 0., 0., 0.,
          0., 1.41843967e-02, 0., 0., 0., 0., 1.41843967e-02, 0.,
          1.41843967e-02, 7.09219836e-03, 1.41843967e-02, 0.,
          2.83687934e-02, 7.09219836e-03, 1.41843967e-02, 0.,
          7.09219836e-03, 2.12765951e-02, 7.09219836e-03, 0., 0., 0., 0.,
          7.09219836e-03, 7.09219836e-03, 7.09219836e-03, 0.,
          7.09219836e-03, 0., 1.41843967e-02, 1.41843967e-02,
          2.12765951e-02, 0., 7.09219836e-03, 0., 0., 0., 1.41843967e-02,
          0., 0., 1.41843967e-02, 7.09219836e-03, 0., 0., 0., 0., 0., 0.,
          0., 0., 0., 7.09219836e-03, 2.83687934e-02, 1.41843967e-02, 0.,
          7.09219836e-03, 0., 0., 0., 0., 7.09219836e-03, 0.,
          1.41843967e-02, 7.09219836e-03, 1.41843967e-02, 0., 0.,
          2.12765951e-02, 0., 0., 0., 2.12765951e-02, 7.09219836e-03, 0.,
          7.09219836e-03, 0., 0., 1.41843967e-02, 0., 0., 7.09219836e-03,
          0., 0., 0., 0., 0., 7.09219836e-03, 0., 0., 0., 0., 0., 0., 0.,
          7.09219836e-03, 0., 0., 7.09219836e-03, 0., 7.09219836e-03, 0.,
          2.12765951e-02, 0., 0., 2.12765951e-02, 0., 1.41843967e-02, 0.,
          7.09219836e-03, 0., 0., 0., 1.41843967e-02, 1.41843967e-02, 0.,
          7.09219836e-03, 0., 0., 7.09219836e-03, 0., 0., 0., 0., 0.,
          7.09219836e-03, 0., 1.41843967e-02, 7.09219836e-03, 0., 0.,
          7.09219836e-03, 0., 7.09219836e-03, 7.09219836e-03,
          1.41843967e-02, 0., 7.09219836e-03, 1.41843967e-02 ]
      - [ 0., 0., 5.29100513e-03, 1.58730149e-02, 5.29100513e-03,
          1.05820103e-02, 5.29100513e-03, 0., 0., 3.17460299e-02, 0.,
          5.29100513e-03, 5.29100513e-03, 0., 0., 5.29100513e-03,
          5.29100513e-03, 2.64550261e-02, 0., 0., 5.29100513e-03, 0.,
          1.05820103e-02, 1.05820103e-02, 2.11640205e-02, 0., 0., 0., 0.,
          0., 0., 1.05820103e-02, 0., 0., 5.29100513e-03, 0.,
          5.29100513e-03, 1.05820103e-02, 0., 1.58730149e-02, 0., 0., 0.,
          0., 0., 0., 5.29100513e-03, 0., 5.29100513e-03, 0.,
          5.29100513e-03, 1.05820103e-02, 0., 5.29100513e-03,
          1.58730149e-02, 0., 0., 1.58730149e-02, 0., 0., 0., 0.,
          1.05820103e-02, 0., 5.29100513e-03, 5.29100513e-03,
          1.05820103e-02, 5.29100513e-03, 2.11640205e-02, 0.,
          1.58730149e-02, 0., 5.29100513e-03, 0., 5.29100513e-03, 0.,
          2.11640205e-02, 0., 0., 4.76190448e-02, 5.29100513e-03, 0.,
          1.05820103e-02, 1.58730149e-02, 0., 5.29100513e-03,
          2.64550261e-02, 1.05820103e-02, 5.29100513e-03, 1.58730149e-02,
          0., 3.70370373e-02, 5.29100513e-03, 0., 0., 5.29100513e-03, 0.,
          0., 0., 5.29100513e-03, 1.05820103e-02, 0., 1.05820103e-02,
          5.29100513e-03, 2.11640205e-02, 0., 0., 5.29100513e-03, 0.,
          5.29100513e-03, 5.29100513e-03, 5.29100513e-03, 0., 0., 0.,
          1.05820103e-02, 0., 1.05820103e-02, 0., 1.05820103e-02, 0., 0.,
          0., 5.29100513e-03, 1.58730149e-02, 0., 1.58730149e-02, 0., 0.,
          2.11640205e-02, 0., 1.05820103e-02, 0., 0., 5.29100513e-03, 0.,
          1.05820103e-02, 0., 5.29100513e-03, 5.29100513e-03, 0.,
          1.05820103e-02, 5.29100513e-03, 0., 1.58730149e-02, 0., 0., 0.,
          0., 0., 0., 0., 0., 0., 0., 0., 0., 0., 0., 0., 5.29100513e-03,
          5.29100513e-03, 0., 0., 0., 5.29100513e-03, 0., 2.64550261e-02,
          2.11640205e-02, 5.29100513e-03, 0., 5.29100513e-03, 0., 0., 0.,
          0., 0., 5.29100513e-03, 0., 0., 0., 0., 0., 1.05820103e-02,
          5.29100513e-03, 0., 5.29100513e-03, 5.29100513e-03,
          5.29100513e-03, 5.29100513e-03, 2.11640205e-02, 5.29100513e-03,
          5.29100513e-03, 5.29100513e-03, 5.29100513e-03, 5.29100513e-03,
          5.29100513e-03, 0., 1.58730149e-02, 5.29100513e-03 ]
      - [ 0., 1.12676052e-02, 5.63380262e-03, 5.63380262e-03, 0., 0.,
          1.97183099e-02, 1.12676052e-02, 5.63380262e-03, 5.63380262e-03,
          2.81690131e-03, 2.81690131e-03, 0., 0., 1.12676052e-02,
          2.81690131e-03, 0., 0., 2.81690131e-03, 1.69014074e-02,
          2.81690131e-03, 8.45070370e-03, 5.63380262e-03, 2.81690131e-03,
          0., 2.81690131e-03, 2.81690131e-03, 1.69014074e-02,
          2.81690131e-03, 1.69014074e-02, 2.81690131e-03, 0.,
          1.40845068e-02, 5.63380262e-03, 2.81690131e-03, 2.81690131e-03,
          5.63380262e-03, 0., 0., 5.63380262e-03, 2.81690131e-03,
          8.45070370e-03, 0., 2.81690131e-03, 8.45070370e-03,
          2.81690131e-03, 0., 5.63380262e-03, 5.63380262e-03,
          5.63380262e-03, 0., 5.63380262e-03, 0., 2.81690131e-03,
          5.63380262e-03, 2.81690131e-03, 0., 2.81690131e-03,
          5.63380262e-03, 2.81690131e-03, 5.63380262e-03, 5.63380262e-03,
          2.81690131e-03, 1.69014074e-02, 1.97183099e-02, 0.,
          5.63380262e-03, 2.81690131e-03, 5.63380262e-03, 2.81690131e-03,
          5.63380262e-03, 0., 5.63380262e-03, 8.45070370e-03,
          5.63380262e-03, 8.45070370e-03, 5.63380262e-03, 0.,
          8.45070370e-03, 0., 5.63380262e-03, 2.81690131e-03, 0.,
          2.81690131e-03, 2.81690131e-03, 5.63380262e-03, 0.,
          8.45070370e-03, 2.81690131e-03, 8.45070370e-03, 1.40845068e-02,
          2.81690131e-03, 2.81690131e-03, 1.69014074e-02, 2.81690131e-03,
          8.45070370e-03, 5.63380262e-03, 1.12676052e-02, 5.63380262e-03,
          0., 5.63380262e-03, 5.63380262e-03, 2.81690131e-03, 0.,
          5.63380262e-03, 8.45070370e-03, 2.81690131e-03, 5.63380262e-03,
          0., 8.45070370e-03, 5.63380262e-03, 5.63380262e-03, 0., 0.,
          5.63380262e-03, 8.45070370e-03, 5.63380262e-03, 5.63380262e-03,
          1.12676052e-02, 2.81690131e-03, 2.81690131e-03, 5.63380262e-03,
          2.81690131e-03, 2.81690131e-03, 1.69014074e-02, 5.63380262e-03,
          2.81690131e-03, 0., 0., 2.81690131e-03, 1.12676052e-02, 0.,
          2.81690131e-03, 2.81690136e-02, 2.81690131e-03, 1.40845068e-02,
          1.12676052e-02, 0., 0., 2.81690131e-03, 2.81690131e-03,
          2.81690131e-03, 5.63380262e-03, 0., 2.81690131e-03,
          2.81690131e-03, 5.63380262e-03, 2.81690131e-03, 2.81690131e-03,
          0., 2.81690131e-03, 5.63380262e-03, 8.45070370e-03,
          2.81690131e-03, 0., 8.45070370e-03, 5.63380262e-03,
          2.81690131e-03, 2.81690131e-03, 5.63380262e-03, 0.,
          8.45070370e-03, 5.63380262e-03, 8.45070370e-03, 8.45070370e-03,
          1.40845068e-02, 0., 2.81690131e-03, 0., 0., 0., 0.,
          2.81690131e-03, 0., 5.63380262e-03, 2.81690131e-03,
          1.12676052e-02, 5.63380262e-03, 8.45070370e-03, 8.45070370e-03,
          8.45070370e-03, 0., 1.40845068e-02, 1.12676052e-02,
          8.45070370e-03, 2.81690131e-03, 2.81690131e-03, 5.63380262e-03,
          1.12676052e-02, 0., 2.81690131e-03, 1.12676052e-02,
          5.63380262e-03, 0., 5.63380262e-03, 1.12676052e-02, 0.,
          8.45070370e-03, 1.12676052e-02, 0. ]
      - [ 0., 2.49999985e-02, 0., 4.99999989e-03, 0., 9.99999978e-03,
          4.99999989e-03, 0., 1.49999997e-02, 0., 0., 0., 0., 0., 0., 0.,
          4.99999989e-03, 0., 4.99999989e-03, 1.49999997e-02, 0.,
          4.49999981e-02, 4.99999989e-03, 4.99999989e-03, 0., 0., 0.,
          1.99999996e-02, 9.99999978e-03, 9.99999978e-03, 0.,
          4.99999989e-03, 1.99999996e-02, 0., 4.99999989e-03, 0., 0.,
          1.99999996e-02, 0., 0., 5.49999997e-02, 0., 0., 1.99999996e-02,
          4.99999989e-03, 1.49999997e-02, 9.99999978e-03, 0., 0., 0., 0.,
          9.99999978e-03, 0., 4.99999989e-03, 4.99999989e-03, 0.,
          9.99999978e-03, 0., 0., 0., 0., 0., 0., 0., 2.49999985e-02, 0.,
          1.99999996e-02, 0., 0., 1.49999997e-02, 4.99999989e-03, 0.,
          9.99999978e-03, 9.99999978e-03, 0., 0., 4.99999989e-03, 0.,
          4.99999989e-03, 0., 1.49999997e-02, 0., 0., 0., 1.49999997e-02,
          4.99999989e-03, 0., 0., 9.99999978e-03, 4.99999989e-03,
          1.49999997e-02, 0., 4.99999989e-03, 0., 0., 0., 1.49999997e-02,
          9.99999978e-03, 4.99999989e-03, 0., 4.99999989e-03, 0., 0., 0.,
          0., 1.49999997e-02, 0., 4.99999989e-03, 4.99999989e-03,
          4.99999989e-03, 0., 0., 0., 4.99999989e-03, 4.99999989e-03, 0.,
          9.99999978e-03, 9.99999978e-03, 4.99999989e-03, 4.99999989e-03,
          4.99999989e-03, 4.99999989e-03, 9.99999978e-03, 0.,
          2.49999985e-02, 0., 0., 0., 0., 4.99999989e-03, 9.99999978e-03,
          0., 4.99999989e-03, 0., 4.99999989e-03, 4.99999989e-03, 0., 0.,
          4.99999989e-03, 0., 2.99999993e-02, 0., 9.99999978e-03, 0.,
          4.99999989e-03, 0., 9.99999978e-03, 0., 0., 0., 0., 0.,
          9.99999978e-03, 0., 4.99999989e-03, 0., 1.49999997e-02, 0.,
          4.99999989e-03, 0., 0., 0., 9.99999978e-03, 9.99999978e-03,
          9.99999978e-03, 4.99999989e-03, 0., 0., 4.99999989e-03, 0.,
          9.99999978e-03, 0., 0., 0., 1.49999997e-02, 4.99999989e-03,
          4.99999989e-03, 0., 9.99999978e-03, 4.99999989e-03, 0., 0.,
          4.99999989e-03, 0., 1.99999996e-02, 4.99999989e-03, 0., 0.,
          1.49999997e-02, 4.99999989e-03, 4.99999989e-03, 4.99999989e-03,
          9.99999978e-03, 0., 2.49999985e-02, 0., 9.99999978e-03, 0., 0.,
          0. ]
      - [ 3.87596898e-03, 0., 3.87596898e-03, 3.87596898e-03,
          3.87596898e-03, 3.87596898e-03, 3.87596898e-03, 3.87596898e-03,
          1.16279069e-02, 0., 0., 3.87596898e-03, 0., 1.55038759e-02,
          3.87596898e-03, 0., 7.75193796e-03, 3.87596898e-03,
          1.16279069e-02, 3.87596898e-03, 1.16279069e-02, 4.26356569e-02,
          7.75193796e-03, 0., 0., 3.87596898e-03, 0., 0., 0., 0.,
          3.87596898e-03, 3.87596898e-03, 3.87596898e-03, 0., 0.,
          3.87596898e-03, 0., 1.55038759e-02, 0., 0., 0., 1.16279069e-02,
          7.75193796e-03, 0., 0., 7.75193796e-03, 7.75193796e-03,
          1.16279069e-02, 3.87596898e-03, 7.75193796e-03, 0.,
          3.87596898e-03, 0., 3.87596898e-03, 7.75193796e-03,
          3.87596898e-03, 0., 0., 0., 0., 7.75193796e-03, 7.75193796e-03,
          0., 1.55038759e-02, 3.87596898e-03, 3.87596898e-03,
          3.87596898e-03, 0., 7.75193796e-03, 1.55038759e-02,
          3.87596898e-03, 3.87596898e-03, 7.75193796e-03, 1.16279069e-02,
          1.16279069e-02, 3.87596898e-03, 0., 0., 7.75193796e-03,
          7.75193796e-03, 0., 0., 3.87596898e-03, 0., 3.87596898e-03,
          7.75193796e-03, 7.75193796e-03, 3.87596898e-03, 0.,
          3.87596898e-03, 3.87596898e-03, 7.75193796e-03, 0.,
          1.55038759e-02, 7.75193796e-03, 7.75193796e-03, 3.87596898e-03,
          7.75193796e-03, 0., 7.75193796e-03, 7.75193796e-03,
          3.87596898e-03, 0., 0., 3.87596898e-03, 2.71317828e-02,
          7.75193796e-03, 7.75193796e-03, 0., 1.55038759e-02,
          3.87596898e-03, 3.87596898e-03, 0., 0., 3.87596898e-03,
          3.87596898e-03, 3.87596898e-03, 3.87596898e-03, 7.75193796e-03,
          0., 3.87596898e-03, 3.87596898e-03, 0., 0., 3.87596898e-03, 0.,
          3.87596898e-03, 1.16279069e-02, 2.32558139e-02, 0.,
          1.55038759e-02, 3.87596898e-03, 7.75193796e-03, 7.75193796e-03,
          0., 3.87596898e-03, 0., 0., 1.55038759e-02, 3.87596898e-03, 0.,
          3.87596898e-03, 1.55038759e-02, 0., 7.75193796e-03,
          3.87596898e-03, 3.87596898e-03, 1.16279069e-02, 0., 0.,
          3.87596898e-03, 7.75193796e-03, 0., 3.87596898e-03,
          7.75193796e-03, 0., 0., 0., 0., 1.16279069e-02, 7.75193796e-03,
          0., 7.75193796e-03, 3.87596898e-03, 3.87596898e-03, 0.,
          1.55038759e-02, 3.87596898e-03, 0., 2.71317828e-02,
          1.16279069e-02, 7.75193796e-03, 7.75193796e-03, 1.16279069e-02,
          0., 1.93798449e-02, 0., 3.87596898e-03, 3.87596898e-03, 0., 0.,
          7.75193796e-03, 3.87596898e-03, 7.75193796e-03, 0., 0., 0.,
          3.87596898e-03, 7.75193796e-03, 0., 7.75193796e-03, 0.,
          1.55038759e-02, 7.75193796e-03, 3.87596898e-03, 1.16279069e-02,
          0., 0., 7.75193796e-03, 3.87596898e-03 ]
      - [ 0., 3.67647060e-03, 7.35294120e-03, 3.67647060e-03, 0.,
          1.10294120e-02, 7.35294120e-03, 3.67647060e-03, 3.67647060e-03,
          7.35294120e-03, 3.67647060e-03, 1.10294120e-02, 7.35294120e-03,
          7.35294120e-03, 0., 0., 0., 2.57352944e-02, 1.10294120e-02,
          3.67647060e-03, 0., 7.35294120e-03, 1.47058824e-02,
          7.35294120e-03, 3.67647060e-03, 7.35294120e-03, 3.67647060e-03,
          0., 3.67647060e-03, 7.35294120e-03, 7.35294120e-03,
          3.67647060e-03, 3.67647060e-03, 7.35294120e-03, 3.67647060e-03,
          1.10294120e-02, 3.67647060e-03, 1.10294120e-02, 3.67647060e-03,
          3.67647060e-03, 0., 0., 2.20588241e-02, 7.35294120e-03,
          3.67647060e-03, 1.10294120e-02, 0., 0., 0., 0., 2.20588241e-02,
          3.67647060e-03, 0., 3.67647060e-03, 3.67647060e-03, 0.,
          1.83823537e-02, 1.10294120e-02, 1.10294120e-02, 0.,
          1.47058824e-02, 0., 0., 7.35294120e-03, 0., 3.67647060e-03,
          3.67647060e-03, 1.47058824e-02, 1.10294120e-02, 0.,
          1.47058824e-02, 7.35294120e-03, 0., 3.67647060e-03,
          3.67647060e-03, 3.67647060e-03, 7.35294120e-03, 0., 0.,
          7.35294120e-03, 0., 0., 1.47058824e-02, 0., 1.10294120e-02, 0.,
          0., 1.47058824e-02, 3.67647060e-03, 7.35294120e-03,
          3.67647060e-03, 0., 1.10294120e-02, 0., 3.67647060e-03,
          3.67647060e-03, 3.67647060e-03, 0., 7.35294120e-03,
          1.47058824e-02, 0., 3.67647060e-03, 3.67647060e-03,
          3.67647060e-03, 0., 3.67647060e-03, 3.67647060e-03,
          3.67647060e-03, 0., 3.67647060e-03, 3.67647060e-03,
          3.67647060e-03, 0., 3.67647060e-03, 7.35294120e-03, 0.,
          1.47058824e-02, 3.67647060e-03, 0., 0., 7.35294120e-03,
          1.47058824e-02, 3.67647060e-03, 3.67647060e-03, 0., 0.,
          3.67647060e-03, 1.10294120e-02, 0., 1.10294120e-02,
          3.67647060e-03, 0., 7.35294120e-03, 3.67647060e-03,
          1.47058824e-02, 3.67647060e-03, 0., 0., 0., 7.35294120e-03, 0.,
          0., 0., 1.10294120e-02, 0., 1.83823537e-02, 7.35294120e-03,
          3.67647060e-03, 1.10294120e-02, 3.30882370e-02, 2.57352944e-02,
          7.35294120e-03, 1.47058824e-02, 0., 3.67647060e-03,
          1.10294120e-02, 0., 3.67647060e-03, 0., 0., 7.35294120e-03, 0.,
          3.67647060e-03, 3.67647060e-03, 0., 0., 0., 0., 7.35294120e-03,
          3.67647060e-03, 0., 7.35294120e-03, 0., 7.35294120e-03,
          3.67647060e-03, 0., 3.67647060e-03, 0., 3.67647060e-03, 0.,
          7.35294120e-03, 0., 3.67647060e-03, 3.67647060e-03, 0., 0.,
          2.57352944e-02, 0., 0., 1.47058824e-02, 1.10294120e-02,
          3.67647060e-03, 0., 7.35294120e-03, 0., 0., 3.67647060e-03, 0.,
          3.67647060e-03, 3.67647060e-03 ]
      - [ 0., 2.63157906e-03, 0., 7.89473765e-03, 2.63157906e-03, 0.,
          1.84210539e-02, 5.26315812e-03, 5.26315812e-03, 2.63157906e-03,
          0., 0., 0., 0., 2.63157906e-03, 2.63157906e-03, 2.63157906e-03,
          2.63157906e-03, 2.63157906e-03, 5.26315812e-03, 0.,
          1.05263162e-02, 0., 0., 0., 5.26315812e-03, 0., 2.63157906e-03,
          1.05263162e-02, 2.63157906e-03, 5.26315812e-03, 0.,
          1.05263162e-02, 2.63157906e-03, 1.05263162e-02, 7.89473765e-03,
          0., 0., 2.63157906e-03, 2.63157906e-03, 1.57894753e-02, 0., 0.,
          1.84210539e-02, 0., 7.89473765e-03, 1.05263162e-02,
          2.63157906e-03, 7.89473765e-03, 1.57894753e-02, 0.,
          2.63157906e-03, 2.63157906e-03, 2.63157906e-03, 1.84210539e-02,
          0., 1.05263162e-02, 0., 2.63157906e-03, 0., 0., 1.31578948e-02,
          2.63157906e-03, 1.31578948e-02, 1.05263162e-02, 0.,
          1.31578948e-02, 0., 7.89473765e-03, 2.63157906e-03,
          2.63157906e-03, 5.26315812e-03, 1.05263162e-02, 1.57894753e-02,
          7.89473765e-03, 7.89473765e-03, 5.26315812e-03, 1.31578948e-02,
          1.31578948e-02, 0., 1.05263162e-02, 2.63157906e-03, 0.,
          2.63157906e-03, 2.63157906e-03, 2.63157906e-03, 0.,
          7.89473765e-03, 1.05263162e-02, 5.26315812e-03, 5.26315812e-03,
          0., 7.89473765e-03, 1.84210539e-02, 2.63157906e-03, 0.,
          5.26315812e-03, 1.57894753e-02, 5.26315812e-03, 2.63157906e-03,
          7.89473765e-03, 0., 0., 2.63157906e-03, 1.57894753e-02,
          1.84210539e-02, 2.63157906e-03, 0., 7.89473765e-03,
          2.63157906e-03, 2.63157906e-03, 5.26315812e-03, 7.89473765e-03,
          0., 7.89473765e-03, 7.89473765e-03, 2.63157906e-03,
          5.26315812e-03, 0., 2.63157906e-03, 7.89473765e-03,
          5.26315812e-03, 0., 0., 2.63157897e-02, 2.63157906e-03, 0., 0.,
          2.63157906e-03, 2.63157906e-03, 2.63157906e-03, 0.,
          2.63157906e-03, 2.10526325e-02, 5.26315812e-03, 2.63157906e-03,
          5.26315812e-03, 5.26315812e-03, 5.26315812e-03, 2.63157906e-03,
          1.31578948e-02, 5.26315812e-03, 1.05263162e-02, 0.,
          5.26315812e-03, 0., 1.57894753e-02, 1.84210539e-02,
          2.63157906e-03, 0., 0., 2.63157906e-03, 5.26315812e-03,
          7.89473765e-03, 0., 2.63157906e-03, 1.84210539e-02,
          5.26315812e-03, 5.26315812e-03, 0., 0., 7.89473765e-03,
          5.26315812e-03, 0., 2.63157906e-03, 5.26315812e-03, 0.,
          2.63157906e-03, 2.63157906e-03, 0., 7.89473765e-03, 0.,
          1.31578948e-02, 5.26315812e-03, 0., 2.63157906e-03,
          7.89473765e-03, 1.31578948e-02, 7.89473765e-03, 7.89473765e-03,
          2.63157906e-03, 2.63157906e-03, 0., 2.10526325e-02,
          2.63157906e-03, 2.63157906e-03, 0., 0., 2.63157906e-03,
          5.26315812e-03, 2.63157906e-03, 2.63157906e-03, 2.63157906e-03,
          0., 2.63157906e-03, 7.89473765e-03, 2.63157906e-03, 0.,
          1.84210539e-02, 2.63157906e-03 ]
      - [ 0., 0., 6.09756075e-03, 9.14634112e-03, 0., 9.14634112e-03, 0.,
          6.09756075e-03, 0., 3.04878037e-03, 3.04878037e-03,
          3.04878037e-03, 0., 1.52439019e-02, 0., 3.04878037e-03, 0.,
          2.13414617e-02, 9.14634112e-03, 9.14634112e-03, 0., 0.,
          2.13414617e-02, 1.21951215e-02, 1.21951215e-02, 0.,
          3.04878037e-03, 0., 6.09756075e-03, 0., 6.09756075e-03,
          3.04878037e-03, 3.04878037e-03, 1.21951215e-02, 0.,
          3.04878037e-03, 0., 6.09756075e-03, 3.04878037e-03, 0.,
          6.09756075e-03, 6.09756075e-03, 9.14634112e-03, 0., 0., 0.,
          6.09756075e-03, 0., 3.04878037e-03, 3.04878037e-03,
          3.04878037e-03, 6.09756075e-03, 0., 1.52439019e-02,
          3.04878037e-03, 1.52439019e-02, 0., 0., 3.04878037e-03,
          1.21951215e-02, 3.04878037e-03, 3.04878037e-03, 0.,
          3.04878037e-03, 6.09756075e-03, 3.04878037e-03, 0.,
          3.04878037e-03, 9.14634112e-03, 6.09756075e-03, 1.52439019e-02,
          3.04878037e-03, 0., 9.14634112e-03, 3.35365832e-02,
          1.52439019e-02, 9.14634112e-03, 3.04878037e-03, 6.09756075e-03,
          1.52439019e-02, 3.04878037e-03, 6.09756075e-03, 6.09756075e-03,
          0., 9.14634112e-03, 3.04878037e-03, 6.09756075e-03,
          9.14634112e-03, 0., 6.09756075e-03, 0., 9.14634112e-03,
          6.09756075e-03, 0., 6.09756075e-03, 6.09756075e-03, 0., 0., 0.,
          1.21951215e-02, 0., 6.09756075e-03, 3.04878037e-03, 0.,
          1.21951215e-02, 0., 0., 3.04878037e-03, 3.04878037e-03,
          9.14634112e-03, 6.09756075e-03, 1.21951215e-02, 6.09756075e-03,
          6.09756075e-03, 3.04878037e-03, 6.09756075e-03, 1.21951215e-02,
          1.21951215e-02, 3.04878037e-03, 3.04878037e-03, 0.,
          6.09756075e-03, 3.04878037e-03, 1.21951215e-02, 0.,
          3.04878037e-03, 6.09756075e-03, 9.14634112e-03, 0.,
          9.14634112e-03, 0., 0., 3.04878037e-03, 1.21951215e-02,
          1.52439019e-02, 0., 0., 0., 6.09756075e-03, 9.14634112e-03, 0.,
          9.14634112e-03, 9.14634112e-03, 6.09756075e-03, 1.21951215e-02,
          3.04878037e-03, 6.09756075e-03, 0., 0., 6.09756075e-03,
          1.21951215e-02, 6.09756075e-03, 3.04878037e-03, 0.,
          6.09756075e-03, 6.09756075e-03, 3.04878037e-03, 3.04878037e-03,
          0., 9.14634112e-03, 3.04878037e-03, 3.04878037e-03, 0.,
          9.14634112e-03, 0., 0., 0., 3.04878037e-03, 1.52439019e-02,
          3.04878037e-03, 9.14634112e-03, 6.09756075e-03, 6.09756075e-03,
          0., 0., 3.04878037e-03, 3.04878037e-03, 0., 1.52439019e-02,
          6.09756075e-03, 6.09756075e-03, 3.04878037e-03, 0.,
          3.04878037e-03, 3.04878037e-03, 9.14634112e-03, 6.09756075e-03,
          6.09756075e-03, 0., 1.21951215e-02, 1.52439019e-02,
          3.04878037e-03, 0., 0., 1.21951215e-02, 6.09756075e-03,
          6.09756075e-03, 0., 3.04878037e-03, 3.04878037e-03 ]
      - [ 8.67052004e-03, 0., 0., 0., 0., 0., 1.15606934e-02,
          5.78034669e-03, 8.67052004e-03, 0., 2.89017335e-03, 0.,
          2.89017335e-03, 1.15606934e-02, 0., 0., 1.15606934e-02,
          5.78034669e-03, 2.89017335e-03, 5.78034669e-03, 8.67052004e-03,
          8.67052004e-03, 0., 8.67052004e-03, 8.67052004e-03, 0.,
          2.89017335e-03, 2.31213868e-02, 1.73410401e-02, 0.,
          2.89017335e-03, 5.78034669e-03, 1.73410401e-02, 0.,
          2.89017335e-03, 0., 0., 1.15606934e-02, 2.89017335e-03,
          2.89017335e-03, 5.78034669e-03, 1.15606934e-02, 2.89017335e-03,
          2.89017335e-03, 0., 0., 5.78034669e-03, 5.78034669e-03, 0.,
          1.44508667e-02, 2.89017335e-03, 0., 0., 0., 1.44508667e-02, 0.,
          8.67052004e-03, 5.78034669e-03, 2.02312134e-02, 8.67052004e-03,
          0., 1.15606934e-02, 5.78034669e-03, 2.89017335e-03,
          1.44508667e-02, 2.89017335e-03, 0., 2.89017335e-03, 0., 0.,
          2.89017335e-03, 1.15606934e-02, 2.89017335e-03, 8.67052004e-03,
          8.67052004e-03, 5.78034669e-03, 1.15606934e-02, 5.78034669e-03,
          1.15606934e-02, 5.78034669e-03, 5.78034669e-03, 2.89017335e-03,
          1.73410401e-02, 1.44508667e-02, 2.89017335e-03, 0., 0.,
          2.89017335e-03, 0., 0., 2.31213868e-02, 2.89017335e-03,
          5.78034669e-03, 1.15606934e-02, 1.15606934e-02, 1.44508667e-02,
          2.89017335e-03, 2.02312134e-02, 0., 2.89017335e-03, 0., 0., 0.,
          0., 5.78034669e-03, 5.78034669e-03, 8.67052004e-03,
          8.67052004e-03, 0., 2.89017335e-03, 1.44508667e-02,
          2.89017335e-03, 0., 0., 2.89017335e-03, 5.78034669e-03, 0., 0.,
          2.02312134e-02, 8.67052004e-03, 0., 1.44508667e-02, 0.,
          2.89017335e-03, 2.89017335e-03, 5.78034669e-03, 5.78034669e-03,
          2.89017335e-03, 2.89017335e-03, 8.67052004e-03, 1.44508667e-02,
          0., 2.89017335e-03, 1.15606934e-02, 0., 2.89017335e-03,
          1.44508667e-02, 0., 0., 0., 5.78034669e-03, 0., 0.,
          2.89017335e-03, 5.78034669e-03, 0., 5.78034669e-03,
          1.15606934e-02, 1.15606934e-02, 0., 2.89017335e-03, 0., 0.,
          2.89017335e-03, 8.67052004e-03, 5.78034669e-03, 1.73410401e-02,
          2.89017335e-03, 2.89017335e-03, 1.44508667e-02, 0.,
          2.89017335e-03, 0., 5.78034669e-03, 0., 1.15606934e-02,
          2.89017335e-03, 0., 2.89017335e-03, 0., 2.89017335e-03,
          1.15606934e-02, 2.89017335e-03, 0., 5.78034669e-03,
          5.78034669e-03, 1.15606934e-02, 8.67052004e-03, 0.,
          8.67052004e-03, 5.78034669e-03, 0., 2.89017335e-03, 0.,
          2.89017335e-03, 0., 1.15606934e-02, 2.89017335e-03, 0.,
          2.89017335e-03, 2.89017335e-03, 0., 5.78034669e-03, 0.,
          5.78034669e-03, 1.44508667e-02, 0., 0., 5.78034669e-03,
          2.89017335e-03 ]
      - [ 0., 0., 9.09090880e-03, 0., 0., 1.36363637e-02, 4.54545440e-03,
          9.09090880e-03, 4.54545440e-03, 0., 4.54545440e-03, 0., 0., 0.,
          0., 0., 4.54545440e-03, 9.09090880e-03, 0., 1.36363637e-02, 0.,
          1.36363637e-02, 1.36363637e-02, 1.36363637e-02, 4.54545440e-03,
          9.09090880e-03, 4.54545440e-03, 0., 1.36363637e-02, 0.,
          4.54545440e-03, 0., 0., 4.54545440e-03, 4.54545440e-03, 0., 0.,
          4.54545440e-03, 4.54545440e-03, 1.81818176e-02, 1.81818176e-02,
          0., 4.54545440e-03, 0., 0., 4.54545440e-03, 9.09090880e-03,
          4.54545440e-03, 1.36363637e-02, 9.09090880e-03, 9.09090880e-03,
          0., 0., 1.36363637e-02, 9.09090880e-03, 4.54545440e-03,
          9.09090880e-03, 4.54545440e-03, 4.54545440e-03, 0., 0.,
          4.54545440e-03, 4.54545440e-03, 0., 9.09090880e-03,
          4.54545440e-03, 0., 0., 0., 0., 0., 1.81818176e-02,
          9.09090880e-03, 1.81818176e-02, 9.09090880e-03, 0., 0., 0.,
          4.54545440e-03, 4.54545440e-03, 0., 4.54545440e-03,
          1.36363637e-02, 0., 1.36363637e-02, 1.81818176e-02,
          4.54545440e-03, 9.09090880e-03, 9.09090880e-03, 1.36363637e-02,
          9.09090880e-03, 9.09090880e-03, 4.54545440e-03, 4.54545440e-03,
          0., 4.54545440e-03, 9.09090880e-03, 0., 1.36363637e-02, 0., 0.,
          0., 1.36363637e-02, 0., 0., 4.54545440e-03, 4.54545440e-03,
          9.09090880e-03, 4.54545440e-03, 4.54545440e-03, 0.,
          9.09090880e-03, 0., 0., 9.09090880e-03, 0., 0., 0., 0.,
          4.54545440e-03, 0., 0., 4.54545440e-03, 9.09090880e-03,
          2.72727273e-02, 4.54545440e-03, 0., 4.54545440e-03,
          4.54545440e-03, 0., 4.54545440e-03, 0., 0., 1.36363637e-02, 0.,
          1.36363637e-02, 0., 0., 0., 4.54545440e-03, 4.54545440e-03,
          6.81818128e-02, 4.54545440e-03, 0., 3.63636352e-02, 0.,
          4.54545440e-03, 0., 9.09090880e-03, 0., 4.54545440e-03, 0.,
          1.36363637e-02, 4.54545440e-03, 0., 0., 0., 4.54545440e-03, 0.,
          4.54545440e-03, 0., 0., 4.54545440e-03, 4.54545440e-03,
          9.09090880e-03, 4.54545440e-03, 0., 9.09090880e-03, 0., 0., 0.,
          0., 0., 4.54545440e-03, 9.09090880e-03, 4.54545440e-03,
          4.54545440e-03, 9.09090880e-03, 0., 0., 4.54545440e-03, 0., 0.,
          0., 4.54545440e-03, 9.09090880e-03, 4.54545440e-03,
          9.09090880e-03, 0., 4.54545440e-03, 9.09090880e-03,
          9.09090880e-03, 4.54545440e-03, 0., 1.36363637e-02,
          4.54545440e-03, 0., 4.54545440e-03, 9.09090880e-03, 0. ]
      - [ 0., 6.80272095e-03, 0., 0., 3.40136047e-03, 3.40136047e-03,
          1.02040814e-02, 0., 0., 3.40136047e-03, 0., 0., 0.,
          6.80272095e-03, 0., 0., 6.80272095e-03, 1.02040814e-02,
          1.02040814e-02, 6.80272095e-03, 3.40136047e-03, 2.04081628e-02,
          3.40136047e-03, 6.80272095e-03, 3.40136047e-03, 0., 0.,
          6.80272095e-03, 0., 0., 6.80272095e-03, 3.40136047e-03,
          2.38095224e-02, 0., 3.40136047e-03, 0., 1.70068033e-02,
          1.02040814e-02, 6.80272095e-03, 3.40136047e-03, 6.80272095e-03,
          0., 0., 1.70068033e-02, 0., 3.40136047e-03, 3.40136047e-03, 0.,
          0., 1.70068033e-02, 1.36054419e-02, 3.40136047e-03,
          1.70068033e-02, 3.40136047e-03, 2.04081628e-02, 6.80272095e-03,
          6.80272095e-03, 3.40136047e-03, 6.80272095e-03, 1.02040814e-02,
          0., 3.40136047e-03, 3.40136047e-03, 6.80272095e-03,
          3.40136047e-03, 3.40136047e-03, 0., 0., 3.40136047e-03,
          1.02040814e-02, 1.36054419e-02, 0., 6.80272095e-03,
          6.80272095e-03, 3.40136047e-03, 3.40136047e-03, 6.80272095e-03,
          6.80272095e-03, 1.36054419e-02, 3.40136047e-03, 0.,
          3.40136047e-03, 6.80272095e-03, 1.36054419e-02, 3.40136047e-03,
          6.80272095e-03, 3.40136047e-03, 6.80272095e-03, 0.,
          3.40136047e-03, 3.40136047e-03, 3.40136047e-03, 6.80272095e-03,
          1.70068033e-02, 3.40136047e-03, 0., 3.40136047e-03,
          6.80272095e-03, 0., 3.40136047e-03, 3.40136047e-03,
          3.40136047e-03, 0., 0., 0., 3.40136047e-03, 3.40136047e-03,
          3.40136047e-03, 0., 1.02040814e-02, 1.70068033e-02, 0.,
          3.40136047e-03, 0., 6.80272095e-03, 2.04081628e-02,
          3.40136047e-03, 1.02040814e-02, 6.80272095e-03, 3.40136047e-03,
          0., 1.02040814e-02, 0., 3.40136047e-03, 2.04081628e-02,
          3.40136047e-03, 1.02040814e-02, 0., 6.80272095e-03,
          3.40136047e-03, 3.40136047e-03, 3.40136047e-03, 3.40136047e-03,
          2.38095224e-02, 3.40136047e-03, 1.02040814e-02, 6.80272095e-03,
          0., 1.02040814e-02, 6.80272095e-03, 6.80272095e-03, 0.,
          3.06122452e-02, 0., 3.40136047e-03, 3.40136047e-03, 0.,
          3.40136047e-03, 0., 0., 3.40136047e-03, 0., 0., 1.02040814e-02,
          1.36054419e-02, 3.40136047e-03, 3.40136047e-03, 3.40136047e-03,
          0., 6.80272095e-03, 0., 1.36054419e-02, 0., 1.36054419e-02,
          1.02040814e-02, 1.36054419e-02, 0., 0., 6.80272095e-03, 0.,
          1.70068033e-02, 0., 3.40136047e-03, 6.80272095e-03,
          1.02040814e-02, 3.40136047e-03, 3.40136047e-03, 0., 0.,
          3.40136047e-03, 1.02040814e-02, 0., 0., 3.40136047e-03, 0.,
          3.40136047e-03, 0., 0., 6.80272095e-03, 1.02040814e-02, 0.,
          3.40136047e-03, 3.40136047e-03, 0., 3.40136047e-03,
          3.40136047e-03, 0., 0., 6.80272095e-03, 0. ]
      - [ 4.11522621e-03, 4.11522621e-03, 0., 8.23045243e-03,
          8.23045243e-03, 0., 0., 4.11522621e-03, 4.11522621e-03, 0., 0.,
          0., 8.23045243e-03, 8.23045243e-03, 8.23045243e-03,
          1.23456791e-02, 8.23045243e-03, 1.23456791e-02, 8.23045243e-03,
          4.11522621e-03, 0., 4.11522621e-03, 0., 1.23456791e-02,
          4.11522621e-03, 4.11522621e-03, 8.23045243e-03, 0.,
          1.23456791e-02, 1.23456791e-02, 1.23456791e-02, 1.23456791e-02,
          0., 1.23456791e-02, 8.23045243e-03, 8.23045243e-03, 0., 0.,
          1.23456791e-02, 1.23456791e-02, 4.11522621e-03, 4.11522621e-03,
          4.11522621e-03, 4.11522621e-03, 4.11522621e-03, 0.,
          4.11522621e-03, 0., 0., 4.11522621e-03, 4.11522621e-03,
          4.11522621e-03, 0., 1.64609049e-02, 0., 0., 0., 0., 0., 0.,
          1.23456791e-02, 4.11522621e-03, 8.23045243e-03, 8.23045243e-03,
          0., 0., 8.23045243e-03, 8.23045243e-03, 8.23045243e-03, 0.,
          8.23045243e-03, 4.11522621e-03, 8.23045243e-03, 0., 0.,
          8.23045243e-03, 2.46913582e-02, 0., 1.23456791e-02,
          1.23456791e-02, 0., 0., 0., 4.11522621e-03, 0., 1.64609049e-02,
          0., 0., 8.23045243e-03, 1.23456791e-02, 0., 4.11522621e-03,
          1.64609049e-02, 4.11522621e-03, 4.11522621e-03, 0.,
          2.05761306e-02, 0., 4.11522621e-03, 1.23456791e-02,
          4.11522621e-03, 4.11522621e-03, 0., 0., 4.11522621e-03,
          4.11522621e-03, 4.11522621e-03, 8.23045243e-03, 8.23045243e-03,
          4.11522621e-03, 8.23045243e-03, 8.23045243e-03, 4.11522621e-03,
          0., 8.23045243e-03, 1.23456791e-02, 4.11522621e-03, 0., 0.,
          4.11522621e-03, 0., 0., 4.11522621e-03, 1.64609049e-02,
          1.23456791e-02, 1.23456791e-02, 0., 0., 8.23045243e-03,
          8.23045243e-03, 0., 0., 0., 8.23045243e-03, 8.23045243e-03, 0.,
          0., 0., 4.11522621e-03, 3.29218097e-02, 8.23045243e-03,
          4.11522621e-03, 0., 8.23045243e-03, 8.23045243e-03,
          1.23456791e-02, 1.23456791e-02, 0., 0., 0., 1.23456791e-02,
          4.11522621e-03, 4.11522621e-03, 0., 1.23456791e-02, 0.,
          4.11522621e-03, 8.23045243e-03, 0., 0., 8.23045243e-03,
          8.23045243e-03, 0., 0., 4.11522621e-03, 4.11522621e-03, 0.,
          4.11522621e-03, 8.23045243e-03, 0., 1.23456791e-02, 0.,
          8.23045243e-03, 0., 0., 8.23045243e-03, 0., 0., 8.23045243e-03,
          0., 4.11522621e-03, 0., 4.11522621e-03, 0., 0., 8.23045243e-03,
          0., 4.11522621e-03, 0., 0., 0., 4.11522621e-03, 2.46913582e-02,
          4.11522621e-03, 8.23045243e-03, 0., 4.11522621e-03,
          1.23456791e-02, 0., 8.23045243e-03 ]
      - [ 1.24481339e-02, 2.07468886e-02, 4.14937781e-03, 8.29875562e-03,
          0., 4.14937781e-03, 8.29875562e-03, 1.24481339e-02,
          8.29875562e-03, 0., 0., 4.14937781e-03, 0., 8.29875562e-03, 0.,
          0., 0., 4.14937781e-03, 1.24481339e-02, 8.29875562e-03,
          8.29875562e-03, 8.29875562e-03, 0., 2.07468886e-02, 0.,
          8.29875562e-03, 4.14937781e-03, 4.14937781e-03, 1.24481339e-02,
          4.14937781e-03, 4.14937781e-03, 0., 4.14937781e-03, 0.,
          4.14937781e-03, 0., 4.14937781e-03, 4.14937781e-03, 0.,
          8.29875562e-03, 1.65975112e-02, 0., 0., 0., 0., 0.,
          4.14937781e-03, 0., 0., 8.29875562e-03, 0., 0., 4.14937781e-03,
          4.14937781e-03, 3.73443998e-02, 1.24481339e-02, 0., 0.,
          4.14937781e-03, 0., 0., 8.29875562e-03, 0., 2.07468886e-02,
          4.14937781e-03, 8.29875562e-03, 0., 0., 0., 1.65975112e-02,
          1.65975112e-02, 0., 1.24481339e-02, 4.14937781e-03,
          8.29875562e-03, 4.14937781e-03, 8.29875562e-03, 4.14937781e-03,
          1.24481339e-02, 8.29875562e-03, 0., 4.14937781e-03,
          8.29875562e-03, 0., 4.14937781e-03, 1.24481339e-02, 0., 0., 0.,
          4.14937781e-03, 1.24481339e-02, 0., 0., 1.24481339e-02,
          1.24481339e-02, 0., 1.24481339e-02, 4.14937781e-03, 0., 0., 0.,
          0., 8.29875562e-03, 4.14937781e-03, 8.29875562e-03, 0.,
          4.14937781e-03, 0., 0., 1.24481339e-02, 0., 4.14937781e-03,
          4.14937781e-03, 4.14937781e-03, 8.29875562e-03, 8.29875562e-03,
          1.65975112e-02, 2.07468886e-02, 1.24481339e-02, 8.29875562e-03,
          4.14937781e-03, 4.14937781e-03, 4.14937781e-03, 4.14937781e-03,
          1.24481339e-02, 4.14937781e-03, 0., 8.29875562e-03,
          4.14937781e-03, 0., 0., 0., 8.29875562e-03, 8.29875562e-03,
