%YAML:1.0
---
opencv_ml_svm:
   format: 3
   svmType: C_SVC
   kernel:
      type: CHI2
      gamma: 1.
   C: 100.
   term_criteria: { iterations:100 }
   var_count: 100
   class_count: 2
   class_labels: !!opencv-matrix
      rows: 2
      cols: 1
      dt: i
      data: [ 0, 1 ]
   sv_total: 21
   support_vectors:
      - [ 6.16926933e-03, 1.06034311e-03, 2.02429155e-03, 0.,
          8.48274492e-03, 5.01253130e-03, 7.90437590e-03, 6.36205915e-03,
          4.53055697e-03, 6.65124366e-03, 1.44592253e-03, 3.66300368e-03,
          5.78369014e-04, 6.82475418e-02, 6.65124366e-03, 5.97647950e-03,
          0., 1.04106423e-02, 7.22961267e-03, 2.12068623e-03,
          5.68729499e-03, 3.18102958e-03, 6.84403302e-03, 1.92789666e-04,
          6.95970729e-02, 1.60979368e-02, 4.04858310e-03, 2.60266047e-02,
          8.67553521e-03, 3.03643718e-02, 1.70618854e-02, 3.66300368e-03,
          1.27241183e-02, 2.98823975e-03, 4.33776760e-03, 7.03682285e-03,
          2.67013684e-02, 6.94042817e-03, 7.03682285e-03, 1.26566410e-01,
          2.41951030e-02, 1.34952762e-03, 6.55484851e-03, 7.32600736e-03,
          0., 7.42240204e-03, 1.30133023e-02, 2.79545016e-03,
          1.08926166e-02, 2.98823975e-03, 4.04858310e-03, 1.63871213e-03,
          8.00077152e-03, 2.79545016e-03, 6.45845383e-03, 2.21708114e-03,
          7.61519186e-03, 3.66300368e-03, 1.12781953e-02, 9.15750954e-03,
          2.69905524e-03, 8.00077152e-03, 6.55484851e-03, 2.60266056e-03,
          1.44592253e-03, 1.40736457e-02, 3.85579327e-03, 6.26566401e-03,
          1.00250626e-02, 5.88008482e-03, 4.81974147e-03, 2.32311543e-02,
          1.02178520e-02, 8.86832457e-03, 6.36205915e-03, 2.31347606e-03,
          5.59090031e-03, 8.67553521e-04, 2.94004250e-02, 4.33776760e-03,
          8.28995556e-03, 7.61519186e-03, 2.31347606e-03, 2.63157897e-02,
          8.09716620e-03, 1.76402554e-02, 3.27742426e-03, 6.45845383e-03,
          6.94042817e-03, 8.48274492e-03, 6.26566401e-03, 8.77192989e-03,
          1.25313282e-03, 1.04106423e-02, 1.73510704e-02, 5.59090031e-03,
          1.83150184e-03, 2.40987074e-03, 4.91613662e-03, 1.46520147e-02 ]
      - [ 1.02269901e-02, 2.61910702e-03, 2.85607390e-02, 6.48540817e-03,
          4.61461721e-03, 2.40708422e-02, 1.20977806e-02, 1.24719387e-04,
          4.11573984e-03, 6.85956609e-03, 5.28810211e-02, 1.68371163e-02,
          3.00573725e-02, 8.73035693e-04, 1.07258670e-02, 1.34696942e-02,
          2.49438774e-04, 7.35844392e-03, 7.98204076e-03, 2.18258929e-02,
          7.73260184e-03, 9.72811226e-03, 4.86405613e-03, 1.34696942e-02,
          8.48091859e-03, 9.72811226e-03, 6.23596949e-04, 5.73709188e-03,
          1.23472195e-02, 9.22923442e-03, 7.48316292e-04, 0.,
          1.37191324e-03, 1.67123973e-02, 4.67697717e-02, 1.20977806e-02,
          1.82090309e-02, 1.27213774e-02, 2.71888264e-02, 3.74158146e-04,
          3.11798463e-03, 8.85507651e-03, 1.37191324e-03, 9.35395434e-03,
          0., 1.07258670e-02, 1.99551019e-03, 4.11573984e-03,
          9.97755094e-04, 1.33449743e-02, 2.19506118e-02, 8.23147967e-03,
          1.37191324e-03, 4.98877547e-04, 9.97755118e-03, 5.48765296e-03,
          6.98428554e-03, 9.47867334e-03, 1.37191324e-03, 1.24719387e-04,
          5.00124730e-02, 1.11000258e-02, 2.39461213e-02, 4.86405613e-03,
          1.24719390e-03, 4.36517876e-03, 7.35844392e-03, 4.48989775e-03,
          1.17236227e-02, 8.35619867e-03, 7.35844392e-03, 1.49663268e-02,
          3.74158146e-04, 2.23247707e-02, 1.57146435e-02, 4.36517876e-03,
          2.12022960e-02, 1.87079085e-03, 7.23372446e-03, 3.86630110e-02,
          6.98428554e-03, 1.37191324e-03, 1.74607139e-03, 4.24045930e-03,
          1.27213774e-02, 6.73484709e-03, 2.61910702e-03, 0.,
          8.48091859e-03, 7.48316338e-03, 2.03292593e-02, 1.06011480e-02,
          0., 7.85732176e-03, 6.36068871e-03, 1.99551019e-03,
          1.02269901e-02, 4.86405613e-03, 5.23821404e-03, 1.90820657e-02 ]
      - [ 9.34325065e-03, 3.62844701e-04, 3.53773590e-03, 0.,
          6.62191585e-03, 1.64187234e-02, 4.35413653e-03, 2.17706827e-03,
          9.97822965e-04, 6.80333795e-03, 4.44484781e-03, 2.72133533e-04,
          1.14296079e-02, 9.20718461e-02, 3.80986929e-03, 3.80986929e-03,
          1.67815667e-02, 4.53555863e-03, 7.16618262e-03, 3.62844695e-03,
          5.07982587e-03, 3.08417995e-03, 3.08417995e-03, 2.53991294e-03,
          7.03011602e-02, 9.88751836e-03, 2.53991294e-03, 5.35195926e-03,
          5.98693779e-03, 3.32910009e-02, 2.44920165e-03, 6.34978234e-04,
          1.74165461e-02, 1.36066759e-02, 4.80769249e-03, 6.07764861e-03,
          2.16799714e-02, 3.62844701e-04, 8.07329454e-03, 9.23439786e-02,
          5.80551522e-03, 4.02757600e-02, 9.61538497e-03, 4.80769249e-03,
          1.71444118e-02, 4.08200268e-03, 7.34760519e-03, 1.90493464e-03,
          9.07111738e-04, 3.26560228e-03, 3.53773590e-03, 7.25689402e-04,
          9.52467322e-03, 1.56023223e-02, 6.25907118e-03, 3.35631357e-03,
          8.88969563e-03, 1.81422348e-03, 4.78047878e-02, 1.49673438e-02,
          3.80986929e-03, 1.63280114e-03, 1.28809866e-02, 2.44920165e-03,
          9.70609579e-03, 8.07329454e-03, 3.99129186e-03, 4.62626992e-03,
          5.62409265e-03, 5.80551522e-03, 2.53991294e-03, 1.80515237e-02,
          2.17706827e-03, 2.53991294e-03, 1.69629902e-02, 1.72351231e-03,
          2.72133527e-03, 1.08853413e-03, 4.05478962e-02, 4.08200268e-03,
          3.62844695e-03, 5.80551522e-03, 2.17706827e-03, 1.70537010e-02,
          2.81204632e-03, 2.24056598e-02, 1.90493464e-03, 4.17271396e-03,
          5.89622650e-03, 5.89622650e-03, 4.35413653e-03, 5.98693779e-03,
          1.37880985e-02, 7.16618262e-03, 1.63280107e-02, 1.90493464e-03,
          1.45137880e-03, 3.17489123e-03, 1.81422348e-03, 6.44049328e-03 ]
      - [ 4.12371149e-03, 4.02999064e-03, 4.96719778e-03, 5.71696367e-03,
          1.42455483e-02, 1.32146208e-02, 1.29334591e-02, 1.61199626e-02,
          9.55951307e-03, 6.46672957e-03, 6.74789166e-03, 1.40581070e-03,
          2.51171514e-02, 5.06091863e-03, 1.82755403e-02, 1.22774141e-02,
          0., 1.43392691e-02, 2.81162150e-02, 6.46672957e-03,
          8.34114384e-03, 1.53701976e-02, 1.98687911e-02, 3.74882860e-04,
          5.15463948e-03, 6.74789166e-03, 6.09184662e-03, 2.31490172e-02,
          8.99718888e-03, 1.01218373e-02, 1.36832241e-02, 5.52952196e-03,
          5.71696367e-03, 1.38706658e-02, 9.93439555e-03, 1.17150890e-02,
          2.10871603e-02, 5.90440491e-03, 8.80974717e-03, 9.55951307e-03,
          1.55576384e-02, 2.81162141e-03, 3.65510792e-03, 1.80880986e-02,
          9.37207151e-05, 1.51827559e-02, 1.58388000e-02, 1.05904406e-02,
          7.49765721e-04, 6.09184662e-03, 5.06091863e-03, 7.12277414e-03,
          7.21649500e-03, 1.40581070e-03, 5.43580158e-03, 5.06091863e-03,
          1.39643867e-02, 1.60262417e-02, 1.37769450e-02, 6.09184662e-03,
          4.40487359e-03, 7.49765709e-03, 5.06091863e-03, 7.96626043e-03,
          2.81162153e-04, 2.79287733e-02, 1.89315844e-02, 9.09090973e-03,
          8.71602632e-03, 6.46672957e-03, 1.61199626e-02, 1.82755403e-02,
          1.14339273e-02, 1.07778823e-02, 1.03092790e-02, 6.74789166e-03,
          3.18650436e-03, 3.65510792e-03, 2.99906288e-03, 7.87254050e-03,
          7.77881918e-03, 8.24742299e-03, 2.34301784e-03, 2.66166832e-02,
          1.04029998e-02, 6.09184662e-03, 6.09184662e-03, 1.20899724e-02,
          8.62230547e-03, 1.79006569e-02, 1.09653240e-02, 9.09090973e-03,
          1.21836935e-03, 1.55576384e-02, 5.81068452e-03, 8.34114384e-03,
          3.64573598e-02, 9.65323392e-03, 1.12464856e-02, 8.71602632e-03 ]
      - [ 1.88616067e-02, 3.01339291e-03, 1.94196422e-02, 5.69196418e-03,
          4.46428591e-03, 2.51116082e-02, 2.57812496e-02, 2.12053582e-03,
          1.89732143e-03, 3.12500005e-03, 1.46205360e-02, 0.,
          2.27678567e-02, 3.34821438e-04, 8.81696399e-03, 1.19419647e-02,
          7.03124981e-03, 8.70535709e-03, 8.03571474e-03, 1.11607146e-02,
          2.23214287e-04, 1.49553576e-02, 1.08258929e-02, 2.90178577e-03,
          1.45089289e-03, 4.79910709e-03, 1.11607148e-03, 1.71875004e-02,
          1.09374998e-02, 6.25000009e-03, 3.12500005e-03, 2.00892868e-03,
          7.81250000e-03, 1.49553576e-02, 1.75223220e-02, 1.68526787e-02,
          1.28348218e-02, 1.06026782e-02, 1.42857144e-02, 5.58035739e-04,
          8.37053545e-03, 2.90178577e-03, 1.33928575e-03, 7.58928573e-03,
          2.95758937e-02, 6.02678582e-03, 1.79687496e-02, 3.34821432e-03,
          4.46428591e-03, 1.74107142e-02, 1.66294649e-02, 5.46874991e-03,
          7.70089310e-03, 1.16071431e-02, 2.57812496e-02, 3.34821438e-04,
          2.13169642e-02, 1.37276789e-02, 1.33928575e-03, 2.23214296e-03,
          2.89062504e-02, 7.70089310e-03, 7.58928573e-03, 1.06026782e-02,
          1.07142860e-02, 1.48437498e-02, 1.12723215e-02, 2.25446429e-02,
          1.51785715e-02, 1.80803575e-02, 1.01562496e-02, 1.48437498e-02,
          0., 1.99776795e-02, 1.07142860e-02, 2.56696437e-03,
          1.95312500e-02, 1.45089289e-03, 8.92857183e-03, 1.03794644e-02,
          8.59375019e-03, 1.29464287e-02, 3.34821432e-03, 1.23883933e-02,
          1.12723215e-02, 5.58035739e-04, 7.81250012e-04, 9.82142892e-03,
          1.69642866e-02, 1.22767854e-02, 1.43973213e-02, 4.68750019e-03,
          1.27232140e-02, 1.22767861e-03, 5.91517845e-03, 7.81250012e-04,
          1.70758925e-02, 9.48660728e-03, 7.25446455e-03, 1.22767854e-02 ]
      - [ 4.83234692e-03, 8.28402303e-03, 3.84615362e-03, 0.,
          6.21301774e-03, 2.72189341e-02, 4.73372778e-03, 8.08678474e-03,
          2.66272179e-03, 4.33925027e-03, 6.90335268e-03, 9.86193307e-04,
          9.86193263e-05, 3.35305720e-03, 1.00591714e-02, 2.75147911e-02,
          1.97238653e-04, 1.74556207e-02, 1.01577910e-02, 7.39644933e-03,
          3.55029572e-03, 5.22682443e-03, 7.98816513e-03, 9.86193263e-05,
          2.50493083e-02, 3.28402370e-02, 1.26232738e-02, 8.08678474e-03,
          1.47928984e-03, 6.31163688e-03, 1.80473365e-02, 6.80473354e-03,
          3.84615362e-03, 1.97238653e-04, 6.60749478e-03, 1.50887566e-02,
          7.88954610e-04, 1.30177513e-02, 1.66666657e-02, 1.70611441e-02,
          1.08481254e-02, 5.17751463e-02, 2.90927012e-02, 1.00591714e-02,
          0., 1.26232738e-02, 1.23274159e-02, 7.29783019e-03,
          9.86193307e-03, 2.76134117e-03, 3.55029572e-03, 6.70611439e-03,
          3.27416174e-02, 9.86193263e-05, 1.21301776e-02, 2.16962514e-03,
          1.12426030e-02, 7.10059144e-03, 3.21498998e-02, 1.09467451e-02,
          3.05719906e-03, 6.90335268e-03, 5.29585779e-02, 8.67850054e-03,
          5.91715972e-04, 1.01577910e-02, 1.02564096e-02, 2.85996054e-03,
          1.30177513e-02, 3.94477323e-03, 7.98816513e-03, 4.93096653e-04,
          5.52268233e-03, 6.80473354e-03, 3.08678485e-02, 4.63510817e-03,
          3.15581844e-03, 2.36686389e-03, 7.39644933e-03, 5.32544358e-03,
          1.03550293e-02, 4.14201152e-03, 1.38067058e-03, 8.28402303e-03,
          1.25246542e-02, 8.48126225e-03, 2.76134117e-03, 5.02958568e-03,
          2.30769217e-02, 2.15976331e-02, 8.87573976e-03, 6.21301774e-03,
          0., 9.46745556e-03, 3.92504930e-02, 2.56410241e-03,
          8.18540435e-03, 2.66272179e-03, 9.66469385e-03, 7.29783019e-03 ]
      - [ 1.79343130e-02, 0., 4.81849611e-02, 5.83405374e-03,
          7.56266201e-03, 2.73336228e-02, 2.58210897e-02, 2.16076063e-04,
          3.24114109e-04, 1.62057043e-03, 1.05877267e-02, 1.40449440e-03,
          4.40795161e-02, 1.29645644e-03, 4.21348307e-03, 4.32152126e-04,
          9.39930882e-03, 4.10544500e-03, 3.02506494e-03, 8.64304230e-03,
          0., 2.26879865e-03, 2.70095072e-03, 3.99740739e-03, 0.,
          6.26620604e-03, 1.08038029e-03, 1.29645634e-02, 1.00475373e-02,
          1.72860851e-03, 6.48228172e-03, 3.24114109e-04, 5.40190144e-03,
          1.45851346e-02, 5.04537597e-02, 2.54969746e-02, 1.17761455e-02,
          1.83664658e-03, 1.65298190e-02, 0., 7.88677670e-03,
          5.40190144e-04, 4.32152126e-04, 5.29386336e-03, 2.29040626e-02,
          1.62057043e-03, 7.13051017e-03, 6.48228219e-04, 4.44036312e-02,
          3.25194485e-02, 2.30121017e-02, 9.72342270e-04, 6.26620604e-03,
          1.67458951e-02, 1.06957648e-02, 0., 2.98184976e-02,
          7.02247210e-03, 1.08038029e-03, 2.59291288e-03, 4.55920510e-02,
          3.78133100e-03, 8.21089000e-03, 1.40449440e-03, 1.41529823e-02,
          3.78133100e-03, 2.48487480e-03, 4.93733808e-02, 3.80293876e-02,
          1.95548832e-02, 5.40190144e-04, 1.70700084e-02, 1.08038032e-04,
          4.37554047e-02, 1.72860851e-03, 6.48228219e-04, 8.64304230e-03,
          5.40190144e-04, 1.62057043e-03, 1.06957648e-02, 4.42955922e-03,
          7.13051017e-03, 0., 5.18582575e-03, 4.42955922e-03,
          3.24114109e-04, 0., 1.29645644e-03, 6.59031980e-03,
          4.42955922e-03, 1.86905786e-02, 6.48228219e-04, 1.36127919e-02,
          7.56266236e-04, 2.48487480e-03, 3.24114109e-04, 1.40449440e-03,
          1.28565254e-02, 3.99740739e-03, 2.21477970e-02 ]
      - [ 1.50790736e-02, 2.48253043e-03, 2.30783373e-02, 0.,
          5.88451652e-03, 2.00441349e-02, 1.31482165e-02, 1.74696581e-03,
          1.83891144e-03, 3.03420378e-03, 4.30305265e-02, 3.67782288e-03,
          2.29863916e-03, 2.29863916e-03, 2.00441349e-02, 1.29643250e-02,
          8.55093822e-03, 5.05700661e-03, 4.32144199e-03, 2.68481057e-02,
          1.93085696e-03, 7.63148256e-03, 5.51673444e-03, 2.46414132e-02,
          2.75836722e-03, 9.10261180e-03, 1.74696581e-03, 6.25229860e-03,
          2.02280260e-03, 5.33284293e-03, 2.39058491e-03, 1.56307465e-03,
          1.47112913e-03, 4.68922406e-03, 2.87789628e-02, 1.71938222e-02,
          2.75836705e-04, 1.16770873e-02, 3.60426642e-02, 1.56307465e-03,
          3.40198609e-03, 2.45494675e-02, 1.47112913e-03, 6.62008114e-03,
          2.02280260e-03, 7.44759105e-03, 2.02280260e-03, 4.96506086e-03,
          1.71938222e-02, 1.58146378e-02, 3.51232067e-02, 6.98786322e-03,
          2.94225826e-03, 9.65428445e-03, 1.55388014e-02, 3.76976840e-03,
          6.89591793e-03, 1.43435095e-02, 4.22949623e-03, 4.59727860e-04,
          3.99963222e-02, 1.04817953e-02, 3.76976840e-02, 4.68922406e-03,
          1.00220675e-02, 1.21368151e-02, 7.07980897e-03, 1.24126524e-02,
          1.71018764e-02, 1.14931967e-02, 8.36704671e-03, 3.76976840e-03,
          3.67782282e-04, 2.04119161e-02, 1.94924604e-02, 1.65502029e-03,
          2.83192359e-02, 4.59727860e-04, 4.04560519e-03, 3.24567854e-02,
          4.96506086e-03, 4.50533303e-03, 8.82677455e-03, 3.21809505e-03,
          1.29643250e-02, 1.19529245e-03, 3.67782288e-03, 3.67782282e-04,
          5.97646227e-03, 4.22949623e-03, 2.23427732e-02, 9.01066605e-03,
          4.50533303e-03, 3.03420378e-03, 6.98786322e-03, 1.83891141e-04,
          2.68481057e-02, 8.64288397e-03, 3.49393161e-03, 9.10261180e-03 ]
      - [ 1.05374074e-02, 2.21285573e-03, 1.19072711e-02, 0.,
          8.74604844e-03, 2.63435184e-03, 1.97049528e-02, 6.00632234e-03,
          5.58482623e-03, 6.63856696e-03, 5.90094831e-03, 6.21707039e-03,
          0., 3.83561626e-02, 1.70706008e-02, 2.78187562e-02,
          1.01159113e-02, 6.11169636e-03, 7.06006307e-03, 1.15911486e-02,
          8.42992589e-03, 5.16332965e-03, 8.53530038e-03, 2.73972610e-03,
          1.99157000e-02, 1.83350891e-02, 9.48366709e-04, 3.68809281e-03,
          1.16965231e-02, 8.53530038e-03, 3.16122244e-03, 7.37618539e-04,
          2.00210745e-03, 1.27502633e-02, 1.85458381e-02, 9.37829260e-03,
          1.02212857e-02, 1.49631193e-02, 5.79557428e-03, 2.51844041e-02,
          4.32033697e-03, 9.69441514e-03, 2.10748156e-04, 7.37618562e-03,
          2.31822971e-02, 2.08640676e-02, 2.73972610e-03, 5.79557428e-03,
          1.22233927e-02, 2.32876707e-02, 1.65437311e-02, 8.21917783e-03,
          2.95047415e-03, 1.04320338e-02, 1.36986300e-02, 8.21917783e-03,
          7.37618562e-03, 7.27081159e-03, 3.79346684e-03, 6.95468904e-03,
          1.00105377e-02, 1.36986300e-02, 1.20126447e-02, 1.03266593e-02,
          1.59114860e-02, 6.42781891e-03, 8.21917783e-03, 2.18124334e-02,
          6.53319294e-03, 9.90516320e-03, 1.27502633e-02, 2.04425715e-02,
          2.10748156e-04, 2.29715481e-02, 1.43308742e-02, 5.47945220e-03,
          1.43308742e-02, 4.42571146e-03, 7.06006307e-03, 1.44362487e-02,
          9.58904065e-03, 6.11169636e-03, 8.21917783e-03, 4.10958892e-03,
          8.32455233e-03, 4.63645952e-03, 9.69441514e-03, 0.,
          4.21496294e-03, 4.63645952e-03, 1.27502633e-02, 1.80189665e-02,
          1.48577448e-02, 9.48366709e-03, 1.36986300e-02, 1.15911488e-03,
          7.16543710e-03, 7.90305622e-03, 6.53319294e-03, 2.75026336e-02 ]
      - [ 6.84789335e-03, 7.67794112e-03, 4.87653026e-03, 0.,
          1.95061211e-02, 2.19962634e-02, 4.98028612e-03, 7.36667356e-03,
          2.49014306e-03, 1.43183228e-02, 1.03755959e-03, 0., 0.,
          1.03755963e-04, 5.39531000e-03, 2.49014306e-03, 1.41108111e-02,
          2.32413355e-02, 1.20356921e-02, 4.56526224e-03, 4.15023835e-03,
          6.01784606e-03, 1.19319353e-02, 7.26291735e-04, 0.,
          1.00643281e-02, 4.56526224e-03, 4.43037972e-02, 4.15023853e-04,
          1.66009541e-03, 1.80535372e-02, 2.80141109e-03, 1.04793524e-02,
          2.07511926e-04, 9.96057224e-03, 6.95164967e-03, 0.,
          7.26291724e-03, 4.46150638e-03, 9.75306053e-03, 2.43826509e-02,
          1.97136332e-03, 7.15916138e-03, 1.52521264e-02, 0.,
          4.46150638e-03, 1.00747041e-01, 9.54554882e-03, 1.45258347e-03,
          3.32019082e-03, 5.81033388e-03, 1.19319353e-02, 1.18281795e-02,
          1.14131561e-02, 5.18779829e-03, 3.42394668e-03, 7.67794112e-03,
          1.92986093e-02, 1.06868641e-02, 7.78169744e-03, 5.39531000e-03,
          1.14131561e-02, 1.53558822e-02, 1.16206678e-02, 1.30732516e-02,
          1.94023643e-02, 2.80141109e-03, 4.98028612e-03, 5.81033388e-03,
          3.83897056e-03, 1.22432038e-02, 1.03755963e-04, 1.11018885e-02,
          7.36667356e-03, 3.94272665e-03, 6.22535765e-04, 1.76385138e-03,
          4.98028612e-03, 2.38638720e-03, 3.73521470e-03, 8.40423256e-03,
          1.23469597e-02, 8.30047706e-04, 5.25005162e-02, 1.02718407e-02,
          2.90516694e-03, 3.11267888e-03, 6.95164967e-03, 2.79103536e-02,
          5.29155396e-02, 8.61174520e-03, 5.18779829e-03, 0.,
          8.40423256e-03, 1.42145669e-02, 6.32911362e-03, 2.84291338e-02,
          1.64971985e-02, 1.57709066e-02, 6.32911362e-03 ]
      - [ 1.46469967e-02, 2.10748147e-03, 1.66491047e-02, 3.98313999e-02,
          4.74183355e-03, 8.32455233e-03, 1.31717594e-02, 6.84931502e-03,
          3.16122244e-03, 3.89884086e-03, 1.42255006e-02, 7.69230770e-03,
          3.75131704e-02, 6.32244453e-04, 6.32244488e-03, 1.70706008e-02,
          8.64067394e-03, 5.37407817e-03, 6.11169636e-03, 1.16965231e-02,
          9.58904065e-03, 4.21496294e-03, 9.16754454e-03, 1.89673342e-03,
          2.11801901e-02, 1.63329821e-02, 8.42992624e-04, 7.06006307e-03,
          1.32771339e-02, 1.15911488e-03, 8.32455233e-03, 2.10748156e-04,
          1.58061122e-03, 2.06533186e-02, 9.27291904e-03, 1.75974704e-02,
          1.93888303e-02, 8.42992589e-03, 1.09589044e-02, 5.47945220e-03,
          9.58904065e-03, 3.44573222e-02, 1.15911488e-03, 2.42360379e-03,
          4.42571146e-03, 1.35932565e-02, 3.16122244e-03, 1.89673342e-03,
          1.84404645e-02, 2.68703904e-02, 9.06217098e-03, 2.52897781e-03,
          5.26870368e-03, 1.45416232e-02, 4.84720757e-03, 1.07481563e-02,
          3.14014740e-02, 5.05795563e-03, 1.47523708e-03, 2.42360379e-03,
          1.72813479e-02, 5.26870368e-03, 3.19283456e-02, 1.79135927e-03,
          1.38040045e-02, 6.11169636e-03, 5.37407817e-03, 2.49736570e-02,
          8.74604844e-03, 1.15911486e-02, 5.37407817e-03, 1.12750260e-02,
          3.16122227e-04, 2.00210754e-02, 2.26554275e-02, 6.32244488e-03,
          1.60168596e-02, 1.89673342e-03, 6.63856696e-03, 1.22233927e-02,
          1.30663859e-02, 1.15911488e-03, 4.84720757e-03, 1.58061122e-03,
          8.42992589e-03, 1.29610114e-02, 7.37618562e-03, 3.26659647e-03,
          4.53108549e-03, 4.63645952e-03, 1.31717594e-02, 2.41306648e-02,
          1.58061124e-02, 1.08535299e-02, 1.10642780e-02, 1.47523708e-03,
          7.37618539e-04, 3.58271855e-03, 3.37197050e-03, 5.69020025e-03 ]
      - [ 6.82485057e-03, 3.12539889e-03, 2.99783144e-03, 1.51486173e-01,
          7.14376848e-03, 1.53080758e-03, 1.76680703e-02, 1.30118644e-02,
          1.85610428e-02, 6.63349964e-03, 2.55134597e-04, 4.71999012e-02,
          2.92766951e-02, 2.55134609e-03, 1.78594212e-03, 2.42377864e-03,
          6.37836492e-05, 3.06161516e-03, 2.10486050e-03, 3.06161516e-03,
          1.30756479e-02, 4.52863891e-03, 2.61512958e-03, 3.18918261e-04,
          5.80431195e-03, 8.54700897e-03, 1.25015955e-02, 4.91134077e-03,
          8.29187455e-04, 9.75889806e-03, 1.46064553e-02, 1.53718591e-02,
          7.65403779e-03, 1.21826772e-02, 2.04107678e-03, 3.63566796e-03,
          1.27567298e-04, 5.16647566e-03, 2.17502248e-02, 2.80648051e-03,
          9.24862921e-03, 7.39890337e-03, 7.78160524e-03, 5.80431195e-03,
          2.48756241e-02, 6.31458126e-03, 2.93404795e-03, 6.37836475e-03,
          1.91350948e-04, 1.21188932e-03, 1.65837491e-03, 7.07998499e-03,
          6.69728313e-03, 7.46268686e-03, 6.05944684e-03, 1.86886098e-02,
          2.79372390e-02, 4.33728797e-03, 5.35782659e-03, 1.73491519e-02,
          2.04107678e-03, 6.44214870e-03, 1.91350945e-03, 6.69728313e-03,
          7.65403791e-04, 3.76323541e-03, 2.55134609e-03, 1.44788884e-02,
          2.23242771e-03, 1.30118644e-02, 6.82485057e-03, 1.12897055e-02,
          1.12259220e-02, 1.42875370e-02, 5.10269217e-03, 9.24862921e-03,
          2.67891330e-03, 8.73836037e-03, 3.06161516e-03, 2.77458876e-02,
          3.95458611e-03, 4.14593704e-03, 1.40324030e-02, 2.74269702e-03,
          4.08215355e-03, 7.01620150e-03, 2.08572540e-02, 5.24301603e-02,
          4.27350448e-03, 2.87026423e-03, 5.10269217e-03, 1.07794367e-02,
          1.27567295e-02, 1.97091475e-02, 3.82701890e-03, 1.17361918e-02,
          7.59025430e-03, 3.18918237e-03, 3.31674982e-03, 7.71782175e-03 ]
      - [ 4.65620635e-03, 9.69511457e-03, 9.12106223e-03, 0.,
          1.00140329e-02, 2.10486036e-02, 9.37619619e-03, 4.08215355e-03,
          3.06161516e-03, 8.29187408e-03, 1.58821288e-02, 1.27567304e-03,
          5.67674497e-03, 4.01837006e-03, 7.84538873e-03, 1.14810569e-02,
          4.46485530e-04, 1.72853693e-02, 1.28842974e-02, 7.52647081e-03,
          2.87026423e-03, 1.02691678e-02, 1.06518697e-02, 4.78377379e-03,
          8.41944199e-03, 8.41944199e-03, 4.91134077e-03, 2.79372390e-02,
          1.27567295e-02, 8.67457595e-03, 1.22464607e-02, 1.46702398e-03,
          1.42875370e-02, 1.46064553e-02, 1.62648298e-02, 1.23102441e-02,
          1.97729319e-02, 1.44151049e-02, 3.69945168e-03, 9.31241270e-03,
          3.16366889e-02, 1.07156532e-02, 1.16724074e-02, 1.40324030e-02,
          0., 6.56971568e-03, 1.33307828e-02, 8.48322548e-03,
          3.96096446e-02, 1.42237535e-02, 8.80214386e-03, 4.97512473e-03,
          2.46842727e-02, 1.27567304e-03, 1.02691678e-02, 2.29621143e-03,
          1.57545619e-02, 1.13534899e-02, 1.57545619e-02, 4.20972100e-03,
          1.29480809e-02, 1.02053843e-02, 6.05944684e-03, 9.56754759e-03,
          1.53080758e-03, 1.44151049e-02, 1.16086239e-02, 8.92971084e-03,
          2.44291369e-02, 2.87026423e-03, 9.31241270e-03, 1.63923986e-02,
          1.78594212e-03, 1.09070037e-02, 2.01556329e-02, 9.88646597e-03,
          3.18918237e-03, 2.99783144e-03, 1.29480809e-02, 4.65620635e-03,
          1.10345716e-02, 1.29480809e-02, 2.74269702e-03, 1.79869886e-02,
          1.57545619e-02, 5.99566288e-03, 1.65837491e-03, 2.23242771e-03,
          1.48615902e-02, 1.35221332e-02, 1.02691678e-02, 3.25296610e-03,
          8.92971060e-04, 2.04107678e-03, 1.24378121e-02, 9.56754724e-04,
          1.44788884e-02, 1.17999753e-02, 1.09070037e-02, 8.03674012e-03 ]
      - [ 7.03234866e-04, 4.04946059e-02, 2.98874825e-03, 1.40295357e-01,
          5.50867291e-03, 2.56094690e-02, 2.16830755e-03, 5.39146736e-03,
          4.86404123e-03, 4.86404123e-03, 1.45921232e-02, 4.52414416e-02,
          2.80707926e-02, 2.51992489e-03, 6.15330506e-03, 3.75058595e-03,
          7.91139249e-03, 6.27051108e-03, 3.69198294e-03, 1.29512418e-02,
          4.27801209e-03, 1.38888890e-02, 2.51992489e-03, 1.31856538e-02,
          7.26676034e-03, 3.80918896e-03, 6.91514276e-03, 5.45007037e-03,
          6.91514276e-03, 5.27426135e-03, 4.21940908e-03, 7.55977491e-03,
          5.74308494e-03, 1.20135956e-02, 6.09470205e-03, 1.39474915e-02,
          1.33028599e-02, 4.33661509e-03, 1.28926395e-03, 1.46507262e-03,
          4.10220353e-03, 7.32536335e-03, 9.72808246e-03, 4.39521810e-03,
          3.35794650e-02, 4.51242365e-03, 3.34036560e-03, 1.93975624e-02,
          1.23066106e-03, 2.28551333e-03, 3.86779173e-03, 6.85653975e-03,
          6.50492264e-03, 8.08720104e-03, 3.10595403e-03, 6.27051108e-03,
          1.91045478e-02, 1.34786684e-02, 7.67698046e-03, 6.68073120e-03,
          3.04735103e-03, 5.09845279e-03, 8.61462671e-03, 8.73183273e-03,
          1.15447724e-02, 9.20065586e-03, 9.72808246e-03, 2.10970454e-03,
          1.08415373e-02, 9.37646488e-04, 7.50117190e-03, 9.84528847e-03,
          3.39896861e-03, 3.57477716e-03, 7.14955432e-03, 2.56680734e-02,
          2.63713067e-03, 5.80168748e-03, 1.58227840e-03, 2.54922640e-02,
          3.92639451e-03, 4.16080607e-03, 4.98124678e-03, 2.75433646e-03,
          4.74683521e-03, 3.45757138e-03, 7.38396589e-03, 3.89123298e-02,
          7.50117190e-03, 7.14955432e-03, 3.57477716e-03, 6.38771662e-03,
          1.25410222e-02, 7.09095178e-03, 3.28176282e-03, 4.80543822e-03,
          2.83638071e-02, 5.03984978e-03, 3.63338017e-03, 2.75433646e-03 ]
      - [ 6.61394652e-03, 8.55499599e-03, 3.45075480e-03, 1.60316318e-01,
          6.68583764e-03, 4.45722509e-03, 1.02084829e-02, 1.02803735e-02,
          2.02012938e-02, 7.97987077e-03, 5.60747646e-03, 3.88209932e-02,
          2.49460824e-02, 6.47016510e-04, 4.16966202e-03, 5.03235077e-03,
          4.31344350e-04, 6.03882084e-03, 4.74478770e-03, 1.02803735e-02,
          1.12149529e-02, 9.41768475e-03, 3.30697326e-03, 1.72537740e-03,
          5.24802273e-03, 9.63335671e-03, 9.92092025e-03, 7.04529090e-03,
          2.80373823e-03, 5.75125776e-03, 9.99281090e-03, 1.86915882e-02,
          7.97987077e-03, 6.61394652e-03, 4.52911574e-03, 1.09273903e-02,
          1.15025160e-03, 6.47016522e-03, 4.09777137e-03, 2.51617539e-03,
          8.41121469e-03, 9.77713894e-03, 7.62041705e-03, 5.75125776e-03,
          2.27174684e-02, 8.12365208e-03, 3.16319196e-03, 8.69877730e-03,
          2.65995692e-03, 1.50970521e-03, 3.59453610e-04, 6.47016522e-03,
          6.82961894e-03, 4.16966202e-03, 3.66642699e-03, 2.24299058e-02,
          1.76851191e-02, 6.75772829e-03, 6.61394652e-03, 2.54493169e-02,
          5.75125800e-04, 7.62041705e-03, 3.30697326e-03, 6.39827456e-03,
          1.36592379e-03, 6.90150959e-03, 6.97340025e-03, 2.44428474e-03,
          7.40474463e-03, 3.01941042e-03, 5.82314888e-03, 5.10424143e-03,
          2.18547806e-02, 9.92092025e-03, 1.34435659e-02, 8.84255953e-03,
          3.59453633e-03, 7.04529090e-03, 4.52911574e-03, 1.41624724e-02,
          5.24802273e-03, 6.54205587e-03, 8.48310534e-03, 4.09777137e-03,
          5.53558581e-03, 5.60747646e-03, 1.61035229e-02, 3.08411215e-02,
          4.02588071e-03, 4.88856947e-03, 1.67505387e-02, 1.43062547e-02,
          7.62041705e-03, 2.19985619e-02, 6.39827456e-03, 2.11358722e-02,
          8.26743338e-03, 3.95399006e-03, 5.82314888e-03, 4.67289705e-03 ]
      - [ 7.62950070e-03, 6.89332094e-03, 3.94860143e-03, 7.32833594e-02,
          1.21135050e-02, 6.89332094e-03, 5.75558841e-03, 1.26489094e-02,
          1.49243744e-02, 1.21804308e-02, 1.53259262e-02, 1.86721981e-02,
          2.43608616e-02, 1.67313614e-03, 3.21242120e-03, 8.03105347e-03,
          3.74782481e-03, 6.09021541e-03, 7.36179901e-03, 1.16450274e-02,
          1.09088477e-02, 8.23182985e-03, 9.03493538e-03, 7.36179901e-03,
          7.96412770e-03, 1.00388164e-02, 8.76723323e-03, 7.69642601e-03,
          5.75558841e-03, 5.95636433e-03, 5.62173733e-03, 1.27158342e-02,
          8.56645685e-03, 1.87391248e-02, 2.20853975e-03, 1.71998385e-02,
          7.69642601e-03, 6.89332094e-03, 1.42551195e-02, 4.35015373e-03,
          8.03105347e-03, 6.02329010e-03, 1.17119523e-02, 5.08633396e-03,
          2.57662963e-02, 9.77111515e-03, 3.14549590e-03, 5.28710987e-03,
          1.13104004e-02, 4.68478119e-03, 1.00388168e-03, 8.16490408e-03,
          5.08633396e-03, 9.30263661e-03, 6.82639517e-03, 1.69990622e-02,
          3.13211083e-02, 8.03105347e-03, 6.35791710e-03, 4.81863180e-03,
          1.00388168e-03, 8.16490408e-03, 9.36956238e-03, 9.83803999e-03,
          9.03493538e-03, 8.03105347e-03, 7.02717155e-03, 5.75558841e-03,
          7.69642601e-03, 5.28710987e-03, 1.05742197e-02, 1.15781017e-02,
          3.07857036e-03, 5.62173733e-03, 1.12434747e-02, 1.27158342e-02,
          2.67701782e-03, 7.09409686e-03, 1.09088477e-02, 2.35577561e-02,
          1.37197161e-02, 1.01726679e-02, 8.56645685e-03, 4.95248288e-03,
          5.55481203e-03, 8.29875469e-03, 2.25538742e-02, 1.67982858e-02,
          6.22406648e-03, 6.42484240e-03, 3.27934674e-03, 1.17119523e-02,
          1.39874183e-02, 1.81367956e-02, 1.09088477e-02, 1.09088477e-02,
          1.57944057e-02, 5.55481203e-03, 1.01057421e-02, 1.00388168e-03 ]
      - [ 9.23153665e-03, 5.98802418e-03, 1.37225548e-02, 5.67614753e-03,
          1.27245504e-02, 1.25998007e-02, 6.73652673e-03, 5.92564885e-03,
          5.80089819e-03, 8.35828297e-03, 3.07509974e-02, 6.23752479e-04,
          3.01272459e-02, 1.87125755e-04, 1.16017964e-02, 6.05039904e-03,
          5.05239516e-03, 1.19760484e-02, 8.85728560e-03, 1.49700595e-02,
          1.37225550e-03, 1.27245504e-02, 9.41866264e-03, 1.08532934e-02,
          3.86726554e-03, 9.98003967e-03, 6.42465055e-03, 1.41591812e-02,
          1.16641717e-02, 7.60978041e-03, 2.80688633e-03, 5.98802418e-03,
          6.98602805e-03, 1.34730535e-02, 3.24975066e-02, 7.54740508e-03,
          9.91766434e-03, 1.18512977e-02, 1.26621760e-02, 2.61976058e-03,
          9.29391198e-03, 1.21007981e-02, 7.98403192e-03, 8.29590857e-03,
          1.62175652e-02, 5.42664668e-03, 5.73852286e-03, 4.05439129e-03,
          1.97729543e-02, 1.87749509e-02, 1.49700595e-02, 7.36027956e-03,
          1.44710578e-02, 9.35628731e-03, 5.48902201e-03, 1.37225550e-03,
          1.02295410e-02, 1.08532934e-02, 4.61576832e-03, 3.05638718e-03,
          2.26422157e-02, 1.00424150e-02, 2.17065867e-02, 3.92964063e-03,
          8.35828297e-03, 1.06661674e-02, 9.85528901e-03, 7.29790423e-03,
          3.00648697e-02, 3.49301402e-03, 4.99001984e-03, 1.45334331e-02,
          4.99001995e-04, 2.02095807e-02, 2.01472063e-02, 7.92165659e-03,
          1.12899197e-02, 6.98602805e-03, 1.19760484e-02, 1.16017964e-02,
          1.37225548e-02, 5.92564885e-03, 1.43463071e-03, 7.79690640e-03,
          9.10678599e-03, 9.73053928e-03, 3.68013978e-03, 0.,
          9.29391198e-03, 1.09156687e-02, 1.57809388e-02, 1.55938126e-03,
          1.85878240e-02, 1.18512975e-03, 1.67165659e-02, 2.30788416e-03,
          1.35978041e-02, 1.45334331e-02, 1.01671657e-02, 4.92764451e-03 ]
      - [ 9.75274760e-03, 1.25686815e-02, 4.80769260e-04, 1.43681332e-01,
          7.07417633e-03, 3.29670357e-03, 1.35989022e-02, 1.15384618e-02,
          1.44917592e-02, 6.04395615e-03, 2.40384624e-03, 4.58104424e-02,
          2.56181322e-02, 7.21153896e-03, 5.35714300e-03, 8.51648394e-03,
          2.06043973e-04, 5.83791221e-03, 5.08241775e-03, 4.46428591e-03,
          1.00961542e-02, 6.38736272e-03, 4.67032986e-03, 9.61538521e-04,
          8.44780263e-03, 8.44780263e-03, 1.35989022e-02, 1.51098904e-03,
          1.71703310e-03, 1.33928582e-02, 1.36675835e-02, 1.73763745e-02,
          8.37912131e-03, 8.44780263e-03, 4.12087946e-04, 8.37912131e-03,
          7.55494519e-04, 8.24175868e-03, 1.00274729e-02, 2.33516493e-03,
          7.14285765e-03, 1.20192310e-02, 7.07417633e-03, 4.18956066e-03,
          2.41758246e-02, 8.99725314e-03, 4.32692328e-03, 1.71016492e-02,
          3.50274751e-03, 6.86813204e-04, 8.92857206e-04, 1.27747254e-02,
          5.97527483e-03, 5.76923089e-03, 4.80769249e-03, 2.54120883e-02,
          1.66208800e-02, 4.39560460e-03, 1.10576926e-02, 1.94368139e-02,
          2.74725287e-04, 1.07829673e-02, 1.99175836e-03, 1.15384618e-02,
          1.92307704e-03, 3.50274751e-03, 4.67032986e-03, 8.65384657e-03,
          2.12912099e-03, 1.09203300e-02, 1.05082421e-02, 6.38736272e-03,
          1.32554956e-02, 3.15934070e-03, 8.79120920e-03, 1.52472537e-02,
          3.77747277e-03, 1.03021981e-02, 5.97527483e-03, 1.16758244e-02,
          2.54120887e-03, 4.18956066e-03, 1.05769234e-02, 3.36538488e-03,
          4.73901117e-03, 7.82967079e-03, 1.71016492e-02, 3.39285731e-02,
          3.98351671e-03, 5.70054958e-03, 2.40384624e-03, 1.77884623e-02,
          9.82142892e-03, 1.44917592e-02, 3.64011014e-03, 1.43543966e-02,
          1.03708794e-02, 8.24175891e-04, 5.21978037e-03, 5.01373643e-03 ]
      - [ 3.23159783e-03, 5.38599631e-03, 8.85697175e-03, 1.22082587e-02,
          9.45541635e-03, 4.36864141e-03, 4.48833033e-03, 8.13883916e-03,
          4.12926404e-03, 8.31837207e-03, 1.31059252e-02, 1.17295040e-02,
          3.41113098e-02, 2.39377632e-03, 7.71992840e-03, 1.11909043e-02,
          1.05326157e-02, 1.26870144e-02, 1.03530819e-02, 8.91681667e-03,
          4.78755264e-03, 1.02333929e-02, 1.17893480e-02, 6.10412937e-03,
          1.35846799e-02, 1.24476366e-02, 2.69299815e-03, 1.58587676e-02,
          1.40634356e-02, 8.67743883e-03, 7.60023948e-03, 1.13704370e-03,
          6.82226242e-03, 2.10652314e-02, 8.67743883e-03, 5.80490753e-03,
          1.52004790e-02, 1.46618793e-02, 6.76241796e-03, 3.71035305e-03,
          2.16038302e-02, 9.09634959e-03, 7.12148426e-03, 9.99401603e-03,
          2.66307611e-02, 8.01915023e-03, 7.12148426e-03, 5.50568523e-03,
          2.90843807e-02, 8.79712775e-03, 5.14661893e-03, 1.65170562e-02,
          1.22082587e-02, 9.33572743e-03, 7.30101764e-03, 6.04428491e-03,
          4.24895296e-03, 1.15499701e-02, 1.08916815e-02, 1.97486533e-03,
          8.19868315e-03, 1.51406350e-02, 4.12926404e-03, 1.28067024e-02,
          1.46618793e-02, 9.57510527e-03, 1.13704372e-02, 6.88210689e-03,
          7.54039502e-03, 1.07719935e-03, 1.43626574e-02, 1.29263913e-02,
          1.19688812e-04, 8.91681667e-03, 1.74745657e-02, 1.18491920e-02,
          6.34350721e-03, 8.31837207e-03, 1.80131663e-02, 1.05326157e-02,
          1.54398568e-02, 8.67743883e-03, 3.35128675e-03, 8.43806099e-03,
          1.38839018e-02, 7.12148426e-03, 1.15499701e-02, 0.,
          1.08916815e-02, 1.07719926e-02, 6.58288458e-03, 7.66008394e-03,
          1.48414122e-02, 1.01735489e-02, 1.56193897e-02, 2.15439871e-03,
          2.51944941e-02, 1.06523046e-02, 1.17295040e-02, 3.83004197e-03 ]
      - [ 1.09759439e-02, 2.14945571e-03, 3.61291505e-03, 2.24503785e-01,
          7.36302929e-03, 1.82932406e-03, 2.14030910e-02, 8.87222122e-03,
          1.26680685e-02, 7.27156317e-03, 1.46345922e-03, 3.93304676e-02,
          3.45284902e-02, 1.37199298e-03, 3.88731365e-03, 4.02451307e-03,
          4.11597895e-04, 3.01838457e-03, 3.29278316e-03, 3.42998258e-03,
          1.25766024e-02, 5.57943806e-03, 2.42385431e-03, 8.68928910e-04,
          5.03064087e-03, 5.39650582e-03, 7.50022847e-03, 3.52144870e-03,
          1.41772616e-03, 5.03064087e-03, 1.39943287e-02, 9.28381924e-03,
          4.84770862e-03, 1.58693865e-02, 7.77462730e-04, 7.86609296e-03,
          1.55492546e-03, 4.75624250e-03, 8.32342450e-03, 1.00612827e-03,
          8.55209026e-03, 3.42998258e-03, 2.92691845e-03, 4.29891143e-03,
          2.76227929e-02, 5.71663771e-03, 3.61291505e-03, 5.16784051e-03,
          4.43611061e-03, 2.78971903e-03, 6.85996492e-04, 4.39037755e-03,
          7.86609296e-03, 1.01070153e-02, 8.04902613e-03, 1.39943287e-02,
          2.77142599e-02, 5.03064087e-03, 4.29891143e-03, 1.53205888e-02,
          7.77462730e-04, 5.44223888e-03, 1.96652324e-03, 4.98490781e-03,
          2.74398597e-04, 4.39037755e-03, 3.52144870e-03, 1.58236530e-02,
          1.14332756e-03, 6.40263408e-03, 5.39650582e-03, 1.66925825e-02,
          6.63129939e-03, 1.42687270e-02, 2.88118538e-03, 6.08250219e-03,
          9.14662029e-04, 4.52757720e-03, 2.14945571e-03, 2.12658923e-02,
          2.56105373e-03, 3.88731365e-03, 1.87505707e-02, 2.33238819e-03,
          3.33851646e-03, 4.89344168e-03, 1.66011155e-02, 5.01692109e-02,
          3.06411786e-03, 2.97265151e-03, 8.04902613e-03, 8.78075510e-03,
          1.97566990e-02, 1.59608517e-02, 2.78971903e-03, 8.18622485e-03,
          7.95755908e-03, 4.71050944e-03, 3.06411786e-03, 7.59169459e-03 ]
      - [ 6.40645390e-03, 1.07960608e-02, 1.25163123e-02, 0.,
          1.00842323e-02, 9.37240478e-03, 9.60968062e-03, 6.46577263e-03,
          6.05053967e-03, 7.65215326e-03, 5.69462543e-03, 1.00842328e-03,
          1.95752759e-03, 3.03120166e-02, 6.88100606e-03, 1.07367421e-02,
          7.05896271e-03, 1.77363865e-02, 1.00249136e-02, 1.48297544e-03,
          2.84731272e-03, 1.25756310e-02, 9.01649054e-03, 6.52509159e-04,
          6.70304894e-03, 6.05053967e-03, 3.91505519e-03, 1.15078893e-02,
          9.72831901e-03, 9.60968062e-03, 9.78763774e-03, 4.27096896e-03,
          7.41487695e-03, 1.12706134e-02, 1.34654166e-02, 8.18602461e-03,
          1.21603981e-02, 7.47419614e-03, 1.60161348e-03, 5.16075455e-03,
          1.92786809e-02, 5.51666832e-03, 1.51263494e-02, 1.26349507e-02,
          3.55914090e-04, 7.65215326e-03, 3.22102271e-02, 1.48297539e-02,
          4.53197286e-02, 1.75584294e-02, 7.65215326e-03, 1.18044838e-02,
          3.21509056e-02, 1.58974957e-02, 3.26254591e-03, 4.98279743e-03,
          1.45331593e-02, 1.39399692e-02, 1.39399692e-02, 7.23691983e-03,
          1.29315453e-02, 1.15672080e-02, 5.22007328e-03, 1.42365638e-02,
          1.44145209e-02, 9.43172351e-03, 8.60125758e-03, 6.99964399e-03,
          2.12362073e-02, 7.23691983e-03, 1.05587849e-02, 1.78550240e-02,
          3.55914090e-04, 8.24534334e-03, 9.37240478e-03, 1.20417606e-02,
          8.89785215e-03, 6.16917759e-03, 3.79641703e-03, 2.84731272e-03,
          9.07580927e-03, 4.74552112e-03, 1.48890726e-02, 1.79736614e-02,
          1.35247353e-02, 2.96595087e-03, 6.22849679e-03, 1.77957045e-04,
          1.39399692e-02, 1.99905075e-02, 7.88942911e-03, 4.98279743e-03,
          1.02028707e-02, 3.20322695e-03, 6.16917759e-03, 7.11828179e-04,
          1.98718701e-02, 1.15672080e-02, 7.53351487e-03, 1.12112937e-02 ]
   decision_functions:
      -
         sv_count: 21
         rho: -7.4957255911524956e-01
         alpha: [ 8.6051228456671447e-01, 5.3158957037826893e-01,
             2.4178429113091680e+00, 1.3902784518634081e+00,
             1.4560080566431854e+00, 7.3032333895196322e-01,
             9.7161421790181679e-01, 2.1139844285087128e+00,
             2.9689317490488323e+00, 4.3645899712606120e+00,
             5.9204453367212317e-01, -2.6869089253896856e+00,
             -1.0757848508011791e+00, -1.1299560385510028e+00,
             -3.9992404907770940e-01, -5.1925151383907879e+00,
             -1.3590747376737342e+00, -1.8499973905756645e-01,
             -1.9109301193010353e-01, -4.7367661027509351e+00,
             -1.4406969204820979e+00 ]
         index: [ 1, 0, 10, 9, 8, 7, 6, 5, 4, 3, 2, 20, 19, 18, 17, 16,
             15, 14, 13, 12, 11 ]
