%YAML:1.0
---
opencv_ml_svm:
   format: 3
   svmType: C_SVC
   kernel:
      type: CHI2
      gamma: 1.
   C: 100.
   term_criteria: { iterations:100 }
   var_count: 100
   class_count: 2
   class_labels: !!opencv-matrix
      rows: 2
      cols: 1
      dt: i
      data: [ 0, 1 ]
   sv_total: 21
   support_vectors:
      - [ 1.14046764e-02, 0., 1.90077932e-04, 0., 0., 0., 0.,
          1.90077932e-04, 5.79737686e-03, 0., 0., 3.99163645e-03, 0.,
          1.39802322e-01, 1.66318193e-02, 0., 0., 3.13628581e-03, 0.,
          2.37597409e-03, 0., 0., 1.61566236e-03, 8.75308886e-02, 0.,
          7.12792249e-03, 2.77513787e-02, 2.80364957e-02, 7.15643391e-02,
          1.14046759e-03, 0., 6.65272761e-04, 3.80155863e-04, 0.,
          4.75194829e-04, 1.84375599e-01, 0., 0., 1.09294811e-02,
          1.19749093e-02, 0., 0., 1.87226757e-02, 2.65158713e-02,
          9.50389658e-05, 0., 0., 0., 1.19749093e-02, 7.69815641e-03, 0.,
          0., 0., 1.70119740e-02, 0., 4.46683122e-03, 0., 2.84166504e-02,
          3.54495347e-02, 5.32218209e-03, 1.98631436e-02, 0., 0.,
          2.66109104e-03, 1.83425210e-02, 0., 3.32636386e-03,
          2.23341566e-02, 0., 2.85116909e-03, 0., 0., 3.10777426e-02,
          5.89241600e-03, 0., 4.84698731e-03, 0., 1.34955328e-02, 0.,
          1.23550650e-03, 0., 0., 0., 0., 3.51644168e-03, 0.,
          2.09085736e-03, 1.14046759e-03, 0., 5.32218209e-03, 0., 0.,
          6.65272761e-04, 0., 0., 0., 4.46683122e-03, 8.20186287e-02,
          2.09085736e-03, 0. ]
      - [ 1.57366078e-02, 0., 1.71875004e-02, 0., 2.56696437e-03,
          3.99553590e-02, 0., 4.46428574e-04, 7.47767882e-03, 0., 0.,
          1.62946433e-02, 0., 1.44754469e-01, 1.90848224e-02, 0., 0.,
          1.40624996e-02, 4.46428574e-04, 0., 0., 0., 0., 3.80580351e-02,
          0., 3.57142859e-03, 2.79017854e-02, 1.56250002e-03,
          2.44419649e-02, 7.36607146e-03, 0., 2.23214287e-04, 0., 0., 0.,
          2.90848225e-01, 0., 0., 2.23214287e-04, 3.34821432e-03, 0., 0.,
          1.74107142e-02, 3.35937515e-02, 0., 1.89732146e-02, 0., 0., 0.,
          3.23660718e-03, 0., 0., 1.31696425e-02, 2.03124993e-02, 0.,
          5.58035728e-03, 0., 3.15848216e-02, 9.26339254e-03, 0.,
          2.23214296e-03, 0., 0., 0., 3.34821432e-03, 0., 1.75223220e-02,
          3.31473202e-02, 0., 0., 0., 0., 5.58035739e-04, 5.80357155e-03,
          0., 9.70982108e-03, 0., 1.29464287e-02, 0., 8.70535709e-03, 0.,
          0., 0., 0., 0., 4.12946427e-03, 0., 0., 0., 0., 1.45089289e-03,
          0., 0., 0., 0., 7.81250012e-04, 0., 5.62499985e-02,
          1.47321429e-02, 0. ]
      - [ 2.73437500e-02, 6.03794642e-02, 3.12500005e-03, 0., 0., 0.,
          4.46428574e-04, 0., 4.24107164e-03, 0., 0., 5.13392873e-03,
          4.46428574e-04, 8.48214328e-03, 1.22767861e-03, 0., 0., 0.,
          5.58035739e-04, 0., 0., 0., 0., 1.87500007e-02, 0.,
          3.01339291e-03, 2.95758937e-02, 0., 3.05803567e-02,
          1.29464287e-02, 0., 6.69642875e-04, 0., 0., 0., 4.10156250e-01,
          3.57142859e-03, 0., 4.46428574e-04, 5.91517845e-03, 0., 0.,
          1.67410716e-03, 3.79464291e-02, 0., 0., 0., 0., 6.80803554e-03,
          8.92857148e-04, 0., 3.23660718e-03, 0., 0., 0., 0., 0.,
          4.01785737e-03, 3.34821432e-03, 2.82366071e-02, 8.25892854e-03,
          0., 1.11607143e-04, 2.92410720e-02, 0., 0., 2.67857150e-03,
          2.29910724e-02, 1.83035713e-02, 6.69642875e-04, 0., 0.,
          3.87276784e-02, 2.79017864e-03, 0., 8.70535709e-03, 0.,
          4.36383933e-02, 0., 7.81250000e-03, 0., 0., 0., 0., 0., 0.,
          1.99776795e-02, 0., 0., 9.37500037e-03, 3.01339291e-03, 0., 0.,
          0., 0., 0., 2.36607138e-02, 4.35267873e-02, 3.34821432e-03, 0. ]
      - [ 1.26995649e-02, 3.88243832e-02, 8.25471710e-03, 3.62844701e-04,
          0., 3.15674879e-02, 1.84143689e-02, 4.44484781e-03,
          6.98476052e-03, 4.53555869e-04, 2.92089991e-02, 3.04789543e-02,
          1.45137878e-02, 8.25471710e-03, 4.26342525e-03, 3.44702462e-03,
          1.63280114e-03, 3.17489123e-03, 3.62844701e-04, 1.17924530e-03,
          9.07111753e-05, 5.89622650e-03, 6.07764861e-03, 4.62626992e-03,
          6.34978234e-04, 5.80551522e-03, 3.44702462e-03, 2.72133533e-04,
          1.25181424e-02, 5.44267066e-04, 2.26777932e-03, 1.17924530e-03,
          8.16400570e-04, 9.07111738e-04, 7.16618262e-03, 3.32547158e-01,
          5.26124798e-03, 9.16182902e-03, 9.34325065e-03, 0., 0.,
          7.52902776e-03, 1.49673438e-02, 1.81422351e-04, 0.,
          2.81204632e-03, 6.16835989e-03, 1.43323652e-02, 1.39695210e-02,
          7.34760519e-03, 3.62844701e-04, 3.78265604e-02, 0.,
          2.72133533e-04, 9.97822965e-04, 1.81422348e-03, 6.44049328e-03,
          1.30624091e-02, 2.72133533e-04, 1.45137880e-03, 4.53555869e-04,
          0., 3.08417995e-03, 2.11357046e-02, 4.53555869e-04,
          4.17271396e-03, 3.90058057e-03, 0., 5.07982587e-03,
          2.05007251e-02, 1.46952104e-02, 1.99564593e-03, 2.17706827e-03,
          9.97822965e-04, 2.35849060e-03, 1.90493464e-03, 5.35195926e-03,
          1.71444118e-02, 0., 9.88751836e-03, 4.89840331e-03, 0.,
          3.53773590e-03, 1.45137880e-03, 4.53555869e-04, 1.36066764e-03,
          3.80986929e-03, 2.78483313e-02, 6.44049328e-03, 3.62844701e-04,
          4.44484781e-03, 4.08200268e-03, 6.34978234e-04, 1.39695210e-02,
          5.53338183e-03, 3.62844701e-04, 1.81422351e-04, 4.89840331e-03,
          3.76451388e-02, 5.89622650e-03 ]
      - [ 1.39369061e-02, 4.15946431e-02, 4.32152126e-04, 0., 0., 0., 0.,
          0., 4.32152126e-04, 0., 0., 3.99740739e-03, 0., 3.01426109e-02,
          2.16076057e-03, 4.42955922e-03, 0., 0., 7.56266236e-04, 0., 0.,
          0., 1.08038029e-03, 2.84140017e-02, 0., 3.45721701e-03,
          2.27960255e-02, 0., 3.90017293e-02, 1.26404501e-02,
          8.64304253e-04, 0., 0., 0., 4.75367345e-03, 4.31395859e-01,
          9.83146112e-03, 0., 0., 7.56266236e-04, 0., 0., 7.34658632e-03,
          3.37078646e-02, 0., 0., 0., 0., 2.59291288e-03, 0., 0., 0., 0.,
          0., 0., 0., 0., 6.26620604e-03, 4.10544500e-03, 2.14995686e-02,
          7.02247210e-03, 0., 0., 2.32281759e-02, 4.32152126e-04, 0.,
          3.24114086e-03, 3.05747632e-02, 2.60371659e-02, 0., 0., 0.,
          2.93863453e-02, 1.08038032e-04, 0., 6.15816796e-03, 0.,
          4.38634418e-02, 0., 9.50734690e-03, 0., 0., 0., 0., 0., 0.,
          1.98789984e-02, 0., 0., 8.10285192e-03, 3.88936908e-03, 0., 0.,
          0., 0., 0., 6.80639595e-03, 4.86171134e-02, 4.75367345e-03, 0. ]
      - [ 2.34178659e-02, 1.02810143e-02, 3.19853798e-03, 0., 0.,
          3.12999785e-02, 0., 5.71167446e-04, 1.83915924e-02, 0., 0.,
          3.75828184e-02, 7.99634494e-04, 5.22047058e-02, 5.64313456e-02,
          6.51130918e-03, 1.14233495e-04, 9.70984716e-03, 0.,
          3.88393877e-03, 0., 4.68357326e-03, 0., 1.24514513e-02, 0.,
          2.39890348e-03, 3.19853798e-02, 6.28284225e-03, 4.83207665e-02,
          2.51313695e-03, 0., 0., 1.11948829e-02, 0., 1.37080194e-03,
          9.25291330e-03, 9.36714653e-03, 2.28466978e-03, 4.22663940e-03,
          7.88211077e-03, 0., 0., 1.01667814e-01, 6.96824305e-03, 0.,
          1.61069222e-02, 0., 1.49645880e-02, 4.11240570e-03,
          9.82408039e-03, 0., 0., 1.48503541e-03, 1.56499892e-02, 0.,
          9.82408039e-03, 6.85400981e-03, 2.78729722e-02, 1.39364861e-02,
          1.11948829e-02, 8.91021267e-03, 0., 0., 2.94722412e-02,
          2.14758962e-02, 0., 0., 1.79346595e-02, 1.38222529e-02,
          2.77587399e-02, 1.37080194e-03, 0., 3.41558158e-02,
          1.62211563e-02, 3.19853798e-03, 3.42700485e-04, 0.,
          2.28466990e-04, 0., 5.14050713e-03, 0., 0., 0., 0., 0., 0.,
          2.20470652e-02, 2.61594709e-02, 1.71350245e-03, 1.23372171e-02,
          2.51313695e-03, 0., 0., 0., 0., 0., 1.49645880e-02,
          6.95682019e-02, 2.11331975e-02, 4.56933980e-04 ]
      - [ 2.36463342e-02, 6.39707595e-02, 6.96824305e-03, 7.99634494e-04,
          0., 7.99634494e-04, 9.13867960e-04, 0., 0., 0., 0.,
          7.99634494e-03, 0., 2.15901304e-02, 3.54123837e-03, 0., 0., 0.,
          0., 0., 0., 0., 3.19853798e-03, 4.61503305e-02, 0., 0.,
          2.79872064e-02, 1.59926899e-03, 3.20996121e-02, 6.05437532e-03,
          0., 1.94196939e-03, 0., 0., 0., 3.89764696e-01, 7.99634494e-04,
          0., 1.94196939e-03, 1.05094817e-02, 0., 0., 5.25474083e-03,
          2.99291760e-02, 1.48503541e-03, 0., 0., 0., 5.02627390e-03,
          2.97007081e-03, 0., 4.68357326e-03, 0., 0., 0., 0., 0.,
          2.85583735e-03, 6.85400981e-03, 2.83299070e-02, 1.10806488e-02,
          0., 0., 3.02718766e-02, 0., 0., 0., 1.59926899e-02,
          1.96481608e-02, 7.99634494e-04, 0., 0., 3.78112867e-02, 0., 0.,
          1.48503541e-03, 0., 3.49554494e-02, 0., 3.42700485e-04, 0., 0.,
          0., 0., 0., 0., 1.51930545e-02, 0., 0., 1.71350241e-02, 0., 0.,
          0., 0., 0., 4.56933980e-04, 2.43317336e-02, 4.29517925e-02,
          7.88211077e-03, 0. ]
      - [ 1.95963737e-02, 0., 1.34542268e-02, 2.48610717e-03,
          2.48610717e-03, 2.63966080e-02, 1.14799654e-02, 2.12050322e-03,
          8.70137475e-03, 1.46241597e-04, 2.12050322e-03, 1.64521802e-02,
          9.35946219e-03, 1.27961393e-02, 1.06025161e-02, 4.89909342e-03,
          2.55922787e-03, 5.48405992e-03, 1.07487570e-02, 1.09681196e-03,
          2.92483193e-04, 5.11845574e-03, 6.36150967e-03, 2.21556015e-02,
          5.11845574e-04, 2.19362392e-03, 5.84966410e-03, 6.14214689e-03,
          2.48610713e-02, 6.65399246e-03, 0., 6.58087200e-04, 0., 0.,
          6.21526781e-03, 2.17753738e-01, 6.94647571e-03, 7.01959664e-03,
          1.90114081e-02, 2.63234880e-03, 0., 3.65604006e-04,
          1.49897635e-02, 6.87335525e-03, 0., 8.92073754e-03,
          5.11845574e-03, 6.28838874e-03, 1.08218780e-02, 1.82070788e-02,
          1.09681196e-03, 1.84995625e-02, 2.26674485e-03, 1.46972807e-02,
          1.24305359e-03, 5.63030131e-03, 7.45832128e-03, 5.60105331e-02,
          5.41093899e-03, 1.31617440e-03, 6.06902642e-03, 0.,
          9.50570405e-03, 2.28136890e-02, 1.26498984e-02, 0.,
          6.28838874e-03, 8.92073754e-03, 2.41298624e-03, 9.57882497e-03,
          1.09681196e-03, 0., 1.55016091e-02, 4.31412691e-03,
          2.85171112e-03, 7.45832128e-03, 3.80228157e-03, 1.40391933e-02,
          0., 1.08949989e-02, 4.46036877e-03, 0., 0., 1.38929521e-03,
          5.55718085e-03, 8.62825383e-03, 7.82392547e-03, 3.53173465e-02,
          2.48610717e-03, 1.32348649e-02, 4.02164413e-03, 0.,
          2.12050322e-03, 1.53553672e-03, 6.58087200e-03, 7.31207983e-05,
          2.66159698e-02, 9.94442869e-03, 3.31237204e-02, 1.03100324e-02 ]
      - [ 5.03862975e-03, 0., 3.51024531e-02, 0., 0., 3.24991606e-02,
          8.39771601e-05, 3.02317785e-03, 2.39334907e-02, 3.10715497e-03,
          5.03862975e-04, 1.84749756e-02, 0., 1.17568020e-03,
          5.87000363e-02, 0., 5.03862975e-04, 6.04635570e-03,
          5.79442410e-03, 6.46624155e-03, 0., 1.84749754e-03,
          2.51931488e-03, 2.89721210e-02, 0., 6.38226420e-03,
          3.44306347e-03, 1.04131680e-02, 2.77124625e-02, 6.71817281e-04,
          0., 4.87067550e-03, 1.00772595e-03, 0., 3.10715497e-03,
          4.54316437e-02, 4.19885793e-04, 0., 1.35203227e-02,
          1.10849850e-02, 0., 2.35136040e-03, 8.17937553e-02,
          2.60329200e-03, 1.00772595e-03, 7.97783025e-03, 0.,
          2.18340615e-03, 9.65737365e-03, 2.77124625e-02, 0., 0.,
          9.23748768e-04, 7.22203590e-03, 0., 6.71817269e-03,
          1.25965744e-03, 8.68323818e-02, 1.26805510e-02, 2.71246228e-02,
          5.96237835e-03, 0., 3.35908640e-04, 2.97279153e-02,
          9.48941894e-03, 4.19885793e-04, 4.45078965e-03, 1.09170307e-03,
          7.89385289e-03, 3.44306347e-03, 2.51931488e-04, 0.,
          6.73496798e-02, 1.19247567e-02, 0., 5.20658400e-03,
          3.52704083e-03, 3.77897220e-03, 0., 1.08330538e-02, 0., 0., 0.,
          4.78669815e-03, 1.67954320e-04, 0., 2.14981530e-02,
          1.52838435e-02, 1.59556605e-03, 2.25058794e-02, 5.03862975e-04,
          8.39771601e-05, 2.26738327e-03, 1.59556605e-03, 0.,
          1.17568020e-03, 5.03862947e-02, 6.73496798e-02, 5.20658400e-03,
          0. ]
      - [ 1.92111190e-02, 2.72838753e-02, 5.10933984e-04, 0., 0.,
          2.75904369e-02, 2.12548543e-02, 1.73717563e-03, 1.83936243e-03,
          0., 1.23646026e-02, 3.88309848e-03, 1.46127129e-02,
          1.35704070e-01, 5.10933984e-04, 0., 1.12405478e-03, 0.,
          6.13120792e-04, 8.17494409e-04, 0., 1.12405478e-03,
          2.45248317e-03, 1.85264677e-01, 0., 4.08747204e-04,
          3.57653806e-03, 3.26997750e-02, 1.62477009e-02, 0., 0.,
          1.94154924e-03, 6.64214185e-03, 0., 8.99243820e-03,
          4.42468859e-02, 1.12405478e-03, 2.65685678e-03, 1.84958111e-02,
          1.34886578e-02, 0., 0., 1.73717563e-03, 0., 0., 0.,
          5.10933984e-04, 6.84651546e-03, 8.37931782e-03, 1.36930309e-02,
          0., 2.32985914e-02, 0., 1.96198653e-02, 0., 0., 4.80277976e-03,
          9.19681229e-03, 1.49192726e-02, 2.61598211e-02, 1.54302074e-02,
          5.10933984e-04, 8.99243820e-03, 1.87001843e-02, 7.35744974e-03,
          0., 0., 0., 1.02186797e-03, 1.97220519e-02, 2.04373593e-03, 0.,
          3.01451068e-02, 0., 0., 0., 6.33558165e-03, 1.83936246e-02, 0.,
          0., 2.55466998e-03, 0., 3.06560396e-04, 0., 1.01164933e-02, 0.,
          7.35744974e-03, 0., 2.04373602e-04, 1.25689767e-02,
          2.24810955e-03, 0., 7.15307600e-04, 7.66400993e-03,
          3.98528529e-03, 1.12405478e-03, 3.62763144e-02, 4.86409180e-02,
          0., 0. ]
      - [ 4.48357835e-02, 1.08038032e-04, 2.48487480e-03, 1.29645644e-03,
          0., 3.12229916e-02, 0., 0., 8.21089000e-03, 1.83664658e-03,
          1.18841836e-03, 1.55574763e-02, 2.16076057e-03, 5.18582575e-03,
          2.62532420e-02, 3.88936908e-03, 1.83664658e-03, 1.39369061e-02,
          6.05012989e-03, 1.50172859e-02, 1.51253247e-03, 7.34658632e-03,
          3.02506494e-03, 6.83880746e-02, 0., 5.83405374e-03,
          4.63483147e-02, 2.29040626e-02, 4.64563519e-02, 9.93949920e-03,
          0., 1.82584282e-02, 2.13915296e-02, 0., 0., 1.97709594e-02,
          1.02636134e-02, 1.29645644e-03, 7.56266236e-04, 1.68539323e-02,
          0., 4.32152126e-04, 2.22558342e-02, 2.08513401e-02,
          1.11279171e-02, 1.83664653e-02, 3.24114109e-04, 1.39369061e-02,
          2.84140017e-02, 4.75367345e-03, 2.16076063e-04, 5.40190144e-03,
          8.53500422e-03, 9.83146112e-03, 0., 9.39930882e-03,
          8.42696615e-03, 4.63483147e-02, 1.72860846e-02, 5.29386336e-03,
          9.07519460e-03, 2.80898879e-03, 0., 2.74416599e-02,
          1.22082978e-02, 0., 5.18582575e-03, 7.99481478e-03,
          6.37424365e-03, 1.65298190e-02, 0., 0., 3.77052724e-02,
          1.57735534e-02, 2.80898879e-03, 6.26620604e-03, 6.15816796e-03,
          0., 0., 1.62057043e-03, 0., 0., 0., 9.72342270e-04,
          3.24114109e-04, 0., 7.34658632e-03, 6.59031980e-03, 0.,
          2.43085567e-02, 0., 0., 1.62057038e-02, 0., 3.24114109e-04,
          4.86171152e-03, 4.00821082e-02, 2.16076057e-02, 6.80639595e-03,
          0. ]
      - [ 1.11969989e-02, 3.84221897e-02, 0., 5.79743087e-03,
          2.55769002e-03, 2.58610882e-02, 1.45504149e-02, 2.27350232e-04,
          1.70512665e-02, 5.85426856e-03, 2.31897235e-02, 1.42662274e-02,
          1.10264858e-02, 0., 4.54700465e-04, 8.01409595e-03,
          1.36410142e-03, 1.03444355e-02, 1.20495623e-02, 5.79743087e-03,
          2.27350229e-03, 6.42264402e-03, 7.95725791e-04, 5.11538005e-04,
          3.80811631e-03, 4.14914172e-03, 8.86665937e-03, 7.44572002e-03,
          4.20597941e-03, 6.53631939e-03, 1.13675116e-04, 8.01409595e-03,
          4.14914172e-03, 1.19358872e-03, 1.25042628e-03, 3.19142878e-01,
          1.08559737e-02, 1.98931457e-03, 8.52563360e-04, 4.03546682e-03,
          1.30726385e-03, 6.25213142e-04, 2.21666484e-03, 1.13675115e-03,
          4.94486745e-03, 8.52563325e-03, 1.06854606e-02, 2.44401488e-03,
          1.77333187e-02, 6.82050711e-04, 0., 3.89337279e-02,
          1.42093899e-03, 4.49016690e-03, 0., 9.66238510e-03,
          5.17221773e-03, 1.58008412e-02, 6.70683198e-03, 2.84187787e-04,
          1.19358872e-03, 5.05854283e-03, 1.13675116e-04, 1.83016937e-02,
          1.13675116e-04, 0., 1.14243496e-02, 9.66238498e-04,
          7.10469484e-03, 6.93418225e-03, 1.29021257e-02, 1.13675116e-04,
          5.68375573e-04, 1.50051154e-02, 7.55939540e-03, 8.35512113e-03,
          1.07991358e-03, 3.35341599e-03, 1.07991358e-03, 6.42264402e-03,
          7.61623261e-03, 0., 2.84187787e-04, 1.01170857e-02,
          3.41025356e-04, 5.85426856e-03, 4.03546682e-03, 2.63726264e-02,
          6.82050711e-04, 5.68375581e-05, 7.50255771e-03, 7.38888280e-04,
          3.01239057e-03, 1.11969989e-02, 8.86665937e-03, 1.06286230e-02,
          5.68375581e-05, 9.66238498e-04, 3.54097970e-02, 2.12004092e-02 ]
      - [ 5.83791221e-03, 4.21016514e-02, 3.98351671e-03, 3.15934070e-03,
          9.54670366e-03, 1.68269239e-02, 1.17445057e-02, 4.80769260e-04,
          1.55219790e-02, 5.42582432e-03, 1.35989022e-02, 1.71703310e-03,
          6.93681370e-03, 4.80769260e-04, 1.60027482e-02, 1.37362644e-04,
          0., 2.47252756e-03, 9.06593446e-03, 3.98351671e-03,
          1.53846163e-02, 7.07417633e-03, 8.51648394e-03, 4.05219803e-03,
          9.75274760e-03, 1.29807694e-02, 2.74725287e-04, 9.34065972e-03,
          7.14285765e-03, 3.84615408e-03, 5.90659352e-03, 8.37912131e-03,
          4.12087946e-04, 6.31868141e-03, 8.10439605e-03, 3.86607170e-01,
          3.77747277e-03, 5.56318695e-03, 4.87637380e-03, 2.74725287e-04,
          4.18956066e-03, 4.25824197e-03, 1.06456047e-02, 0.,
          5.49450563e-03, 1.99175836e-03, 4.12087946e-04, 6.45604404e-03,
          1.02335168e-02, 5.15109906e-03, 1.00961542e-02, 2.90521998e-02,
          0., 0., 6.04395615e-03, 2.54120887e-03, 5.76923089e-03, 0.,
          1.09890115e-03, 6.86813219e-05, 8.92857206e-04, 7.48626422e-03,
          7.21153896e-03, 1.91620886e-02, 6.86813239e-03, 6.66208845e-03,
          3.91483540e-03, 1.30494509e-03, 0., 4.18956066e-03,
          3.57142882e-03, 3.64011014e-03, 1.82692315e-02, 1.71703310e-03,
          0., 4.94505512e-03, 1.12637365e-02, 1.75824184e-02,
          6.31868141e-03, 3.09065939e-03, 3.36538488e-03, 1.51098904e-03,
          4.32692328e-03, 7.76098948e-03, 1.26373628e-02, 0., 0.,
          3.09065939e-03, 5.01373643e-03, 4.80769260e-04, 2.33516493e-03,
          3.98351671e-03, 9.40934103e-03, 5.49450563e-03, 1.78571441e-03,
          1.22939562e-02, 6.38736272e-03, 8.65384657e-03, 2.26648361e-03,
          0. ]
      - [ 1.91202480e-02, 3.68589759e-02, 4.91821393e-03, 2.65251985e-03,
          3.03934584e-03, 3.01171541e-02, 1.49204247e-02, 1.10521665e-04,
          8.86383727e-02, 1.65782491e-04, 2.08885949e-02, 1.59151200e-02,
          3.09460657e-03, 2.76304170e-04, 4.85190116e-02, 6.85234321e-03,
          1.32625992e-03, 1.00022107e-02, 1.52519895e-02, 5.52608326e-05,
          4.42086672e-03, 6.79708226e-03, 1.04995584e-03, 1.49204244e-03,
          3.03934584e-03, 6.74182177e-03, 5.85764833e-03, 4.80769249e-03,
          8.06808192e-03, 1.27099920e-03, 3.31564981e-04, 1.82360748e-03,
          0., 5.52608341e-04, 1.10521665e-04, 1.48430601e-01,
          1.13284709e-02, 7.73651642e-04, 9.94695001e-04, 4.91821393e-03,
          3.31564981e-04, 4.42086661e-04, 9.55459774e-02, 0.,
          9.94695001e-04, 1.16600357e-02, 0., 4.53138817e-03,
          3.01171541e-02, 3.70247569e-03, 1.10521668e-03, 3.32117602e-02,
          0., 3.42617161e-03, 1.21573836e-03, 1.39809903e-02,
          7.79177761e-03, 5.36030065e-03, 7.95756001e-03, 1.27099920e-03,
          4.03404096e-03, 2.32095504e-03, 0., 2.08333340e-02,
          6.63129962e-04, 4.97347501e-04, 3.59195396e-02, 4.42086661e-04,
          4.69717057e-03, 5.08399680e-03, 1.34836435e-02, 0.,
          6.07869180e-04, 2.05017682e-02, 7.01812562e-03, 1.01127326e-02,
          2.81830248e-03, 2.87356321e-03, 0., 7.90229905e-03, 0.,
          1.21573836e-03, 0., 7.79177761e-03, 1.21573836e-03, 0.,
          6.46551745e-03, 1.09969061e-02, 2.76304170e-04, 1.63019449e-02,
          4.42086672e-03, 3.31564981e-04, 5.30503970e-03, 1.54730333e-02,
          6.07869180e-04, 1.49204244e-03, 7.18390802e-04, 6.63129962e-04,
          1.42020341e-02, 1.45335989e-02 ]
      - [ 4.88257129e-03, 3.73918414e-02, 2.16316432e-03, 3.95550067e-03,
          1.01977754e-02, 1.45241041e-02, 8.59085284e-03, 3.15203960e-03,
          3.15203960e-03, 7.23114982e-03, 1.06304083e-02, 3.83189134e-03,
          3.33745359e-03, 1.01977754e-02, 3.95550067e-03, 1.85414101e-04,
          0., 1.23609393e-03, 6.79851696e-03, 1.27935726e-02,
          1.08158225e-02, 7.72558711e-03, 1.06922127e-02, 4.63535218e-03,
          4.20271931e-03, 9.95055679e-03, 5.31520415e-03, 9.33250971e-03,
          2.03955499e-03, 1.11248461e-03, 7.91100133e-03, 6.11866498e-03,
          0., 6.61310274e-03, 1.10012358e-02, 4.23300385e-01,
          2.90482072e-03, 6.92212628e-03, 4.82076639e-03, 2.59579741e-03,
          6.42768852e-03, 5.56242280e-03, 9.27070447e-04, 0.,
          3.83189134e-03, 1.42150803e-03, 3.09023482e-04, 4.82076639e-03,
          7.66378269e-03, 9.51792393e-03, 2.03955499e-03, 2.03337464e-02,
          0., 0., 8.03461066e-04, 2.53399252e-03, 5.68603212e-03, 0.,
          3.64647713e-03, 6.18046979e-05, 6.18046965e-04, 6.42768852e-03,
          7.47836847e-03, 2.13844255e-02, 1.85414101e-04, 7.04573561e-03,
          2.37330049e-02, 2.16316432e-03, 0., 5.80964144e-03,
          1.79233623e-03, 4.07910999e-03, 1.26699628e-02, 0.,
          2.47218792e-04, 2.59579741e-03, 9.57972836e-03, 2.06427686e-02,
          2.28677387e-03, 8.03461066e-04, 1.73053157e-03, 3.27564892e-03,
          3.46106314e-03, 1.55747840e-02, 1.29171815e-02, 0., 0.,
          1.17428927e-03, 6.36588410e-03, 2.84301606e-03, 4.94437572e-03,
          7.04573561e-03, 1.04449941e-02, 3.70828179e-03, 2.34857854e-03,
          7.97280576e-03, 5.06798504e-03, 1.57601982e-02, 4.01730556e-03,
          0. ]
      - [ 3.38424952e-03, 2.39641443e-02, 0., 9.14662052e-03,
          5.85383689e-03, 1.07472790e-02, 6.40263408e-03, 5.48797194e-04,
          2.28665507e-04, 9.32955276e-03, 1.15704741e-02, 0.,
          1.14332756e-03, 2.10372265e-03, 0., 1.82932403e-04, 0.,
          7.31729611e-04, 2.46958737e-03, 6.53983327e-03, 2.28665508e-02,
          5.21357358e-03, 6.95143128e-03, 1.69212476e-03, 1.11588761e-02,
          5.03064133e-04, 1.96652324e-03, 1.37199298e-04, 8.68928910e-04,
          2.28665507e-04, 6.12823572e-03, 4.52757720e-03, 7.77462730e-04,
          4.89344168e-03, 5.44223888e-03, 6.14835799e-01, 3.65864811e-03,
          4.29891143e-03, 3.29278316e-03, 9.14662014e-05, 3.56718176e-03,
          4.43611061e-03, 0., 0., 1.12046096e-02, 6.40263432e-04, 0.,
          1.87505712e-03, 8.68928910e-04, 3.65864811e-03, 6.85996516e-03,
          1.50919231e-02, 0., 0., 1.24394037e-02, 1.37199298e-04,
          3.33851646e-03, 0., 5.03064133e-04, 0., 0., 9.23808664e-03,
          8.78075510e-03, 1.32625988e-02, 0., 4.29891143e-03,
          2.33238819e-03, 4.57331007e-05, 0., 5.48797194e-04,
          1.23479369e-03, 4.57331026e-03, 7.50022847e-03, 0., 0.,
          4.57331014e-04, 4.57331026e-03, 1.43144606e-02, 1.15704741e-02,
          0., 4.11597895e-04, 2.10372265e-03, 5.71663771e-03,
          8.00329261e-03, 7.72889424e-03, 0., 0., 0., 3.75011424e-03,
          3.20131716e-04, 1.82932403e-04, 3.79584730e-03, 7.63742765e-03,
          3.06411786e-03, 0., 6.35690102e-03, 1.37199298e-03,
          8.32342450e-03, 0., 0. ]
      - [ 1.26226489e-02, 3.71524915e-02, 5.51921502e-03, 0.,
          9.60752182e-03, 3.21954191e-02, 1.50756333e-02, 5.11038415e-05,
          1.15494682e-02, 0., 2.08503678e-02, 1.46156987e-02,
          5.72363008e-03, 3.11733428e-02, 8.07440653e-03, 9.86304134e-03,
          1.48201140e-03, 1.00163529e-02, 5.57031855e-03, 2.19746516e-03,
          1.07318070e-03, 4.65044938e-03, 7.66557641e-04, 1.15494682e-02,
          1.27759599e-03, 5.21259196e-03, 6.69460325e-03, 0.,
          1.10895336e-02, 1.13450531e-02, 0., 7.86999147e-03,
          2.29967292e-03, 0., 5.11038408e-04, 2.05233023e-01,
          1.37980375e-02, 9.19869170e-04, 3.06623057e-04, 1.07318070e-03,
          0., 4.08830732e-04, 1.10384300e-02, 1.77841373e-02,
          8.17661465e-04, 1.50756333e-02, 1.30825834e-02, 2.04415366e-04,
          1.26737524e-02, 3.57726880e-04, 1.37980375e-03, 3.51083390e-02,
          9.86304134e-03, 1.04762875e-02, 5.62142232e-04, 5.11038397e-03,
          7.10343383e-03, 2.11569909e-02, 7.92109501e-03, 3.06623057e-04,
          3.37285362e-03, 4.08830727e-03, 0., 2.28434168e-02, 0., 0.,
          8.07440653e-03, 1.08851185e-02, 2.31500398e-02, 4.70155338e-03,
          1.45134907e-02, 0., 2.04415363e-03, 1.44623872e-02,
          1.16516761e-02, 7.10343383e-03, 1.02207683e-04, 1.72219947e-02,
          0., 1.51267368e-02, 1.36958295e-02, 0., 0., 0., 0.,
          2.40699090e-02, 6.95012230e-03, 2.55519208e-02, 3.06623057e-04,
          5.11038415e-05, 4.44603432e-03, 0., 1.53311528e-04,
          1.36958295e-02, 9.40310676e-03, 2.55519198e-03, 1.53311528e-04,
          4.24161879e-03, 2.32522488e-02, 2.26901062e-02 ]
      - [ 8.30282364e-03, 4.05334719e-02, 0., 3.20345187e-03,
          8.49895366e-03, 1.88938286e-02, 1.24869244e-02, 7.84518779e-04,
          5.68776159e-03, 1.18985353e-02, 2.21626572e-02, 8.10669456e-03,
          7.45292846e-03, 0., 3.92259390e-04, 1.24215474e-03, 0.,
          3.26882838e-03, 4.05334728e-03, 1.24215474e-03, 9.87186190e-03,
          8.89121275e-03, 1.05910040e-02, 3.20345187e-03, 7.77981151e-03,
          4.83786594e-03, 3.00732208e-03, 1.63441419e-03, 1.30753138e-03,
          6.01464417e-03, 8.69508367e-03, 8.10669456e-03, 6.53765688e-04,
          7.12604588e-03, 7.97594152e-03, 3.79118711e-01, 4.18410031e-03,
          5.42625505e-03, 2.94194557e-03, 1.63441419e-03, 6.14539720e-03,
          6.79916283e-03, 6.60303328e-03, 2.15742667e-03, 7.12604588e-03,
          2.87656905e-03, 2.81119230e-03, 8.76045972e-03, 1.52327400e-02,
          6.66840980e-03, 4.38022986e-03, 2.80465465e-02, 0., 0.,
          7.19142263e-04, 3.85721750e-03, 5.49163157e-03, 1.96129712e-03,
          4.38022986e-03, 0., 1.24215474e-03, 7.32217543e-03,
          8.95658974e-03, 1.83708146e-02, 0., 1.12447692e-02,
          1.56250000e-02, 7.19142263e-04, 0., 9.47960187e-03,
          6.92991633e-03, 5.62238460e-03, 4.64173639e-03, 2.68043927e-03,
          1.04602508e-03, 4.70711291e-03, 6.73378631e-03, 1.76516734e-02,
          4.31485334e-03, 4.70711291e-03, 1.89592049e-03, 1.28138075e-02,
          4.77248942e-03, 1.05910040e-02, 8.95658974e-03, 3.53033468e-03,
          0., 3.53033468e-03, 3.79184098e-03, 1.96129695e-04,
          3.98797076e-03, 7.84518849e-03, 3.00732208e-03, 9.67573188e-03,
          4.83786594e-03, 1.10486401e-02, 1.30753135e-04, 3.13807512e-03,
          1.85669456e-02, 4.57635964e-04 ]
      - [ 1.74854286e-02, 3.08076609e-02, 1.17957266e-03, 1.38773245e-03,
          8.60394165e-03, 1.92200951e-02, 9.08964779e-03, 1.11018599e-03,
          7.70191522e-03, 8.60394165e-03, 1.30446851e-02, 9.22842138e-03,
          3.19178472e-03, 4.88481820e-02, 7.97946192e-03, 0., 0.,
          1.31834589e-03, 8.04884825e-03, 5.96724963e-03, 5.48154349e-03,
          5.68970339e-03, 5.75908972e-03, 2.67138500e-02, 3.67749110e-03,
          1.02692200e-02, 2.98362481e-03, 1.34610049e-02, 5.82847651e-03,
          1.45711913e-03, 3.53871775e-03, 1.12406332e-02, 0.,
          6.73050247e-03, 5.13460999e-03, 2.86219835e-01, 5.34276990e-03,
          5.82847651e-03, 7.14682229e-03, 9.43658128e-03, 6.73050247e-03,
          3.74687766e-03, 1.31834589e-03, 3.46933113e-04, 7.97946192e-03,
          2.15098541e-03, 0., 1.06161535e-02, 1.20732728e-02,
          1.62364691e-02, 2.49791844e-03, 2.32445188e-02, 0., 0.,
          5.55092993e-04, 1.59589236e-03, 4.71829064e-03, 1.38773248e-04,
          1.29752988e-02, 6.31418265e-03, 2.56730500e-03, 2.63669179e-03,
          4.16319724e-03, 2.12323070e-02, 3.33055807e-03, 8.95087421e-03,
          2.69913971e-02, 4.16319759e-04, 0., 9.50596761e-03,
          9.08964779e-03, 4.37135715e-03, 2.01221202e-02, 1.59589236e-03,
          0., 8.74271430e-03, 9.08964779e-03, 1.42936446e-02,
          2.08159880e-04, 7.63252843e-03, 2.08159880e-04, 3.60810454e-03,
          4.44074394e-03, 1.12406332e-02, 6.52234256e-03, 0., 0.,
          4.51013073e-03, 5.82847651e-03, 1.11712469e-02, 4.09381092e-03,
          3.60810454e-03, 1.13100195e-02, 7.21620908e-03, 3.46933113e-04,
          1.08936997e-02, 2.84485170e-03, 1.31140724e-02, 5.82847651e-03,
          2.77546496e-04 ]
      - [ 5.86809590e-03, 5.54917753e-03, 2.65339985e-02, 0., 0.,
          2.92766951e-02, 2.93404795e-03, 2.55134597e-04, 5.94463609e-02,
          0., 2.05383357e-02, 2.10486036e-02, 0., 4.68809828e-02,
          4.11404520e-02, 2.42377864e-03, 1.33945665e-03, 4.78377379e-03,
          4.01837006e-03, 1.53080758e-03, 0., 1.53080758e-03,
          6.37836521e-04, 1.16915427e-01, 0., 4.14593704e-03,
          6.37836521e-04, 0., 2.28983294e-02, 0., 0., 5.74052858e-04, 0.,
          0., 5.99566288e-03, 1.26546755e-01, 4.20972100e-03,
          6.37836521e-04, 1.46064553e-02, 1.97729305e-03, 0., 0.,
          3.39966863e-02, 9.56754724e-04, 0., 1.04605183e-02, 0., 0.,
          1.51167251e-02, 1.63286142e-02, 0., 1.53718591e-02,
          6.37836492e-05, 1.51167251e-02, 0., 4.84755728e-03,
          2.87026423e-03, 3.40604670e-02, 3.12539889e-03, 2.34723836e-02,
          3.76323541e-03, 0., 0., 2.31534652e-02, 3.82701895e-04, 0.,
          6.05944684e-03, 3.57188424e-03, 3.38053331e-03, 2.04107678e-03,
          7.71782175e-03, 0., 1.74129363e-02, 1.93902291e-02,
          5.10269194e-04, 5.03890822e-03, 3.82701895e-04, 1.19913258e-02,
          0., 6.82485057e-03, 0., 0., 0., 1.02053839e-03, 0., 0.,
          1.47978067e-02, 1.69026665e-02, 0., 3.46983038e-02,
          3.31674982e-03, 0., 0., 1.75405033e-02, 0., 0., 5.93187939e-03,
          1.51167251e-02, 2.02194173e-02, 8.16430710e-03 ]
      - [ 1.04313176e-02, 0., 0., 2.93014513e-04, 1.34200649e-02,
          5.86029026e-04, 5.86029055e-05, 0., 1.59985926e-02,
          4.80543822e-03, 0., 4.62962966e-03, 1.11345516e-03,
          2.03176275e-01, 1.81669015e-02, 1.13103604e-02, 0.,
          1.36544770e-02, 2.29723398e-02, 3.39896861e-03, 4.16080607e-03,
          0., 2.46132212e-03, 3.70370373e-02, 4.92264424e-03,
          3.34036560e-03, 2.34411610e-03, 3.28176282e-03, 1.14861699e-02,
          1.52367558e-02, 1.75808716e-04, 1.92217529e-02, 2.87154247e-03,
          0., 5.27426135e-04, 1.00914203e-01, 0., 0., 1.87529298e-03,
          9.84528847e-03, 1.99249876e-03, 0., 1.06657287e-02,
          2.40857936e-02, 6.97374577e-03, 1.70534458e-02, 0.,
          9.37646488e-04, 1.75222680e-02, 1.46507262e-03, 7.03234877e-03,
          0., 1.35372709e-02, 1.92803554e-02, 2.28551333e-03,
          5.91889350e-03, 0., 2.19174866e-02, 1.29512418e-02,
          5.86029055e-05, 7.20815733e-03, 3.98499751e-03, 5.86029055e-05,
          0., 6.09470205e-03, 0., 3.43413018e-02, 9.96249379e-04,
          4.21940908e-02, 3.39896861e-03, 0., 0., 1.09001407e-02,
          7.20815733e-03, 1.09587433e-02, 1.18963895e-02, 0.,
          2.66643222e-02, 7.26676034e-03, 2.23863106e-02, 0.,
          1.17205811e-04, 0., 3.39896861e-03, 0., 0., 1.19549930e-02, 0.,
          0., 0., 8.14580359e-03, 2.93014513e-04, 1.87529298e-03, 0., 0.,
          7.44256889e-03, 0., 4.92264405e-02, 1.45921232e-02, 0. ]
   decision_functions:
      -
         sv_count: 21
         rho: -2.1739636786469652e-01
         alpha: [ 2.3708092933980224e-01, 1.0373083612933638e+00,
             1.5840242567110874e+00, 1.4320112199311317e+00,
             2.1277676509151124e+00, 6.4282689255070094e-02,
             5.6641577838414087e-02, 1.3917647184906181e+00,
             5.1763252361245726e+00, 6.8842597075152459e-02,
             2.3192494499787788e+00, -1.9924963823192725e+00,
             -4.2504716816829395e+00, -1.5201115977914612e+00,
             -9.1993881047386528e-01, -2.9238081582792277e+00,
             -1.1698137856573860e+00, -7.9862844524937426e-01,
             -1.3199765484026732e-01, -4.9400454637070107e-01,
             -1.2940276242886066e+00 ]
         index: [ 0, 10, 9, 8, 7, 6, 5, 4, 3, 2, 1, 20, 19, 18, 17, 16,
             15, 14, 13, 12, 11 ]
